tree
version=v4
num_class=3
num_tree_per_iteration=3
label_index=0
max_feature_idx=10
objective=multiclass num_class:3
feature_names=Close MA_14 MA_50 MA_90 Max_14 Min_14 Max_50 Min_50 Max_90 Min_90 RSI
feature_infos=[0.20135649999999999:67.822999999999993] [0.20175087857142859:67.443857142857141] [0.204243856:66.742519999999999] [0.20577527666666659:66.620011111111111] [0.20239099999999999:67.822999999999993] [0.20135649999999999:67.046999999999997] [0.2084599:67.822999999999993] [0.20135649999999999:66.018000000000001] [0.21137449999999999:67.822999999999993] [0.20135649999999999:65.453999999999994] [0:100]
tree_sizes=3308 3386 3301 3393 3413 3343 3407 3431 3335 3409 3441 3339 3389 3443 3348 3420 3442 3363 3427 3424 3349 3421 3448 3350 3412 3442 3368 3436 3431 3326 3431 3437 3374 3419 3449 3354 3412 3441 3361 3383 3433 3360 3402 3456 3376 3400 3422 3359 3395 3431 3347 3408 3431 3372 3408 3405 3385 3410 3433 3354 3444 3454 3360 3407 3407 3362 3417 3440 3402 3434 3417 3378 3418 3428 3362 3432 3415 3376 3398 3415 3373 3444 3446 3367 3423 3411 3391 3436 3434 3383 3461 3419 3374 3404 3425 3374 3411 3448 3388 3403 3440 3384 3415 3420 3396 3419 3438 3372 3421 3446 3381 3403 3455 3420 3434 3424 3392 3443 3439 3391 3448 3431 3380 3391 3449 3383 3426 3452 3393 3426 3441 3409 3381 3440 3416 3418 3432 3407 3431 3423 3398 3395 3400 3403 3450 3438 3417 3419 3418 3421 3424 3434 3405 3405 3434 3387 3444 3418 3376 3420 3462 3417 3434 3444 3404 3386 3423 3409 3395 3438 3385 3463 3428 3392 3442 3380 3391 3360 3430 3423 3397 3439 3385 3396 3393 3410 3390 3423 3393 3388 3419 3390 3430 3404 3391 3365 3411 3415 3394 3409 3449 3421 3431 3405 3393 3456 3394 3412 3418 3405 3375 3423 3376 3418 3427 3400 3416 3404 3417 3400 3427 3403 3424 3417 3418 3428 3442 3402 3382 3397 3417 3418 3402 3419 3383 3456 3400 3386 3400 3407 3404 3434 3404 3429 3413 3385 3396 3397 3406 3379 3385 3415 3421 3417 3433 3405 3403 3406 3424 3412 3410 3405 3401 3407 3390 3435 3407 3438 3430 3404 3395 3420 3416 3419 3405 3419 3389 3435 3368 3398 3408 3404 3406 3401 3418 3411 3411 3371 3415 3432 3425 3405 3394 3414 3388 3389 3439 3392 3440 3415

Tree=0
num_leaves=31
num_cat=0
split_feature=7 8 5 8 4 5 8 0 7 8 9 7 8 8 9 9 8 4 8 1 6 7 5 0 0 0 8 7 9 9
split_gain=438.549 313.202 757.795 300.132 233.041 220.759 197.757 381.828 266.76 211.388 169.077 162.548 290.747 162.307 146.909 138.352 125.411 110.891 107.23 234.46 136.869 183.077 103.374 100.485 96.8956 92.8758 92.0591 241.723 80.3034 76.9404
threshold=0.34795500000000007 5.5850000000000009 18.620210000000004 12.455155000000003 0.31883000000000006 5.1551500000000008 24.386905000000002 22.955500000000004 21.980500000000003 22.688500000000001 21.167940000000005 27.566350000000003 27.771500000000003 0.35302000000000006 25.974000000000004 16.957145000000004 23.878500000000003 21.999330000000004 41.588400000000007 38.730642857142861 59.120000000000012 54.446000000000005 5.8694000000000015 28.453500000000002 18.451415000000001 39.067205000000008 20.108090000000004 19.611700000000003 22.246410000000001 25.397000000000002
decision_type=2 2 2 2 2 2 2 2 2 2 2 2 2 2 2 2 2 2 2 2 2 2 2 2 2 2 2 2 2 2
left_child=4 -2 3 5 -1 -3 8 -8 9 15 17 12 28 -6 23 -4 -12 -11 25 -20 21 -21 -7 29 -5 -13 -17 -28 -9 -14
right_child=1 2 6 24 13 22 7 11 -10 10 16 18 14 -15 -16 26 -18 -19 19 20 -22 -23 -24 -25 -26 -27 27 -29 -30 -31
leaf_value=-1.828377424984873 -1.8689663402039645 -1.6462852768778446 -1.6551574292524189 -1.6562766878216901 -1.684494315224432 -1.7942289938376621 -1.6765288504079481 -1.7121169462228554 -1.8781003984234517 -1.8174359397168955 -1.8430843822253118 -1.8510674331839574 -1.7695787354487547 -1.7937539136800849 -1.8073400474547054 -1.8812795698888054 -1.6622662215739363 -1.6981284660126756 -1.640880282042803 -1.834314497483299 -1.8727643715128237 -1.7324393104574096 -1.8826939354617984 -1.8700826573589597 -1.745662689926617 -1.8802725765234412 -1.7768162094456283 -1.8577454778165459 -1.8504606359548832 -1.6636653583364318
leaf_weight=757.22365951538086 2242.0422166585922 17.300015330314636 8.550582289695738 50.905792236328125 46.92877721786499 69.597762823104858 33.406926155090332 10.737940549850462 1295.7114930152893 32.810373902320862 176.18176531791687 3403.3306020498276 28.0379558801651 123.28746557235718 167.03463077545166 302.05429065227509 10.141388297080992 47.923030972480774 15.311507821083067 731.57191264629364 220.92318427562714 46.92877721786499 62.836837291717529 10.539089798927305 74.96673309803009 295.88991737365723 102.01043522357941 966.01694798469543 453.37971210479736 44.144866704940796
leaf_count=3808 11275 87 43 256 236 350 168 54 6516 165 886 17115 141 620 840 1519 51 241 77 3679 1111 236 316 53 377 1488 513 4858 2280 222
internal_value=-1.8495 -1.85231 -1.848 -1.76642 -1.81649 -1.81426 -1.85068 -1.84505 -1.86113 -1.84777 -1.80705 -1.84609 -1.82385 -1.76363 -1.78035 -1.85566 -1.83324 -1.74662 -1.84945 -1.83506 -1.83803 -1.82817 -1.8362 -1.72586 -1.70951 -1.8534 -1.85691 -1.85002 -1.84726 -1.70481
internal_weight=0 10920.3 8678.24 275.607 927.44 149.735 8402.64 5461.24 2941.4 1645.69 267.057 5427.83 713.874 170.216 249.757 1378.63 186.323 80.7334 4713.96 1014.74 999.424 778.501 132.435 82.7219 125.873 3699.22 1370.08 1068.03 464.118 72.1828
internal_count=59581 54917 43642 1386 4664 753 42256 27464 14792 8276 1343 27296 3590 856 1256 6933 937 406 23706 5103 5026 3915 666 416 633 18603 6890 5371 2334 363
is_linear=0
shrinkage=1


Tree=1
num_leaves=31
num_cat=0
split_feature=10 7 8 5 8 4 8 0 9 8 9 5 8 7 8 9 8 9 1 4 8 8 9 7 5 10 9 9 8 7
split_gain=578.806 346.852 315.309 651 265.198 258.007 230.111 333.918 239.133 156.367 207.563 154.164 132.368 130.762 258.212 170.059 156.905 166.345 146.066 111.317 101.596 96.9606 91.2384 83.6767 76.8171 76.6034 70.4552 70.0325 61.8694 208.355
threshold=75.013065327026283 0.34795500000000007 5.5850000000000009 18.620210000000004 12.455155000000003 0.31883000000000006 24.386905000000002 22.955500000000004 21.965560000000007 22.688500000000001 21.167940000000005 5.8694000000000015 0.35302000000000006 27.566350000000003 27.771500000000003 25.974000000000004 41.588400000000007 56.794500000000006 38.730642857142861 21.999330000000004 23.836500000000004 0.36601000000000006 16.957145000000004 4.7646500000000005 5.1551500000000008 89.59804458483012 22.246410000000001 38.21580500000001 20.108090000000004 19.611700000000003
decision_type=8 2 2 2 2 2 2 2 2 2 2 2 2 2 2 2 2 2 2 2 2 2 2 2 2 10 2 2 2 2
left_child=1 5 -3 4 11 -1 8 -8 9 22 19 24 -7 14 26 -16 27 18 -18 -11 -12 -2 -5 -23 -4 -25 -9 -15 -24 -30
right_child=21 2 3 6 -6 12 7 13 -10 10 20 -13 -14 16 15 -17 17 -19 -20 -21 -22 23 28 25 -26 -27 -28 -29 29 -31
leaf_value=-0.21341919259275052 -0.28912739577340618 -0.17779981727908095 -0.37407249709185475 -0.38384640015241311 -0.32784645734992551 -0.35027901362316505 -0.35251067458250168 -0.33567502078251821 -0.16864912038583138 -0.22704162203888673 -0.19490662743801665 -0.17071443791144764 -0.25338224769228096 -0.19528259399054301 -0.32253737186345594 -0.23345660962424014 -0.38044034302524887 -0.16777985824965164 -0.22137773997474028 -0.34251550066314601 -0.28815460599870291 -0.20028378509277941 -0.16900611325798709 -0.23197343477887544 -0.25113328269157803 -0.27622025525390909 -0.19698159101336227 -0.1667152379113726 -0.26314853685424233 -0.1873529507399215
leaf_weight=779.80506694316864 79.181575536727905 2306.2745975852013 15.346990764141081 6.0053442120552054 125.00012767314911 49.154854476451874 36.699325740337372 9.3416465520858747 1280.9176784157753 36.032065272331238 259.34190189838409 64.279425084590912 124.55528736114502 3582.0766124129295 80.738516628742218 159.25283169746399 14.679730296134947 154.58200842142105 858.31938201189041 49.599694788455963 32.918183088302612 174.59982246160507 316.28146183490753 647.90991443395615 73.843491792678833 115.21364080905914 462.63392448425293 228.20308005809784 99.421809732913971 1029.8053222894669
leaf_count=3506 356 10369 69 27 562 221 165 42 5759 162 1166 289 560 16105 363 716 66 695 3859 223 148 785 1422 2913 332 518 2080 1026 447 4630
internal_value=-0.19975 -0.196737 -0.19429 -0.198527 -0.273781 -0.225695 -0.196118 -0.202186 -0.185218 -0.196818 -0.225468 -0.229745 -0.280801 -0.201192 -0.221198 -0.263425 -0.198248 -0.215587 -0.224052 -0.293926 -0.205409 -0.235996 -0.18936 -0.231509 -0.272287 -0.238654 -0.199727 -0.193572 -0.188552 -0.194026
internal_weight=0 12235.1 11281.6 8975.32 278.47 953.515 8696.85 5586.53 3110.32 1829.41 377.892 153.47 173.71 5549.83 711.967 239.991 4837.86 1027.58 872.999 85.6318 292.26 1016.9 1451.51 937.723 89.1905 763.124 471.976 3810.28 1445.51 1129.23
internal_count=59581 55009 50722 40353 1252 4287 39101 25117 13984 8225 1699 690 781 24952 3201 1079 21751 4620 3925 385 1314 4572 6526 4216 401 3431 2122 17131 6499 5077
is_linear=0
shrinkage=1


Tree=2
num_leaves=31
num_cat=0
split_feature=10 10 10 8 10 0 2 1 3 6 9 9 0 10 0 10 9 8 9 9 0 0 9 4 9 1 0 9 9 0
split_gain=2710.33 641.182 253.573 238.245 186.293 137.712 145.097 128.869 85.0479 72.8232 175.699 60.2499 140.378 58.3731 53.5761 53.0511 45.3713 81.1878 64.2069 43.2809 141.625 76.3614 138.499 47.7444 72.0859 44.4005 43.1985 81.295 40.6414 44.7524
threshold=71.202083302629617 89.59804458483012 54.432173072988782 4.4495665000000004 79.529416416921507 47.138450000000013 46.654690000000009 0.2732182178571429 48.889711111111119 23.303000000000001 22.359510000000004 0.34240000000000009 0.27935500000000008 82.803425347843316 42.736000000000011 64.861789974842381 46.815000000000005 47.272150000000003 42.748000000000005 28.320500000000006 29.440500000000004 32.226365000000008 30.829750000000001 24.798000000000005 26.397500000000004 29.337855000000008 31.036000000000005 29.248200000000004 46.815000000000005 48.181500000000007
decision_type=10 10 10 2 10 2 2 2 2 2 2 2 2 10 2 10 2 2 2 2 2 2 2 2 2 2 2 2 2 2
left_child=2 4 -1 7 11 15 -7 -3 -5 -6 13 12 -2 -11 -13 26 17 18 -16 20 23 -21 -23 -12 -25 -22 -4 -28 29 -8
right_child=1 3 5 8 9 6 28 -9 -10 10 19 14 -14 -15 16 -17 -18 -19 -20 21 25 22 -24 24 -26 -27 27 -29 -30 -31
leaf_value=-3.7722752991920965 -3.7020647713340833 -2.9836156979165014 -3.7557789389462903 -3.2670922860751888 -3.5953970452828585 -3.2352134310054406 -3.7131726503993265 -3.7118426769192743 -2.7287504618004261 -3.2742814019819835 -3.7079959843923529 -3.662373338255037 -3.3623785341957571 -2.6634004012578454 -3.1862008855985033 -3.7121220620798687 -3.6519938703169093 -3.0555007645133387 -3.743097053700509 -3.6658456695808526 -2.7287504618004261 -3.0555007645133396 -3.5323335709973911 -3.2608866690757399 -3.6090984038223404 -3.2418694556903329 -3.331981789885802 -3.7221135944404389 -3.7032393215902459 -3.4772264885481365
leaf_weight=1276.4125457257032 6.2252151295542699 0.69555476307869213 314.98197446018457 17.840979672968391 32.969295769929886 2.2257752418518093 3.2691073864698428 4.7993278652429581 0.76511023938655753 0.7998879775404919 2.2605529800057393 102.69866076856852 5.9469932243227959 0.76511023938655853 0.76511023938655842 147.84016489237547 3.269107386469841 1.1824430972337721 1.5997759550809858 9.2161006107926386 0.76511023938655742 1.6693314313888574 17.354091338813305 2.9213300049304962 3.0256632193922997 0.93899893015623093 1.3563317880034436 86.144457407295704 16.171648241579533 5.2166607230901718
leaf_count=36702 179 20 9057 513 948 64 94 138 22 23 65 2953 171 22 22 4251 94 34 46 265 22 48 499 84 87 27 39 2477 465 150
internal_value=-3.74021 -3.57364 -3.75984 -3.33039 -3.6038 -3.73234 -3.62184 -3.61966 -3.24495 -3.54047 -3.49487 -3.64163 -3.5361 -2.97563 -3.65336 -3.73774 -3.51762 -3.39378 -3.56292 -3.51617 -3.42628 -3.54772 -3.49049 -3.5124 -3.43805 -3.01149 -3.74715 -3.71607 -3.65674 -3.56812
internal_weight=0 218.474 1853.62 24.101 194.373 577.206 26.8832 5.49488 18.6061 72.6855 39.7162 121.687 12.1722 1.565 109.515 550.323 6.81644 3.54733 2.36489 38.1512 9.91166 28.2395 19.0234 8.20755 5.94699 1.70411 402.483 87.5008 24.6574 8.48577
internal_count=59581 6282 53299 693 5589 16597 773 158 535 2090 1142 3499 350 45 3149 15824 196 102 68 1097 285 812 547 236 171 49 11573 2516 709 244
is_linear=0
shrinkage=1


Tree=3
num_leaves=31
num_cat=0
split_feature=7 8 0 8 9 9 4 9 8 9 7 8 9 0 7 3 7 8 9 1 8 4 8 0 9 9 8 7 9 7
split_gain=369.114 280.171 544.219 174.083 463.089 217.699 168.844 154.517 161.15 271.818 149.806 145.893 126.096 123.076 121.031 102.327 116.459 96.7531 77.1574 125.997 76.2038 160.78 118.98 96.8062 80.1197 120.584 75.1632 220.495 73.8338 68.3571
threshold=0.34795500000000007 5.5850000000000009 18.892185000000001 25.863500000000005 25.974000000000004 21.965560000000007 0.31883000000000006 16.957145000000004 22.056585000000002 20.928500000000003 20.638715000000005 19.288000000000004 5.1501500000000009 20.568660000000005 18.642105000000004 22.906977777777779 21.529080000000004 0.35302000000000006 23.472075000000004 25.456571428571429 41.588400000000007 39.63333500000001 60.664000000000009 39.067205000000008 54.446000000000005 55.957000000000008 20.108090000000004 19.611700000000003 19.165525000000002 45.155500000000011
decision_type=2 2 2 2 2 2 2 2 2 2 2 2 2 2 2 2 2 2 2 2 2 2 2 2 2 2 2 2 2 2
left_child=6 -2 11 5 18 7 -1 -4 26 10 13 12 -3 -10 -13 16 -11 -8 -5 -20 23 -22 24 -6 29 -26 -9 -28 -29 -23
right_child=1 2 3 4 20 -7 17 8 9 15 -12 14 -14 -15 -16 -17 -18 -19 19 -21 21 22 -24 -25 25 -27 27 28 -30 -31
leaf_value=0.019235878902985028 -0.018689597101443557 0.15284147187775093 0.1585005376148596 0.13469551688357989 4.4404125908995622e-05 -0.025248398211793796 0.12623935927397256 -0.034636715594678784 0.13107534362747031 0.038589292948096661 0.13740323473933078 0.1287229828188676 0.023842297613568014 -0.023212383816296894 -0.0032751008406626697 0.08180536231597485 -0.017669072409276329 0.048400105711697589 -0.039585505287755424 0.071742295524144892 0.13839333345118199 0.027410253708022071 -0.028562186018149329 -0.030165539057635249 0.14207548143426643 0.020041448358863605 0.061100831995172994 0.17442326037593303 -0.01572550552695506 -0.0026755955735456886
leaf_weight=778.16734471917152 2183.4312183260918 21.284094795584679 15.490390494465826 37.841903865337372 3653.343395665288 1383.372350692749 57.132561162114143 269.24692715704441 19.287356317043304 125.39738874137402 66.464674532413483 105.81152714788914 172.28563396632671 39.187026903033257 20.775822982192039 38.793153375387192 345.28420226275921 132.52136513590813 29.099967435002327 200.71501095592976 24.982645466923714 376.50143976509571 167.05125144124031 285.93665051460266 31.004420414566994 58.319195106625557 111.7651477009058 5.141784355044364 716.52269166707993 378.70018872618675
leaf_count=3808 11275 86 65 168 18363 7167 236 1400 93 631 298 452 834 193 107 177 1743 620 146 942 105 1847 862 1488 147 282 514 26 3646 1860
internal_value=0 -0.00267608 0.001343 -0.00110145 0.00447189 -0.0104204 0.0295459 0.00128387 -0.000118102 0.0199595 0.0860494 0.0653214 0.0380265 0.0276783 0.107059 0.00375216 -0.00268091 0.0718489 0.0685391 0.0576456 0.00102563 0.0130881 0.00999348 -0.00214842 0.01762 0.0623997 -0.0116695 -0.00424978 -0.0143707 0.0123235
internal_weight=0 10883 8699.61 8379.45 5243.5 3135.95 967.821 1752.58 1737.09 634.414 124.939 320.157 193.57 58.4744 126.587 509.475 470.682 189.654 267.657 229.815 4975.84 1036.56 1011.58 3939.28 844.525 89.3236 1102.68 833.43 721.664 755.202
internal_count=59581 54917 43642 42163 26210 15953 4664 8786 8721 3135 584 1479 920 286 559 2551 2374 856 1256 1088 24954 5103 4998 19851 4136 429 5586 4186 3672 3707
is_linear=0
shrinkage=0.05


Tree=4
num_leaves=31
num_cat=0
split_feature=7 8 5 8 9 9 8 0 4 8 5 8 9 7 8 3 0 9 8 7 0 8 9 8 7 9 8 8 7 9
split_gain=359.381 333.72 557.296 240.65 277.318 235.446 270.674 207.355 187.499 176.508 148.667 143.707 274.198 143.252 124.094 155.141 113.456 109.885 109.379 117.651 96.0395 93.6516 90.0357 195.377 91.2225 86.513 78.054 65.0364 179.659 63.2942
threshold=0.34795500000000007 5.5850000000000009 18.620210000000004 24.386905000000002 21.965560000000007 27.110500000000005 27.771500000000003 22.902285000000003 0.31883000000000006 12.455155000000003 5.8694000000000015 22.056585000000002 20.928500000000003 20.638715000000005 41.588400000000007 60.215272222222232 38.793805000000006 16.957145000000004 23.836500000000004 21.529080000000004 20.568660000000005 30.429000000000006 20.087370000000004 21.060180000000003 19.784810000000004 38.21580500000001 0.35302000000000006 20.108090000000004 19.611700000000003 21.504000000000001
decision_type=2 2 2 2 2 2 2 2 2 2 2 2 2 2 2 2 2 2 2 2 2 2 2 2 2 2 2 2 2 2
left_child=8 -2 9 4 11 6 7 -5 -1 10 -3 17 13 20 25 16 -16 -4 19 29 -13 -8 23 27 -25 -7 -10 -19 -29 -14
right_child=1 2 3 5 -6 14 21 -9 26 -11 -12 12 18 -15 15 -17 -18 22 -20 -21 -22 -23 -24 24 -26 -27 -28 28 -30 -31
leaf_value=-0.017360710502232424 0.019013488458582556 -0.066802335075910407 -0.14425387094856876 -0.1269936045746988 0.029782335532930117 0.00087751069751240338 -0.082736462725969337 -0.003134938451939052 -0.11688066431773653 -0.10224970630303687 0.027861282061026706 -0.11301332712779287 -0.021838596950359005 -0.12935117061552748 -0.1331798627538027 0.033596929627431792 -0.020094189161037657 0.027894397687363983 -0.079675767389603136 0.018004819920133485 0.017093263130865361 0.033061991986782259 0.027165902923258541 -0.16329566784478416 -0.037429387309778427 0.032056601912933656 -0.050174975676427917 -0.052294596948317611 0.031540835472896503 -0.11743850385656628
leaf_weight=867.85933363437653 2448.3811017274857 106.21988089382648 11.45776131749153 36.117034107446671 1277.820955529809 3948.4493967890739 228.55842073261738 524.68090727925301 62.45947253704071 162.76852034032345 68.04382711648941 21.401310533285141 119.92028187215328 73.442996114492416 22.68368524312973 139.56870636343956 997.96948024630547 326.09223684668541 42.817929401993752 377.43037708103657 42.057313516736031 18.904382899403572 522.12093944847584 16.138894885778427 133.25141137838364 235.76634183526039 147.22050616145134 114.91027131676674 143.97198301553726 20.235131680965424
leaf_count=3808 11275 437 43 136 5955 17761 939 2345 236 633 316 93 540 298 87 645 4371 1519 178 1706 187 83 2375 70 604 1097 620 478 655 91
internal_value=0 0.00251303 -0.00163782 0.000628201 0.01165 -0.00518134 -0.0303325 -0.0111118 -0.0276127 -0.0648098 -0.0298395 -0.000139854 -0.0183721 -0.0818082 -0.00137763 -0.0158464 -0.0226075 0.00988694 -0.00287518 0.00347825 -0.026785 -0.0738903 0.0112925 6.84474e-06 -0.0510269 0.00263435 -0.0700453 0.0130398 -0.00567126 -0.035641
internal_weight=0 12181.2 9732.8 9395.77 3243.07 6152.7 808.261 560.798 1077.54 337.032 174.264 1965.25 697.305 136.902 5344.44 1160.22 1020.65 1267.94 560.404 517.586 63.4586 247.463 1256.49 734.365 149.39 4184.22 209.68 584.974 258.882 140.155
internal_count=59581 54917 43642 42256 14792 27464 3503 2481 4664 1386 753 8837 3093 578 23961 5103 4458 5744 2515 2337 280 1022 5701 3326 674 18858 856 2652 1133 631
is_linear=0
shrinkage=0.05


Tree=5
num_leaves=31
num_cat=0
split_feature=10 10 10 0 5 8 10 10 0 9 0 9 7 4 3 4 9 1 4 9 10 4 2 3 10 2 10 9 0 7
split_gain=2098.93 319.712 214.227 113.038 88.9768 65.6909 65.3546 65.116 44.8905 68.6014 44.8349 48.7285 45.921 87.4994 81.4216 54.6765 40.9151 38.0544 37.9114 46.6071 67.4351 84.0172 42.1821 32.8794 32.1294 31.8699 26.7838 26.7351 103.032 81.3684
threshold=70.000000000000156 82.803425347843316 54.432173072988782 47.138450000000013 46.45000000000001 4.7067000000000005 59.158480476504629 89.59804458483012 30.263500000000004 29.277295000000002 42.736000000000011 57.924500000000002 0.3617550000000001 0.27766500000000005 0.26929401222222227 0.30032500000000006 0.26281940000000009 0.30498607142857143 5.4981500000000008 18.493835000000001 77.431788757080653 18.938420000000004 6.0735380000000001 30.685861111111112 78.768407855388602 21.525157700000005 64.127939003383929 29.428500000000003 30.263500000000004 28.848500000000005
decision_type=10 10 10 2 2 2 10 10 2 2 2 2 2 2 2 2 2 2 2 2 10 2 2 2 10 2 10 2 2 2
left_child=2 10 -1 8 6 16 -5 -7 26 23 12 -12 13 -2 -15 -16 -3 -17 -14 20 21 22 -20 -10 27 -26 -4 28 -21 -30
right_child=1 5 3 4 -6 7 -8 -9 9 -11 11 -13 18 14 15 17 -18 -19 19 24 -22 -23 -24 -25 25 -27 -28 -29 29 -31
leaf_value=-0.031970404796880424 0.029479616751970601 0.29572968025248175 -0.017076428165422274 0.11141822662631234 0.06214846853245376 0.18316084997246496 0.47917990094934537 0.27948241024646897 0.12341011981278516 0.014625289314809779 0.23094291448656798 -0.014542296209854786 0.029368029606039583 0.6702320326574942 0.079248753845350073 0.56674124239207957 0.085147285338555478 0.24188833342563631 0.36878976254305057 0.067842488031166812 0.030589848352682761 0.60905443007738591 -0.034247437575436968 0.45392169104596852 -0.034281469212105856 0.14245853804310113 0.011949125469055659 0.030720243021153382 0.74832351021733057 0.21021792885437854
leaf_weight=1234.6516058221459 8.6332293525338191 2.723429128527644 275.61282749846578 2.3991701081395176 24.896869353950024 40.659994121640921 2.4332540333271027 30.865589089691639 9.198403194546696 129.14421855285764 9.9839504770934564 2.5347039289772502 36.173016205430031 0.99345898628234763 5.2750903293490392 1.0810696445405481 15.072322335094212 5.4277944415807724 1.2406819388270371 54.873466853052378 3.083928719162941 1.7099860981106756 1.3617463596165178 0.8195126838982113 2.8214350491762188 26.576444216072559 111.68599901348352 34.653149336576462 0.89453442394733329 3.2728853300213814
leaf_count=36702 227 51 8071 53 648 898 50 524 248 3658 221 64 962 23 110 22 381 116 33 1466 78 45 35 23 70 616 3148 927 24 87
internal_value=0 0.124653 -0.0203635 0.00540209 0.100257 0.203339 0.296596 0.224727 4.56056e-05 0.0244028 0.0896152 0.181239 0.0835165 0.152448 0.235533 0.198885 0.117374 0.295844 0.074661 0.0872168 0.20912 0.336793 0.157897 0.150448 0.0798919 0.125496 -0.00870628 0.0655829 0.086045 0.325722
internal_weight=0 289.912 1790.84 556.19 29.7293 89.3213 4.83242 71.5256 526.461 139.162 200.591 12.5187 188.072 21.4106 12.7774 11.784 17.7958 6.50886 166.661 130.488 7.39634 4.31241 2.60243 10.0179 123.092 29.3979 387.299 93.694 59.0409 4.16742
internal_count=59581 6980 52601 15899 751 1854 103 1422 15148 3929 5126 285 4841 498 271 248 432 138 4343 3381 191 113 68 271 3190 686 11219 2504 1577 111
is_linear=0
shrinkage=0.05


Tree=6
num_leaves=31
num_cat=0
split_feature=7 8 5 8 9 9 8 5 7 8 9 7 0 3 7 9 9 8 9 8 7 5 8 5 6 7 0 9 5 9
split_gain=312.992 250.538 482.021 157.448 385.663 196.49 139.603 138.899 128.12 122.123 206.228 98.4706 92.307 85.2013 94.6697 80.3979 66.8099 177.617 109.893 86.4831 90.7027 86.4957 64.9595 125.151 104.604 137.159 89.4042 56.1592 108.395 66.1915
threshold=0.34795500000000007 5.5850000000000009 18.620210000000004 25.863500000000005 25.974000000000004 21.965560000000007 12.455155000000003 5.8694000000000015 0.26674955000000006 22.056585000000002 20.928500000000003 20.638715000000005 20.568660000000005 22.945444444444444 21.529080000000004 16.957145000000004 20.087370000000004 20.108090000000004 18.610395000000004 21.060180000000003 19.611700000000003 20.098810000000004 41.588400000000007 38.479000000000006 59.120000000000012 54.446000000000005 39.067205000000008 23.472075000000004 25.376500000000004 24.695000000000004
decision_type=2 2 2 2 2 2 2 2 2 2 2 2 2 2 2 2 2 2 2 2 2 2 2 2 2 2 2 2 2 2
left_child=8 -2 6 5 27 9 7 -3 -1 15 11 12 -11 14 -12 -4 17 -17 -19 20 -20 -21 26 -24 25 -25 -6 -5 -29 -30
right_child=1 2 3 4 22 -7 -8 -9 -10 10 13 -13 -14 -15 -16 16 -18 18 19 21 -22 -23 23 24 -26 -27 -28 28 29 -31
leaf_value=0.0093011001847312161 -0.017932680624216202 0.06291748725858394 0.11814219056964022 0.11362791371830122 7.1610584927916206e-06 -0.024512344218204432 0.092758482963172739 -0.032573192244039789 0.045052243786618297 0.10506390768347468 0.034326568750329044 0.10961674969338094 -0.022619533599843727 0.082851951396391038 -0.015431307780528938 -0.030475877434665229 -0.02529673626696044 0.14168722458847274 0.033387012464425186 0.10497184966013307 -0.031519009060990588 0.019765777661134552 0.11154943495900885 0.011593152850961082 -0.022304679944072418 0.093729696859408074 -0.02952521462741612 -0.02212569718759699 0.19909016620272418 0.060300960058546432
leaf_weight=516.72961834073067 2127.7533682584763 103.25790627300739 12.270763546228407 42.494740381836891 3655.9281067252159 1338.2200986295938 166.26200567185879 60.332270830869675 486.56516227126122 22.463364601135254 131.77212600409985 77.576789826154709 38.269945532083511 31.710790708661079 348.17357537150383 279.09935408830643 453.21138890087605 18.315862849354744 95.127442911267281 44.114466264843941 123.97351083159447 91.692863821983337 30.599487692117691 757.89012688398361 212.44790394604206 54.480383276939392 275.59016114473343 41.632059261202812 8.9910214245319349 192.9669227451086
leaf_count=2469 11275 437 43 168 18363 7167 633 316 2195 93 631 298 193 133 1787 1519 2375 79 409 212 651 456 116 3640 1111 236 1488 201 43 844
internal_value=0 -0.00255183 0.00120603 -0.00112789 0.00413244 -0.0100583 0.0604929 0.0277004 0.0266392 0.000883528 0.0181178 0.072288 0.0246066 0.00347462 -0.00176997 -0.00913763 -0.0105504 -0.00030509 0.0222568 0.0160933 -0.00333865 0.0474434 0.000893707 0.0119076 0.00893249 0.0171015 -0.00206299 0.0605889 0.0513362 0.0664798
internal_weight=0 10836.6 8708.87 8379.01 5273.02 3105.99 329.852 163.59 1003.29 1767.77 649.967 138.31 60.7333 511.656 479.946 1117.81 1105.53 652.324 373.224 354.908 219.101 135.807 4986.94 1055.42 1024.82 812.371 3931.52 286.085 243.59 201.958
internal_count=59581 54917 43642 42256 26210 16046 1386 753 4664 8879 3135 584 286 2551 2418 5744 5701 3326 1807 1728 1060 668 24954 5103 4987 3876 19851 1256 1088 887
is_linear=0
shrinkage=0.05


Tree=7
num_leaves=31
num_cat=0
split_feature=10 4 8 5 8 9 0 4 8 8 9 5 9 8 8 9 4 0 8 8 0 9 9 8 9 9 6 9 4 4
split_gain=443.891 241.561 246.09 423.75 185.3 206.616 203.768 174.638 127.508 120.297 118.484 105.405 88.7204 223.505 115.179 130.257 86.4275 77.5604 68.9945 65.2138 65.0957 179.934 62.3301 60.7844 279.344 74.7618 94.403 59.3733 92.9373 54.5915
threshold=75.013065327026283 0.35886500000000005 5.5850000000000009 18.620210000000004 24.386905000000002 21.965560000000007 23.069500000000001 0.31883000000000006 12.455155000000003 22.688500000000001 21.167940000000005 5.8694000000000015 26.881500000000003 27.771500000000003 41.588400000000007 56.794500000000006 28.747500000000006 38.793805000000006 23.836500000000004 0.36601000000000006 25.779500000000002 25.397000000000002 38.21580500000001 48.531000000000006 45.670000000000009 54.446000000000005 59.120000000000012 23.505500000000001 24.372500000000006 4.8995000000000006
decision_type=8 2 2 2 2 2 2 2 2 2 2 2 2 2 2 2 2 2 2 2 2 2 2 2 2 2 2 2 2 2
left_child=1 7 -3 8 5 9 -6 -1 11 -5 -11 -4 13 20 22 17 -15 -16 -12 -2 27 -22 -14 -19 -25 -26 -27 28 -8 -21
right_child=19 2 3 4 6 -7 12 -9 -10 10 18 -13 14 16 15 -17 -18 23 -20 29 21 -23 -24 24 25 26 -28 -29 -30 -31
leaf_value=-0.011111438643820089 -0.071188398592916771 0.019827528650235519 -0.054693531345647563 0.0095647741339973183 -0.097081031480995283 0.029570272375702124 0.02663594789064613 -0.0661838905017577 -0.086468225243536562 -0.067549760050461302 0.0040635916358703695 0.027998476375105882 0.0036696932900810151 -0.085696611847053572 -0.10935770227053948 0.030690679631610984 -0.0030249223737951686 -0.0061146114501148645 -0.067870953162909586 -0.0010915789182635693 -0.15409248818955054 -0.0042043098609925254 0.031600937940765322 -0.11009194217303937 0.0039119073841289318 -0.12938754499685853 -0.01340743707723584 0.038339163873435798 -0.057386090617135378 -0.032187226396348051
leaf_weight=810.87281459569931 90.504706218838692 2221.1556522846222 103.39565709233284 1419.9612157940865 55.801569238305092 1189.258766785264 79.218481063842773 175.02004979550838 160.65453031659126 103.56198079884052 254.98433789610863 61.433796226978302 3664.8867532908916 135.5485413223505 23.826450079679489 144.84747309982777 41.22997085750103 490.38218295574188 38.346265017986298 170.36282899975777 23.014790818095207 154.00214645266533 211.2493991702795 89.791419342160225 236.59287586808205 26.41617226600647 52.246571987867355 137.79454059898853 56.301570624113083 822.98958343267441
leaf_count=3506 356 10487 401 6526 202 5759 362 663 562 385 1166 289 16570 512 81 695 171 2103 148 775 98 680 1026 383 1029 102 227 630 246 3441
internal_value=0 0.00283711 0.00493005 0.00123485 0.00334725 0.0133682 -0.00200991 -0.0208881 -0.0547693 0.00276278 -0.0215727 -0.0238733 -0.00105701 -0.0187728 0.00119182 -0.0133792 -0.0664151 -0.0203233 -0.0053402 -0.0305562 -7.06576e-05 -0.023692 0.00519195 -0.0179542 -0.0322881 -0.0101279 -0.0523554 0.0152281 -0.00827086 -0.0268542
internal_weight=0 12161.8 11175.9 8954.75 8629.26 3006.11 5623.15 985.893 325.484 1816.85 396.893 164.829 5567.35 627.11 4940.24 1064.1 176.779 919.256 293.331 1083.86 450.332 177.017 3876.14 895.429 405.047 315.256 78.6627 273.315 135.52 993.352
internal_count=59581 55009 50840 40353 39101 13984 25117 4169 1252 8225 1699 690 24915 2699 22216 4620 683 3925 1314 4572 2016 778 17596 3844 1741 1358 329 1238 608 4216
is_linear=0
shrinkage=0.05


Tree=8
num_leaves=31
num_cat=0
split_feature=10 10 10 6 9 10 0 9 6 0 3 10 6 7 9 10 7 0 1 4 4 6 9 0 8 3 0 2 3 0
split_gain=1754.38 209.395 197.052 98.1422 35.0811 47.0205 34.3903 52.3116 36.307 33.8177 52.6658 33.4052 30.4359 47.1631 29.5851 27.86 27.6535 51.6492 49.1327 31.4443 28.3016 83.4521 26.7252 164.664 46.5209 49.4126 42.7544 91.9907 24.7088 32.4346
threshold=70.000000000000156 54.432173072988782 82.803425347843316 38.748285000000003 37.107470000000006 62.906096228927147 4.4385835000000009 4.4786500000000009 5.008700000000001 47.138450000000013 48.203394444444449 89.59804458483012 45.862500000000004 44.900000000000013 3.7589500000000005 64.861789974842381 0.3617550000000001 0.27935500000000008 0.27942035714285723 0.30032500000000006 6.0974500000000011 6.2821500000000006 28.749000000000002 29.706500000000002 30.816500000000001 29.059894444444449 33.01850000000001 32.681087000000005 46.228783333333332 48.948500000000003
decision_type=10 10 10 2 2 10 2 2 2 2 2 10 2 2 2 10 2 2 2 2 2 2 2 2 2 2 2 2 2 2
left_child=1 -1 12 15 5 -5 14 -8 -9 -6 28 -10 16 -14 -4 -3 17 -2 -19 -20 -18 -22 23 -23 25 -25 -24 -28 -11 -30
right_child=2 3 6 4 9 -7 7 8 11 10 -12 -13 13 -15 -16 -17 20 18 19 -21 21 22 26 24 -26 -27 27 -29 29 -31
leaf_value=-0.031875794323313875 0.03765573668149963 -0.009942678673312862 0.15658772374539731 0.078758833105999404 0.016917021681302678 0.41559999116022406 0.44141848834642172 -0.034622882083404284 0.14483602752560071 0.36940278502589691 0.037873811971149141 0.20716212984670826 0.41175403815499445 0.11767271831223658 0.027190968023492124 0.017824308354735321 0.029320446759262372 0.46467984673908697 0.049724425501161525 0.20947944781777283 0.58424856518389123 0.073697978523954197 0.0072380520516320632 0.44687886979335334 0.56450106358403407 0.098850673849470119 0.42054205870026895 0.068511402930747617 0.10620137935883592 0.34247926754967684
leaf_weight=1195.8273178916425 10.41888650506735 363.80091024562716 9.6706046760082263 3.0991382151842108 37.18622450530529 1.5563174337148664 1.7859412692487229 2.1549100391566745 47.33099003508687 1.3597054742276657 20.790533494204283 39.391052730381489 1.5666617639362801 10.505582414567469 8.1319747492670995 120.17828224599361 38.543016407638788 1.4000192433595646 4.7400135174393645 8.7959355525672418 0.80808721855282684 74.962681766599417 30.086765434592962 1.8680813536047924 1.7524083256721494 2.2461807131767273 1.9775565341114987 30.132430758327246 9.2233594432473165 1.7239308431744564
leaf_count=36702 254 10669 188 86 1031 43 37 42 874 20 524 513 24 211 200 3319 998 19 87 138 17 1780 737 33 34 42 42 710 173 34
internal_value=0 -0.0200675 0.10587 0.00519673 0.0584422 0.191365 0.161016 0.173492 0.168108 0.0496376 0.0864004 0.173146 0.0786572 0.155837 0.0974811 -0.00304778 0.0741719 0.123099 0.182701 0.153536 0.0673699 0.0775659 0.0747032 0.0936625 0.348763 0.256873 0.0500642 0.0901919 0.168378 0.143409
internal_weight=0 1754.75 328.27 558.918 74.9392 4.65546 108.465 90.6629 88.877 70.2838 33.0975 86.722 219.804 12.0722 17.8026 483.979 207.732 25.3549 14.936 13.5359 182.377 143.834 143.026 80.8294 5.86667 4.11426 62.1968 32.11 12.307 10.9473
internal_count=59581 52601 6980 15899 1911 129 1854 1466 1429 1782 751 1387 5126 235 388 13988 4891 498 244 225 4393 3395 3378 1889 109 75 1489 752 227 207
is_linear=0
shrinkage=0.05


Tree=9
num_leaves=31
num_cat=0
split_feature=7 8 5 8 7 0 8 9 9 5 1 9 8 8 3 5 7 0 7 9 8 9 8 7 8 8 1 5 0 9
split_gain=268.298 224.609 398.485 139.224 214.827 194.615 141.202 143.348 108.075 106.105 148.567 109.736 104.281 102.007 92.1007 92.0963 78.1253 79.8796 77.9946 76.174 156.536 107.138 77.7425 85.1202 73.0789 107.966 86.3691 72.3998 71.1792 57.8265
threshold=0.34795500000000007 5.5850000000000009 18.620210000000004 24.386905000000002 21.980500000000003 23.069500000000001 22.056585000000002 20.928500000000003 0.26281940000000009 28.365800000000004 25.456571428571429 25.974000000000004 19.288000000000004 28.791000000000004 22.906977777777779 5.1551500000000008 20.638715000000005 20.568660000000005 21.529080000000004 20.087370000000004 20.108090000000004 18.610395000000004 21.060180000000003 19.611700000000003 41.588400000000007 60.664000000000009 38.730642857142861 20.098810000000004 39.067205000000008 54.446000000000005
decision_type=2 2 2 2 2 2 2 2 2 2 2 2 2 2 2 2 2 2 2 2 2 2 2 2 2 2 2 2 2 2
left_child=8 -2 12 4 6 -5 19 16 -1 10 -7 -12 15 -13 18 -3 17 -8 -9 20 -4 -22 23 -23 28 26 -26 -24 -11 -28
right_child=1 2 3 5 -6 9 7 14 -10 24 11 13 -14 -15 -16 -17 -18 -19 -20 -21 21 22 27 -25 25 -27 29 -29 -30 -31
leaf_value=0.0076109642331018204 -0.01720863174985551 0.11881219921141661 -0.026509597729238377 0.09612251917349357 -0.026561603396040159 -0.015042301186223928 0.092272392664283429 0.032371852975899902 0.039948183535365084 -0.0020429338372588948 0.05691853267214874 -0.0078962381389554633 0.085374956210635011 0.040488315286506336 0.12405284130970902 0.017261483577934514 0.096493234695711597 -0.024514150204505706 -0.015035090111324343 -0.02479151564222197 0.12098372322684492 0.031850635338278782 0.095253851378504645 -0.031089841188997866 0.11105035941070576 -0.027436963722554233 0.010383276177057614 0.019079817136417834 -0.028940483456450977 0.050910461836531307
leaf_weight=502.78777667880058 2075.987641736865 25.552473425865173 278.72343651950359 56.138345435261726 1167.3256842792034 249.77454318106174 24.360431581735611 134.85883700847626 531.53110490739346 3221.8992569744587 243.78379486501217 229.73131848871708 147.36995078623295 207.16253416240215 16.080195173621178 176.83114288747311 83.508988901972771 36.69983646273613 243.25838735699654 443.01061052083969 25.877209812402725 96.821239665150642 47.036469995975494 120.66028933227062 23.978724390268326 157.28391323983669 791.81779596209526 92.610713303089142 266.29040506482124 99.026317536830902
leaf_count=2363 11275 87 1542 205 6516 1285 93 631 2301 16244 1009 1119 509 1011 59 790 297 187 1265 2375 99 409 212 651 77 862 3735 456 1488 429
internal_value=0 -0.00242988 0.00109359 -0.00109451 -0.01016 0.00349932 0.00148954 0.0224758 0.0242289 0.00255232 0.01794 0.0300428 0.0533805 0.0150463 0.006857 0.030083 0.0650635 0.0220787 0.00187301 -0.00874515 0.00199747 0.0227428 0.0156244 -0.00306919 -0.000587266 0.0108297 0.0174088 0.044737 -0.00409631 0.0148883
internal_weight=0 10783.5 8707.47 8357.72 2810.83 5546.89 1643.51 538.767 1034.32 5490.75 930.452 680.678 349.754 436.894 394.197 202.384 144.569 61.0603 378.117 1104.74 661.729 383.006 357.129 217.482 4560.3 1072.11 914.823 139.647 3488.19 890.844
internal_count=59581 54917 43642 42256 14792 27464 8276 2532 4664 27259 4424 3139 1386 2130 1955 877 577 280 1896 5744 3369 1827 1728 1060 22835 5103 4241 668 17732 4164
is_linear=0
shrinkage=0.05


Tree=10
num_leaves=31
num_cat=0
split_feature=10 7 8 7 8 9 0 4 8 9 4 7 8 8 9 0 8 0 8 5 9 9 8 9 9 6 7 8 8 0
split_gain=378.541 215.361 234.823 352.543 184.031 176.115 173.868 130.697 126.529 127.463 107.191 84.1105 206.146 104.539 116.065 84.0355 68.1591 61.0372 57.2764 86.8345 79.0624 56.7086 54.4342 234.047 66.3243 68.6179 54.0638 52.7115 51.8561 51.4607
threshold=75.013065327026283 0.34795500000000007 5.5850000000000009 18.642105000000004 24.386905000000002 21.965560000000007 23.069500000000001 0.31883000000000006 21.553740000000005 20.837255000000003 22.080530000000003 27.424350000000004 27.771500000000003 41.588400000000007 56.794500000000006 20.568660000000005 23.836500000000004 38.793805000000006 12.455155000000003 5.8694000000000015 16.957145000000004 38.21580500000001 48.531000000000006 45.670000000000009 54.446000000000005 59.120000000000012 45.657500000000006 0.36601000000000006 0.35302000000000006 18.892185000000001
decision_type=8 2 2 2 2 2 2 2 2 2 2 2 2 2 2 2 2 2 2 2 2 2 2 2 2 2 2 2 2 2
left_child=1 7 -3 18 5 8 -6 -1 -5 10 15 12 -8 21 17 -10 -11 -15 19 -4 -20 -13 26 -24 -25 -26 -19 -2 -9 -22
right_child=27 2 3 4 6 -7 11 28 9 16 -12 13 -14 14 -16 -17 -18 22 20 -21 29 -23 23 24 25 -27 -28 -29 -30 -31
leaf_value=-0.0099827253190358355 -0.063027918638788635 0.019642202360375418 -0.048005498272214703 0.018048338286878549 -0.087096293476718031 0.028846081529803159 0.0015268993966654845 -0.089543758830162412 -0.080938915775036036 0.0068384276077077923 -0.092907460961526203 0.0037677902709781852 -0.056982035966071425 -0.094583932379465677 0.030039587636636274 -0.0023510340793492812 -0.059207905167839726 -0.011497579983122589 -0.10710285986925323 0.02715635176505346 -0.061866741708917219 0.030914257273166181 -0.098078302682836419 0.0040688282371491805 -0.10912331551902768 -0.013668789268180718 0.039522900796054854 -0.024354630619916953 -0.03692647577386135 -0.0052649922499846645
leaf_weight=825.06789727509022 96.412944108247757 2136.0671726614237 109.64770105481148 809.69851505756378 59.245183393359184 1146.9239325523376 466.90325117111206 68.744496017694473 43.706825390458107 622.33680213987827 67.177725955843925 3598.1685224026442 222.18841673433781 25.816180735826492 139.99508965015411 153.42959772050381 41.679201483726501 436.9173176586628 64.339116364717484 59.160371959209442 116.9789736866951 203.24796961247921 96.763371378183365 237.31628355383873 29.498902350664139 52.041958287358284 58.92539881169796 1023.0750664919615 146.8595877289772 61.14708237349987
leaf_count=3506 356 10369 401 3791 202 5759 2085 221 175 2870 220 16342 842 81 695 701 153 1849 205 289 397 1026 383 1029 102 227 254 4216 560 275
internal_value=0 0.00270477 0.004751 0.00118631 0.00337087 0.0136385 -0.00189329 -0.0190407 0.00360303 -0.00899631 -0.038362 -0.000986672 -0.0173385 0.00132295 -0.0124259 -0.0197746 0.00269281 -0.0187687 -0.0440268 -0.0216643 -0.059596 0.00521921 -0.0166213 -0.0299676 -0.00929811 -0.0482012 -0.00543436 -0.0276853 -0.0537033 -0.0424365
internal_weight=0 12100 11059.3 8923.25 8511.98 2884.95 5627.03 1040.67 1738.03 928.33 264.314 5567.78 689.092 4878.69 1077.27 197.136 664.016 937.279 411.273 168.808 242.465 3801.42 911.463 415.621 318.857 81.5409 495.843 1119.49 215.604 178.126
internal_count=59581 55009 50722 40353 38786 13669 25117 4287 7910 4119 1096 24915 2927 21988 4620 876 3023 3925 1567 690 877 17368 3844 1741 1358 329 2103 4572 781 672
is_linear=0
shrinkage=0.05


Tree=11
num_leaves=31
num_cat=0
split_feature=0 7 7 0 9 0 0 0 2 2 9 0 5 1 9 0 1 7 0 8 5 0 7 0 1 0 2 1 7 1
split_gain=91.4642 223.936 81.6601 53.797 37.5085 107.602 46.1695 40.7747 70.7973 40.4679 35.3142 58.2669 38.5383 28.6267 22.7789 154.646 101.917 31.0871 30.5103 56.4281 23.3207 24.2227 23.275 141.515 91.6207 27.5546 120.982 26.3671 35.9258 21.1993
threshold=33.181950000000008 32.018050000000009 31.244700000000005 33.93030000000001 32.529050000000005 36.030695000000009 33.93030000000001 46.755000000000003 46.390800000000013 33.527282000000007 46.815000000000005 48.948500000000003 48.290000000000006 33.075976785714296 30.021000000000004 30.754900000000003 30.409142857142857 29.636870000000005 31.439500000000006 31.545000000000005 30.413750000000004 31.360035000000003 29.170500000000004 30.070150000000002 29.756821428571431 29.440500000000004 29.065140000000003 29.250821428571431 27.424350000000004 30.779214285714293
decision_type=2 2 2 2 2 2 2 2 2 2 2 2 2 2 2 2 2 2 2 2 2 2 2 2 2 2 2 2 2 2
left_child=14 2 -2 13 5 6 -3 -6 -9 -8 11 -10 -13 -4 15 22 -17 20 -19 -20 21 29 23 25 -25 -1 27 28 -27 -18
right_child=1 4 3 -5 7 -7 9 8 10 -11 -12 12 -14 -15 -16 16 17 18 19 -21 -22 -23 -24 24 -26 26 -28 -29 -30 -31
leaf_value=-0.0073859001952239134 0.57183564163821798 -0.016922128840841193 0.25314923020766733 0.54193820482761201 0.0012579013574955358 0.65696240261536598 0.34834577469929712 0.20737678570704876 0.02724395440189939 0.081535510964777833 0.0073095213537866799 0.26964485236602959 0.083836561441078497 0.031205671312395235 -0.022608497650036342 0.48105591215636007 0.25885152196034816 0.0038046524606380298 0.50680584066312862 0.082159666632994011 0.054265756773213839 0.45008267955832792 -0.029937575539535372 0.3854909313682251 0.084347838695713939 0.068434102022469065 -0.015649608025924033 0.1118625230807639 0.37183168389321342 0.0062368784053054502
leaf_weight=1318.716101333499 1.8117654882371406 8.6648225300014001 2.7746976986527443 0.95428547263145436 259.30346565507352 0.79449808970093805 1.9596438780426986 5.7754114009439936 28.306198444217443 5.1719711758196354 73.284418057650328 4.7587427571415883 6.7475178502500057 3.0497609972953796 172.82582805305719 1.64668684080243 2.5561466291546817 14.445779014378788 0.83126652613282104 13.284458249807356 2.8206151723861694 1.0315691679716108 95.083836108446121 3.0879395976662662 13.872720438987015 1.4305249080061893 29.694427635520697 5.4544442370533943 3.0689372010529041 1.2302166782319544
leaf_count=38474 26 235 44 25 7307 11 46 109 649 124 2019 85 135 78 5039 27 54 393 18 316 69 21 2829 46 327 14 868 115 48 30
internal_value=0 0.0210979 0.273648 0.193951 0.0156022 0.0891849 0.060628 0.0123741 0.0366224 0.15485 0.0279027 0.0658093 0.160683 0.136937 -0.00541455 -0.00344436 0.0963501 0.0788504 0.0548885 0.107167 0.168447 0.235293 -0.00601296 -0.00435892 0.139175 -0.0061511 0.0349187 0.185774 0.275372 0.176775
internal_weight=0 403.357 8.59051 6.77874 394.767 16.5909 15.7964 378.176 118.872 7.13162 113.097 39.8125 11.5063 5.82446 1681.08 1508.26 37.8467 36.2001 28.5615 14.1157 7.63855 4.81793 1470.41 1375.33 16.9607 1358.36 39.6483 9.95391 4.49946 3.78636
internal_count=59581 10893 173 147 10720 416 405 10304 2997 170 2888 869 220 122 48688 43649 928 901 727 334 174 105 42721 39892 373 39519 1045 177 62 84
is_linear=0
shrinkage=0.05


Tree=12
num_leaves=31
num_cat=0
split_feature=7 8 5 8 9 9 8 3 8 5 6 9 9 8 9 8 7 0 7 8 7 0 7 0 8 9 0 2 0 8
split_gain=229.302 201.987 334.609 124.601 276.01 168.363 188.423 91.389 83.0293 103.501 80.987 79.7423 72.8279 147.456 90.1455 68.2523 80.2955 63.3934 68.5226 79.6242 60.2912 64.5465 53.8655 53.4389 90.6265 180.45 60.2113 54.5277 63.3744 52.8407
threshold=0.34795500000000007 5.5850000000000009 18.620210000000004 25.863500000000005 25.974000000000004 21.606420000000004 22.056585000000002 0.26929401222222227 12.455155000000003 5.8694000000000015 23.951000000000004 20.928500000000003 20.087370000000004 20.108090000000004 18.610395000000004 21.060180000000003 19.611700000000003 20.944360000000003 20.040415000000003 21.797860000000004 20.638715000000005 20.568660000000005 21.529080000000004 60.139500000000005 48.531000000000006 45.670000000000009 45.965500000000013 46.390800000000013 48.948500000000003 54.581500000000013
decision_type=2 2 2 2 2 2 2 2 2 2 2 2 2 2 2 2 2 2 2 2 2 2 2 2 2 2 2 2 2 2
left_child=7 -2 8 5 -5 6 12 -1 9 -3 11 20 13 -4 -15 16 -16 18 -17 -20 21 -8 -13 24 -6 26 -26 -28 -29 -27
right_child=1 2 3 4 23 -7 10 -9 -10 -11 -12 22 -14 14 15 17 -18 -19 19 -21 -22 -23 -24 -25 25 29 27 28 -30 -31
leaf_value=0.0066975290001429454 -0.016517059963760461 0.050028582022706873 -0.026061723812138688 0.048839954442753165 -0.00074880689524904718 -0.021020980737526014 0.078961581199780348 0.0360446510001214 0.070357071978552774 -0.031948229362062604 0.14061795138673935 0.03087355422568043 -0.024274159908983302 0.10899762023862943 0.030812174218565143 0.10200997916040917 -0.030573595508703449 -0.0014079079100236338 -0.01683708941628875 0.20393154410855496 0.083328395714019024 -0.022574037794467795 -0.015292765257350155 -0.03430337713408127 0.16468238565546436 -0.013394460472913204 -0.037307337676991729 0.11750414504631784 0.015735826487387729 0.02459568141695229
leaf_weight=507.56013396382332 2027.8889937549829 115.32758150994778 272.04168863594532 316.4539679735899 4428.6996812224388 1502.7877971231937 26.611904919147491 555.73882156610489 192.89317581057549 57.801452711224556 16.218744814395905 137.31620268523693 432.76298829913139 27.643912315368652 97.988465279340744 55.445399239659309 116.7345117777586 53.126021221280098 30.443203985691071 4.7170660942792884 84.940853625535965 38.00620011985302 117.03310485184193 106.77661588788033 18.404121726751328 174.88954302668571 11.322761133313177 43.065096914768219 23.725785732269287 192.03410288691521
leaf_count=2350 11275 437 1542 1256 22209 8427 93 2314 633 316 60 631 2375 99 409 240 651 256 149 23 282 193 616 614 76 841 47 181 103 883
internal_value=0 -0.0023072 0.00100681 -0.00104932 0.00355559 -0.00917086 0.00261463 0.022036 0.0477961 0.0226595 0.031066 0.026667 -0.00834253 0.00213338 0.0219994 0.0152901 -0.0025603 0.0419571 0.0673839 0.012781 0.0556393 0.0192417 0.00963116 0.00068889 0.00145264 0.0224899 0.0833223 0.0641533 0.0813535 0.00648816
internal_weight=0 10723.1 8695.21 8329.19 5315.37 3013.82 1511.03 1063.3 366.022 173.129 420.127 403.908 1090.9 658.14 386.099 358.455 214.723 143.732 90.6057 35.1603 149.559 64.6181 254.349 4998.92 4892.14 463.441 96.5178 78.1136 66.7909 366.924
internal_count=59581 54917 43642 42256 26210 16046 7619 4664 1386 753 1875 1815 5744 3369 1827 1728 1060 668 412 172 568 286 1247 24954 24340 2131 407 331 284 1724
is_linear=0
shrinkage=0.05


Tree=13
num_leaves=31
num_cat=0
split_feature=10 7 8 7 8 9 0 8 9 0 7 8 8 9 0 0 8 9 9 0 8 5 9 8 9 9 6 7 8 9
split_gain=341.859 185.721 212.448 301.282 165.212 163.778 140.266 115.715 108.06 100.359 74.296 143.788 93.2735 103.128 71.096 73.5998 59.1645 57.2076 51.9363 49.9363 47.9019 76.9837 64.8775 47.7098 200.148 57.215 57.2863 50.8564 44.4655 43.4544
threshold=75.013065327026283 0.34795500000000007 5.5850000000000009 18.642105000000004 24.386905000000002 21.965560000000007 23.069500000000001 21.553740000000005 20.837255000000003 0.30698000000000009 27.566350000000003 27.771500000000003 41.588400000000007 56.794500000000006 21.703820000000004 20.568660000000005 23.836500000000004 25.974000000000004 38.21580500000001 38.793805000000006 12.455155000000003 5.8694000000000015 16.957145000000004 48.531000000000006 45.670000000000009 54.446000000000005 59.120000000000012 45.657500000000006 0.36601000000000006 21.812500000000004
decision_type=8 2 2 2 2 2 2 2 2 2 2 2 2 2 2 2 2 2 2 2 2 2 2 2 2 2 2 2 2 2
left_child=1 9 -3 20 5 7 -6 -5 14 -1 11 29 18 19 15 -9 -10 -13 -12 -14 21 -4 -22 27 -25 -26 -27 -21 -2 -8
right_child=28 2 3 4 6 -7 10 8 16 -11 12 17 13 -15 -16 -17 -18 -19 -20 23 22 -23 -24 24 25 26 -28 -29 -30 -31
leaf_value=-0.0091951660400646697 -0.057775694680177715 0.018920438936356556 -0.043552239374766655 0.017495854752314327 -0.075519131183397203 0.028126025629665558 -0.12832277255035973 -0.071324490170885005 0.0064338691374439694 -0.046341093870260273 0.0038008139412059293 -0.071271702670888046 -0.083922577034218182 0.029410845096138661 -0.077078186410771785 -0.0016149555289291439 -0.053958908320467916 -0.02549043038405412 0.030259441121632515 -0.010556537926557145 -0.095356797773225241 0.026958948756915187 -0.038320418671591527 -0.088184962219634344 0.0043380958847196154 -0.096756742052579711 -0.011859366154698814 0.039272868488986562 -0.022948646683177611 0.0034432826068341964
leaf_weight=830.36422543227673 100.50736272335052 2085.320338755846 113.89822447299957 794.71561428904533 63.624429047107697 1105.7698698788881 6.3430452644824973 50.900002643465996 616.27165076136589 232.81676217913628 3532.0537770390511 111.66474592685699 27.260764837265015 135.35190796852112 73.304000288248062 147.85064490139484 43.410418599843979 175.45445907115936 195.75011521577835 443.09446251392365 68.381424486637115 58.639444902539253 184.04987579584122 103.18568515777588 238.58867990970612 31.627282321453094 53.452094495296478 57.895876288414001 1039.9100582897663 461.32079677283764
leaf_count=3473 356 10369 401 3791 202 5759 22 186 2870 814 16105 363 81 695 239 671 153 716 1026 1849 205 289 672 383 1029 102 227 254 4216 2063
internal_value=0 0.00262436 0.00455661 0.00118876 0.00325023 0.0131022 -0.00170005 0.0034797 -0.00847524 -0.0173294 -0.000857293 -0.0154434 0.00142763 -0.0114349 -0.0349905 -0.0194676 0.00245972 -0.0432954 0.00519018 -0.0172233 -0.0398927 -0.019588 -0.0537711 -0.0152636 -0.0275468 -0.00821533 -0.043419 -0.00479811 -0.026018 0.00165611
internal_weight=0 12042.4 10979.2 8893.86 8468.89 2832.22 5636.67 1726.45 931.737 1063.18 5573.04 754.783 4818.26 1090.46 272.055 198.751 659.682 287.119 3727.8 955.105 424.969 172.538 252.431 927.844 426.854 323.668 85.0794 500.99 1140.42 467.664
internal_count=59581 55009 50722 40353 38786 13669 25117 7910 4119 4287 24915 3164 21751 4620 1096 857 3023 1079 17131 3925 1567 690 877 3844 1741 1358 329 2103 4572 2085
is_linear=0
shrinkage=0.05


Tree=14
num_leaves=31
num_cat=0
split_feature=10 10 10 0 7 0 5 0 10 9 9 0 4 2 4 0 8 3 0 7 4 8 3 9 0 0 7 10 9 9
split_gain=1412.17 161.597 155.176 75.9056 33.9936 33.2737 36.7011 30.774 25.3189 23.6591 22.0543 46.9764 37.6082 84.3705 21.875 49.2564 21.8737 35.2314 15.5044 20.1004 16.6345 14.6739 32.7984 18.7141 51.3534 25.9003 79.9854 25.0565 39.8714 20.1875
threshold=67.839441587212633 54.432173072988782 78.768407855388602 31.036000000000005 30.479000000000003 38.793805000000006 37.84085000000001 32.414500000000011 89.59804458483012 29.277295000000002 0.34240000000000009 0.36308000000000007 6.0974500000000011 6.0735380000000001 4.3524630000000011 0.26982045000000004 0.27579590000000004 0.27310561111111115 0.27935500000000008 0.27669500000000008 0.30032500000000006 42.046650000000007 42.981883333333336 29.428500000000003 30.507500000000004 33.181950000000008 31.770550000000004 76.088855142913346 29.224515 28.320500000000006
decision_type=10 10 10 2 2 2 2 2 10 2 2 2 2 2 2 2 2 2 2 2 2 2 2 2 2 2 2 10 2 2
left_child=1 -1 10 -3 7 -6 -7 9 16 -5 11 18 -12 -14 15 -10 -4 -18 -2 -20 -21 23 -23 24 29 -25 -27 28 -26 -15
right_child=2 3 8 4 5 6 -8 -9 14 -11 12 -13 13 21 -16 -17 17 -19 19 20 -22 22 -24 25 27 26 -28 -29 -30 -31
leaf_value=-0.031745613389344569 0.035765130696120431 -0.01017019022613376 -0.0036192487550557166 0.1947142043885593 -9.8884092865192194e-06 0.34030923825727094 0.045006564431468325 0.39813736712363856 0.33786211204548577 0.025270265038914802 0.0040896605703107936 0.41319470040894446 0.51661951280783525 0.061470037835068075 0.15131877390997983 0.0041675196525202841 0.30237861626398804 0.10147902507132489 0.23665743910080753 0.0030280220478602466 0.12745033970180189 0.30103024832281744 0.075302328328945664 -0.014470977177642766 0.1746286440735321 0.42431957718741131 0.037502552910927342 0.033505130079302274 0.52114643521590254 -0.014116149540340704
leaf_weight=1144.6248180679977 10.700649656355386 361.18665156699717 4.8151651695370665 3.4829967021942103 64.382637187838554 1.0678404122591008 71.675597500056028 0.92496889457106668 1.3353111445903767 5.0426872484385967 40.447374310344458 1.1154478229582299 0.99599118903279205 84.974144171923399 53.125796720385551 6.4359860941767693 2.220049772411584 128.29020428657532 2.7516675703227511 3.9743652045726767 8.2885756120085698 1.7853648699820066 16.313472528010607 22.758221141993999 2.8602968975901595 1.4139773026108766 24.361100312322378 1.4611510038375852 1.1695846021175382 9.8584671057760698
leaf_count=36702 259 10805 84 54 1796 27 1657 23 11 135 1071 17 12 1956 546 136 29 2209 35 73 110 31 280 592 49 19 586 25 23 229
internal_value=0 -0.0213313 0.0802523 0.00214505 0.0324916 0.0261703 0.0493415 0.124212 0.113084 0.0944932 0.0528653 0.0955333 0.047372 0.0577955 0.139857 0.0615049 0.101035 0.104896 0.0817541 0.11453 0.0871256 0.0550584 0.0975693 0.0498896 0.0622203 0.0244007 0.0587227 0.210884 0.275198 0.0536124
internal_weight=0 1652.39 431.452 507.763 146.577 137.126 72.7434 9.45065 196.223 8.52568 235.23 26.8307 208.399 167.952 60.8971 7.7713 135.325 130.51 25.7153 15.0146 12.2629 166.956 18.0988 148.857 100.324 48.5333 25.7751 5.49103 4.02988 94.8326
internal_count=59581 51199 8382 14497 3692 3480 1684 212 3015 189 5367 494 4873 3802 693 147 2322 2238 477 218 183 3790 311 3479 2282 1197 605 97 72 2185
is_linear=0
shrinkage=0.05


Tree=15
num_leaves=31
num_cat=0
split_feature=0 8 5 8 9 9 4 8 9 8 5 5 6 9 8 8 9 9 7 10 9 8 8 9 9 10 9 6 7 7
split_gain=197.274 171.984 285.922 111.51 236.613 155.351 108.089 87.7674 104.396 68.8141 72.7381 66.5048 121.409 112.847 87.2056 70.5316 65.8632 56.07 125.273 53.9708 50.1436 47.597 74.0303 105.498 68.4744 55.3324 54.7513 37.235 98.9998 36.7352
threshold=0.35289000000000009 5.5850000000000009 18.620210000000004 25.863500000000005 25.974000000000004 21.965560000000007 0.31883000000000006 20.108090000000004 18.610395000000004 19.288000000000004 5.1551500000000008 20.098810000000004 21.858000000000004 21.167940000000005 21.060180000000003 23.878500000000003 19.385765000000003 0.28193000000000007 0.26983500000000005 34.469696969696848 16.957145000000004 60.664000000000009 48.531000000000006 45.670000000000009 54.446000000000005 52.22893539581468 55.957000000000008 23.303000000000001 22.640500000000003 19.294500000000003
decision_type=2 2 2 2 2 2 2 2 2 2 2 2 2 2 2 2 2 2 2 10 2 2 2 2 2 10 2 2 2 2
left_child=6 -2 9 5 -5 7 17 20 -9 10 -3 14 -13 -14 16 -15 29 18 -1 -6 -4 22 -21 25 -25 -24 -26 -7 -29 -10
right_child=1 2 3 4 19 27 -8 8 11 -11 -12 12 13 15 -16 -17 -18 -19 -20 21 -22 -23 23 24 26 -27 -28 28 -30 -31
leaf_value=0.0081522853365386099 -0.015224449052620107 0.099362781609034279 0.10413912785602496 0.044392692231281707 0.011489036898971725 -0.03582223787126821 0.055163097735808159 0.099067847636131356 -0.029540659675258166 0.067688267582396308 0.013308905748064252 -0.019415953894022897 0.039221239826788504 -0.0087289404821449586 0.073482277927745143 0.055493182140155244 -0.021360766907100148 -0.019818580473712644 0.06055469059722407 -0.0030515806787039432 -0.029296266519191323 -0.034248766245800165 0.11013211649029693 -0.011530866130068988 0.088173051406424674 0.0331537057133088 -0.008246454591403711 0.029379856096386926 -0.02305040951471559 0.067061174657186418
leaf_weight=598.73529237508774 2033.4849048405886 28.302799940109253 7.2374036312103263 328.96919927000999 929.22108134627342 366.04091660678387 186.53787073493004 29.227598011493683 12.425198316574095 164.88980612158775 185.50411505997181 514.99904404580593 253.6430985480547 420.21599359810352 73.349060520529747 47.593933269381523 86.049644783139229 112.06030859053135 140.88737961649895 3623.4564343243837 259.00601133704185 110.39189517498016 40.656940400600433 181.55864156782627 36.78016397356987 54.821824356913567 24.551292076706886 102.31925418972969 749.9091929346323 47.323366090655327
leaf_count=2720 11468 87 23 1256 4621 2217 663 99 52 509 790 2797 1081 2200 279 174 458 483 605 18185 1519 654 151 881 132 217 113 583 4367 197
internal_value=0 -0.00213621 0.000930551 -0.00100804 0.00331754 -0.0087731 0.0206908 0.000766207 0.00550629 0.0434179 0.0247003 0.00362763 -0.000871771 0.0123657 0.0290137 -0.00219513 0.00664223 0.0131405 0.0181342 0.000615825 -0.025669 -0.00186528 -0.000962955 0.0214033 0.00389901 0.0659328 0.0495758 -0.0224843 -0.0167556 0.046972
internal_weight=0 10711.9 8678.44 8299.75 5330.41 2969.34 1038.22 1751.07 1484.83 378.697 213.807 1455.6 1236.45 721.453 219.147 467.81 145.798 851.683 739.623 5001.44 266.243 4072.22 3961.83 338.369 242.89 95.4788 61.3315 1218.27 852.228 59.7486
internal_count=59581 55110 43642 42256 26210 16046 4471 8879 7337 1386 877 7238 6252 3455 986 2374 707 3808 3325 24954 1542 20333 19679 1494 1126 368 245 7167 4950 249
is_linear=0
shrinkage=0.05


Tree=16
num_leaves=31
num_cat=0
split_feature=7 7 7 8 9 9 8 8 0 8 9 0 7 8 8 3 9 9 9 8 7 8 5 9 4 6 8 9 6 6
split_gain=192.566 219.361 158.21 175.678 186.422 142.432 151.992 141.801 112.004 109.389 135.891 101.755 97.7909 80.483 71.0018 101.622 70.9119 66.7809 66.761 158.991 67.3219 65.6605 71.8406 65.2966 87.1464 61.7745 61.7452 59.9003 138.502 55.2207
threshold=0.34795500000000007 4.7646500000000005 18.642105000000004 24.386905000000002 21.965560000000007 27.110500000000005 27.771500000000003 12.455155000000003 22.955500000000004 22.056585000000002 21.167940000000005 0.27325575000000007 4.9286500000000002 23.836500000000004 41.588400000000007 60.215272222222232 16.957145000000004 38.21580500000001 20.087370000000004 20.475000000000005 19.784810000000004 5.5850000000000009 5.8694000000000015 0.27669500000000008 0.31883000000000006 20.711500000000004 30.429000000000006 4.3417035000000004 4.5133015000000007 27.839000000000002
decision_type=2 2 2 2 2 2 2 2 2 2 2 2 2 2 2 2 2 2 2 2 2 2 2 2 2 2 2 2 2 2
left_child=11 27 7 4 9 6 8 12 -5 18 -11 -1 -3 -12 17 -16 -9 29 19 -4 -21 -14 -23 -13 -25 -22 -8 28 -2 -7
right_child=1 2 3 5 -6 14 26 16 -10 10 13 23 21 -15 15 -17 -18 -19 -20 20 25 22 -24 24 -26 -27 -28 -29 -30 -31
leaf_value=-0.0050736609245281613 0.015801689410538413 -0.067365588789461528 0.023642181519667578 -0.080056202688430306 0.026992290504864139 -0.1634166506553609 -0.058171510034078215 -0.088203864927903122 -0.0012277766916643134 -0.044359480338825322 0.0081790447049260202 -0.063711769441238339 0.024922396934919124 -0.059419622317901481 -0.016278406546058149 0.031591229428919329 -0.034393473476351293 0.029834448182597357 0.025060469451605723 -0.064966945838604045 0.036216919467765653 -0.039279890962414687 0.026325831877908257 0.0021549008877543062 -0.043660875436149021 -0.026451767025261853 0.033836884536320361 0.03387020520683709 -0.057858403009448826 0.00098261361114035124
leaf_weight=625.68536411225796 1512.0224339962006 54.694087088108063 343.16391694545746 49.21663710474968 1113.9919012635946 5.1145468205213538 273.31249324977398 85.411775201559067 533.78823967278004 244.49333818256855 436.16250009834766 141.66337759792805 189.32035863399506 48.976272508502007 1103.1314486563206 123.25652214884758 216.20279069244862 208.07065305113792 478.11914494633675 81.498943492770195 51.399957701563835 122.43613988161087 63.302121877670288 178.1653668731451 248.63313949108124 167.36195193231106 19.537754863500595 423.47623625397682 66.628300189971924 3930.632406398654
leaf_count=2589 7630 252 1690 147 5955 21 939 248 2334 888 2037 538 944 168 4458 645 772 1097 2375 311 250 415 316 703 834 731 83 2139 332 17740
internal_value=0 0.00207248 -0.000968111 0.000809127 0.010831 -0.00394851 -0.0226446 -0.0233516 -0.00788239 0.0011055 -0.0139637 -0.0189857 -0.00490743 0.00135475 -0.000899264 -0.0114673 -0.0496316 0.00222842 0.0109089 0.000393107 -0.0261779 0.00420073 -0.0169206 -0.0342982 -0.0245353 -0.0117272 -0.0520331 0.0171721 0.0126928 0.000768975
internal_weight=0 11944.7 9942.6 9211.23 2965.17 6246.06 875.855 731.367 583.005 1851.18 729.632 1194.15 429.753 485.139 5370.21 1226.39 301.615 4143.82 1121.54 643.425 300.261 375.059 185.738 568.462 426.799 218.762 292.85 2002.13 1578.65 3935.75
internal_count=59581 54917 44816 41869 14405 27464 3503 2947 2481 8450 3093 4664 1927 2205 23961 5103 1020 18858 5357 2982 1292 1675 731 2075 1537 981 1022 10101 7962 17761
is_linear=0
shrinkage=0.05


Tree=17
num_leaves=31
num_cat=0
split_feature=10 10 10 0 7 0 3 8 2 10 10 4 0 8 5 10 7 0 5 10 0 5 8 0 7 7 0 7 8 2
split_gain=1224.15 159.614 109.976 77.9536 33.5259 25.6852 37.5093 17.9468 51.4373 15.4784 14.397 14.1955 31.5902 13.2078 30.0054 13.1613 12.6767 18.5554 16.8673 18.0661 16.7851 16.4797 11.5605 12.0144 54.736 14.9293 13.3636 14.2074 36.7878 39.7367
threshold=67.839441587212633 53.304771630561284 79.529416416921507 31.036000000000005 29.636870000000005 45.521400000000007 44.927672222222235 50.838500000000003 60.183890000000012 61.224489795918267 89.59804458483012 4.3524630000000011 0.26982045000000004 0.27579590000000004 0.27050255000000006 71.202083302629617 54.446000000000005 47.138450000000013 46.45000000000001 59.158480476504629 48.948500000000003 48.290000000000006 40.684945000000006 34.951065000000007 34.289995000000012 32.850800000000007 33.93030000000001 29.041000000000004 24.963500000000003 24.372650000000004
decision_type=10 10 10 2 2 2 2 2 2 10 10 2 2 2 2 10 2 2 2 10 2 2 2 2 2 2 2 2 2 2
left_child=1 -1 15 9 -5 -6 -7 10 -9 -3 13 12 -12 -4 -15 -2 17 -8 19 -19 -20 -22 23 25 -25 26 27 28 -16 -30
right_child=2 3 7 4 5 6 16 8 -10 -11 11 -13 -14 14 22 -17 -18 18 20 -21 21 -23 -24 24 -26 -27 -28 -29 29 -31
leaf_value=-0.032426786568362391 0.033148343251300054 -0.019376828436557355 -0.00027811398809131859 0.17660753524954095 0.012440542813744281 0.35381826013705403 0.0021331274465093723 0.25858408477696554 -0.015358027618475493 0.001120331649862745 0.23900938265934235 0.12303389783831878 0.0030164102342225452 0.33694457528071237 0.074902043514614838 0.057026759952765751 0.0018669131639534921 0.061192946865728619 -0.0060575471227992611 0.20211344264593878 0.16414192664301541 0.047955943392098743 0.027769226635908958 0.32680570946046322 0.077918439472833584 -0.034981504448532541 0.23765378272269977 0.053023157599968722 0.36385809729551666 0.12987678898605134
leaf_weight=1056.2158019021153 85.8683822453022 241.43701323308051 4.3341766819357863 3.7756625935435286 111.49069902673364 1.0307050123810757 9.5979209169745427 5.4070100896060458 2.5085665956139565 148.91109106503427 1.8043796718120555 57.420797038823366 6.6233068034052849 1.2035502344369877 56.937137354165316 175.95581198111176 11.065734175965188 4.1510330289602297 6.9805488660931614 5.0305749103426933 4.7662219218909732 8.485600393265484 7.9606809988617888 2.8969790935516349 9.3028450645506364 2.5454102307558051 1.462463654577731 25.497703924775124 1.9996696822345281 19.601112879812717
leaf_count=35064 2100 7582 70 53 3081 26 231 47 37 4383 11 524 136 10 968 3499 280 66 131 47 75 180 116 37 141 38 17 377 20 234
internal_value=0 -0.0210075 0.0707427 0.000657282 0.0293156 0.0258954 0.0552466 0.0979303 0.171768 -0.0115575 0.095002 0.11414 0.0535428 0.0855793 0.0884548 0.0491955 0.0491014 0.0624994 0.0821972 0.138403 0.0566907 0.089744 0.0861221 0.0899853 0.137019 0.0846744 0.0875614 0.0854515 0.0959795 0.151537
internal_weight=0 1612.94 469.33 556.723 166.375 162.599 51.1083 207.506 7.91558 390.348 199.59 65.8485 8.42769 133.742 129.408 261.824 50.0776 39.0119 29.414 9.18161 20.2324 13.2518 128.204 120.243 12.1998 108.043 105.498 104.036 78.5379 21.6008
internal_count=59581 51199 8382 16135 4170 4117 1036 2783 84 11965 2699 671 147 2028 1958 5599 1010 730 499 113 386 255 1948 1832 178 1654 1616 1599 1222 254
is_linear=0
shrinkage=0.05


Tree=18
num_leaves=31
num_cat=0
split_feature=0 7 7 1 6 9 9 6 4 7 0 9 6 6 9 9 7 6 0 10 9 7 10 9 9 6 9 2 0 3
split_gain=170.768 151.594 132.5 106.211 99.7615 196.982 143.093 145.952 89.4252 81.7879 77.5105 67.3997 89.254 64.7207 69.3463 56.2232 51.1726 146.876 63.1293 50.7351 50.2219 103.969 47.0389 46.2966 61.2253 49.8823 41.7533 60.1741 53.173 41.6277
threshold=0.35289000000000009 4.7646500000000005 18.642105000000004 6.3608928571428587 25.799000000000003 25.974000000000004 21.606420000000004 21.858000000000004 0.31883000000000006 4.9286500000000002 18.728950000000005 4.3417035000000004 4.5133015000000007 23.951000000000004 20.837255000000003 16.957145000000004 20.040415000000003 20.711500000000004 21.050235000000004 16.681172033652519 0.28193000000000007 0.26983500000000005 53.950413062562781 56.794500000000006 54.446000000000005 59.120000000000012 23.472075000000004 26.539060000000003 28.453500000000002 19.812772222222225
decision_type=2 2 2 2 2 2 2 2 2 2 2 2 2 2 2 2 2 2 2 10 2 2 10 2 2 2 2 2 2 2
left_child=8 11 3 9 6 26 7 16 20 -3 -5 12 -2 14 -9 -12 17 29 -19 -7 21 -1 -14 24 -21 -26 -6 -28 -29 -4
right_child=1 2 4 10 5 19 -8 13 -10 -11 15 -13 22 -15 -16 -17 -18 18 -20 23 -22 -23 -24 -25 25 -27 27 28 -30 -31
leaf_value=0.0075099021792189944 -0.013058893761615266 0.064283286282978372 -0.026955443373157646 0.068240417480681131 0.095940215191488112 0.0266923015316472 -0.019769706688372843 0.047460466598501394 0.049589973388477808 -0.0042732651542282023 0.078302430275601756 -0.034581041759218355 0.088858291235652892 0.10999891454518705 0.0071520237352799944 -0.00080374826446829575 -0.021615488903756037 0.068331722105810538 -0.02502361140338959 -0.00036937330496349569 -0.019358541588713675 0.054119758403292362 3.1374300020591407e-05 -0.030472955499697491 0.089715521301280909 0.0082608675231934312 0.0089171860121731554 0.06502453261565086 -0.031613207668149873 0.0070304941437121186
leaf_weight=605.13554574549198 1362.9136615395546 50.026980146765709 225.8529589176178 158.95631362497807 31.518662244081497 178.71959578990936 1437.6192155331373 159.60232104361057 195.06737354397774 333.65888769924641 28.704254627227783 362.29039993882179 33.308540806174278 21.090379506349564 321.92133331298828 103.27392525970936 437.57312220335007 95.368977844715118 22.35345833003521 4626.2967334538698 110.56399565935135 149.12820053100586 26.973888263106346 124.96931163966656 34.153899490833282 41.797384113073349 122.62277667224407 144.07440111041069 15.794859185814856 149.89911663532257
leaf_count=2720 7823 252 1326 484 99 844 8484 574 663 1670 84 2139 185 67 1609 457 2465 396 103 23043 483 605 147 770 108 189 508 500 57 727
internal_value=0 -0.00203487 0.000642001 0.0219411 -0.00111217 0.00294162 -0.00862308 0.00255431 0.0190097 0.0046655 0.0447243 -0.0153269 -0.0104255 0.0242673 0.0205124 0.0164012 -0.0091672 0.00187094 0.0506052 0.000531936 0.0121122 0.0167253 0.0491119 -0.000436607 0.000361654 0.0448895 0.0413566 0.0352665 0.0554769 -0.0133974
internal_weight=0 10651.3 8865.85 674.62 8191.23 5319.95 2871.28 1433.66 1059.9 383.686 290.934 1785.49 1423.2 502.614 481.524 131.978 931.048 493.475 117.722 5005.94 864.828 754.264 60.2824 4827.22 4702.25 75.9513 314.011 282.492 159.869 375.752
internal_count=59581 55110 44816 2947 41869 26118 15751 7267 4471 1922 1025 10294 8155 2250 2183 541 5017 2552 499 24954 3808 3325 332 24110 23340 297 1164 1065 557 2053
is_linear=0
shrinkage=0.05


Tree=19
num_leaves=31
num_cat=0
split_feature=10 7 7 7 6 9 9 1 6 9 4 9 7 3 9 9 6 3 0 9 6 9 3 9 4 7 9 6 9 6
split_gain=271.59 138.818 166.131 117.967 122.519 200.953 126.87 116.692 96.5283 123.493 81.9822 61.9706 87.9528 74.247 69.1862 51.9591 114.434 47.9212 47.5336 46.6396 68.3808 46.0264 46.9455 41.9447 100.945 41.5653 58.7914 51.2507 40.7521 98.963
threshold=75.013065327026283 0.34795500000000007 4.7646500000000005 18.642105000000004 25.799000000000003 25.974000000000004 21.965560000000007 6.3608928571428587 21.858000000000004 20.837255000000003 0.31883000000000006 40.032000000000004 45.155500000000011 46.953438888888897 38.574200000000012 4.3417035000000004 4.5133015000000007 22.906977777777779 18.451415000000001 56.794500000000006 47.697500000000012 4.8115500000000013 4.9272133333333343 0.28193000000000007 0.29243500000000006 21.529080000000004 21.504000000000001 23.012000000000004 20.087370000000004 20.711500000000004
decision_type=8 2 2 2 2 2 2 2 2 2 2 2 2 2 2 2 2 2 2 2 2 2 2 2 2 2 2 2 2 2
left_child=1 10 15 7 6 -6 8 21 28 -10 23 14 13 -13 -7 16 -3 25 -9 20 -14 22 -4 24 -1 26 -11 -28 29 -5
right_child=-2 2 3 4 5 11 -8 18 9 17 -12 12 19 -15 -16 -17 -18 -19 -20 -21 -22 -23 -24 -25 -26 -27 27 -29 -30 -31
leaf_value=-0.0073548272277753034 -0.02269795110791548 0.016605329493790583 0.0045896204554344826 0.01805565375498391 -0.041075796883857901 0.0021426403940090961 0.022998988188440206 -0.07431309878475599 -0.049835229578530559 -0.0052044406829985512 -0.040274423757515415 -0.021130053364608915 0.034582029619390373 -0.089222865428792389 0.032882972726425215 0.034516100027067162 -0.055112876677767854 -0.04846113512728057 -0.029600416229398088 0.028230178829266758 -0.013847302589677569 0.0029884735474058921 -0.14606059356225026 0.021217332204664537 -0.092123820124943911 0.014197952306941465 -0.14458492940476955 0.026280646132396574 0.025462088084160863 -0.026409927071998449
leaf_weight=710.85971240699291 1181.585940182209 1353.5657647252083 9.953165739774704 408.67553426325321 303.26226837933064 3855.1723570376635 1279.353708460927 88.858495384454727 162.24515901505947 180.70685318112373 240.69207462668419 332.06987537443638 87.824653536081314 45.520579785108566 192.16204607486725 378.68293744325638 58.004364237189293 48.073981940746307 179.53913582861423 126.81741018593311 428.57537806034088 355.07731656730175 10.763485968112946 112.39195011556149 36.945115447044373 343.31362798810005 14.72004593908787 6.2528926879167548 378.83872973918915 180.35262127220631
leaf_count=2912 4572 7051 49 2031 1055 17543 6909 252 546 807 781 1357 375 148 985 1999 287 159 630 695 1741 1615 53 454 140 1661 59 25 1941 749
internal_value=0 0.00243453 0.00415736 0.00139542 0.00298154 -0.00154022 0.0110708 -0.0192227 0.0022148 -0.0111813 -0.01448 0.000825469 -0.0101836 -0.029339 0.00360215 0.0180702 0.0136583 -0.0006067 -0.0444035 0.00106126 -0.00561088 -0.00123818 -0.0736818 -0.00726243 -0.0115428 0.00361455 -0.0144013 -0.0936429 0.0126689 0.00444088
internal_weight=0 11909.3 10808.4 9018.13 8373.94 5371.4 3002.53 644.192 1723.18 755.313 1100.89 5068.14 1020.81 377.59 4047.33 1790.25 1411.57 593.067 268.398 643.217 516.4 375.794 20.7167 860.197 747.805 544.993 201.68 20.9729 967.867 589.028
internal_count=59581 55009 50722 41385 38786 23899 14887 2599 7978 3257 4287 22844 4316 1505 18528 9337 7338 2711 882 2811 2116 1717 102 3506 3052 2552 891 84 4721 2780
is_linear=0
shrinkage=0.05


Tree=20
num_leaves=31
num_cat=0
split_feature=0 7 9 0 0 7 1 3 9 0 2 0 2 1 9 0 2 2 9 4 0 1 0 5 0 0 7 3 0 9
split_gain=71.9715 119.567 24.7499 45.0025 30.5432 45.9212 22.6362 23.379 21.7167 110.325 64.809 36.6447 35.1793 29.9059 26.8769 113.048 51.7174 25.4182 23.4793 21.0249 20.744 36.5404 18.6647 30.7359 23.3276 18.1825 24.1296 17.7747 20.0045 18.6757
threshold=33.181950000000008 32.018050000000009 32.529050000000005 33.93030000000001 46.755000000000003 45.155500000000011 46.344353571428577 46.228783333333332 30.021000000000004 30.578040000000005 30.099658100000003 31.036000000000005 30.473585000000003 30.409142857142857 28.749000000000002 29.440500000000004 29.173190000000002 29.823090000000004 26.616000000000003 34.042450000000009 31.360035000000003 30.967882500000005 29.847135000000005 29.417500000000004 30.263500000000004 35.682245000000009 32.850800000000007 60.215272222222232 59.102000000000011 46.815000000000005
decision_type=2 2 2 2 2 2 2 2 2 2 2 2 2 2 2 2 2 2 2 2 2 2 2 2 2 2 2 2 2 2
left_child=8 19 3 -3 -4 6 -6 -8 9 14 13 -12 -13 17 15 -1 18 -11 -17 -2 -14 -22 -18 24 -24 26 -5 28 29 -7
right_child=1 2 4 25 5 27 7 -9 -10 10 11 12 20 -15 -16 16 22 -19 -20 -21 21 -23 23 -25 -26 -27 -28 -29 -30 -31
leaf_value=-0.0065224283841916657 0.12490910827149625 -0.017189647846772838 0.00075619759493292498 0.16498603589712205 0.25348577721928595 0.045390253966257926 0.2217658601887203 0.051102987738393592 -0.022171706268128841 0.18003387913941504 -0.014039305081723921 0.21524904367690076 -0.019620360790451735 0.053428180020562321 -0.029263651976673896 0.021152974134354935 -0.028639030706375891 0.40954968538315911 0.16579348266068106 0.26262442226931504 0.35440798203207879 0.065107657521492224 0.08626893231493625 0.0032751377544948212 0.29960364596400152 0.26490068687468243 -0.0045382474618576646 -0.022140190863860331 0.092638273771950816 -0.0020792145407793465
leaf_weight=1273.9346055742353 9.0109263285994512 8.7698996700346488 262.31395998597145 5.7437689453363401 2.4160067886114112 39.749945754185319 2.5242935530841342 9.7872368991374952 166.17414476722479 2.9906440153717986 17.297481596469879 3.9832823351025572 6.7949247136712101 2.2570000365376472 112.7307436671108 3.4472131282091167 9.0856524016708153 2.0218457728624344 15.077433258295057 4.0025000292807809 1.1529360301792646 20.476238256320357 4.5486807338893405 9.2117395866662246 1.7839679978787897 2.1462557800114146 3.3079676777124405 20.729305243119597 10.918324738740919 43.279602438211441
leaf_count=38008 129 235 7307 94 32 760 36 150 5039 25 474 48 183 37 3544 37 285 28 216 44 14 395 114 218 23 18 69 645 221 1153
internal_value=0 0.0180472 0.0133304 0.0676297 0.0105625 0.0304406 0.113555 0.0860948 -0.00502904 -0.00311307 0.065118 0.0447241 0.0760891 0.204561 -0.00583188 -0.00382634 0.0757627 0.272612 0.138878 0.167266 0.0565876 0.0805287 0.028293 0.0615697 0.146367 0.134057 0.103033 0.0197666 0.0290132 0.0206465
internal_weight=0 424.7 411.687 19.9679 391.719 129.405 14.7275 12.3115 1652.97 1486.79 56.9744 49.7049 32.4074 7.26949 1429.82 1317.09 43.1547 5.01249 18.5246 13.0134 28.4241 21.6292 24.63 15.5444 6.33265 11.198 9.05174 114.677 93.9479 83.0295
internal_count=59581 10893 10720 416 10304 2997 218 186 48688 43649 1204 1114 640 90 42445 38901 893 53 253 173 592 409 640 355 137 181 163 2779 2134 1913
is_linear=0
shrinkage=0.05


Tree=21
num_leaves=31
num_cat=0
split_feature=0 8 0 8 7 0 8 4 9 2 1 8 9 6 9 3 8 9 3 9 9 6 8 7 9 7 8 1 10 6
split_gain=149.324 140.987 223.419 91.45 160.975 121.131 95.9691 74.6435 71.536 70.4862 94.5035 66.9295 136.696 110.606 66.8956 68.6521 65.6691 129.307 65.3524 96.4214 54.0737 106.327 97.8587 53.882 52.5762 49.8642 77.2158 71.9844 48.7767 54.1627
threshold=0.35289000000000009 5.5850000000000009 18.892185000000001 24.386905000000002 21.980500000000003 23.069500000000001 22.056585000000002 0.31883000000000006 16.957145000000004 28.857920000000004 25.456571428571429 30.849000000000004 29.164500000000004 31.334420000000005 21.167940000000005 22.906977777777779 20.108090000000004 20.087370000000004 29.967061111111118 29.537000000000003 25.974000000000004 28.938000000000002 29.165500000000005 29.764645000000005 26.616000000000003 19.377615000000002 21.060180000000003 19.479881785714291 46.898334269754173 30.463695000000005
decision_type=2 2 2 2 2 2 2 2 2 2 2 2 2 2 2 2 2 2 2 2 2 2 2 2 2 2 2 2 10 2
left_child=7 -2 -3 4 6 -5 8 -1 -4 10 -7 18 13 28 -8 -16 -10 25 19 23 -12 -22 -23 24 -11 27 -27 -18 29 -13
right_child=1 2 3 5 -6 9 14 -9 16 11 20 12 -14 -15 15 -17 17 -19 -20 -21 21 22 -24 -25 -26 26 -28 -29 -30 -31
leaf_value=0.011268840552134165 -0.014060647225036979 0.037302057131844445 0.079373414514881155 0.070447162831470692 -0.024125834521447734 -0.014001401051370183 0.038047838549670122 0.044961282641938577 -0.033096665733665785 0.17019822793146544 0.039179108881074738 0.18536940469690866 0.00031780441495949448 0.15679321613053954 -0.0025713026655804442 0.096043530211730316 -0.037103662975848974 -0.02273733256063409 -0.038461295328516755 0.13116586914432257 -0.0058915608830938148 0.11443083851870842 0.02414214625097226 0.15115592708891637 -0.011018287941890123 -0.012832217620620125 0.035453846088834604 0.089691171266733913 -0.0030500983609203923 0.043417151888797328
leaf_weight=875.54401129484177 1955.8717831224203 399.92340286076069 23.067047208547592 65.11823658645153 1025.7615980654955 240.42800387740135 237.55536992847919 202.3855999559164 231.58432154357433 4.0283882617950431 286.05736689269543 8.2220020294189435 3523.9610089808702 21.905336692929268 305.58358056843281 18.730294018983841 14.75882528722286 403.45726856589317 200.71900226175785 12.599891379475592 318.84529466927052 36.576220169663429 167.18053409457207 5.239461436867713 623.32675087451935 175.74441879987717 156.54370103776455 46.340122044086456 48.152092799544334 36.779030308127403
leaf_count=3808 11468 1479 65 205 6516 1285 878 663 1400 18 1020 41 17590 111 1595 59 57 2375 1021 64 1515 176 799 26 3160 910 673 171 247 186
internal_value=0 -0.0019388 0.000805853 -0.000965841 -0.00863901 0.00265087 0.00120737 0.0175947 -0.00770685 0.00185312 0.0135205 -0.000876047 0.00206886 0.0556994 0.0178896 0.00312406 -0.00966001 -0.00284869 -0.0135447 -0.00579316 0.0217032 0.0121374 0.0403498 -0.00852109 -0.00985466 0.0175491 0.00991575 0.0590631 0.0319268 0.0693528
internal_weight=0 10594.1 8638.19 8238.27 2639.13 5599.14 1613.36 1077.93 1051.5 5534.02 1049.09 4484.93 3639.02 115.058 561.869 324.314 1028.43 796.844 845.913 645.194 808.659 522.602 203.757 632.595 627.355 393.387 332.288 61.0989 93.1531 45.001
internal_count=59581 55110 43642 42163 14699 27464 8183 4471 5651 27259 4795 22464 18175 585 2532 1654 5586 4186 4289 3268 3510 2490 975 3204 3178 1811 1583 228 474 227
is_linear=0
shrinkage=0.05


Tree=22
num_leaves=31
num_cat=0
split_feature=7 8 7 8 9 7 8 8 9 6 3 9 0 9 8 9 8 6 7 8 0 8 7 6 8 3 9 6 6 9
split_gain=146.693 180.205 219.123 143.507 162.829 118.187 95.1191 78.0844 150.525 91.7966 79.7386 79.9558 77.5942 74.1416 106.332 72.4131 71.8494 67.8952 94.5859 117.268 100.169 63.2568 59.6618 57.6613 55.7817 84.0274 71.0842 196.891 91.1344 92.5816
threshold=0.34795500000000007 5.5850000000000009 18.642105000000004 24.386905000000002 21.965560000000007 28.149500000000003 20.108090000000004 30.849000000000004 29.164500000000004 31.334420000000005 29.967061111111118 29.537000000000003 0.27325575000000007 19.797405000000001 21.695365000000006 21.167940000000005 23.836500000000004 28.938000000000002 27.424350000000004 27.771500000000003 23.069500000000001 20.802685000000004 19.611700000000003 29.301000000000005 41.588400000000007 60.215272222222232 31.413200000000003 32.519300000000008 33.439150000000005 32.529050000000005
decision_type=2 2 2 2 2 2 2 2 2 2 2 2 2 2 2 2 2 2 2 2 2 2 2 2 2 2 2 2 2 2
left_child=12 -2 -3 4 6 17 -4 10 9 -9 11 -7 -1 21 -15 -16 -17 18 19 20 -5 22 -8 -19 26 -26 27 -10 -28 -30
right_child=1 2 3 5 -6 7 13 8 24 -11 -12 -13 -14 14 15 16 -18 23 -20 -21 -22 -23 -24 -25 25 -27 28 -29 29 -31
leaf_value=-0.004102406960344222 0.01495217083250561 -0.032876215779170208 0.032368211063636958 -0.067957433426549071 0.025735465470626252 0.006928202766290254 -0.03001207437719286 -0.035138204101415604 0.004108155942586917 -0.13999450857829202 0.038699541030297567 -0.11398146279270933 -0.029220948338605526 0.021560259008759047 -0.024070134432210857 0.010264093755163545 -0.051769395467643677 -0.073100755010926249 0.025775404145278576 -0.04962554550011123 0.00010672858575455178 -0.062418293081818378 0.036349791765502432 -0.021568782519178105 -0.014458335892189459 0.030474644604125151 0.032884833725017069 -0.04616232751875305 -0.033173591907862669 0.0081961423270502341
leaf_weight=635.51086355745792 2155.9080291986465 511.71195515990257 213.49185259640217 60.229432880878448 1045.5377865582705 768.90938177704811 109.79569107294083 103.62948094308376 865.58287298679352 26.137088060379028 222.48151636123657 13.920683234930037 595.60010769963264 442.7405738979578 405.59230814874172 469.65882968902588 51.828952610492706 91.354592636227608 141.47379054129124 220.60235887765884 527.28589510917664 87.859708055853844 48.976625204086304 133.77383308112621 1127.3458349704742 114.62659581005573 324.63462732732296 251.33393080532551 153.74272371828556 1123.6080289185047
leaf_count=2589 11275 1773 1197 184 5955 3488 409 460 3913 111 1021 64 2075 2243 1622 2251 168 359 626 726 2297 308 252 538 4458 645 1480 1113 684 5297
internal_value=0 0.00188191 -0.00103574 0.000745679 0.00999457 -0.0034955 0.00100101 -0.000199757 -0.00326803 -0.056258 0.0122851 0.00477813 -0.0162545 -0.00314179 0.00140194 -0.00822496 0.00409879 -0.0177925 -0.0119396 -0.0185422 -0.0068709 -0.0283781 -0.00954138 -0.0424799 -0.00153197 -0.0103113 0.00247835 -0.00720395 0.00922893 0.00321686
internal_weight=0 11813.8 9657.87 9146.15 2875.48 6270.67 1829.94 5095.95 4090.64 129.767 1005.31 782.83 1231.11 1616.45 1369.82 927.08 521.488 1174.72 949.591 808.118 587.515 246.632 158.772 225.128 3960.87 1241.97 2718.9 1116.92 1601.99 1277.35
internal_count=59581 54917 43642 41869 14405 27464 8450 22734 18161 571 4573 3552 4664 7253 6284 4041 2419 4730 3833 3207 2481 969 661 897 17590 5103 12487 5026 7461 5981
is_linear=0
shrinkage=0.05


Tree=23
num_leaves=31
num_cat=0
split_feature=10 10 10 4 9 1 7 8 4 4 9 7 4 9 9 1 8 9 9 4 5 10 9 4 7 4 3 4 4 4
split_gain=1050.91 133.833 93.2192 63.3977 21.9852 31.756 22.6518 21.1378 18.4884 17.8593 17.1376 16.2372 16.9029 14.7312 14.7076 17.9692 15.6926 20.6352 19.7474 46.5891 30.2855 19.9498 19.2896 21.8359 17.7577 36.9442 17.5593 20.372 14.4548 13.3926
threshold=66.250303191060993 52.997057788789654 78.768407855388602 31.106000000000005 0.34240000000000009 4.4605910000000009 4.4335980000000008 4.5984500000000006 5.4064000000000005 0.27766500000000005 0.24296645000000003 30.162500000000005 45.515000000000008 43.851000000000006 5.4351000000000012 5.7275142857142862 39.597100000000005 38.21580500000001 30.573500000000003 32.168330000000005 31.350500000000004 70.000000000000156 29.428500000000003 30.834500000000002 18.509710000000002 19.214850000000002 38.802227722222234 40.196500000000007 40.867025000000005 22.586500000000004
decision_type=10 10 10 2 2 2 2 2 2 2 2 2 2 2 2 2 2 2 2 2 2 10 2 2 2 2 2 2 2 2
left_child=1 -1 4 -3 9 -6 7 -7 -8 10 -2 -5 -13 -14 15 -10 18 26 19 21 -21 29 23 24 25 -23 -18 -28 -19 -16
right_child=2 3 -4 11 5 6 8 -9 14 -11 -12 12 13 -15 16 -17 17 28 -20 20 -22 22 -24 -25 -26 -27 27 -29 -30 -31
leaf_value=-0.032552135391542586 0.097948113025759287 -0.013174987521810413 0.081446693360086767 0.090489373316171962 -0.010267202594543402 0.095035536401723755 -0.024702299718402529 0.39977629080974203 0.061102766844336368 0.10408241578074494 -0.020517319777090069 0.0082992617553001493 0.11143959763637595 0.032992772918819378 -0.022622694438513363 0.3062110335228056 0.35462320413839532 -0.034261625673493078 0.0026631606128609841 0.3734788231253775 0.087799863518900026 0.035235286747496902 -0.017645132359158208 0.20557907123597002 0.048128753149162075 0.26401530970639236 0.016276693530654023 0.27053783916565949 0.069983081175099202 0.03277909082496485
leaf_weight=996.26744239032269 5.2893874347209913 358.79915047995746 247.72786703333259 8.7489711791276914 33.401073236018419 1.9330957122147077 10.505329664796589 0.80641644820570935 2.093673847615718 22.522308230400085 7.2200517021119595 101.17923244833946 6.8114673420786849 49.291610211133957 17.200872890651226 1.1631614267826083 1.027893230319022 3.7651732712984076 36.355404019355774 1.7047130130231374 2.0354147404432297 4.2716426104307166 8.9910740256309492 2.4769722186028948 79.055040903389454 3.0066725462675095 1.9725285507738592 1.3116470761597154 28.470106299966574 29.818107893690467
leaf_count=34594 120 11408 3015 149 900 48 281 21 49 291 167 2814 113 955 450 8 21 98 840 18 35 70 219 25 1548 40 44 29 440 771
internal_value=0 -0.0217876 0.0586394 -0.00135365 0.0401993 0.0353871 0.0417952 0.184741 0.0401304 0.0774762 0.0295736 0.0241926 0.0205048 0.042517 0.0431612 0.148642 0.04161 0.0715482 0.0356929 0.0437759 0.218009 0.0392761 0.0521435 0.0592088 0.0550093 0.129744 0.174272 0.117825 0.057807 0.0125116
internal_weight=0 1521.1 554.126 524.83 306.398 271.366 237.965 2.73951 235.225 35.0317 12.5094 166.031 157.282 56.1031 224.72 3.25684 221.463 36.5473 184.916 148.561 3.74013 144.82 97.8014 88.8103 86.3334 7.27832 4.31207 3.28418 32.2353 47.019
internal_count=59581 50033 9548 15439 6533 5955 5055 69 4986 578 287 4031 3882 1068 4705 57 4648 632 4016 3176 53 3123 1902 1683 1658 110 94 73 538 1221
is_linear=0
shrinkage=0.05


Tree=24
num_leaves=31
num_cat=0
split_feature=0 8 0 8 7 0 8 4 5 1 9 8 7 8 7 8 5 8 9 9 9 6 9 7 8 9 7 9 9 6
split_gain=129.79 125.726 192.546 81.1405 147.636 101.52 87.6785 64.8351 63.4733 90.7759 59.7644 76.5759 92.3973 47.5671 80.1898 45.8313 59.9926 45.2423 92.1676 79.3147 56.676 46.466 44.7978 78.4936 84.6424 44.7915 83.1759 44.6634 43.1543 43.3751
threshold=0.35289000000000009 5.5850000000000009 18.892185000000001 24.386905000000002 21.980500000000003 23.069500000000001 22.688500000000001 0.31883000000000006 28.365800000000004 25.456571428571429 16.957145000000004 20.108090000000004 19.611700000000003 21.553740000000005 20.491495000000004 19.288000000000004 5.1551500000000008 30.849000000000004 29.164500000000004 28.749000000000002 28.854500000000005 30.829350000000002 23.505500000000001 23.420500000000004 24.798000000000005 0.28193000000000007 0.26983500000000005 21.812500000000004 23.760585000000003 28.938000000000002
decision_type=2 2 2 2 2 2 2 2 2 2 2 2 2 2 2 2 2 2 2 2 2 2 2 2 2 2 2 2 2 2
left_child=7 -2 15 4 6 -5 10 25 9 22 -4 -12 -13 -14 -15 16 -3 -10 19 -19 -21 -22 23 27 -25 26 -1 -7 -11 -30
right_child=1 2 3 5 -6 8 -8 -9 17 28 11 12 13 14 -16 -17 -18 18 -20 20 21 -23 -24 24 -26 -27 -28 -29 29 -31
leaf_value=0.0062712294615829851 -0.013430337777856455 0.085209080592542036 0.07428818787664819 0.063235529659630668 -0.023439515164550923 0.099547647289170899 0.024762044331247623 0.041344813892546378 -0.010708798891671978 0.11223091724389414 -0.032709894895049794 0.037529974376463292 -0.018857418465958217 0.055834032570174268 -0.003669505692989166 0.053412751398476337 0.0099136622706052259 -0.010482210113601773 0.00026820808168819769 0.15972764563005437 -0.0078739848786500265 0.085514561901256794 -0.037833955477843198 0.12382495860272924 -0.018033697172248134 -0.01941143880562711 0.04677564424114606 -0.031294621273414258 0.013391663596850368 0.041946643296897596
leaf_weight=617.76623447239399 1916.4365540891886 30.39073234796524 23.534853845834732 67.834064424037933 989.97473342716694 7.0853007435798636 314.9505350291729 208.18735739588737 918.17175793647766 12.96306201815605 223.20139586925507 138.87690781056881 410.42305187880993 65.195307716727257 430.49362947046757 176.12547850608826 204.25341688096523 40.865192428231239 3526.0053889453411 15.948904201388357 20.260411620140076 38.879413679242134 106.19812269508839 23.952199205756187 18.74384830892086 110.71212786436081 159.46191190183163 82.070351138710976 557.84556767344475 174.61806793510914
leaf_count=2720 11468 87 65 205 6516 22 1343 663 4696 44 1400 517 2361 267 2230 559 833 200 17590 71 98 180 593 129 98 483 605 443 2339 756
internal_value=0 -0.00184693 0.00072869 -0.000943134 -0.00825113 0.00243858 0.0011074 0.0162312 0.00169464 0.0132153 -0.00466011 -0.00612522 -0.000446947 -0.00626755 0.00415668 0.0341355 0.0196658 -0.000789991 0.00171063 0.0455728 0.0760794 0.0535211 -0.0136655 0.00580064 0.0615481 0.010343 0.0145814 -0.0208964 0.0217996 0.0201991
internal_weight=0 10535.3 8618.86 8208.09 2596.65 5611.44 1606.68 1096.13 5543.61 983.477 1291.73 1268.19 1044.99 906.112 495.689 410.77 234.644 4560.13 3641.96 115.954 75.0887 59.1398 238.05 131.852 42.696 887.94 777.228 89.1557 745.427 732.464
internal_count=59581 55110 43642 42163 14699 27464 8183 4471 27259 4424 6840 6775 5375 4858 2497 1479 920 22835 18139 549 349 278 1285 692 227 3808 3325 465 3139 3095
is_linear=0
shrinkage=0.05


Tree=25
num_leaves=31
num_cat=0
split_feature=10 7 7 7 6 9 9 1 6 9 4 9 6 9 7 9 3 3 9 6 9 9 9 9 4 9 7 6 5 0
split_gain=228.857 110.279 137.916 91.7868 94.0505 149.307 113.491 93.6663 83.3139 92.5887 66.064 54.2806 107.844 48.7369 77.2431 68.871 52.8607 47.1457 46.1935 50.3467 42.2045 45.207 43.181 41.9584 57.6885 41.6927 41.1386 127.977 42.0271 41.0501
threshold=78.012387129382702 0.34795500000000007 4.7646500000000005 18.642105000000004 25.799000000000003 25.974000000000004 21.965560000000007 6.3608928571428587 21.858000000000004 20.837255000000003 0.27766500000000005 4.3417035000000004 4.5133015000000007 40.032000000000004 44.588050000000003 38.574200000000012 46.953438888888897 22.945444444444444 56.794500000000006 47.697500000000012 45.670000000000009 54.446000000000005 55.957000000000008 0.27669500000000008 0.31883000000000006 4.8115500000000013 20.040415000000003 20.711500000000004 20.686145000000003 45.521400000000007
decision_type=8 2 2 2 2 2 2 2 2 2 2 2 2 2 2 2 2 2 2 2 2 2 2 2 2 2 2 2 2 2
left_child=1 10 11 7 6 -6 8 25 26 -10 -1 12 -3 15 16 -7 -15 -11 19 29 -21 -22 -23 -12 -25 -4 27 -5 -29 -16
right_child=-2 2 3 4 5 13 -8 -9 9 17 23 -13 -14 14 18 -17 -18 -19 -20 20 21 22 -24 24 -26 -27 -28 28 -30 -31
leaf_value=-0.0012076171765662614 -0.023966470620078988 0.014976750718292027 -0.066823066039852441 0.015340286359156775 -0.034126467236714274 0.0017337109670673774 0.021349500462383608 -0.038162960251981286 -0.042627923091901519 0.0023213422497619005 -0.049825989005528648 0.033667047267367155 -0.051651169450668458 -0.022863669824133466 -0.032946032099925686 0.032281185016284283 -0.087106155875856128 -0.054127853935897266 0.027064108852519371 -0.038131001249105019 0.0060693018009346685 -0.064305486864114705 0.0043587643676130201 0.0044836097535362277 -0.03274859778117347 0.0035002845644304193 0.022143853343584124 -0.055304517569257472 0.037410591958171778 0.03010282863658106
leaf_weight=610.69116307795048 912.65936587750912 1326.8792312443256 22.3668262809515 386.20811446011066 326.75421859323978 3941.4312776327133 1226.0295001417398 288.9725536853075 175.43147546052933 565.37300269305706 130.40081410109997 361.83783130347729 63.645845487713814 246.48061709105968 32.083924129605293 193.57445393502712 36.80138424038887 39.577800706028938 125.6601836681366 133.78885422646999 249.83576004207134 53.120804682374001 40.24219574034214 176.63950933516026 253.12456181645393 365.37509350478649 459.91230319440365 103.24690981209278 13.864000022411345 132.16196379065514
leaf_count=2488 3407 7183 103 1985 1082 17931 6996 921 562 2649 459 2038 298 987 132 1012 114 125 720 492 1057 174 159 684 784 1652 2404 371 61 551
internal_value=0 0.00199991 0.0035648 0.00110581 0.0025197 -0.00134497 0.00969289 -0.0166152 0.00149649 -0.0106462 -0.0125825 0.0164161 0.0119271 0.000720824 -0.00889805 0.00316375 -0.0312095 -0.00137174 -0.000656461 -0.00608876 -0.0143101 -0.00502398 -0.0347092 -0.0249834 -0.0174456 -0.000556306 0.0113342 0.0014567 -0.0443286 0.0177868
internal_weight=0 12081.5 10910.7 9158.29 8481.58 5511.94 2969.64 676.714 1743.61 780.382 1170.86 1752.36 1390.53 5185.18 1050.18 4135.01 283.282 604.951 766.894 641.234 476.988 343.199 93.363 560.165 429.764 387.742 963.231 503.319 117.111 164.246
internal_count=59581 56174 51759 42240 39564 24411 15153 2676 8157 3336 4415 9519 7481 23329 4386 18943 1101 2774 3285 2565 1882 1390 333 1927 1468 1755 4821 2417 432 683
is_linear=0
shrinkage=0.05


Tree=26
num_leaves=31
num_cat=0
split_feature=10 10 10 0 2 1 0 7 4 3 6 3 7 0 10 2 7 0 0 2 7 10 2 4 0 10 10 0 3 4
split_gain=948.444 112.341 89.864 62.5622 19.069 29.4346 23.2834 22.8147 18.4122 15.9487 13.4064 40.8449 17.9793 27.9425 19.1642 21.5222 16.2411 19.0665 12.104 14.8147 12.2385 12.0838 11.3137 25.0731 11.1794 10.7721 10.7689 10.6151 15.0184 20.7945
threshold=64.861789974842381 52.997057788789654 78.768407855388602 31.036000000000005 0.36178080000000007 4.4605910000000009 0.36308000000000007 4.4335980000000008 5.4064000000000005 30.019413888888888 39.325150000000008 38.802227722222234 30.479000000000003 32.117500000000007 70.000000000000156 5.3936970000000004 18.509710000000002 18.892185000000001 46.755000000000003 46.390800000000013 30.479000000000003 71.624182080265044 6.0735380000000001 6.0974500000000011 31.439500000000006 82.803425347843316 76.088855142913346 0.27935500000000008 0.2619476738888889 0.26290500000000006
decision_type=10 10 10 2 2 2 2 2 2 2 2 2 2 2 10 2 2 2 2 2 2 10 2 2 2 10 10 2 2 2
left_child=1 -1 4 -3 6 -6 27 21 -9 -5 12 -12 13 14 15 -10 17 22 20 -20 24 -7 23 -16 -11 -4 -19 28 29 -2
right_child=2 3 25 9 5 7 -8 8 10 18 11 -13 -14 -15 16 -17 -18 26 19 -21 -22 -23 -24 -25 -26 -27 -28 -29 -30 -31
leaf_value=-0.032479381224048767 0.038762891998458032 -0.015460160629414358 0.058192645911954589 0.22767159527923156 -0.010592893303143107 0.073495332747940206 0.24314599126160374 -0.025867982204832874 0.32706311705463287 -0.00058874694537847138 0.31115415682040015 0.053088498205404594 0.0045153636382212663 0.1975705387934662 -0.011634031249344314 0.014073663563280856 0.043760972110192656 0.24478718416863013 0.12161186432377769 0.033099928856887832 0.0073413754787051465 0.25775609019081175 -0.034778614210852432 0.24176413293076965 0.10159634508592533 0.079852493711466785 0.092394499048446155 0.080463207359557545 -0.021744594052320255 0.24983697764198687
leaf_weight=962.70959751680493 6.8291125036776084 322.63180302642286 83.747667465358973 0.94624520838260551 38.111870655789971 1.8544005621224635 1.7908906713128079 12.040949204936622 0.55370224267244239 4.3535021822899562 1.5891723372042168 43.584587931632996 46.161388918757439 2.7548063471913329 2.1603789627552015 68.250204125419259 92.865490015596151 2.8490414917469025 5.3684900403022757 39.593411818146706 99.849250447005033 1.7104986272752283 2.402991384267807 1.7809623926877978 6.9489278886467218 182.47126640379429 1.9545803964138029 23.182859651744366 7.8749453946948043 1.4073204845190046
leaf_count=34594 148 10551 1161 8 1061 44 22 340 16 87 25 733 1073 25 38 1787 1752 29 60 715 2728 34 42 10 122 1854 25 287 178 32
internal_value=0 -0.0226295 0.0509907 -0.00286151 0.0347634 0.0306538 0.0668343 0.0362182 0.0346119 0.0230186 0.0373403 0.062167 0.0322824 0.0395828 0.0370644 0.0165925 0.0506065 0.107631 0.0217781 0.0436683 0.0129234 0.161907 0.0507329 0.102868 0.0622364 0.0730387 0.182779 0.0587986 0.0276252 0.0748281
internal_weight=0 1442.4 627.929 479.692 361.71 320.625 41.0851 282.513 278.948 157.06 266.907 45.1738 221.734 175.572 172.817 68.8039 104.013 11.148 156.114 44.9619 111.152 3.5649 6.34433 3.94134 11.3024 266.219 4.80362 39.2942 16.1114 8.23643
internal_count=59581 48865 10716 14271 7701 7034 667 5973 5895 3720 5555 758 4797 3724 3699 1803 1896 144 3712 775 2937 78 90 48 209 3015 54 645 358 180
is_linear=0
shrinkage=0.05


Tree=27
num_leaves=31
num_cat=0
split_feature=4 8 0 8 9 8 0 9 8 9 5 1 9 3 2 4 8 9 3 9 9 6 0 8 5 9 8 6 0 9
split_gain=114.034 115.312 171.552 73.1812 134.972 132.511 92.6039 58.1505 60.4866 112.491 56.8681 80.0689 51.4516 46.9022 62.782 46.8603 42.2103 83.6946 71.8617 70.8236 68.9402 45.8061 40.9273 60.1353 73.1362 64.7157 131.36 63.9759 63.7911 48.7344
threshold=0.35886500000000005 5.5850000000000009 18.892185000000001 24.386905000000002 21.550500000000003 22.056585000000002 23.069500000000001 16.957145000000004 20.108090000000004 20.087370000000004 28.365800000000004 25.456571428571429 0.26281940000000009 24.020488888888888 23.81739 0.27020500000000008 30.849000000000004 29.164500000000004 29.967061111111118 29.537000000000003 28.749000000000002 30.870500000000003 60.139500000000005 41.588400000000007 38.479000000000006 31.413200000000003 32.601000000000006 33.439150000000005 39.067205000000008 29.879000000000001
decision_type=2 2 2 2 2 2 2 2 2 2 2 2 2 2 2 2 2 2 2 2 2 2 2 2 2 2 2 2 2 2
left_child=12 -2 -3 4 5 7 -5 -4 -9 -10 11 13 -1 14 -8 -14 18 20 19 -12 -18 -22 23 25 -25 26 29 -27 -29 -19
right_child=1 2 3 6 -6 -7 10 8 9 -11 16 -13 15 -15 -16 -17 17 22 -20 -21 21 -23 -24 24 -26 27 -28 28 -30 -31
leaf_value=0.003821317078728838 -0.013015837850521274 0.031992679005287933 0.069874752709920177 0.059930368370875321 -0.020851895766614743 0.026532808113859607 -0.022823320334401331 -0.032441213523284433 0.015969857140772752 -0.021847200592436281 -0.0054948622378153365 0.020299587944681081 0.088778739758585079 -0.032087457863483902 0.05795182954986914 0.022103373925379553 -0.010167728259407071 0.013372328236922491 -0.037886430669561155 0.10550529803326916 0.014921055350456148 0.096459355050289866 -0.032740915038444313 0.080837190006183307 0.0086779219709186683 -0.031242011985949454 0.036085043139357446 0.0014932462300942752 -0.027434820755760144 -0.013968149687484003
leaf_weight=536.6851711422205 1870.1194155216217 416.34116253256798 23.865245312452316 68.811729848384857 1128.0134174376726 404.06234437227249 53.712656512856483 217.38775718212128 399.49212267994881 387.27814783155918 707.6347228884697 758.53210677206516 27.657821223139763 136.42565461993217 43.568366482853889 558.1721131503582 40.536156594753265 247.80787101387978 188.79124580323696 14.668337583541868 25.457095786929131 53.259713381528854 91.734464854001999 36.407084584236145 989.14116489887238 285.54150676727295 273.08901517093182 883.70902745425701 242.9698294699192 476.20839408040047
leaf_count=2363 11417 1479 65 205 7417 1631 289 1400 1811 2375 3611 3139 118 778 218 2041 200 1257 1021 64 122 227 614 116 4373 1480 1352 4493 1488 2417
internal_value=0 -0.00176405 0.000684301 -0.000909585 -0.00791616 0.00227295 0.00228328 -0.00726234 -0.00909561 -0.00264513 0.00156844 0.0124157 0.0150054 -0.0131729 0.0133527 0.0252512 -0.000793452 0.00161215 -0.0104198 -0.0032407 0.0428089 0.0700898 0.000219073 0.00109933 0.0112396 -0.00321695 0.00653537 -0.0101026 -0.00474513 -0.00461037
internal_weight=0 10464.6 8594.45 8178.11 2560.1 1432.09 5618.01 1028.02 1004.16 786.77 5549.19 992.239 1122.52 233.707 97.281 585.83 4556.96 3645.86 911.094 722.303 119.253 78.7168 3526.61 3434.87 1025.55 2409.33 997.105 1412.22 1126.68 724.016
internal_count=59581 55059 43642 42163 14699 7282 27464 5651 5586 4186 27259 4424 4522 1285 507 2159 22835 18139 4696 3675 549 349 17590 16976 4489 12487 5026 7461 5981 3674
is_linear=0
shrinkage=0.05


Tree=28
num_leaves=31
num_cat=0
split_feature=10 7 7 7 6 9 9 1 6 9 4 9 6 9 7 9 3 6 9 6 6 7 0 6 0 3 9 3 7 6
split_gain=199.081 90.7512 124.16 79.5643 88.824 134.566 99.7108 78.7689 73.1668 84.6223 53.8793 50.2392 91.147 49.1256 72.1878 63.6565 58.4069 42.1661 55.443 41.3184 39.3245 110.133 38.4982 37.3247 41.6513 42.7167 36.7034 36.2305 34.9772 113.789
threshold=75.013065327026283 0.34795500000000007 4.7646500000000005 18.642105000000004 25.799000000000003 25.974000000000004 21.965560000000007 6.3608928571428587 21.858000000000004 21.118500000000001 0.31883000000000006 4.3417035000000004 4.5133015000000007 40.032000000000004 45.155500000000011 38.574200000000012 46.953438888888897 47.697500000000012 56.794500000000006 23.826500000000006 23.303000000000001 22.640500000000003 18.451415000000001 40.77150000000001 40.122800000000005 39.84385000000001 4.8115500000000013 4.9272133333333343 20.040415000000003 20.711500000000004
decision_type=8 2 2 2 2 2 2 2 2 2 2 2 2 2 2 2 2 2 2 2 2 2 2 2 2 2 2 2 2 2
left_child=1 10 11 7 6 -6 8 26 28 -10 -1 12 -3 15 16 23 -15 -16 -19 -11 -8 -22 -9 -7 25 -25 27 -4 29 -5
right_child=-2 2 3 4 5 13 20 22 9 19 -12 -13 -14 14 17 -17 -18 18 -20 -21 21 -23 -24 24 -26 -27 -28 -29 -30 -31
leaf_value=-0.0053470280581875314 -0.018978495031522307 0.014641035301411002 0.0067222938290023614 0.015674774300476643 -0.03241064671900868 0.0025429253468818671 0.035196159138164006 -0.061827625809413117 -0.03402496807430113 0.005927059588444538 -0.031334862340084105 0.033233157765480019 -0.047070545441360495 -0.018504355865168735 0.034104932203484997 0.032146736380256613 -0.076912322452567836 -0.011743472842164523 0.026892482273086979 -0.046374445401143209 -0.033448872227155403 0.02191492428098233 -0.02248693789285831 -0.20577335943252845 0.0085906660003577003 -0.050791998091017546 0.0034329219539804114 -0.11962177551381321 0.021617902683262732 -0.041288807113197608
leaf_weight=884.62899200618267 1227.9237520843744 1271.268864184618 10.443883299827576 368.98512521386147 323.90532448887825 3784.3795145899057 342.74456843733788 92.857126042246819 240.80577835440636 480.20148356258869 257.49873808026314 341.33611969649792 62.789404556155205 343.24269364774227 85.597491681575775 182.97867469489574 48.899201273918152 439.78783847391605 117.70669446885586 40.985021710395813 102.52867226302624 725.05057094991207 188.2732812166214 5.5041372179985073 24.12907512485981 23.129499867558479 354.75441412627697 12.42444571852684 440.08949846029282 114.99046532809734
leaf_count=3506 4572 7051 49 1942 1055 17312 2133 252 844 2286 781 1999 287 1357 375 985 148 1741 695 127 556 4220 630 28 122 81 1615 53 2362 417
