tree
version=v4
num_class=1
num_tree_per_iteration=1
label_index=0
max_feature_idx=63
objective=binary sigmoid:1
feature_names=Close Open High Low ATR ADX RSI STOCH_%K STOCH_%D STOCHRSI_%K STOCHRSI_%D MACD MACD_Signal MACD_Hist Williams_%R CCI Ultimate_Osc ROC MA_5 MA_10 MA_20 MA_50 MA_100 MA_200 Max_5 Min_5 Max_10 Min_10 Max_20 Min_20 Max_21 Min_21 Max_50 Min_50 Max_100 Min_100 Max_200 Min_200 MA_10_50_ratio MA_50_200_ratio Min_50_Max_50_ratio Min_100_Max_100_ratio Min_200_Max_200_ratio Pivot S1 R1 S2 R2 S3 R3 Fib_R1 Fib_S1 Fib_R2 Fib_S2 Camarilla_R1 Camarilla_S1 Camarilla_R2 Camarilla_S2 Camarilla_R3 Camarilla_S3 Bull_Power Bear_Power High_14 Low_14
feature_infos=[0.19919999999999999:0.31840000000000002] [0.19919999999999999:0.318] [0.19980000000000001:0.32269999999999999] [0.1986:0.31740000000000002] [0.00095714285714285682:0.0070785714285714297] [6.9964747914117122:57.900889016824024] [8.1272084805652725:97.014925373134247] [0:100] [2.3411805435346982:96.612036768730391] [0:100] [0:100] [-0.0058964748212965712:0.0050516144839594657] [-0.0055886672981879069:0.0041089287290426539] [-0.002253475486705769:0.0017737008073893754] [-100:0] [-211.68026203154864:204.48045167737644] [18.287517913082958:83.508749445230052] [-7.8243644767249876:10.319410319410327] [0.19934000000000002:0.31624000000000002] [0.19957:0.31439] [0.20055000000000001:0.31067] [0.20275399999999999:0.30827000000000004] [0.20549899999999999:0.30637600000000004] [0.20835599999999999:0.29969800000000002] [0.19950000000000001:0.31840000000000002] [0.19919999999999999:0.313] [0.20019999999999999:0.31840000000000002] [0.19919999999999999:0.30980000000000002] [0.20330000000000001:0.31840000000000002] [0.19919999999999999:0.30399999999999999] [0.20349999999999999:0.31840000000000002] [0.19919999999999999:0.30399999999999999] [0.20660000000000001:0.31840000000000002] [0.19919999999999999:0.3009] [0.2112:0.31840000000000002] [0.19919999999999999:0.2974] [0.218:0.31840000000000002] [0.19919999999999999:0.28310000000000002] [0.94189322342034787:1.061931488291078] [0.92657586186979968:1.065423454986745] [0.88161788885235126:0.98016588532275517] [0.85192246584048303:0.97257053291536055] [0.82474874371859297:0.95636494771006131] [0.19943333333333335:0.31793333333333335] [0.19886666666666669:0.3167666666666667] [0.19973333333333337:0.32453333333333334] [0.19670000000000001:0.31553333333333333] [0.20010000000000003:0.33436666666666665] [0.19480000000000003:0.31436666666666668] [0.20040000000000005:0.3460333333333333] [0.19972920000000002:0.32107966666666665] [0.19905133333333336:0.31701653333333335] [0.19987080000000002:0.32615366666666668] [0.19841900000000001:0.31645013333333333] [0.19936416666666668:0.31822] [0.19920833333333335:0.31778000000000001] [0.19942833333333335:0.31864166666666666] [0.19911666666666666:0.31756000000000001] [0.19949250000000002:0.32061249999999997] [0.19902500000000001:0.31734000000000001] [-0.0065779585530826856:0.018362104578419358] [-0.010557743470163472:0.0082871460896140059] [0.2029:0.32269999999999999] [0.1986:0.30359999999999998]
tree_sizes=2314 2254 2462 2251 2465 2363 2346 2363 2467 2356 1936 2038 2455 2369 2057 2369 2150 1943 2123 2033 2264 1622 2183 2045 1416 2146 1955 1413 2159 1414 2155 2162 2169 2157 1847 1312 1954 1297 1300 1747 1730 2157 1417 1637 1843 1423 1736 1310 1533 1299 1948 1847 1729 1631 1841 1736 1744 1636 1642 1725 1740 1316 1422 1619 1633 1416 1529 1417 1416 1622 1524 1519 1637 1534 1423 1419 1431 1315 1529 1630 1299 1425 1416 1410 1320 1419 1413 1208 1308 1306 1328 1321 1312 1312 1416 1423 1406 1206 1203 1310

Tree=0
num_leaves=21
num_cat=0
split_feature=42 23 41 22 61 42 11 40 32 22 40 41 0 27 36 38 63 15 3 0
split_gain=146.59 75.0228 73.0565 46.0071 48.0782 39.84 35.1661 34.6719 30.9404 26.2989 89.1277 28.4177 19.1865 38.3662 34.2933 13.7243 4.33585 0.428802 0.179947 1.42109e-14
threshold=0.88850657501879715 0.29274425000000009 0.94140186847290608 0.26264750000000003 -0.002327298047842596 0.87030989169099282 0.0011475758909684499 0.92409660254398174 0.21600000000000003 0.27558100000000008 0.95839743589743598 0.92924708162099756 0.25835000000000002 0.26855000000000007 0.27745000000000003 0.99460128312118035 0.26815000000000005 -92.679543929737818 0.27185000000000004 0.24215000000000003
decision_type=10 10 8 10 2 10 2 10 10 10 10 10 2 2 10 10 2 2 2 2
left_child=1 2 3 4 -1 -6 -5 -7 -2 11 -11 -10 17 14 -14 -4 -15 -13 -18 -19
right_child=8 -3 15 6 5 7 -8 -9 9 10 -12 12 13 16 -16 -17 18 19 -20 -21
leaf_value=-1.1434347901297572 -1.0322811802351834 -1.2206432954472837 -1.0703109383079648 -0.77750195366892061 -0.82838394355131428 -0.9177119694266207 -0.97626135525287694 -1.1305734780232952 -1.0718430367753038 -1.214708134920544 -0.90048775347129073 -1.2190373108341659 -1.0103804236048401 -1.1715854842184505 -1.1817993586665887 -1.2046461830900554 -1.2243152064693648 -1.2377068819616603 -1.2377068819616603 -1.2377068819616603
leaf_weight=18.865426227450371 19.238999024033546 17.371135041117668 14.75612546503544 18.678639829158783 15.690057456493376 15.129698261618616 16.250416651368141 14.756125465035437 22.040794998407364 21.4804358035326 14.942911863327025 15.876843854784964 22.601154193282127 14.942911863327025 22.974726989865303 14.942911863327025 14.756125465035437 28.578318938612938 29.138678133487701 20.733290210366249
leaf_count=101 103 93 79 100 84 81 87 79 118 115 80 85 121 80 123 80 79 153 156 111
internal_value=-1.10622 -1.02787 -1.00193 -0.96129 -1.01079 -0.955878 -0.869973 -1.02281 -1.15261 -1.16276 -1.0858 -1.17739 -1.1911 -1.16484 -1.09679 -1.1379 -1.21756 -1.23316 -1.2332 -1.23771
internal_weight=0 146.441 129.069 99.3704 64.4413 45.5759 34.9291 29.8858 247.305 228.066 36.4233 191.643 169.602 104.414 45.5759 29.699 58.8377 65.1885 43.8948 49.3116
internal_count=2108 784 691 532 345 244 187 160 1324 1221 195 1026 908 559 244 159 315 349 235 264
is_linear=0
shrinkage=1


Tree=1
num_leaves=20
num_cat=0
split_feature=42 36 33 42 35 41 22 34 22 62 11 16 63 54 12 11 28 41 27
split_gain=116.685 61.839 49.9535 46.1072 26.2815 72.5751 25.4403 76.9251 25.4394 33.4204 27.0184 14.2893 10.8469 19.9912 28.4179 4.9767 1.14092 0.00586448 0.000178068
threshold=0.88850657501879715 0.30955000000000005 0.24885000000000004 0.83766265432594278 0.21175000000000002 0.9456631090893185 0.27558100000000008 0.29560000000000003 0.26264750000000003 0.22055000000000002 0.0010008971623996778 35.489056732456071 0.26805000000000007 0.25860625000000009 -0.00035883325680348231 -0.00091222525948959899 0.27725000000000005 0.93692721255457567 0.27165000000000006
decision_type=10 8 10 8 10 10 10 10 10 2 2 10 2 2 2 2 2 10 2
left_child=1 8 -3 -4 5 -2 11 -8 9 -1 -11 -6 13 15 -15 -13 -5 -17 -14
right_child=4 2 3 16 6 -7 7 -9 -10 10 -12 12 18 14 -16 17 -18 -19 -20
leaf_value=0.19305151271246851 0.17113539267259431 0.15187001681221013 0.086606659080157591 -0.13047656521153286 0.0060703870229461753 -0.10898134876024886 0.15598895312683672 -0.13013353513811957 0.19396807248547038 -0.046640962238923139 0.12496925981330748 -0.060563930559687208 -0.12791231824669624 -0.097769601644711324 0.044001873331074845 -0.13004659070914135 -0.094185455830176928 -0.12756000863120426 -0.12748193553274062
leaf_weight=17.791441231966019 18.515142396092415 15.38004946708679 16.161043882369995 20.296122938394547 19.662120908498764 17.62483848631382 18.973417371511459 17.759345233440399 31.237287044525146 20.629614919424057 15.827919349074362 14.370256856083868 15.114404603838919 27.141659811139107 28.085856631398201 14.905247315764425 14.497626364231108 24.44455124437809 24.757376775145531
leaf_count=92 97 77 79 111 109 95 97 98 155 109 79 80 86 148 150 82 82 140 142
internal_value=0 0.0673905 -0.00419405 -0.0513 -0.0431662 0.0345273 -0.0568487 0.0176561 0.122938 0.0820381 0.0278631 -0.0730924 -0.0835515 -0.0674145 -0.025672 -0.110328 -0.115355 -0.128502 -0.127645
internal_weight=0 151.821 66.3348 50.9548 241.354 36.14 205.214 36.7328 85.4863 54.249 36.4575 168.481 148.819 108.948 55.2275 53.7201 34.7937 39.3498 39.8718
internal_count=2108 784 349 272 1324 192 1132 195 435 280 188 937 828 600 298 302 193 222 228
is_linear=0
shrinkage=0.0988046


Tree=2
num_leaves=22
num_cat=0
split_feature=42 23 41 13 61 4 39 17 42 17 60 25 39 2 16 42 42 32 26 39 5
split_gain=94.1423 48.3572 42.8561 25.0853 30.4186 25.0505 16.4488 22.9302 17.6652 15.0147 13.8384 13.2953 29.3911 11.1689 8.07766 7.40605 2.588 0.1876 0.415941 0.0102125 0.00974469
threshold=0.88850657501879715 0.29274425000000009 0.94140186847290608 0.00045910359469188876 -0.002327298047842596 0.0014642857142857177 1.0256577072432365 2.1122646445643327 0.90411327614811687 1.1988346432249111 0.00024894560790517112 0.26985000000000003 0.99524591512496408 0.26655000000000006 45.727598083601571 0.92903062722471297 0.90773446531619573 0.27925000000000005 0.27520000000000006 0.97841091616865816 21.693937562411801
decision_type=10 10 8 2 2 2 10 2 10 2 2 2 10 2 10 10 10 10 2 10 2
left_child=1 2 3 4 -1 -2 7 8 10 14 -7 12 15 -4 -6 16 -10 18 -13 -18 -19
right_child=5 -3 13 -5 9 6 -8 -9 11 -11 -12 17 -14 -15 -16 -17 19 20 -20 -21 -22
leaf_value=0.044007607002064762 0.060224868546688515 -0.10646638256678796 0.031556098145434593 0.007992840840380086 0.15165718794826955 0.067507961198320657 0.048334081994897367 0.044116521520731977 -0.079165767104024357 0.096256990487691207 -0.068074477662746186 -0.1276015413694965 0.034510807871904269 -0.090803266732676149 0.23951940724805107 -0.038814752554988063 -0.12511225983595275 -0.12551071089660501 -0.10325622894933885 -0.12849244783904815 -0.12922382248882633
leaf_weight=28.735739588737488 21.963602960109711 15.556477040052412 14.593797683715822 21.026454955339432 18.19681790471077 14.926542639732363 15.235667064785956 19.298145025968552 16.435478881001472 19.718903854489326 14.47672878205776 14.177030101418497 23.769205763936043 14.536965712904928 23.287696108222008 18.495069175958633 20.366861417889595 13.749506041407587 13.257846176624296 15.266311600804327 13.850710004568098
leaf_count=145 118 93 80 100 88 82 82 100 96 92 82 82 128 79 107 103 123 83 80 87 78
internal_value=0 0.058801 0.0771525 0.105152 0.127867 -0.0402488 -0.0505944 -0.0582041 -0.0692495 0.167239 0.000753818 -0.0830297 -0.060514 -0.0295042 0.200979 -0.0925229 -0.1116 -0.121623 -0.115837 -0.12656 -0.127374
internal_weight=0 155.653 140.096 110.966 89.9392 235.269 213.305 198.069 178.771 61.2034 29.4033 149.368 94.3329 29.1308 41.4845 70.5637 52.0687 55.0351 27.4349 35.6332 27.6002
internal_count=2108 784 691 532 432 1324 1206 1124 1024 287 164 860 537 159 195 409 306 323 162 210 161
is_linear=0
shrinkage=0.0988046


Tree=3
num_leaves=20
num_cat=0
split_feature=42 21 36 42 5 5 62 42 22 34 41 41 61 27 4 26 34 22 63
split_gain=76.6021 46.0405 32.9292 25.2614 19.9945 33.3332 24.1933 17.5712 22.0088 60.5147 21.926 10.7465 8.8628 7.26452 22.0264 7.01108 4.35652 0.0778768 0.0141686
threshold=0.88850657501879715 0.20761000000000004 0.30955000000000005 0.83766265432594278 22.767901130788747 38.449219993571681 0.23190000000000002 0.95456977638163465 0.27558100000000008 0.29560000000000003 0.92924708162099756 0.91743082943511545 -0.002780005549018832 0.26855000000000007 0.0023214285714285719 0.21275000000000002 0.27575000000000005 0.27460100000000004 0.26955000000000007
decision_type=8 10 10 10 2 2 2 8 10 10 10 10 2 2 2 2 10 10 2
left_child=2 -2 4 -4 11 6 -6 8 10 -10 -3 -1 -12 14 15 -14 -17 18 -15
right_child=1 7 3 -5 5 -7 -8 -9 9 -11 12 -13 13 17 -16 16 -18 -19 -20
leaf_value=0.1916053041949263 0.13802527963791733 0.025774123215900058 0.068805206555672904 -0.096994301901425717 -0.084401015483256195 0.16265144220091737 0.081475056102553733 0.029894568007584034 0.13234582431752351 -0.12483780810163586 -0.019018900593667603 0.090094069914933766 -0.028425280013207248 -0.12610695644446585 0.039845891783353751 -0.12375345738574865 -0.067536647474274125 -0.1145480318849913 -0.12189841860688241
leaf_weight=21.753068059682846 14.680923029780386 22.232181042432785 16.959377646446228 19.045994564890862 17.885724410414696 17.518433153629303 16.505095139145851 29.132543846964836 20.160800531506538 16.035667061805725 20.813668623566628 19.138533815741539 13.458161547780035 13.924743399024011 14.391634806990622 44.821365371346474 19.231625825166702 12.537807166576384 17.782138705253601
leaf_count=97 73 116 79 121 88 80 77 148 97 98 120 93 74 83 78 281 108 81 116
internal_value=0 -0.0319201 0.0613044 -0.0188988 0.0924221 0.0517168 -0.00479255 -0.0421235 -0.0518643 0.018409 -0.0660593 0.144095 -0.0790667 -0.0882466 -0.0724107 -0.0932536 -0.106875 -0.12114 -0.123747
internal_weight=0 259.203 128.806 36.0054 92.8009 51.9093 34.3908 244.522 215.39 36.1965 179.193 40.8916 156.961 136.147 91.9028 77.5112 64.053 44.2447 31.7069
internal_count=2108 1473 635 200 435 245 165 1400 1252 195 1057 190 941 821 541 463 389 280 199
is_linear=0
shrinkage=0.0988046


Tree=4
num_leaves=22
num_cat=0
split_feature=23 42 23 33 13 42 40 22 40 40 6 39 41 39 41 15 10 39 4 41 34
split_gain=67.4399 58.717 27.2426 60.6301 21.1338 25.9951 15.9139 48.4289 33.6994 15.6031 14.9896 11.4751 9.04486 8.34362 7.44587 1.66968 0.891222 0.784947 0.646538 0.0387498 0.0144462
threshold=0.20984700000000003 0.88850657501879715 0.29274425000000009 0.24530000000000005 0.00042524335203354951 0.87420034671989555 0.96411162415051843 0.27580900000000003 0.96611382455686401 0.93984269123818598 47.67525649384082 1.0252723937675541 0.94144763624134942 0.99682324128880229 0.95585822520822061 -92.679543929737818 27.433244304812607 1.0387144881571981 0.0024357142857142776 0.94268630145850407 0.25390000000000007
decision_type=8 10 8 10 2 10 10 10 10 10 2 10 10 10 10 2 10 8 2 10 10
left_child=-1 2 4 -4 5 10 9 8 -8 -3 -2 14 -10 16 15 -11 -14 -5 19 20 -17
right_child=1 6 3 17 -6 -7 7 -9 12 11 -12 -13 13 -15 -16 18 -18 -19 -20 -21 -22
leaf_value=0.19421107574768648 0.18398344820614473 0.013601005618123803 0.1258575579150023 -0.097508271489616438 -0.013193113164915086 0.014701880047180158 0.09778708706583146 0.15860818329113741 -0.0026289843104534676 -0.080697174675377112 0.077246157344954575 0.0045791995669919074 -0.093779764439421293 -0.020236499134180821 -0.03911787320862592 -0.12429028312632388 -0.12407288736742594 -0.1306870845268808 -0.10028531624725441 -0.12822437277550758 -0.11954744425558418
leaf_weight=16.51045460999012 26.307241395115852 19.935009479522705 15.976154133677481 12.940947324037554 25.71157343685627 28.865349754691124 14.035565510392187 13.811452165246008 14.920072525739668 15.502601325511931 25.098455026745796 13.046788826584814 15.645088359713553 12.738017186522482 18.646465569734573 11.87396287918091 24.063514247536659 15.06413286924362 15.458930715918539 14.321119919419287 13.282902851700781
leaf_count=73 121 114 71 88 124 137 84 64 90 95 113 73 96 75 109 75 152 83 95 83 93
internal_value=0 -0.00991827 0.0376371 -0.0277349 0.0647655 0.0897364 -0.0427401 -0.0124637 -0.0414893 -0.0663559 0.13187 -0.0819625 -0.0705069 -0.0898169 -0.0946367 -0.109333 -0.112137 -0.115355 -0.117414 -0.124122 -0.121786
internal_weight=0 367.245 149.964 43.9812 105.983 80.271 217.281 95.2137 81.4023 122.068 51.4057 102.133 67.3667 52.4466 89.086 70.4395 39.7086 28.0051 54.9369 39.478 25.1569
internal_count=2108 2035 737 242 495 371 1298 561 497 737 234 623 413 323 550 441 248 171 346 251 168
is_linear=0
shrinkage=0.0988046


Tree=5
num_leaves=21
num_cat=0
split_feature=23 42 23 21 13 42 40 22 40 11 6 40 40 12 10 17 61 61 19 39
split_gain=53.6634 49.3407 21.8684 50.6906 17.0737 19.1143 13.7757 38.2035 27.6908 15.3143 9.8564 8.70435 10.0515 8.47279 9.79512 3.02958 0.88498 0.749863 0.738759 0.00849391
threshold=0.20980850000000004 0.88850657501879715 0.29274425000000009 0.25435000000000002 0.00042524335203354951 0.87237727538707299 0.96411162415051843 0.27580900000000003 0.96611382455686401 -0.0013345620080261187 47.67525649384082 0.97322558770343581 0.96843433291756309 3.864915876950756e-05 39.32752654527075 -0.602131778621806 -0.0016311626014460787 -0.0012891552421789713 0.27146500000000007 0.97885580094599223
decision_type=8 10 8 10 2 10 10 10 10 2 2 10 8 2 10 2 2 2 2 10
left_child=-1 2 4 -4 5 10 9 8 -8 -3 -2 12 -10 16 15 -15 -11 -13 -5 -18
right_child=1 6 3 18 -6 -7 7 -9 11 13 -12 17 -14 14 -16 -17 19 -19 -20 -21
leaf_value=0.17865739655983404 0.15828351887324829 0.0074885281979937121 0.10937588426628883 -0.12592394077535665 -0.013026552625960874 0.020130073854245523 0.083353267906932926 0.13591093531286802 -0.10214704672638129 -0.091685891343297923 0.071318394246891778 -0.089529230606657892 0.0049363074448924796 -0.056731349844155954 -0.0014071772936253208 -0.12319703649490789 -0.1190351733632585 -0.12219736549043447 -0.092368770876102124 -0.12242918581100506
leaf_weight=15.520504549145697 26.648077234625816 24.259281158447266 16.534529134631157 15.004920095205309 25.793562084436417 32.859434500336647 14.795022293925284 14.485413253307341 13.613707527518271 14.91380195319652 24.346965089440346 12.100486472249033 23.039784938097 12.850334838032724 21.123412758111954 13.976438611745833 11.829706892371183 15.836925879120825 11.176153242588041 18.386744245886803
leaf_count=65 117 146 71 91 125 154 84 64 88 95 107 81 138 80 118 91 85 106 80 122
internal_value=0 -0.0089461 0.0339088 -0.0260637 0.0572723 0.0788962 -0.0398608 -0.011649 -0.038574 -0.0624302 0.116763 -0.0665023 -0.0348362 -0.0806529 -0.0517328 -0.0913592 -0.11138 -0.108048 -0.1116 -0.1211
internal_weight=0 363.575 152.364 42.7156 109.648 83.8545 211.211 93.8713 79.3859 117.34 50.995 64.5909 36.6535 93.0804 47.9502 26.8268 45.1303 27.9374 26.1811 30.2165
internal_count=2108 2043 745 242 503 378 1298 561 497 737 224 413 226 591 289 171 302 187 171 207
is_linear=0
shrinkage=0.0988046


Tree=6
num_leaves=21
num_cat=0
split_feature=40 14 41 35 39 39 36 41 38 32 22 26 25 32 11 12 8 26 12 42
split_gain=44.045 37.238 23.9738 25.7472 45.7952 26.631 30.0979 21.0381 17.5769 16.1298 48.3897 17.399 15.9863 14.4976 13.0229 11.0088 8.231 2.60346 0.984643 0.0175904
threshold=0.93228854350305823 -25.460191981931185 0.95653720629324257 0.21160000000000004 0.97864327753599201 1.0248012230613233 0.2979500000000001 0.95510494341386121 1.0017478623043832 0.27925000000000005 0.27094200000000007 0.21905000000000002 0.25835000000000002 0.23440000000000003 0.00044118390776022592 0.00010259947156623505 41.057942657591589 0.27325000000000005 0.0010939876554659428 0.92532531607857649
decision_type=10 2 8 10 10 8 8 10 10 10 10 2 2 10 2 2 2 2 2 8
left_child=1 13 3 4 -2 7 -7 8 9 10 11 -5 -13 -1 17 -8 -15 19 -10 -4
right_child=2 -3 14 5 -6 6 15 -9 18 -11 -12 12 -14 16 -16 -17 -18 -19 -20 -21
leaf_value=0.17524760759775873 0.19126434555533489 -0.051722796545507418 -0.11777095652737897 0.056638012843243837 -0.02214943113103918 0.14516741692952212 -0.068779475592785091 0.080700910684332369 -0.12697448903375644 -0.11526737093241468 0.12318626917949219 -0.11566965667485504 -0.0085034710372200849 0.11735549104483796 0.015185699893348191 0.038903475148262943 0.01709375556860062 -0.065740456882195653 -0.091798784035051803 -0.12262428144217859
leaf_weight=20.72698013484478 16.891629785299301 18.60176083445549 14.692615889012815 11.77333105355501 23.433036595582962 17.910448357462883 17.170802883803844 12.895770914852617 20.91774670034647 18.667737364768982 19.525468669831753 35.93465268611908 21.852900557219982 16.639773443341255 11.383393496274946 20.138529106974602 15.383485689759253 12.148719117045401 12.35857170820236 14.470653831958769
leaf_count=89 76 86 110 67 126 80 99 70 130 135 93 239 126 83 68 96 79 81 81 94
internal_value=0 0.0684767 -0.0178322 -0.00504139 0.0672476 -0.0189792 0.0398856 -0.0400964 -0.0511421 -0.0317581 -0.014259 -0.0528394 -0.0751438 0.110864 -0.0783867 -0.0106552 0.0691913 -0.10417 -0.11391 -0.120179
internal_weight=0 71.352 302.166 249.471 40.3247 209.146 55.2198 153.926 141.03 107.754 89.0864 69.5609 57.7876 52.7502 52.6954 37.3093 32.0233 41.312 33.2763 29.1633
internal_count=2108 337 1771 1418 202 1216 275 941 871 660 525 432 365 251 353 195 162 285 211 204
is_linear=0
shrinkage=0.0988046


Tree=7
num_leaves=21
num_cat=0
split_feature=23 42 62 33 33 39 1 16 33 39 16 39 4 11 4 32 41 59 16 42
split_gain=35.8848 34.8799 18.5924 21.0036 35.2574 17.994 31.5793 16.1491 20.6799 15.0575 20.1307 15.3238 17.2074 10.5854 6.96983 8.18122 1.74164 0.678081 0.0792973 0.00682178
threshold=0.20980850000000004 0.9049993917503879 0.22005000000000005 0.26230000000000003 0.26320000000000005 1.0439886044468651 0.27275000000000005 45.18872756164226 0.24845000000000003 0.99524591512496408 43.35735797460017 1.0072650218512396 0.0023000000000000065 -0.0010912011374491352 0.0023142857142857153 0.21600000000000003 0.93692721255457567 0.27714875000000011 42.49446829059606 0.92837522617088752
decision_type=8 10 2 8 10 10 2 10 10 10 10 10 2 2 2 10 10 2 10 10
left_child=-1 2 -2 7 -5 6 -6 13 -9 14 -11 12 -12 -4 15 -3 -17 -8 -18 -20
right_child=1 9 3 4 5 -7 17 8 -10 10 11 -13 -14 -15 -16 16 18 -19 19 -21
leaf_value=0.14289116002083191 0.11014309936003623 -0.017306066680033524 -0.019840180102746369 0.16660361998108378 0.064193452036606827 0.072120991533255824 -0.086974058656427197 0.057961436488640272 -0.080480348792466419 0.06016355618267278 0.076356657070842479 -0.10778970636995996 -0.086882948859256237 -0.12181191934325412 0.00047637709442695177 -0.077323289036277887 -0.10727560022530369 -0.12021943963085366 -0.11608762656654147 -0.11930642805191422
leaf_weight=16.079798340797424 19.786490246653557 13.943284675478933 19.494555324316025 17.939120054244995 19.848353251814842 29.184940218925476 11.513035476207735 32.612958870828152 15.558496341109274 25.277856051921844 14.184480011463167 22.684385381639004 11.347024880349634 20.27298891544342 10.807038269937037 18.425458841025829 10.316005066037176 12.483261972665785 14.545792132616045 11.517395608127115
leaf_count=65 89 79 108 75 98 124 75 156 92 145 81 151 81 118 68 136 80 87 118 82
internal_value=0 -0.00804701 0.01926 0.00920872 0.0424941 0.0120077 -0.0280064 -0.0252235 0.0132473 -0.0434981 -0.0112543 -0.0486961 0.00380771 -0.0718241 -0.0732853 -0.0848805 -0.102073 -0.104269 -0.114608 -0.11751
internal_weight=0 351.743 198.694 178.908 90.9687 73.0296 43.8447 87.939 48.1715 153.049 73.4937 48.2159 25.5315 39.7675 79.555 68.7479 54.8047 23.9963 36.3792 26.0632
internal_count=2108 2043 1022 933 459 384 260 474 248 1021 458 313 162 226 563 495 416 162 280 200
is_linear=0
shrinkage=0.0988046


Tree=8
num_leaves=22
num_cat=0
split_feature=40 15 41 35 39 40 39 39 4 40 42 11 11 40 30 5 62 48 39 8 42
split_gain=29.7808 31.7575 19.3062 18.2793 33.0591 19.5758 28.6507 24.1615 20.3349 18.841 15.2141 17.2361 12.8236 11.4164 7.92898 3.25011 2.79472 0.321983 0.298682 0.210173 0.0124853
threshold=0.93228854350305823 81.73010913189502 0.95653720629324257 0.21160000000000004 0.97864327753599201 0.96411162415051843 0.99524591512496408 1.0485220360165208 0.0024142857142857134 0.97019167311817045 0.90296445659603564 -0.00080814833949542631 0.00045636389874738342 0.91544773352274034 0.27595000000000008 28.06030413686123 0.27485000000000004 0.26518333333333349 0.97493333144670469 50.398944015572226 0.92532531607857649
decision_type=10 2 8 10 10 10 10 8 2 10 10 2 2 8 2 2 2 2 10 2 8
left_child=1 13 3 4 -2 7 9 8 10 -7 11 -5 16 -1 18 17 20 -10 -12 -19 -4
right_child=2 -3 12 5 -6 6 -8 -9 15 -11 14 -13 -14 -15 -16 -17 -18 19 -20 -21 -22
leaf_value=0.033693387607208705 0.15818296249895944 -0.057871076868819385 -0.11414340952663792 0.096463202866797701 -0.021477353226395993 0.046510785355737369 0.10900521876032671 0.046150984023424262 -0.12927584034135259 -0.10988474073033852 -0.093864701024116037 -0.048670444244067607 0.022559473895404931 0.12777037035733324 -0.0084997014878899404 -0.060049441508199311 -0.055735629489567382 -0.11867692355090258 -0.11825503308905688 -0.099759526242261448 -0.11836099268667226
leaf_weight=19.927638292312622 17.593003988265991 18.153046749532223 13.652201950550081 17.211620911955833 23.162738054990768 14.861137203872206 25.9886120185256 28.246827274560928 14.259129904210566 15.222713619470595 9.4949493482708949 14.907194703817366 10.746747344732283 34.211642764508724 13.696612395346163 12.869795985519884 10.226730890572069 13.147392116487028 10.131688617169855 10.167022444307802 13.756723560392855
leaf_count=99 76 83 119 84 126 83 128 128 84 107 82 86 65 155 99 79 67 101 77 78 102
internal_value=0 0.055222 -0.0156751 -0.00423869 0.0560765 -0.0165171 0.0330172 -0.0357876 -0.05576 -0.0326268 -0.0194223 0.0291028 -0.0726322 0.0931424 -0.0661934 -0.102902 -0.0998139 -0.11758 -0.106456 -0.110427 -0.11626
internal_weight=0 72.2923 289.343 240.96 40.7557 200.205 56.0725 144.132 115.885 30.0839 65.4421 32.1188 48.3824 54.1393 33.3233 50.4433 37.6357 37.5735 19.6266 23.3144 27.4089
internal_count=2108 337 1771 1418 202 1216 318 898 770 190 428 170 353 254 258 342 288 263 159 179 221
is_linear=0
shrinkage=0.0988046


Tree=9
num_leaves=21
num_cat=0
split_feature=23 42 36 23 35 42 38 54 31 39 4 38 42 22 6 39 24 8 42 4
split_gain=26.2461 27.4544 19.0386 15.7672 25.3482 14.8305 21.9642 14.1061 37.2987 17.8527 20.5171 15.4641 12.7542 12.1929 11.3287 4.03837 3.71858 0.633643 0.0526708 0.00156619
threshold=0.20980850000000004 0.87936824750575204 0.30955000000000005 0.21801124999999999 0.21160000000000004 0.95456977638163465 0.99633057789690238 0.25860625000000009 0.26275000000000004 0.98250481497041864 0.0019892857142857156 0.97918307189682308 0.83923372352042647 0.27445250000000004 57.548911037283169 1.0248012230613233 0.20970000000000003 27.661273723022052 0.90296445659603564 0.0019714285714285749
decision_type=8 8 10 8 8 8 8 2 2 10 2 10 10 10 2 10 2 2 10 2
left_child=-1 2 14 16 -5 7 -7 11 -9 -10 13 -6 -4 -11 -2 -12 -3 -13 -19 -20
right_child=1 3 12 4 5 6 -8 8 9 10 15 17 -14 -15 -16 -17 -18 18 19 -21
leaf_value=0.12206367676428184 0.1110956479164997 -0.058307477417876508 0.030356881483843159 0.11774839295416988 0.022210406755837041 -0.054211575356596001 0.10557150656729436 0.10714980990582772 0.071050512586905951 -0.042175512707690668 -0.098004052148392959 -0.088212550713398674 -0.095292930481538404 0.088807368259696567 0.020465018899391001 -0.03706717111386279 -0.13202916141409335 -0.1220872711721907 -0.11229661033626467 -0.11411479601689742
leaf_weight=16.013561859726906 33.60792900621891 13.120871163904669 19.704177290201187 13.112112939357756 11.357420407235621 14.911715410649775 19.228581756353378 19.721988081932068 12.317719355225561 15.878607586026193 52.48142945766449 10.749418146908281 13.149568468332289 12.321778587996958 22.46410770714283 13.309442169964312 13.605745121836661 10.103076949715616 9.1377682387828845 9.3655435368418676
leaf_count=65 146 78 93 61 64 86 90 108 61 115 379 89 103 67 102 77 82 70 88 84
internal_value=0 -0.00737657 0.0397918 -0.0241061 -0.0155474 -0.0238353 0.0357818 -0.0353511 -0.0176446 -0.040796 -0.0554537 -0.0793545 -0.0199339 0.0150557 0.0747864 -0.0856766 -0.095837 -0.108664 -0.11635 -0.113217
internal_weight=0 339.649 88.9258 250.723 223.997 210.884 34.1403 176.744 126.031 106.309 93.9913 50.7132 32.8537 28.2004 56.072 65.7909 26.7266 39.3558 28.6064 18.5033
internal_count=2108 2043 444 1599 1439 1378 176 1202 807 699 638 395 196 182 248 456 160 331 242 172
is_linear=0
shrinkage=0.0988046


Tree=10
num_leaves=17
num_cat=0
split_feature=23 42 36 22 35 9 34 22 63 30 39 32 6 5 15 40
split_gain=21.6274 22.9566 15.8432 14.2068 19.3384 13.4879 13.3181 27.6071 20.1572 33.2211 19.281 20.3229 10.7236 3.88536 0.919692 0.00772267
threshold=0.20980850000000004 0.87420034671989555 0.30955000000000005 0.21438450000000001 0.21160000000000004 76.308597306450196 0.29560000000000003 0.27580900000000003 0.26845000000000008 0.27585000000000004 0.97968386501076343 0.27495000000000008 47.327380952380949 28.06030413686123 -64.097058723831864 0.96549228504776241
decision_type=8 8 10 8 8 10 10 10 2 2 8 10 2 2 2 10
left_child=-1 2 5 -3 -5 -2 7 8 9 10 13 -12 -4 -6 -10 -16
right_child=1 3 12 4 6 -7 -8 -9 14 -11 11 -13 -14 -15 15 -17
leaf_value=0.11116221346650591 0.11508811351318522 -0.093667127734293462 0.044106012508830367 0.094361882114270504 -0.10701091558410157 0.012656814687615673 -0.11746251266378566 0.095913584632999052 -0.079072654206010715 0.14242937886815829 0.021346235189435975 -0.089259418917453093 -0.071114192896165385 -0.044629461058753976 -0.11431171988185476 -0.11831348953795669
leaf_weight=15.854230910539625 29.745405524969101 24.312933713197708 14.878070779144766 14.963255167007445 25.728042870759964 21.708749651908875 13.331424728035925 19.583759263157845 9.8380262255668658 12.301100969314573 74.73939972370863 20.711711056530476 16.778800994157791 15.692000545561312 9.2630689889192599 9.5732429102063161
leaf_count=65 127 154 90 68 237 96 106 91 79 64 426 133 102 111 84 75
internal_value=0 -0.00695205 0.0380348 -0.0219054 -0.0141759 0.0718719 -0.0218816 -0.0154276 -0.027688 -0.0131042 -0.0270825 -0.00265382 -0.0169631 -0.0833777 -0.103557 -0.116346
internal_weight=0 333.149 83.111 250.038 225.725 51.4542 210.762 197.43 177.847 149.172 136.871 95.4511 31.6569 41.42 28.6743 18.8363
internal_count=2108 2043 415 1628 1474 223 1406 1300 1209 971 907 559 192 348 238 159
is_linear=0
shrinkage=0.0988046


Tree=11
num_leaves=18
num_cat=0
split_feature=23 22 33 39 3 32 59 30 4 5 4 41 34 41 60 5 17
split_gain=18.7552 24.4177 29.1283 24.8402 19.1218 16.7864 20.8515 23.2213 14.2808 15.4403 14.1909 9.00796 14.7363 7.7261 7.38195 5.73588 0.309044
threshold=0.20987900000000004 0.21438450000000001 0.21160000000000004 1.0248012230613233 0.21485000000000001 0.23035000000000003 0.27044875000000007 0.27585000000000004 0.002021428571428572 17.759897747736478 0.0032035714285714272 0.94439698352162083 0.27735000000000004 0.94116515837104076 0.00044545666185558114 18.50883904187376 0.57650735971261924
decision_type=8 8 8 10 2 8 2 2 2 2 2 10 10 10 2 2 2
left_child=-1 -2 -3 4 -4 -6 7 8 13 -10 15 14 -13 -7 -8 -5 -16
right_child=1 2 3 10 5 6 11 -9 9 -11 -12 12 -14 -15 16 -17 -18
leaf_value=0.094072431854059321 -0.11352790521399811 0.13502400551981655 0.096825308307228283 0.048607850623135357 -0.1275657257595578 -0.012813448535198653 -0.035628537081751434 0.1205775955292521 0.07304006857788603 -0.020710809673943856 -0.0040882805447199303 -0.090593037763876449 0.061058393480427534 -0.10221279306748349 -0.10918498624002786 0.12928386595936164 -0.12920614669162994
leaf_weight=18.901256710290909 19.789179064333439 14.782013505697249 12.414602033793924 16.597068190574646 15.725711017847059 17.173722483217716 15.700476728379725 14.386969342827795 26.469949193298817 48.706663385033607 28.19832406938076 12.864618934690954 12.1756659373641 20.949243061244488 15.050884649157526 17.862659119069576 15.055337101221083
leaf_count=81 138 63 76 79 106 112 123 73 150 297 141 98 73 186 123 84 105
internal_value=0 -0.00718068 -0.000260499 -0.00717221 -0.0223933 -0.029301 -0.0215175 0.00233402 -0.0126807 0.0122992 0.047892 -0.0645049 -0.0168536 -0.06194 -0.0905535 0.0904273 -0.119197
internal_weight=0 323.903 304.114 289.332 226.674 214.259 198.534 127.687 113.3 75.1766 62.6581 70.847 25.0403 38.123 45.8067 34.4597 30.1062
internal_count=2108 2027 1889 1826 1522 1446 1340 818 745 447 304 522 171 298 351 163 228
is_linear=0
shrinkage=0.0988046


Tree=12
num_leaves=22
num_cat=0
split_feature=37 39 22 11 5 41 62 22 16 5 4 0 2 22 40 50 7 42 39 4 5
split_gain=16.3614 21.0444 19.4521 25.4033 24.0258 14.5466 27.9434 17.992 14.7262 14.0216 11.9555 15.8076 10.1969 9.25671 6.73674 4.35784 1.71469 0.819597 0.328843 0.0446301 0.0281875
threshold=0.26675000000000004 0.97771326613435472 0.27558100000000008 0.00091857938625161683 42.130242503881597 0.94144763624134942 0.22005000000000005 0.27124100000000001 57.724774675183177 22.986207279088454 0.0023214285714285719 0.26705000000000007 0.22500000000000001 0.26184650000000004 0.93097742824083285 0.2116393 25.000000000000259 0.9049993917503879 0.98177271007297495 0.0020071428571428597 15.425827511665073
decision_type=10 10 10 2 2 8 2 10 10 2 2 2 2 10 10 2 2 10 8 2 2
left_child=2 -2 4 -4 5 6 -1 10 9 12 15 -12 -8 -14 -11 -7 -3 -16 -17 -20 -18
right_child=1 16 3 -5 -6 7 8 -9 -10 14 11 -13 13 -15 17 18 20 -19 19 -21 -22
leaf_value=0.090061457875848239 0.045553591289102323 -0.064895071306383917 0.12755863828937625 -0.024887537819301669 0.11711002883164524 -0.041726373832365202 0.072255694340091395 0.048177801941069034 0.054630512505819906 -0.025196991818680608 0.061166114206693399 -0.084308172148337857 -0.073838895772250501 0.032008678666072279 -0.12821633244772951 -0.10028348440983027 -0.11183238135652794 -0.090594184738861883 -0.11515172489569578 -0.12443908132715392 -0.11892402192021438
leaf_weight=31.711769238114357 13.876243934035299 9.6006325110793096 26.910632967948914 17.683319106698036 15.061544515192507 11.609652578830717 13.855663053691385 17.559621021151543 22.905466757714748 13.659519270062445 14.235468573868276 14.950183779001234 18.934944689273834 14.051399573683737 13.618845395743849 14.434065759181975 13.562073588371279 9.6642538756132108 10.07032408565283 10.134845443069933 9.1721448525786382
leaf_count=151 85 84 116 87 64 86 71 103 108 62 78 97 122 95 83 148 135 101 86 73 73
internal_value=0 -0.0562287 0.00705816 0.0671075 -0.00380715 -0.0116776 0.00862897 -0.0418997 -0.0155754 -0.0347687 -0.0628679 -0.0133523 0.00112681 -0.0287503 -0.080283 -0.094115 -0.0999077 -0.1126 -0.111673 -0.11981 -0.114694
internal_weight=0 46.2111 291.052 44.594 246.458 231.396 138.402 92.9942 106.69 83.7846 75.4345 29.1857 46.842 32.9863 36.9426 46.2489 32.3349 23.2831 34.6392 20.2052 22.7342
internal_count=2108 377 1731 203 1528 1464 793 671 642 534 568 175 288 217 246 393 292 184 307 159 208
is_linear=0
shrinkage=0.0988046


Tree=13
num_leaves=21
num_cat=0
split_feature=37 39 22 11 5 24 22 41 62 16 35 4 17 5 2 7 8 41 22 5
split_gain=13.9479 18.6261 15.9814 20.7852 19.6946 13.3131 19.4729 21.2713 19.0869 16.539 13.5588 12.0455 6.07825 5.87198 5.79896 1.73758 0.745539 0.427708 0.0201334 0.0178637
threshold=0.26675000000000004 0.97771326613435472 0.27558100000000008 0.00091857938625161683 42.130242503881597 0.27225000000000005 0.27094200000000007 0.94144763624134942 0.22005000000000005 54.965443559263569 0.21160000000000004 0.0024928571428571443 -1.0981038415547093 18.925457857797628 0.27705000000000007 25.000000000000259 60.353741257374288 0.94350582980832154 0.21596150000000003 14.614462321708769
decision_type=10 10 10 2 2 2 10 8 2 10 10 2 2 2 2 2 2 10 10 2
left_child=2 -2 4 -4 5 6 7 8 -1 10 -10 12 -9 -12 16 -3 -7 -14 -19 -17
right_child=1 15 3 -5 -6 14 -8 11 9 -11 13 -13 17 -15 -16 19 -18 18 -20 -21
leaf_value=0.080478207124265941 0.040329092374721112 -0.061414389819813668 0.1157878017049461 -0.022603752760537891 0.10605092531954309 -0.080384481975090391 0.11720050062058873 -0.028472882107751653 0.050164783096382427 0.063212599404578948 -0.019331144345846318 0.015152466477962352 -0.088299077343590771 -0.087932342362048277 -0.012687377849876832 -0.11045590240026235 -0.11753611427610569 -0.11733243162005785 -0.11130618576493602 -0.11627694728347289
leaf_weight=31.966739684343338 14.112024836242197 9.1652307063341159 26.725606292486191 17.553288459777832 14.991849094629286 10.008621715009214 12.701296634972094 14.132345177233217 14.340139016509054 22.951552554965019 21.144626975059509 16.969123318791389 9.0541338622570056 28.733103029429913 11.459873653948305 11.690732084214689 11.144973292946814 9.0463337227702159 13.472795978188513 9.1942891925573331
leaf_count=151 85 84 116 87 64 87 61 112 68 112 134 94 66 207 72 127 80 74 146 81
internal_value=0 -0.0533067 0.00634816 0.0609258 -0.00363311 -0.010873 -0.00107791 -0.00934084 0.0151718 -0.00877741 -0.0345067 -0.0559359 -0.0823289 -0.0588503 -0.0692926 -0.0972794 -0.0999582 -0.106435 -0.113727 -0.113019
internal_weight=0 44.1623 286.396 44.2789 242.118 227.126 194.512 181.811 119.136 87.1694 64.2179 62.6747 45.7056 49.8777 32.6135 30.0503 21.1536 31.5733 22.5191 20.885
internal_count=2108 377 1731 203 1528 1464 1225 1164 672 521 409 492 398 341 239 292 167 286 220 208
is_linear=0
shrinkage=0.0988046


Tree=14
num_leaves=18
num_cat=0
split_feature=40 60 35 39 39 22 4 40 40 34 37 0 49 12 33 61 24
split_gain=11.9523 26.7061 12.2759 13.9995 13.2917 10.9891 10.9765 13.5392 13.1392 13.4241 7.8067 15.8847 16.6765 9.01279 7.47172 6.38489 1.21703
threshold=0.9337589663149205 0.0026814156664586868 0.27450000000000002 1.0248012230613233 1.0119932557638034 0.26264750000000003 0.0015750000000000022 0.9730846960116819 0.9597170949028403 0.23035000000000003 0.26465000000000005 0.26945000000000002 0.26618333333333338 -0.00038844799593632065 0.21495000000000003 -0.0026245768733151177 0.25875000000000004
decision_type=10 2 8 8 10 10 2 10 10 10 10 2 2 2 10 2 2
left_child=1 14 3 4 6 -5 -2 8 9 -8 11 12 -10 -12 -1 -11 -17
right_child=2 -3 -4 5 -6 -7 7 -9 10 15 13 -13 -14 -15 -16 16 -18
leaf_value=0.12713100619426959 0.051699932812372895 -0.042559784059693753 -0.096877404252776994 -0.0025287062571123925 -0.11010621477210915 0.090464107422106477 0.018954379093006103 -0.11287293039615051 -0.039971092376131792 -0.014249638978440636 -0.0020406479878291939 -0.11345551907578354 0.10803187361299918 0.1088444319455725 0.045649434838528138 -0.12243490476097967 -0.082619118162769623
leaf_weight=19.376658365130424 23.489014931023121 27.665045566856861 15.535741582512854 26.974097229540348 14.328051224350927 22.969328887760639 22.122223064303398 14.162406392395495 16.336863245815042 11.781680695712557 13.241714786738159 10.581257693469523 13.63548021763563 15.570291027426718 25.372375600039959 13.231881216168413 17.284492086619139
leaf_count=85 155 128 136 141 121 110 133 154 147 74 77 79 78 87 142 103 158
internal_value=0 0.033753 -0.0118073 -0.00620025 -0.0186856 0.0402393 -0.0110451 -0.0210068 -0.0112819 -0.0434125 0.0185579 -0.00938111 0.0273607 0.0578827 0.0809316 -0.0760309 -0.0998832
internal_weight=0 72.4141 251.245 235.709 185.765 49.9434 171.437 147.948 133.786 64.4203 69.3656 40.5536 29.9723 28.812 44.749 42.2981 30.5164
internal_count=2108 355 1753 1617 1366 251 1245 1090 936 468 468 304 225 164 227 335 261
is_linear=0
shrinkage=0.0988046


Tree=15
num_leaves=21
num_cat=0
split_feature=37 39 22 11 5 27 22 41 13 4 4 5 42 41 12 8 63 21 22 41
split_gain=11.5986 15.7121 12.23 17.9648 15.3135 10.6818 12.475 18.1891 17.6827 16.5653 13.4703 10.0901 7.66613 7.61275 4.8603 4.30909 1.53256 0.0377774 0.00913137 0.00310216
threshold=0.26675000000000004 0.97771326613435472 0.27558100000000008 0.00095117051408799569 40.91355629913523 0.26905000000000007 0.27124100000000001 0.94287618324158784 -0.00043570010935827425 0.0024714285714285684 0.0017142857142857131 24.036660094800371 0.87030989169099282 0.92202415991019182 0.0010939876554659428 21.455933848463314 0.27000000000000007 0.21432100000000001 0.2615880000000001 0.92481694000388515
decision_type=10 10 10 2 2 2 10 8 2 2 2 2 10 10 2 2 2 10 10 10
left_child=2 -2 4 -4 5 6 7 8 -1 15 -10 12 -12 -13 -7 -9 -3 -17 -19 -18
right_child=1 16 3 -5 -6 14 -8 9 10 -11 11 13 -14 -15 -16 17 19 18 -20 -21
leaf_value=-0.075898607593158252 0.033600251762296092 -0.061260872467061744 0.10520848782682392 -0.025081579573442959 0.086289412518056649 -0.11299522518512641 0.084045180560586491 -0.036381920420243068 0.12058218599288623 0.024657146690443194 0.080340890169187801 -0.074699640182310137 0.0077165751558247869 0.020725022006212301 -0.024089575571942624 -0.11889315423772201 -0.11214735500891482 -0.10896217891459432 -0.11332729965795743 -0.10956263489999264
leaf_weight=19.288754470646381 14.311099231243132 9.1489479094743746 26.259044751524925 17.032506786286831 17.27746906876564 13.102743901312353 14.963862724602221 9.3997125811874849 13.14607662707567 16.48797120898962 24.500112988054752 17.518158838152885 33.717104502022266 15.280806984752415 11.078248001635073 9.2248703539371508 9.124832537025215 9.2596923299133795 9.4559920802712423 9.0081402547657472
leaf_count=109 85 93 117 86 79 130 70 77 69 88 119 89 213 116 80 81 93 119 89 106
internal_value=0 -0.0502463 0.00570989 0.0539475 -0.00322578 -0.0103719 -0.00258691 -0.00989939 0.0109989 -0.0578281 0.0270906 0.013587 0.0382798 -0.030242 -0.0722641 -0.0942503 -0.0942292 -0.113718 -0.111168 -0.110863
internal_weight=0 41.593 276.993 43.2916 233.702 216.424 192.243 177.279 123.451 53.8282 104.162 91.0162 58.2172 32.799 24.181 37.3403 27.2819 27.9406 18.7157 18.133
internal_count=2108 377 1731 203 1528 1449 1239 1169 715 454 606 537 332 205 210 366 292 289 208 199
is_linear=0
shrinkage=0.0988046


Tree=16
num_leaves=19
num_cat=0
split_feature=37 44 41 37 41 42 60 39 13 40 6 42 39 4 17 38 4 41
split_gain=9.87836 14.8274 10.3779 22.1701 14.2408 13.4036 11.5589 15.1185 19.9042 12.3066 11.4304 9.94573 12.851 9.66961 2.86702 1.85528 0.945724 0.00734902
threshold=0.26675000000000004 0.27155000000000001 0.94144763624134942 0.26465000000000005 0.94050836550836558 0.87936824750575204 0.0026642551463179624 0.98022213192755892 -0.0003383493028669398 0.95125488698153071 27.711151396829724 0.83598417158741678 0.96568145841598019 0.0026214285714285667 -1.0981038415547093 1.0002564780926242 0.0021214285714285692 0.9544518958892193
decision_type=10 2 8 10 10 8 2 8 2 10 2 10 10 2 2 10 2 8
left_child=2 -2 4 10 5 11 7 -7 -9 -10 -4 -1 -13 14 -12 -3 17 -16
right_child=1 15 3 -5 -6 6 -8 8 9 -11 13 12 -14 -15 16 -17 -18 -19
leaf_value=-0.015202230050954918 0.027599906840498446 -0.1170011081046048 0.051010936298231384 0.066693672792720787 0.11568678232939381 -0.080301831077745689 -0.078351622438419311 -0.048558753948951532 0.12956470135255543 0.020790290433569284 -0.038948546216012833 0.025818465634592329 0.13288544758882384 0.0042392342448499612 -0.1127890623772211 -0.060467114029564541 -0.07969566340916609 -0.10901174200846528
leaf_weight=17.86228035390377 15.597062874585388 15.190213751047851 10.166312292218207 21.864298015832901 13.828594908118246 15.973297297954558 20.040119387209415 22.065428793430328 17.830905217677355 23.584405288100243 10.812625132501124 25.34717732667923 19.25984862446785 16.266235094517469 11.2894006036222 9.0390225611627084 17.318717163056135 9.0663447231054288
leaf_count=79 120 165 63 115 77 154 112 137 87 135 89 125 84 101 115 92 140 118
internal_value=0 -0.0475404 0.00513988 -0.0208429 0.019445 0.0112277 -0.0112946 0.00561869 0.0272384 0.0676219 -0.0463893 0.0470988 0.0720465 -0.0616812 -0.083796 -0.0959104 -0.0966672 -0.111107
internal_weight=0 39.8263 272.576 96.7839 175.792 161.963 99.4942 79.454 63.4807 41.4153 74.9196 62.4693 44.607 64.7533 48.4871 24.2292 37.6745 20.3557
internal_count=2108 377 1731 741 990 913 625 513 359 222 626 288 209 563 462 257 373 233
is_linear=0
shrinkage=0.0988046


Tree=17
num_leaves=17
num_cat=0
split_feature=40 14 34 23 23 35 54 32 3 16 41 40 41 39 40 40
split_gain=9.64762 23.2275 9.893 8.61677 15.3847 23.2687 22.2875 19.5158 16.0999 11.0453 11.3342 9.66738 6.60952 5.34724 0.971327 0.2578
threshold=0.9337589663149205 -25.460191981931185 0.30395000000000005 0.20987900000000004 0.21801124999999999 0.21160000000000004 0.25860625000000009 0.27050000000000002 0.21485000000000001 39.115243252941063 0.95892692018588033 0.9597170949028403 0.9029755028663019 1.0202999424202408 0.96141508225194527 0.94400822692826769
decision_type=10 2 8 10 10 10 2 10 2 10 10 10 8 10 10 10
left_child=1 12 3 -2 -5 -6 8 -8 -7 -9 11 -11 13 -1 15 -10
right_child=2 -3 -4 4 5 6 7 9 14 10 -12 -13 -14 -15 -16 -17
leaf_value=0.077440053014388846 0.052254994946067175 -0.065666823936043797 -0.094667223841408951 -0.10388131626683814 0.10843041746325796 0.041130342137650731 0.13092222612029752 0.072910191105468619 -0.12768566157511141 -0.042999768001128306 -0.11112643209618196 0.023552136732886374 0.11107099348387112 -0.0017072822868123038 -0.080217623935097959 -0.10731552513772699
leaf_weight=16.617785796523094 22.176970899105072 18.140851311385632 13.060761623084543 16.556523520499468 16.256019040942192 9.2548478469252569 11.158610761165617 14.987819045782087 10.404591523110868 38.320829972624779 11.324263405054806 47.995506320148706 18.75642167776823 16.715286761522293 10.692899707704781 14.542992953211067
leaf_count=92 115 87 109 138 71 62 67 93 67 307 129 292 98 78 151 152
internal_value=0 0.0306191 -0.0110812 -0.00620042 -0.0126341 -0.00446529 -0.0153451 0.00628386 -0.0749813 -0.00606464 -0.0181873 -0.00599412 0.0641519 0.0377506 -0.105132 -0.115811
internal_weight=0 70.2303 236.733 223.672 201.495 184.938 168.682 123.787 44.8953 112.628 97.6406 86.3163 52.0895 33.3331 35.6405 24.9476
internal_count=2108 355 1753 1644 1529 1391 1320 888 432 821 728 599 268 170 370 219
is_linear=0
shrinkage=0.0988046


Tree=18
num_leaves=19
num_cat=0
split_feature=37 44 21 11 21 32 41 62 34 25 22 57 0 42 0 0 50 22
split_gain=8.48669 13.7405 10.082 15.9982 11.4384 11.426 12.8555 12.2805 12.2751 14.4364 11.9864 9.322 7.43798 6.08171 8.15931 25.9123 4.2514 1.70465
threshold=0.26675000000000004 0.27155000000000001 0.28409500000000004 0.00045636389874738342 0.275951 0.27840000000000004 0.94144763624134942 0.21525000000000002 0.22650000000000003 0.21485000000000001 0.27124100000000001 0.21967833333333334 0.22615000000000005 0.93660173746401809 0.26945000000000002 0.26195000000000007 0.2116393 0.27713550000000003
decision_type=10 2 8 2 10 10 8 2 10 2 10 2 2 8 2 2 2 10
left_child=2 -2 4 -4 5 6 7 -1 -9 -10 13 -11 -13 14 15 16 -8 -3
right_child=1 17 3 -5 -6 -7 10 8 9 11 -12 12 -14 -15 -16 -17 -18 -19
leaf_value=0.10661336721658003 0.026939473122788465 -0.06067560695386752 0.12140307177468547 -0.01242356692559482 -0.09681675969038267 0.094449320043334242 -0.022104864031617308 -0.078523647707977248 0.1153065331097428 -0.073563767871039853 0.035497090360961582 0.086246432084189445 0.0031079070500978486 -0.11262915028770265 -0.11945247649891944 0.12566332798037597 -0.10977316475482604 -0.11597418294062639
leaf_weight=12.946429759263991 15.397549912333487 9.0403525829315203 17.377799406647682 17.504505589604378 11.966230541467665 12.41467562317848 9.4072129651904159 14.921874061226843 12.859496362507342 13.124729320406912 17.238014712929726 12.510840542614458 65.530333735048771 14.974215276539324 9.4391301795840246 9.1038810834288579 12.677365992218254 13.672549244016407
leaf_count=63 120 97 79 81 83 67 86 78 59 88 102 68 420 151 84 45 177 160
internal_value=0 -0.045116 0.00476164 0.0542467 -0.00277238 0.00241006 -0.00317104 0.0152282 0.00528164 0.0173031 -0.0364871 0.00347907 0.0164359 -0.0588041 -0.0389657 -0.0146065 -0.0724297 -0.0939638
internal_weight=0 38.1105 263.997 34.8823 229.114 217.148 204.734 131.894 118.947 104.025 72.8398 91.1659 78.0412 55.6018 40.6276 31.1885 22.0846 22.7129
internal_count=2108 377 1731 160 1571 1488 1421 776 713 635 645 576 488 543 392 308 263 257
is_linear=0
shrinkage=0.0988046


Tree=19
num_leaves=18
num_cat=0
split_feature=23 23 33 39 39 16 21 35 40 32 42 22 56 26 16 24 15
split_gain=8.48081 12.9065 14.9109 11.0558 13.522 12.0096 10.038 9.85774 13.7837 12.4151 9.73496 11.3382 9.65952 6.66507 4.78451 3.74729 3.26695
threshold=0.20980850000000004 0.21801124999999999 0.21160000000000004 1.0248012230613233 1.0119932557638034 35.489056732456071 0.21860600000000002 0.24485000000000004 0.9597170949028403 0.27735000000000004 0.83573709708508181 0.2640535 0.24846083333333335 0.28760000000000002 44.584744098345418 0.20970000000000003 -96.418568375442021
decision_type=8 8 8 10 10 10 8 8 8 8 10 10 2 2 10 2 2
left_child=-1 15 -3 4 5 16 -7 12 14 -10 -5 -12 -8 -13 -9 -2 -4
right_child=1 2 3 10 -6 6 7 8 9 -11 11 13 -14 -15 -16 -17 -18
leaf_value=0.074670543857940003 -0.03920294204231832 0.10470159428445759 0.085500668288517018 -0.034236276618259974 -0.10556083766999187 -0.11634805732704051 -0.013063690736657712 -0.021527429662556066 -0.029950158949456119 0.057013143092074905 -0.019611290010689186 0.14355086642560427 0.099709243152513893 0.049082922346691392 -0.10299474517370036 -0.12546520995150848 0.018575227244202873
leaf_weight=13.612806022167204 9.8212652727961558 12.779654040932654 13.520904023200275 15.340141966938971 15.189051106572149 9.7985700033605081 16.613273449242119 9.9747383743524534 51.864375226199627 23.193021096289158 12.906815871596335 13.215461146086456 13.391845494508742 16.264005180448294 23.900306295603514 9.8435594476759416 15.042446702718733
leaf_count=65 78 57 91 68 148 86 140 82 451 122 61 59 56 116 252 82 94
internal_value=0 -0.00517229 0.000600968 -0.00471594 -0.0160896 -0.00842471 -0.0196937 -0.0128771 -0.0266897 -0.00307817 0.0332095 0.057619 0.037269 0.0914323 -0.0790061 -0.082383 0.0502554
internal_weight=0 282.659 262.995 250.215 192.489 177.299 148.736 138.938 108.932 75.0574 57.7264 42.3863 30.0051 29.4795 33.875 19.6648 28.5634
internal_count=2108 2043 1883 1826 1522 1374 1189 1103 907 573 304 236 196 175 334 160 185
is_linear=0
shrinkage=0.0988046


Tree=20
num_leaves=20
num_cat=0
split_feature=23 22 3 39 39 38 0 35 2 42 41 42 22 21 32 22 62 2 39
split_gain=7.09298 11.2745 11.2862 9.65366 11.7413 9.59249 15.3323 9.78257 15.951 18.3595 8.98118 8.00445 8.80946 6.47601 6.12155 6.88997 5.15687 3.58183 5.55284
threshold=0.20980850000000004 0.21438450000000001 0.21465000000000004 1.0248012230613233 1.0119932557638034 1.0050370406958409 0.26935000000000003 0.25720000000000004 0.27175000000000005 0.93660173746401809 0.91579754365469757 0.83573709708508181 0.26455800000000007 0.21860600000000002 0.27915000000000006 0.27441150000000009 0.29380000000000006 0.25075000000000008 0.97019659824350601
decision_type=8 8 2 10 10 8 2 10 2 10 8 10 10 10 10 10 2 2 10
left_child=-1 -2 -3 4 5 7 13 10 9 -9 -4 -5 -13 -7 15 -10 -14 18 -12
right_child=1 2 3 11 -6 6 -8 8 14 -11 17 12 16 -15 -16 -17 -18 -19 -20
leaf_value=0.069088724636680629 -0.08128667429339323 0.076662213341350746 0.015379584728794502 -0.031024093554209223 -0.1028367845268375 0.024403869472239496 -0.046241310421273121 0.08733499235401794 -0.066179704845671428 -0.053620953577968207 -0.0067472290696843481 -0.014755170527513455 0.12218991362493395 0.11876699363852135 -0.098050175126723163 0.045933513336785609 0.038503292153950597 -0.12131859028966371 -0.10623711383487922
leaf_weight=13.276707321405409 17.634474739432335 17.636962555348873 12.203345008194445 15.260129511356352 14.106194898486136 13.516403838992121 16.279791295528412 27.490518629550934 11.816498186439278 13.426861513406037 10.710913036018612 13.070317864418028 15.355362094938757 14.956334833055733 14.709444873034952 9.7805761732161027 13.515285354107617 14.200210120528935 11.206756379455326
leaf_count=65 154 103 64 68 148 76 140 148 104 123 76 62 78 84 165 65 96 160 129
internal_value=0 -0.00484065 0.000359456 -0.00521058 -0.0162104 -0.00903497 0.0302413 -0.0230356 -0.00121849 0.0410809 -0.0579023 0.0302506 0.0525453 0.0739715 -0.0488898 -0.0154075 0.0830135 -0.0826624 -0.0576176
internal_weight=0 276.876 259.242 241.605 184.404 170.298 44.7525 125.545 77.2239 40.9174 48.3212 57.2011 41.941 28.4727 36.3065 21.5971 28.8706 36.1179 21.9177
internal_count=2108 2043 1889 1786 1482 1334 300 1034 605 271 429 304 236 160 334 169 174 365 205
is_linear=0
shrinkage=0.0988046


Tree=21
num_leaves=14
num_cat=0
split_feature=16 26 34 39 39 37 4 1 35 33 63 23 27
split_gain=7.13958 6.56388 8.62908 7.37428 10.7945 9.40879 7.65127 7.24586 14.1557 12.3659 11.9785 4.65221 7.17998
threshold=35.489056732456071 0.21275000000000002 0.22625000000000003 1.0248012230613233 1.0107529694868254 0.21160000000000004 0.0032250000000000022 0.24675000000000002 0.24485000000000004 0.25825000000000004 0.26045000000000007 0.26203575000000007 0.21485000000000001
decision_type=10 2 8 10 10 8 2 2 8 8 2 10 2
left_child=11 -2 -3 4 5 -4 -5 -7 -9 -10 -11 12 -1
right_child=1 2 3 6 -6 7 -8 8 9 10 -12 -13 -14
leaf_value=0.062331644510997354 0.055364902386254931 -0.083118163971860351 0.07166960105851064 0.057971609557478855 -0.10076255165509035 -0.077872608425915868 -0.017286189569354626 0.083049093332425938 -0.110504316351809 0.093366718757239425 -0.0212465259325006 0.087836907818531887 -0.036783485026705434
leaf_weight=14.939860604703428 15.039606854319571 15.533009719103573 12.705968618392943 30.000638652592897 13.876348707824944 16.848748710006475 23.533386416733265 14.426103681325911 13.262467838823794 10.049125157296656 77.982414085417986 12.216195069253443 13.657870773226021
leaf_count=93 104 114 65 155 164 163 133 61 175 50 648 77 106
internal_value=0 -0.00785896 -0.0120254 -0.00683331 -0.0175037 -0.00955094 0.0248885 -0.0173355 -0.00852131 -0.0215626 -0.008163 0.0367981 0.0149957
internal_weight=0 243.258 228.218 212.685 159.151 145.275 53.534 132.569 115.72 101.294 88.0315 40.8139 28.5977
internal_count=2108 1832 1728 1614 1326 1162 288 1097 934 873 698 276 199
is_linear=0
shrinkage=0.0988046


Tree=22
num_leaves=19
num_cat=0
split_feature=37 39 22 11 22 22 41 62 22 39 38 12 4 0 11 0 10 12
split_gain=6.54099 13.6441 7.38264 9.95817 8.93872 9.90518 13.6257 8.73954 11.8472 8.62394 13.5145 7.19049 6.35619 10.1765 4.30234 3.66948 0.410799 0.228096
threshold=0.26675000000000004 0.98250481497041864 0.27503250000000007 0.0009792758720526542 0.27192650000000007 0.27124100000000001 0.94144763624134942 0.22005000000000005 0.26264750000000003 1.0134895168320759 1.0048822660251264 -0.00084843496196360644 0.0023214285714285719 0.26685000000000009 -0.0010031663810107087 0.21145000000000003 60.541232843388677 -0.00038844799593632065
decision_type=10 10 10 2 10 10 8 2 10 10 10 2 2 2 2 2 8 2
left_child=2 -2 4 -4 5 6 7 14 9 10 11 -9 15 -14 -1 -8 -17 -3
right_child=1 17 3 -5 -6 -7 12 8 -10 -11 -12 -13 13 -15 -16 16 -18 -19
leaf_value=0.097857512148675857 0.024801157312860908 -0.086939040043670382 0.081528939891763685 -0.018187454055100638 -0.084650150040566599 0.083548916752294741 -0.023618814304500236 -0.0049815288170111998 0.066034554121798358 -0.07754098330141225 0.058165235529291606 -0.10369756287147174 0.054626584500107468 -0.070245693419002081 0.023832144752868531 -0.11145581843423708 -0.083337104027694217 -0.10866284970855392
leaf_weight=14.876416474580767 16.409465868026018 9.0076588001102227 25.022995702922344 16.046528808772564 12.399232171475886 13.488014627248047 9.0177720412611979 18.971755720674992 20.034690719097853 18.727506287395954 22.698888208717108 11.612611379474403 12.523146860301496 12.969510365277527 15.811089158058165 11.619271460920574 9.0016663894057256 9.9091758057475072
leaf_count=73 110 135 128 86 101 74 91 135 143 115 119 98 76 101 88 168 135 132
internal_value=0 -0.0411281 0.00435177 0.0425681 -0.00335138 0.00191661 -0.00427382 0.0140548 -0.00116887 -0.0198661 0.000404974 -0.0424631 -0.0450769 -0.00890278 0.0597175 -0.0761908 -0.0991811 -0.0983186
internal_weight=0 35.3263 244.821 41.0695 203.752 191.352 177.864 122.733 92.0455 72.0108 53.2833 30.5844 55.1314 25.4927 30.6875 29.6387 20.6209 18.9168
internal_count=2108 377 1731 214 1517 1416 1342 771 610 467 352 233 571 177 161 394 303 267
is_linear=0
shrinkage=0.0988046


Tree=23
num_leaves=18
num_cat=0
split_feature=7 40 37 4 11 33 42 37 37 37 35 10 16 6 42 40 2
split_gain=6.43789 12.0147 7.90887 7.02872 10.2516 10.0135 9.76151 8.65974 6.42003 5.95843 8.08226 6.61639 5.67746 6.18945 5.1308 2.96741 2.10787
threshold=36.626016260162473 0.93228854350305823 0.26675000000000004 0.0023857142857142822 -0.00066173150445819607 0.26685000000000009 0.90411327614811687 0.25430000000000003 0.25855000000000006 0.26230000000000003 0.26275000000000004 60.541232843388677 45.591976625356601 65.105309346204507 0.89399903019953386 0.96411162415051843 0.25075000000000008
decision_type=2 10 10 2 2 10 8 8 8 10 8 10 10 2 10 10 2
left_child=1 -1 9 4 6 -5 -3 -6 -8 10 12 -11 -2 14 16 -16 -14
right_child=2 3 -4 5 7 -7 8 -9 -10 11 -12 -13 13 -15 15 -17 -18
leaf_value=0.081274507530130963 -0.055830533681814551 0.11068360006283692 -0.076306555073315213 -0.088323077930701058 -0.099188551126317109 0.025184985822021971 0.051866093280202571 0.019331121191904072 -0.051993726928251653 -0.021280915337787785 -0.086172519163982844 0.071594117315878544 0.080002485986488819 -0.033346072573453032 -0.05436477785599985 0.02501283278201329 0.027741557759511752
leaf_weight=22.365836568176746 18.503390928730369 15.767348967492579 17.890359288081527 17.137937940657142 10.435827098786833 13.61492934077978 14.720635667443277 14.21779518201947 9.5990378558635694 13.058371096849443 14.452262308448551 17.554884027689695 13.519544519484045 26.354345085099339 9.3130566664040106 9.0804748926311714 17.018609169870615
leaf_count=121 150 85 216 137 124 108 127 120 96 88 120 94 70 156 116 86 94
internal_value=0 0.0160897 -0.0144753 0.000822535 0.0192975 -0.0380707 0.0501309 -0.030838 0.0108724 -0.00650879 -0.0173936 0.0319774 -0.00679524 0.00525638 0.0260475 -0.0151778 0.050878
internal_weight=0 117.859 156.745 95.4935 64.7406 30.7529 40.087 24.6536 24.3197 138.855 108.242 30.6133 93.7894 75.286 48.9317 18.3935 30.5382
internal_count=2108 918 1190 797 552 245 308 244 223 974 792 182 672 522 366 202 164
is_linear=0
shrinkage=0.0988046


Tree=24
num_leaves=12
num_cat=0
split_feature=23 22 33 21 62 1 34 33 30 41 7
split_gain=5.41603 10.5137 8.00598 8.18056 14.0831 10.9166 7.85202 9.45425 9.40271 10.4696 2.94467
threshold=0.20980850000000004 0.21438450000000001 0.21160000000000004 0.21860600000000002 0.23125000000000004 0.24675000000000002 0.26975000000000005 0.25825000000000004 0.26745000000000008 0.96232200711828553 34.654631083202538
decision_type=8 8 8 8 2 2 8 8 2 8 2
left_child=-1 -2 -3 -4 -5 10 -7 -8 -9 -10 -6
right_child=1 2 3 4 5 6 7 8 9 -11 -12
leaf_value=0.062256901135992547 -0.080263487449970236 0.076465316049637411 -0.077716888193318692 0.090463408585785277 -0.038761941446629589 0.06932312008598758 -0.07683313455409374 0.092503833522966761 0.0050252680749387334 -0.088671929304782002 -0.11538394910665339
leaf_weight=12.486728675663469 16.669747162610292 12.942395105957983 13.604602005332707 16.002296090126038 10.106153428554537 15.357982207089661 15.951260950416325 10.685161694884298 124.8669391553849 12.83921095356345 9.4986170586198551
leaf_count=65 154 63 119 93 97 127 149 60 928 155 98
internal_value=0 -0.00436797 0.000863104 -0.00341135 0.00128379 -0.00587648 0.00176131 -0.00455241 0.00321738 -0.00371071 -0.0758857
internal_weight=0 258.524 241.855 228.912 215.308 199.305 179.701 164.343 148.391 137.706 19.6048
internal_count=2108 2043 1889 1826 1707 1614 1419 1292 1143 1083 195
is_linear=0
shrinkage=0.0988046


Tree=25
num_leaves=19
num_cat=0
split_feature=7 40 37 4 12 33 42 39 39 37 23 22 49 10 41 38 42 63
split_gain=5.57676 9.67572 6.6949 5.94398 8.71229 8.67001 7.62676 7.56712 6.68099 4.88754 7.47477 13.5981 5.72482 5.31981 5.3082 6.25369 3.4423 2.10082
threshold=36.626016260162473 0.93228854350305823 0.26675000000000004 0.0023857142857142822 -0.00022760844141418542 0.26685000000000009 0.90411327614811687 0.98784629388232281 0.97841091616865816 0.26230000000000003 0.26747300000000002 0.26264750000000003 0.22519999999999998 60.541232843388677 0.91404212807022522 1.0104745338987591 0.93287103836185303 0.21205000000000004
decision_type=2 10 10 2 2 10 8 10 8 10 10 10 2 8 8 8 10 2
left_child=1 -1 9 4 6 -5 -3 8 -8 10 11 12 17 -11 -14 -16 -12 -2
right_child=2 3 -4 5 -6 -7 7 -9 -10 13 16 -13 14 -15 15 -17 -18 -19
leaf_value=0.073977504209133391 -0.010259534170208648 0.094426375485595182 -0.072322015662357256 -0.084073111091793454 -0.041914635059751584 0.022889008559304667 0.038944171489314054 0.084609663896910034 -0.074993881800820672 -0.0196016100851946 -0.03530459792301624 0.083440833011097157 -0.10344515776759876 0.063769796603311932 -0.057223347829254007 0.043000808853418858 -0.11195934016948135 0.044783925052842538
leaf_weight=22.078932963311672 16.174975292757157 16.54482901468873 16.877369916066527 16.174394186586145 17.069290816783905 13.63409113883972 9.2129367701709324 9.263060159981249 11.050004217773674 12.972267325967552 14.964796688407661 14.835636287927626 11.170868545770643 17.62063217535615 17.478606844320897 9.3178864866495115 9.2566792499273998 11.64066596329212
leaf_count=121 114 90 216 137 174 108 86 75 127 88 114 69 55 94 201 43 117 79
internal_value=0 0.0151812 -0.0136414 0.00121472 0.0183824 -0.0351498 0.0407225 0.0106297 -0.0231897 -0.00632878 -0.0164681 -0.00200717 -0.0212777 0.0284179 -0.046226 -0.0223726 -0.0645996 0.0127758
internal_weight=0 115.028 152.31 92.9486 63.1401 29.8085 46.0708 29.526 20.2629 135.433 104.84 80.6186 65.783 30.5929 37.9674 26.7965 24.2215 27.8156
internal_count=2108 918 1190 797 552 245 378 288 213 974 792 561 492 182 299 244 231 193
is_linear=0
shrinkage=0.0988046


Tree=26
num_leaves=17
num_cat=0
split_feature=27 23 3 40 60 40 35 34 30 12 32 40 0 34 21 12
split_gain=5.1248 11.4702 8.23061 5.22517 13.2569 11.1892 8.04847 12.161 8.13407 16.7427 7.95964 9.64747 9.15721 5.00577 3.24726 2.68469
threshold=0.20645000000000002 0.21801124999999999 0.21335000000000001 0.93228854350305823 0.003012099233216312 0.93904205412626462 0.21160000000000004 0.25930000000000003 0.27255000000000007 -0.00035883325680348231 0.27735000000000004 0.96058633491252177 0.26885000000000003 0.27595000000000008 0.26408700000000007 -0.0007197211174135563
decision_type=2 8 2 10 2 10 8 10 2 2 10 10 2 10 10 2
left_child=-1 -2 -3 4 14 -5 -7 15 9 13 12 -12 -10 -9 -4 -8
right_child=1 2 3 5 -6 6 7 8 10 -11 11 -13 -14 -15 -16 -17
leaf_value=0.058182866488980599 -0.08664000691236505 0.090407483486859494 0.10375807245098109 -0.10315692950711876 -0.034966707226603035 0.082289874270843402 -0.034542937713885592 -0.049431208188374876 0.022604893726615151 0.095569955128643386 -0.031286802013200526 0.058527263248241514 -0.096717649875801476 0.033451624161337547 0.037957070270177827 -0.10395461411140892
leaf_weight=13.462808359414337 15.526872312650083 9.6486246176063997 13.412570871412756 11.951430119574068 20.917539160698652 9.887058496475218 9.0240552853792924 18.096401982009414 9.1575136482715624 22.838714711368084 27.924688436090946 20.064965337514877 19.973029062151909 11.721410401165484 16.122540675103664 13.695821236819027
leaf_count=89 136 62 64 87 105 49 97 199 58 138 269 127 234 70 108 216
internal_value=0 -0.00439768 0.00104928 -0.00278626 0.0252159 -0.0108901 -0.00409927 -0.00970028 0.00197417 0.03191 -0.0184655 0.00626538 -0.0592073 -0.0168499 0.0678388 -0.0763852
internal_weight=0 249.963 234.436 224.788 50.4527 174.335 162.384 152.497 129.777 52.6565 77.1202 47.9897 29.1305 29.8178 29.5351 22.7199
internal_count=2108 2019 1883 1821 277 1544 1457 1408 1095 407 688 396 292 269 172 313
is_linear=0
shrinkage=0.0988046


Tree=27
num_leaves=12
num_cat=0
split_feature=23 22 33 21 21 33 39 31 30 0 4
split_gain=4.78767 12.9153 5.83094 6.65867 10.7252 5.7144 5.37083 11.1687 8.07074 12.0551 7.53132
threshold=0.20987900000000004 0.21438450000000001 0.21160000000000004 0.21860600000000002 0.22389800000000001 0.22175000000000003 1.0248012230613233 0.27310000000000006 0.27735000000000004 0.26965000000000006 0.0032250000000000022
decision_type=8 8 8 8 8 8 10 2 2 2 2
left_child=-1 -2 -3 -4 -5 -6 7 8 9 -7 -8
right_child=1 2 3 4 5 6 10 -9 -10 -11 -12
leaf_value=0.05288542419074161 -0.1027664226365196 0.066944912252151267 -0.072904709285452535 0.10184656259344003 -0.075426718657464933 0.010228473523319931 0.06550610334894294 -0.10149082332493281 0.058293785482491929 -0.062036467142913922 -0.012247143468379108
leaf_weight=15.064663909375666 12.395650524646042 12.30227419734001 12.527825526893137 9.8586108461022359 10.293328940868376 74.26318996027112 25.467866085469723 11.849636051803826 18.938692770898342 32.353402016684413 23.276757545769215
leaf_count=81 138 63 119 51 86 663 142 161 125 344 135
internal_value=0 -0.00451215 0.000757252 -0.00296373 0.0012835 -0.00376332 0.000199377 -0.00979669 -0.00114279 -0.0117007 0.028377
internal_weight=0 243.527 231.132 218.829 206.301 196.443 186.15 137.405 125.555 106.617 48.7446
internal_count=2108 2027 1889 1826 1707 1656 1570 1293 1132 1007 277
is_linear=0
shrinkage=0.0988046


Tree=28
num_leaves=19
num_cat=0
split_feature=16 39 4 39 37 32 61 15 41 33 40 23 3 39 39 41 60 11
split_gain=4.83487 4.84892 9.06948 5.39654 9.13185 6.08357 4.99601 6.26574 6.30614 6.08677 4.31916 5.70811 10.2039 4.20784 11.2178 6.53807 2.81955 2.32555
threshold=36.455063612708265 0.96734380171863343 0.002442857142857139 0.97324742169084433 0.26685000000000009 0.22240000000000001 -0.002656110201929351 81.73010913189502 0.91047445285638728 0.21550000000000005 0.9337589663149205 0.26203575000000007 0.21385000000000001 1.0256577072432365 1.0092515852166908 0.91047445285638728 0.00049401472357768494 0.00088008707159106813
decision_type=10 8 2 8 10 8 2 2 10 10 10 10 2 8 10 10 2 2
left_child=10 2 -2 -3 5 -5 -7 9 -9 -8 -1 12 -12 14 -11 -15 -6 -10
right_child=1 3 -4 4 16 6 7 8 17 13 11 -13 -14 15 -16 -17 -18 -19
leaf_value=0.083073646111792854 0.028807833192352344 0.052981198031012249 -0.090814305527778444 -0.062399572109779915 -0.032557159349290349 -0.042943034265904463 0.091431312073011181 -0.074852359059116844 -0.021814904083558084 0.028562752001663239 0.049210838936409547 0.068118906083403846 -0.094411958517169783 0.0028971605093580321 -0.091858956469457423 0.088460879142998133 -0.10966587554251241 0.040421138115531267
leaf_weight=10.947912231087683 9.8154745660722273 16.220863053575158 16.740104403346777 13.34749407880008 9.0176119841635245 16.882370691746473 12.952739566564558 13.067244056612251 11.194940479472281 27.007917853072286 9.8012192286551052 10.805589552968739 9.519584044814108 18.833327170461416 10.483108671382068 16.232243530452251 9.5133668147027475 12.302627723664044
leaf_count=57 92 139 138 138 114 130 69 62 92 240 80 71 104 102 146 97 163 74
internal_value=0 -0.00709063 -0.0465996 -0.0014817 -0.00665298 0.00131525 0.00743539 0.0144025 -0.019829 0.0290403 0.0299241 0.0106096 -0.0215538 0.0179024 -0.00510914 0.0425056 -0.072143 0.01077
internal_weight=0 213.611 26.5556 187.056 170.835 152.304 138.957 122.074 36.5648 85.5093 41.0743 30.1264 19.3208 72.5566 37.491 35.0656 18.531 23.4976
internal_count=2108 1796 230 1566 1427 1150 1012 882 228 654 312 255 184 585 386 199 277 166
is_linear=0
shrinkage=0.0988046


Tree=29
num_leaves=12
num_cat=0
split_feature=27 23 57 40 40 7 35 1 35 33 63
split_gain=4.39037 9.87858 6.10514 4.03666 8.5507 6.44287 5.48363 8.60741 6.19622 11.2978 9.91058
threshold=0.20645000000000002 0.21801124999999999 0.21397000000000002 0.93228854350305823 0.93904205412626462 49.218559218559534 0.21160000000000004 0.24675000000000002 0.24485000000000004 0.25825000000000004 0.26000000000000006
decision_type=2 8 2 8 8 2 8 2 8 8 2
left_child=-1 -2 -3 5 -5 -4 -6 -8 -9 -10 -11
right_child=1 2 3 4 6 -7 7 8 9 10 -12
leaf_value=0.055347221042484643 -0.083398366507875715 0.077495307453271503 0.064093790082727933 -0.092742283178659374 0.069263983616233982 -0.012383587205184865 -0.073585139953369252 0.0778097060690362 -0.098947176018718414 0.1028744308231658 -0.0046060263565629528
leaf_weight=12.772126384079455 14.413324074819682 9.7404260560870153 20.79462780803442 11.204057605937122 9.5212788134813291 22.271869938820601 17.313738787546754 9.4002266824245435 11.437034556642173 9.1179478429257852 102.81182539649308
leaf_count=89 136 66 118 88 49 131 245 41 192 49 904
internal_value=0 -0.00411566 0.000994631 -0.00248945 -0.00930544 0.0245435 -0.00344818 -0.00806111 0.000483677 -0.00540836 0.00414947
internal_weight=0 238.026 223.613 213.873 170.806 43.0665 159.602 150.081 132.767 123.367 111.93
internal_count=2108 2019 1883 1817 1568 249 1480 1431 1186 1145 953
is_linear=0
shrinkage=0.0988046


Tree=30
num_leaves=19
num_cat=0
split_feature=7 9 42 17 37 37 35 39 13 42 16 15 23 6 13 9 4 10
split_gain=4.27378 5.07029 6.00848 6.12155 4.94554 4.97751 6.33141 4.85163 4.26415 4.96251 3.8972 5.58193 3.97466 3.91056 5.12421 3.69083 3.70575 3.36097
threshold=36.626016260162473 55.25313223816088 0.93660173746401809 -1.0981038415547093 0.26675000000000004 0.26230000000000003 0.26275000000000004 0.98999513162840203 -0.00036137910755063587 0.87237727538707299 45.591976625356601 121.47236249233713 0.26768375000000005 65.483812949640182 0.00018117203785823039 34.471155936653567 0.0024857142857142851 64.122153507986695
decision_type=2 8 8 2 10 10 8 8 2 10 10 2 10 2 2 10 2 10
left_child=1 2 3 8 5 6 10 -3 9 -1 -2 12 13 14 -12 16 -5 -7
right_child=4 7 -4 15 -6 17 -8 -9 -10 -11 11 -13 -14 -15 -16 -17 -18 -19
leaf_value=0.061796146090041824 -0.051105651707686037 0.0041620322399213627 -0.071023839183880444 -0.093086179370010222 -0.066502154940246527 -0.0070250250774423605 -0.083361830345244414 0.095983171470589268 0.073484178920531426 -0.023065477215906478 0.0092578175024244629 -0.051275889841305343 -0.03472573228982772 -0.016736929617651348 0.089702414914608133 0.025682376055471016 -0.0056892287829236375 0.059988023395085785
leaf_weight=11.245899613946674 16.017759334295988 10.094053171575071 9.5664168596267682 9.3738118782639557 14.724161911755798 13.383946601301433 12.199095698073505 12.667666938155888 17.252907441928986 16.742181926965714 15.305888984352352 14.560769775882362 11.211222298443316 11.914917146787046 15.617868740111588 9.8313186001032573 9.5734663754701597 16.089904345571995
leaf_count=63 150 102 95 121 216 94 120 84 144 152 130 93 112 73 114 83 74 88
internal_value=0 0.0139214 0.00266328 0.0121867 -0.0123115 -0.00599401 -0.0168158 0.0552636 0.034849 0.0110328 -0.00722324 0.00302149 0.0176489 0.0313558 0.0498859 -0.0234392 -0.0489272 0.0295577
internal_weight=0 106.348 83.586 74.0196 141.026 126.301 96.8275 22.7617 45.241 27.9881 84.6284 68.6107 54.0499 42.8387 30.9238 28.7786 18.9473 29.4739
internal_count=2108 918 732 637 1190 974 792 186 359 215 672 522 429 317 244 278 195 182
is_linear=0
shrinkage=0.0988046


Tree=31
num_leaves=19
num_cat=0
split_feature=23 11 35 22 22 39 30 38 32 23 23 12 4 22 39 18 39 32
split_gain=4.01993 4.81756 9.08244 7.72989 5.85241 11.1832 10.6096 9.55007 9.11471 8.55988 7.69836 9.25018 5.78079 5.74897 5.68407 9.90067 4.555 11.2664
threshold=0.29219550000000011 -0.0013345620080261187 0.21495000000000003 0.27024450000000005 0.26264750000000003 1.0154229414633875 0.27255000000000007 1.0139466194250863 0.27735000000000004 0.20987900000000004 0.28196900000000008 0.002009321197340879 0.0020357142857142887 0.27169200000000004 0.97324742169084433 0.21615000000000004 1.0426026901574346 0.27915000000000006
decision_type=10 2 8 8 10 10 2 10 10 10 10 2 2 10 10 2 10 10
left_child=1 2 -1 -4 5 7 12 9 13 -3 11 16 -6 -8 15 -11 17 -10
right_child=-2 4 3 -5 6 -7 8 -9 10 14 -12 -13 -14 -15 -16 -17 -18 -19
leaf_value=0.10774872923219776 -0.063195866189610955 0.021242331656548315 -0.043993779283596754 0.07161202325555617 0.0035417211343056576 -0.1045987708857242 -0.01651843036391451 0.055365081713528851 0.11632862474545952 0.053248835674784535 -0.064125800856889098 -0.051787612001203076 0.094495723314830721 -0.12000233222459857 -0.10164871175168427 -0.089362741403843496 0.10019627872741402 -0.018747275621698783
leaf_weight=11.414599303156136 9.7339601386338455 21.413425330072641 14.648072492331268 9.1880687922239286 10.707171011716129 13.936343846842645 11.547149457037451 17.625634236261249 9.1853616647422331 9.0462740585207957 10.733552452176808 11.040784090757368 18.799186691641808 9.5961577296257001 15.922857154160736 10.012121491134165 12.371174216270445 17.537945760414004
leaf_count=68 105 147 129 71 109 107 140 100 59 58 81 73 116 119 234 153 65 174
internal_value=0 0.00160261 0.0352747 0.000568554 -0.00434785 -0.0234042 0.0106822 -0.00811709 -0.00759763 -0.0279578 0.0118156 0.0280741 0.0614906 -0.0634859 -0.0580752 -0.0216706 0.0506281 0.0276811
internal_weight=0 234.726 35.2507 23.8361 199.475 87.9567 111.518 74.0203 82.0121 56.3947 60.8688 50.1353 29.5064 21.1433 34.9813 19.0584 39.0945 26.7233
internal_count=2108 2003 268 200 1735 799 936 692 711 592 452 371 225 259 445 211 298 233
is_linear=0
shrinkage=0.0988046


Tree=32
num_leaves=19
num_cat=0
split_feature=16 39 4 42 11 41 12 41 42 4 16 34 14 52 47 41 4 13
split_gain=4.42283 3.91282 7.34488 4.93511 7.35711 7.23404 6.39081 7.68694 12.1192 6.37344 6.03282 5.54461 3.93782 3.35731 2.76401 3.12549 1.5175 1.31835
threshold=36.455063612708265 0.96734380171863343 0.0025428571428571488 0.9137888493037738 -0.0011134659403391753 0.90189573986386773 -0.00038844799593632065 0.93677425306442519 0.94313141046674021 0.0023142857142857153 54.408213849177265 0.28755000000000003 -45.219047619047188 0.27121446666666676 0.26528333333333343 0.93395720988864783 0.0019857142857142873 -9.6614881062924584e-05
decision_type=10 8 2 8 2 10 2 10 8 2 10 10 2 2 2 8 2 2
left_child=14 2 -2 4 -3 12 10 -8 13 16 17 -11 -6 -9 15 -1 -7 -5
right_child=1 3 -4 6 5 9 7 8 -10 11 -12 -13 -14 -15 -16 -17 -18 -19
leaf_value=0.038585771102286101 0.012563046939150536 0.078650572394564439 -0.09582668592882157 -0.061941441792502418 -0.00083795627596463043 0.0066386561080121597 -0.07663129504867458 0.039441952092694917 0.12243522450721345 0.083485487280279519 0.0032003219377248118 0.0009651679392997252 -0.06760351473671819 -0.034378952586889888 0.065748126102682977 -0.033141661009890459 -0.05043912758478087 -0.11306034940300776
leaf_weight=14.990400621667506 11.721775416284801 14.18007476441562 12.733150552958248 9.594705471768977 17.820111393928528 9.1489238943904656 9.4154074061661941 9.053857736289503 9.0693461261689645 20.189079128205776 10.980918368324636 13.110817780718206 16.71125665307045 17.914926586672664 13.513304829597471 9.8129397463053447 9.0407224632799608 10.119952684268357
leaf_count=107 116 105 114 114 100 103 98 102 54 123 107 114 81 220 84 121 91 154
internal_value=0 -0.00683584 -0.0438731 -0.00169978 0.0127092 0.00183917 -0.0206599 0.00286222 0.0236309 0.0253038 -0.0554911 0.0509956 -0.0331488 -0.00959608 0.0297958 0.0102083 -0.0217305 -0.0881819
internal_weight=0 200.805 24.4549 176.35 100.201 86.0209 76.1491 45.4535 36.0381 51.4895 30.6956 33.2999 34.5314 26.9688 38.3166 24.8033 18.1896 19.7147
internal_count=2108 1796 230 1566 717 612 849 474 376 431 375 237 181 322 312 228 194 268
is_linear=0
shrinkage=0.0988046


Tree=33
num_leaves=19
num_cat=0
split_feature=23 22 3 22 33 37 3 16 37 38 7 40 39 9 11 4 28 42
split_gain=3.78862 7.31412 4.07791 3.59435 10.3837 9.04971 7.47686 8.81778 8.28071 10.2835 6.69561 10.3018 10.6544 6.34988 8.04148 4.97975 9.13472 4.28217
threshold=0.20980850000000004 0.21438450000000001 0.21465000000000004 0.26264750000000003 0.24845000000000003 0.25040000000000001 0.26955000000000007 38.938570120313145 0.26230000000000003 0.99314838255541771 78.035379254891282 0.92409660254398174 1.0327476154697544 75.120256582517456 0.00019771741590401962 0.0020357142857142887 0.27255000000000007 0.88371183771478479
decision_type=8 8 2 10 10 10 2 10 8 10 2 10 8 10 2 2 2 10
left_child=-1 -2 -3 4 10 -5 7 -7 -8 -10 11 -4 17 14 -11 -9 -17 -13
right_child=1 2 3 5 -6 6 8 15 9 13 -12 12 -14 -15 -16 16 -18 -19
leaf_value=0.055406628009314708 -0.074529809499168723 0.052055062290390322 0.094974041994215025 0.073435872138748109 -0.10682170292568083 0.10551037628170047 -0.1003197664577371 -0.0586953027318231 -0.096148057231803946 0.039350253044664878 -0.071075341318995011 0.0025659774721299034 0.074326521561665346 0.065840898218589919 -0.06394171795644385 0.085793246009631577 -0.034167858207911204 -0.080529554180204896
leaf_weight=11.105622701346872 13.389617426320909 14.125693172216414 11.277144655585287 17.269530847668648 11.4883846770972 10.794601570814846 11.612226834520696 9.2818889170885068 10.531170161440967 14.281772222369911 11.608200944028793 10.061222005635502 9.7124758139252645 14.589720692485569 15.177271291613577 12.463714923709633 12.324341103434561 15.202021175995467
leaf_count=65 154 103 56 92 131 59 158 123 159 132 80 80 49 104 144 76 88 255
internal_value=0 -0.00370863 0.000768529 -0.00289635 -0.0210201 0.00689798 -0.00344879 0.027691 -0.0245551 -0.00843571 -0.00398405 0.012854 -0.0136238 0.0125345 -0.0138657 0.00303502 0.0261499 -0.0474363
internal_weight=0 225.191 211.801 197.676 69.3494 128.326 111.057 44.8645 66.1922 54.5799 57.8611 46.2529 34.9757 44.0488 29.459 34.0699 24.7881 25.2632
internal_count=2108 2043 1889 1786 651 1135 1043 346 697 539 520 440 384 380 276 287 164 335
is_linear=0
shrinkage=0.0988046


Tree=34
num_leaves=16
num_cat=0
split_feature=60 41 40 41 42 40 42 63 4 30 16 12 5 39 39
split_gain=3.94997 10.8751 9.03497 6.44854 4.87475 4.61247 6.58006 6.45117 6.13134 5.27205 6.65839 4.93819 7.86158 4.40844 3.37254
threshold=0.0030544324678563055 0.94064729001892389 0.93228854350305823 0.95653720629324257 0.88694966269649145 0.96270526544537849 0.90981398424472448 0.26655000000000006 0.0022535714285714307 0.27735000000000004 45.37166821880809 -0.0009085626918894468 22.923623464471952 0.97771326613435472 1.0215945054464048
decision_type=2 10 10 8 8 10 8 2 2 2 10 2 2 10 10
left_child=2 4 14 5 -2 8 -7 -8 11 10 -10 12 -4 -13 -1
right_child=1 -3 3 -5 -6 6 7 -9 9 -11 -12 13 -14 -15 -16
leaf_value=0.076769152034692839 -0.023604529502164774 0.046862773367943741 0.11181359885789259 -0.061346394728833832 -0.097102269564112789 0.082287253382981873 -0.045578247595248957 0.046518270849837888 -0.11109373354776778 0.0049191741980066407 -0.0073188539930911763 0.022277789730745182 -0.0039579889334593124 -0.071527587913097088 0.012565553991925767
leaf_weight=20.731120925396681 21.133577357977629 14.557730954140423 10.108861699700357 17.296963893808424 15.107148930430411 14.862168639898298 14.443065924569966 15.281270598992704 14.153902517631652 16.799216060899198 10.52360302954912 10.607792880386116 13.207386167719958 9.0749535486102086 12.993058837950228
leaf_count=143 122 105 70 323 101 104 169 124 134 165 118 99 137 118 76
internal_value=0 -0.0252679 0.00592867 -0.00469476 -0.0542425 0.00289771 0.0286081 0.00176854 -0.0106723 -0.0377752 -0.0668394 0.0154711 0.0462353 -0.0209722 0.0520332
internal_weight=0 50.7985 180.083 146.359 36.2407 129.062 44.5865 29.7243 84.4757 41.4767 24.6775 42.999 23.3162 19.6827 33.7242
internal_count=2108 328 1780 1561 223 1238 397 293 841 417 252 424 207 217 219
is_linear=0
shrinkage=0.0988046


Tree=35
num_leaves=11
num_cat=0
split_feature=27 23 33 21 18 1 34 37 17 10
split_gain=3.8295 7.28579 4.01311 4.81725 7.27307 7.48306 4.25988 7.43088 6.59051 6.73283
threshold=0.20645000000000002 0.21801124999999999 0.21160000000000004 0.21860600000000002 0.22578000000000001 0.24675000000000002 0.26850000000000002 0.27145000000000002 -1.7322899268004175 15.041757080617286
decision_type=2 8 8 8 2 2 8 8 2 10
left_child=-1 -2 -3 -4 -5 -6 -7 8 -8 -10
right_child=1 2 3 4 5 6 7 -9 9 -11
leaf_value=0.055075585820375306 -0.076485802274397163 0.062090534276672923 -0.068144628770931345 0.069979330097834164 -0.074176945456049109 0.055809663050402976 0.057247305696897115 -0.068811945431411128 -0.062507939940686277 0.0056122368631166776
leaf_weight=11.337313737720249 12.684833597391842 9.8882457166910154 10.31348557397723 13.893767851404844 13.776472540572284 13.058946623466907 19.6374858021736 15.048985649831591 16.774577246978893 91.032709653489292
leaf_count=89 136 57 119 101 187 124 125 201 162 807
internal_value=0 -0.00383537 0.000694848 -0.00244201 0.00125635 -0.0043825 0.00179882 -0.00315104 0.00460235 -0.00498711
internal_weight=0 216.11 203.425 193.536 183.223 169.329 155.553 142.494 127.445 107.807
internal_count=2108 2019 1883 1826 1707 1606 1419 1295 1094 969
is_linear=0
shrinkage=0.0988046


Tree=36
num_leaves=17
num_cat=0
split_feature=14 38 39 42 41 37 37 41 41 14 42 40 4 33 18 13
split_gain=3.7481 4.42384 5.85043 6.13265 5.70549 4.32856 4.26397 5.42167 5.72877 7.4925 7.97266 8.74889 4.32731 4.12839 2.31956 1.31974
threshold=-75.305286671630668 0.99506347915956084 0.97324742169084433 0.90106486506284755 0.93737831101131786 0.26675000000000004 0.26230000000000003 0.94201224423786856 0.93677425306442519 -21.240601503759503 0.87030989169099282 0.92409660254398174 0.0024214285714285687 0.26685000000000009 0.26767000000000007 8.2693779843276505e-05
decision_type=2 10 8 10 10 10 10 10 10 2 10 10 2 10 2 2
left_child=1 2 -1 -4 -5 6 7 8 9 10 -2 -12 -8 -3 -9 -13
right_child=5 13 3 4 -6 -7 12 14 -10 -11 11 15 -14 -15 -16 -17
leaf_value=0.094334034599326086 0.056279697495276892 -0.047393188877495739 -0.046806937759705763 0.098126016889087384 -0.0080134973523102362 -0.057577348627164279 0.06100651648931292 -0.030185914300832527 0.064763224884729007 -0.063355324510541919 0.044265117902746925 -0.090011124762424871 -0.013376598949482324 0.025076703902125432 -0.094588900252472949 -0.037748448183965874
leaf_weight=12.655906731262801 20.244494702666998 15.365780537948014 10.473319482058288 10.201438473537566 9.5938932970166189 16.455838914960623 17.349252376705412 13.507124240510167 10.989824090152977 19.866327842697501 11.484293356537821 9.8845696337521094 13.63664687424898 15.330118639394639 9.163047871552406 9.0225245002657157
leaf_count=92 129 182 104 73 107 257 123 227 90 124 66 93 87 128 126 100
internal_value=0 0.0174408 0.0379225 0.0143357 0.046685 -0.00973211 -0.0039064 -0.0134785 -0.00158913 -0.0119321 0.00824317 -0.0237552 0.0282711 -0.0112003 -0.0562169 -0.0650712
internal_weight=0 73.6205 42.9246 30.2687 19.7953 151.604 135.148 104.162 81.492 70.5022 50.6359 30.3914 30.9859 30.6959 22.6702 18.9071
internal_count=2108 686 376 284 180 1422 1165 955 602 512 388 259 210 310 353 193
is_linear=0
shrinkage=0.0988046


Tree=37
num_leaves=11
num_cat=0
split_feature=23 21 22 31 21 30 2 33 5 13
split_gain=3.50356 6.4998 6.21875 5.89017 7.77558 5.47674 5.40125 5.20469 3.94416 3.41746
threshold=0.29148925000000003 0.292043 0.28372750000000002 0.28305000000000008 0.275951 0.27735000000000004 0.27205000000000007 0.26645000000000008 41.407217214192656 -0.00043570010935827425
decision_type=10 10 8 2 10 2 2 10 2 2
left_child=1 2 3 4 5 6 7 8 9 -1
right_child=-2 -3 -4 -5 -6 -7 -8 -9 -10 -11
leaf_value=-0.048669953012961696 -0.057831812682335948 0.078259702860426689 -0.068863377134955966 0.080471000314212157 -0.080831794939897339 0.052662871221897382 -0.054116684383503921 0.063192195498732853 0.05885784117690071 -0.00014914017924434154
leaf_weight=16.756430690176771 10.044045994989572 10.348349645733832 12.733273840509353 9.0018895417451841 11.284113828092812 19.829736556857824 17.536172878928483 13.165449094027279 9.4679168909788114 91.845795741304769
leaf_count=150 112 54 142 54 125 130 248 105 53 935
internal_value=0 0.00188967 -0.00203008 0.00247528 -0.00142781 0.00388652 -0.00261486 0.004267 -0.00230347 -0.0076355
internal_weight=0 211.969 201.621 188.888 179.886 168.602 148.772 131.236 118.07 108.602
internal_count=2108 1996 1942 1800 1746 1621 1491 1243 1138 1085
is_linear=0
shrinkage=0.0988046


Tree=38
num_leaves=11
num_cat=0
split_feature=15 23 23 33 22 35 1 34 23 21
split_gain=3.38988 4.39486 7.74556 5.02857 4.51849 6.28053 5.27541 4.64758 7.14243 5.77273
threshold=123.09079227902053 0.20987900000000004 0.21801124999999999 0.21160000000000004 0.2221205 0.21495000000000003 0.24675000000000002 0.26975000000000005 0.29274425000000009 0.292043
decision_type=2 8 8 10 10 10 2 10 8 10
left_child=1 -1 -3 -4 -5 -6 -7 -8 9 -9
right_child=-2 2 3 4 5 6 7 8 -10 -11
leaf_value=0.065888746780069549 -0.039899402126484497 -0.085747828715192737 0.065177484467803914 -0.056330143237365349 0.084041634990455472 -0.057863800077206914 0.067202028691388083 -0.0002071075731079055 -0.081968988620635952 0.076142715006826997
leaf_weight=10.316242188215254 19.672876019030809 9.8271346781402809 12.350586943328379 12.900249864906071 9.1271130293607694 14.109496570192276 10.995736592449246 100.38858614955097 9.5337143801152688 10.697839908301829
leaf_count=66 144 137 73 154 64 205 114 961 135 55
internal_value=0 0.00308241 -0.000328971 0.00433181 -0.000147874 0.00453249 -0.000447354 0.00570781 0.000101993 0.00714553
internal_weight=0 200.247 189.93 180.103 167.753 154.852 145.725 131.616 120.62 111.086
internal_count=2108 1964 1898 1761 1688 1534 1470 1265 1151 1016
is_linear=0
shrinkage=0.0988046


Tree=39
num_leaves=15
num_cat=0
split_feature=16 39 4 39 37 22 22 11 34 21 33 40 15 10
split_gain=3.44537 3.75046 5.88345 3.57382 6.34189 3.75301 7.88864 7.86276 6.13178 5.63875 6.38544 5.59851 2.74782 3.28168
threshold=35.489056732456071 0.96656058433651071 0.0025571428571428511 0.97265462949306558 0.26685000000000009 0.27580900000000003 0.27186100000000007 0.0009792758720526542 0.27705000000000007 0.26773400000000008 0.25825000000000004 0.95099363287993299 -111.0202848123853 23.475149815112022
decision_type=10 8 2 8 10 10 10 2 10 10 10 10 2 8
left_child=12 2 -2 -3 5 6 8 -7 9 10 11 -5 -1 -14
right_child=1 3 -4 4 -6 7 -8 -9 -10 -11 -12 -13 13 -15
leaf_value=0.067593117964237129 0.0070755905868730542 0.048759077679067661 -0.095395780509379816 0.009253899428996586 -0.066029402356546335 0.086000991815407241 -0.09417379473809033 -0.019220610305241265 0.062363785864841183 -0.071971586334180382 0.061668261785679052 -0.055214470779760189 -0.035473215340836348 0.044854776051418535
leaf_weight=11.640884706750514 10.915555365383627 13.110343415290115 10.964277032762764 38.975778413936496 14.980984947644172 14.063257351517679 9.1906970962882024 13.674113139510153 13.897677278146146 11.748525541275738 14.037331055849789 19.846276227384806 9.3507816288620251 10.585617614910005
leaf_count=91 117 127 111 270 280 87 100 81 97 151 114 297 95 90
internal_value=0 -0.00585668 -0.0442742 -0.000716373 -0.00502872 0.00171887 -0.00662824 0.0341283 0.00153987 -0.00845105 0.00179159 -0.0124974 0.0294502 0.00717849
internal_weight=0 185.405 21.8798 163.525 150.415 135.434 107.696 27.7374 98.5056 84.6079 72.8594 58.8221 31.5773 19.9364
internal_count=2108 1832 228 1604 1477 1197 1029 168 929 832 681 567 276 185
is_linear=0
shrinkage=0.0988046


Tree=40
num_leaves=15
num_cat=0
split_feature=27 22 17 35 40 33 30 40 37 30 28 39 6 10
split_gain=3.48828 5.90614 3.51257 4.42431 4.90806 5.46939 6.67778 6.70084 5.89068 4.9219 8.6717 4.63522 2.66169 2.58561
threshold=0.20645000000000002 0.21464100000000005 3.0364663155004195 0.21160000000000004 0.93115052162707646 0.25825000000000004 0.26745000000000008 0.9597170949028403 0.26420000000000005 0.27735000000000004 0.27255000000000007 0.98121336233960321 40.375793930839869 48.474110271275684
decision_type=2 8 2 8 8 8 2 10 8 2 2 8 2 10
left_child=-1 -2 3 -3 13 11 -7 8 -8 10 -9 12 -6 -5
right_child=1 2 -4 4 5 6 7 9 -10 -11 -12 -13 -14 -15
leaf_value=0.054612763257720333 -0.070338370085701624 0.058826227292487723 -0.042222230130452343 0.011528397308613358 -0.031905935143491083 0.079614845605260651 -0.002766142983549416 0.053206518085924311 -0.085968344958202353 0.076893570253089849 -0.037073964283984323 -0.0019903453207638163 -0.10383184741275227 0.075430497312227188
leaf_weight=10.580260053277014 12.162629797123371 13.662754870951174 16.983852308243513 13.612980078905823 9.1856694240123051 10.509806174784897 19.62105474807322 18.592002412304282 14.406506668776272 11.036729045212267 23.533939060755074 17.660213799215853 11.082906801253555 11.322952583432196
leaf_count=89 138 83 102 94 144 65 157 158 230 81 276 178 225 88
internal_value=0 -0.00357711 0.000669464 0.00485058 0.000257697 -0.00714933 0.00521321 -0.00375507 -0.0379921 0.0181588 0.00277072 -0.0389938 -0.0712352 0.0405452
internal_weight=0 203.374 191.211 174.228 160.565 135.629 97.7 87.1902 34.0276 53.1627 42.1259 37.9288 20.2686 24.9359
internal_count=2108 2019 1881 1779 1696 1514 967 902 387 515 434 547 369 182
is_linear=0
shrinkage=0.0988046


Tree=41
num_leaves=19
num_cat=0
split_feature=14 38 39 42 41 38 0 63 30 42 39 41 12 7 16 34 37 32
split_gain=3.55485 3.58252 4.75099 4.48883 4.25172 3.46299 4.82432 4.73813 8.46631 6.11596 6.36935 7.45327 5.96324 5.49036 4.24619 3.12618 3.84514 2.66615
threshold=-75.305286671630668 0.99506347915956084 0.97324742169084433 0.90106486506284755 0.93737831101131786 0.99618287149153639 0.24905000000000002 0.24705000000000002 0.2667500000000001 0.83573709708508181 1.0248012230613233 0.95524129249913659 0.00082771488557436157 57.481343283582042 46.483788570552797 0.27635000000000004 0.26375000000000004 0.27725000000000005
decision_type=2 10 8 10 10 8 2 2 2 10 10 10 2 2 10 10 10 10
left_child=1 2 -1 -4 -5 6 14 12 -9 -10 11 13 -7 -11 -2 -3 -17 -8
right_child=5 15 3 4 -6 7 17 8 9 10 -12 -13 -14 -15 -16 16 -18 -19
leaf_value=0.088502598047221825 -0.042815423026712734 -0.054141812121883126 -0.041305920270663099 0.087201348875812892 -0.0065311450095734752 -0.098460417669655936 -0.086646415013059155 0.099965615569862609 -0.066638458459791092 0.0069923390446914929 0.06351481216343334 0.05125744977177836 0.0054032392566669193 -0.093814800504383469 0.048221778846764062 0.058232946876069606 -0.030985037857078696 -0.02611103783886216
leaf_weight=12.089675884693859 9.3283537114039081 9.841322057880463 9.3971084728837031 9.8470116574317235 9.0812361389398557 9.3381746942177433 14.618231275118889 9.6485531935468298 10.920961624011396 10.067497711628677 17.305946029722691 12.160808579064904 12.784615995362399 11.078421534970401 10.78366927243769 9.6312210429459828 9.2403548844158632 13.815068593248723
leaf_count=92 103 146 104 73 107 137 198 67 65 111 119 135 86 121 109 71 93 171
internal_value=0 0.0176902 0.0366491 0.0145172 0.0422312 -0.00963506 -0.0310377 0.00150042 0.013913 0.000419857 0.0148894 -0.0103761 -0.0384383 -0.0458209 0.00599693 -0.00899545 0.0145479 -0.0572337
internal_weight=0 69.1279 40.415 28.3254 18.9282 141.85 48.5453 93.305 71.1822 61.5336 50.6127 33.3067 22.1228 21.1459 20.112 28.7129 18.8716 28.4333
internal_count=2108 686 376 284 180 1422 581 841 618 551 486 367 223 232 212 310 164 369
is_linear=0
shrinkage=0.0988046


Tree=42
num_leaves=12
num_cat=0
split_feature=27 23 22 63 34 22 63 30 62 30 27
split_gain=3.01343 4.7252 3.01896 4.92872 5.69625 4.25149 6.27646 6.88413 4.76767 4.48313 5.2084
threshold=0.20645000000000002 0.21801124999999999 0.30124600000000007 0.2889500000000001 0.2979500000000001 0.27580900000000003 0.26805000000000007 0.27595000000000008 0.28185000000000004 0.27255000000000007 0.26685000000000009
decision_type=2 8 8 2 10 10 2 2 2 2 2
left_child=-1 -2 3 4 5 6 7 9 -8 10 -3
right_child=1 2 -4 -5 -6 -7 8 -9 -10 -11 -12
leaf_value=0.050877521508915322 -0.066142682139848946 -0.0012960470907671863 -0.050138823197137528 0.07317517586539117 -0.065716905239753612 0.048345334643156941 -0.095010698808039515 0.072269195671676015 0.0014229758661136725 -0.051186962533454478 0.077435728940448437
leaf_weight=10.514535393565891 11.063765029422937 76.196328044869006 10.89885587710887 9.3694703541696054 12.113338392227886 19.050651744008064 11.272036332637073 14.035300068557261 9.0020857565104944 15.122413042932747 9.1923088412731868
leaf_count=89 136 821 122 53 153 133 231 81 63 161 65
internal_value=0 -0.00340832 0.000318224 0.0034543 -0.00048129 0.00465431 -0.0015194 0.00744946 -0.0521924 -0.00160193 0.00717963
internal_weight=0 197.317 186.253 175.354 165.984 153.871 134.82 114.546 20.2741 100.511 85.3886
internal_count=2108 2019 1883 1761 1708 1555 1422 1128 294 1047 886
is_linear=0
shrinkage=0.0988046


Tree=43
num_leaves=14
num_cat=0
split_feature=60 41 40 41 4 42 39 9 42 59 35 23 22
split_gain=3.24605 7.79725 6.11969 4.54996 3.65554 3.54252 3.46876 2.83386 4.63808 3.74285 8.08914 5.45063 7.63549
threshold=0.0030544324678563055 0.94064729001892389 0.93228854350305823 0.95653720629324257 0.0015750000000000022 0.8495825969393157 1.0215945054464048 97.997065262166856 0.83923372352042647 0.27171000000000006 0.26505000000000006 0.26803950000000004 0.26184650000000004
decision_type=2 10 10 8 2 10 10 10 8 2 10 10 10
left_child=2 5 6 4 -4 -2 -1 8 -6 10 11 12 -10
right_child=1 -3 3 -5 7 -7 -8 -9 9 -11 -12 -13 -14
leaf_value=0.072100141250865502 -0.092073167462614833 0.040722851923418749 0.056728746250037924 -0.055244631573627474 0.067605315064356561 -0.024960266404009196 0.0032046747014841362 -0.046246595311165331 -0.014672477510626532 -0.049272831120156534 0.087110845050288654 -0.071725015917513568 0.085849467251180089
leaf_weight=18.844054656103257 11.949649736285208 13.205375693738459 11.276515847072003 14.605667669326065 9.8517394661903364 21.479551969096065 11.480765219777821 12.689985486678777 35.304911087267101 14.708882346749304 10.120061151683329 10.85823850892484 9.3253221884369832
leaf_count=143 70 105 126 323 58 153 76 149 404 242 65 127 67
internal_value=0 -0.023558 0.00608555 -0.00332019 0.00332445 -0.0489505 0.0460168 -0.00253029 0.00362214 -0.00422605 0.00587306 -0.00894319 0.00633121
internal_weight=0 46.6346 159.066 128.741 114.136 33.4292 30.3248 102.859 90.1692 80.3174 65.6085 55.4885 44.6302
internal_count=2108 328 1780 1561 1238 223 219 1112 963 905 663 598 471
is_linear=0
shrinkage=0.0988046


Tree=44
num_leaves=16
num_cat=0
split_feature=14 60 6 12 33 38 40 8 63 37 12 47 12 16 41
split_gain=2.95027 3.02785 3.25295 4.25265 4.28718 3.02555 4.24117 4.62474 4.30348 5.44978 8.63969 4.19897 4.54965 3.50989 2.72697
threshold=-75.305286671630668 -0.0020973552070323582 28.800719054956222 -0.00084843496196360644 0.26645000000000008 0.99618287149153639 0.91376641670426373 82.523623873044983 0.24705000000000002 0.25040000000000001 0.00079988532875014849 0.27078333333333338 -0.00089949998099398104 50.006143054033018 0.91743082943511545
decision_type=2 2 2 2 8 8 8 2 2 10 2 2 2 10 10
left_child=1 -1 -3 -4 -5 11 -7 8 -8 -10 13 12 14 -11 -2
right_child=5 2 3 4 -6 6 7 -9 9 10 -12 -13 -14 -15 -16
leaf_value=-0.033412563193058603 0.058417332989307409 0.064475045964680802 0.057939013984791031 -0.045009474943522407 0.031989913574342013 -0.051573507155585743 -0.046226135093746026 0.072149760812767832 0.064669574641470662 0.060135858935506797 -0.076677930328428401 -0.07545755017788025 -0.05872314896285416 -0.013187474894633761 -0.013342703287408633
leaf_weight=10.100204991176723 9.0277598500251752 15.161634573712943 12.953606964088971 15.673873142339295 12.843576129525898 12.547865971922873 14.75031081959605 10.25494693033397 14.922710094600914 13.709421572275462 11.616537200286983 13.630002463236449 12.067214620299639 11.910137731581925 12.097255612723528
leaf_count=80 68 143 134 206 123 69 183 59 116 126 131 195 163 157 155
internal_value=0 0.0164235 0.0253115 0.0109935 -0.0103308 -0.00892497 0.00170079 0.0103639 0.000894148 0.0142196 -0.00599872 -0.029284 -0.0103234 0.026049 0.0173239
internal_weight=0 66.7329 56.6327 41.4711 28.5174 136.534 89.7119 77.1641 66.9091 52.1588 37.2361 46.8222 33.1922 25.6196 21.125
internal_count=2108 686 606 463 329 1422 841 772 713 530 414 581 386 283 223
is_linear=0
shrinkage=0.0988046


Tree=45
num_leaves=12
num_cat=0
split_feature=22 63 34 31 21 22 40 40 0 52 54
split_gain=2.59638 4.72177 4.39703 3.69334 5.49599 3.66648 4.59854 3.4043 3.06474 5.02552 4.43188
threshold=0.30124600000000007 0.2889500000000001 0.2979500000000001 0.28280000000000005 0.27573400000000009 0.27460100000000004 0.97231581800190359 0.96843433291756309 0.26875000000000004 0.27545060000000005 0.25860625000000009
decision_type=8 2 10 2 10 10 10 10 2 2 2
left_child=1 2 3 4 5 6 7 8 10 -10 -1
right_child=-2 -3 -4 -5 -6 -7 -8 -9 9 -11 -12
leaf_value=-0.0052926062022391309 -0.048575954392921991 0.071093001199965963 -0.060939751913487883 0.064094294804636937 -0.074245672325382303 0.055532744072610309 -0.06329102858340957 0.056601738461771682 -0.06956495582089596 0.024071877690569784 0.043814338095220631
leaf_weight=70.195371286012232 10.430692939087747 9.2030242942273599 11.369894326664506 9.0076104924082738 9.3964935550466162 12.214214883744715 10.658777468837796 11.078527774661778 14.199673046357931 9.2344868723303062 24.101587574928999
leaf_count=735 122 53 153 60 121 100 206 114 175 98 171
internal_value=0 0.00204971 -0.00145199 0.00252463 -0.000918373 0.00362413 -0.000921862 0.00423908 -0.000688259 -0.0326663 0.00725876
internal_weight=0 190.66 181.457 170.087 161.079 151.683 139.468 128.81 117.731 23.4342 94.297
internal_count=2108 1986 1933 1780 1720 1599 1499 1293 1179 273 906
is_linear=0
shrinkage=0.0988046


Tree=46
num_leaves=15
num_cat=0
split_feature=17 40 42 40 4 40 40 10 6 23 7 11 42 40
split_gain=2.62989 2.8327 3.4172 3.0644 2.09755 4.50792 3.27946 2.51617 3.78682 3.52528 2.94199 3.03652 5.07659 4.6109
threshold=3.0364663155004195 0.93115052162707646 0.87936824750575204 0.93904205412626462 0.0015750000000000022 0.97231581800190359 0.96864180139286749 29.535967124673444 29.534632034632171 0.27756900000000007 27.87753900500428 1.0000000180025095e-35 0.90122832285046606 0.96058633491252177
decision_type=2 8 10 8 2 10 10 10 2 8 2 2 10 10
left_child=1 2 -1 -3 -5 6 7 8 -6 -10 -9 12 -12 -13
right_child=-2 3 -4 4 5 -7 -8 10 9 -11 11 13 -14 -15
leaf_value=0.065111520821423199 -0.034769827699073177 -0.053750431080620616 0.0010804749417750172 0.03888401866532349 0.023505122429756907 -0.061798463184798626 0.059091413824378027 0.049259185629008426 -0.073627094656478889 0.0019408604001497382 0.011430485951107459 -0.011679718081057305 -0.078216412669426999 0.075659756535215658
leaf_weight=14.577011531218885 19.750848360359669 10.635522827506064 18.41614019498229 13.112800654023884 11.98470538575202 11.423469812609254 9.4392015375196916 14.467843087390063 15.336896831169726 9.9276660364121181 15.098120094276966 14.651790503412487 10.42462506238371 9.8800141653045994
leaf_count=117 127 102 124 162 113 209 99 156 248 112 126 133 195 85
internal_value=0 0.00321723 0.0293706 -0.00267748 0.00132399 -0.00269216 0.00337918 -0.00178806 -0.0222351 -0.0439328 0.0100162 -0.0013267 -0.0251853 0.0234956
internal_weight=0 179.376 32.9932 146.383 135.747 122.634 111.211 101.772 37.2493 25.2646 64.5224 50.0545 25.5227 24.5318
internal_count=2108 1981 241 1740 1638 1476 1267 1168 473 360 695 539 321 218
is_linear=0
shrinkage=0.0988046


Tree=47
num_leaves=11
num_cat=0
split_feature=23 22 3 44 0 1 33 33 30 38
split_gain=2.63931 5.69798 3.09658 2.94451 4.0222 4.07912 3.4785 6.74557 4.68581 4.19713
threshold=0.20987900000000004 0.21464100000000005 0.21465000000000004 0.21876666666666669 0.22615000000000005 0.24675000000000002 0.24705000000000002 0.25825000000000004 0.26745000000000008 1.0209863583108161
decision_type=8 8 2 2 2 2 8 8 2 8
left_child=-1 -2 -3 -4 -5 -6 -7 -8 -9 -10
right_child=1 2 3 4 5 6 7 8 9 -11
leaf_value=0.044472516233199588 -0.077629584896161896 0.053236220091187371 -0.057392256281069455 0.064380881314490698 -0.058036723333407425 0.058295467028154795 -0.073612890987133875 0.069763115643411672 0.0060861296267940837 -0.052803430862207637
leaf_weight=11.951663590967653 9.5817315103486163 10.278034728020428 9.0684646945446712 9.0693933032453042 12.237724864855407 9.7774986727163178 11.915288766846059 9.8210736699402315 89.967312247492373 13.601061029359697
leaf_count=81 146 95 99 80 188 55 212 65 976 111
internal_value=0 -0.00343238 0.000613113 -0.00265577 0.000518205 -0.00341334 0.00153524 -0.00289375 0.00453762 -0.00164751
internal_weight=0 185.318 175.736 165.458 156.389 147.32 135.082 125.305 113.389 103.568
internal_count=2108 2027 1881 1786 1687 1607 1419 1364 1152 1087
is_linear=0
shrinkage=0.0988046


Tree=48
num_leaves=13
num_cat=0
split_feature=15 23 23 33 8 13 40 12 34 20 39 42
split_gain=2.67381 3.2506 5.18154 4.39347 3.02152 3.39271 2.72831 2.75234 3.60967 6.75494 4.75012 2.53168
threshold=123.09079227902053 0.20987900000000004 0.21852125000000003 0.21160000000000004 77.812190857324325 0.00035699415486595309 0.93228854350305823 0.00077296946240070646 0.27635000000000004 0.26981250000000007 0.98022213192755892 0.88210430279001339
decision_type=2 8 8 10 2 2 10 2 10 2 8 10
left_child=1 -1 -3 -4 5 6 11 8 10 -10 -8 -5
right_child=-2 2 3 4 -6 -7 7 -9 9 -11 -12 -13
leaf_value=0.059725183735726807 -0.036832847288939902 -0.072000673458228179 0.067109600885316187 0.065140117803505676 0.044146608396273629 -0.047703169085631748 -0.064771378266568216 -0.0551155307578335 0.094694252507866852 -0.00056421569324931198 0.0038620000455479404 -0.0010398029453413721
leaf_weight=9.3975261189043504 17.95900070713833 9.2188706076703948 10.143115513026713 11.278665401041509 13.675868088379501 15.741124703548847 15.386513917706905 10.033202284947036 9.211785761639474 34.42632007971406 27.330816442146897 11.293396772816775
leaf_count=66 144 143 67 87 94 173 310 146 56 448 300 74
internal_value=0 0.00317741 9.34672e-06 0.00419713 -0.000103572 -0.00459616 0.00110785 -0.00613309 -0.000442066 0.0195444 -0.0208593 0.0320286
