tree
version=v4
num_class=1
num_tree_per_iteration=1
label_index=0
max_feature_idx=52
objective=binary sigmoid:1
feature_names=ATR ADX RSI STOCH_%K STOCH_%D STOCHRSI_%K STOCHRSI_%D MACD MACD_Signal MACD_Hist Williams_%R CCI Ultimate_Osc ROC MA_10 MA_50 MA_200 Max_10 Min_10 Max_21 Min_21 Max_50 Min_50 Max_100 Min_100 Max_200 Min_200 MA_10_50_ratio MA_50_200_ratio Min_50_Max_50_ratio Min_100_Max_100_ratio Min_200_Max_200_ratio Pivot S1 R1 S2 R2 S3 R3 Fib_R1 Fib_S1 Fib_R2 Fib_S2 Camarilla_R1 Camarilla_S1 Camarilla_R2 Camarilla_S2 Camarilla_R3 Camarilla_S3 Bull_Power Bear_Power High_14 Low_14
feature_infos=[0.072142857142857258:0.2637857142857144] [7.8885547402678506:50.368681315907153] [5.451713395638663:98.666666666666401] [0:100] [6.6585835980662331:95.250888542069234] [0:100] [0:100] [-0.24137528068319014:0.19044457655296299] [-0.20246193995115463:0.17001178967920655] [-0.082867971459046674:0.05025288420635466] [-100:0] [-196.53982550444397:197.00074374413882] [17.360645527289382:79.156568241686514] [-3.6497264793084683:3.5199129093713033] [20.295999999999999:24.777999999999999] [20.405860000000001:24.625879999999999] [20.594609999999999:24.243220000000001] [20.363:24.863] [20.186:24.677] [20.431000000000001:24.863] [20.186:24.625] [20.577999999999999:24.863] [20.186:24.419] [20.759:24.863] [20.186:24.103999999999999] [20.956:24.863] [20.186:23.745999999999999] [0.97048317474451973:1.0232525027327528] [0.96089569980300127:1.0385123787065593] [0.93103293547518606:0.99300699300699302] [0.92328572064254888:0.99104177591330178] [0.89865042502848136:0.98270482303646245] [20.224666666666668:24.835666666666668] [20.138333333333335:24.782333333333337] [20.272333333333336:24.908333333333335] [20.090666666666667:24.734666666666666] [20.358666666666668:24.961666666666666] [20.004333333333335:24.68633333333333] [20.406333333333336:25.082666666666668] [20.275854666666667:24.883798666666667] [20.173478666666668:24.789050666666665] [20.307478666666668:24.913534666666667] [20.141854666666667:24.768282666666664] [20.198283333333332:24.86655] [20.173716666666667:24.843450000000001] [20.210566666666665:24.8781] [20.161433333333335:24.831900000000001] [20.222850000000001:24.88965] [20.149149999999999:24.820350000000001] [-0.28585719691450606:0.39241025916429351] [-0.50677890672072579:0.21083881547102123] [20.402999999999999:24.888999999999999] [20.161000000000001:24.564]
tree_sizes=658 887 780 885 780 887 777 781 672 782 775 888 773 761 780 782 766 764 774 766 666 767 564 673 664 658 673 669 667 661 667 671 672 668 566 668 663 566 668 563 662 562 553 666 669 667 560 564 564 560 560 672 566 565 672 563 562 560 562 561 566 564 566 566 458 560 560 561 457 565 558 459 460 455 460 460 562 457 459 560 457 558 457 457 460 455 561 569 459 457 458 461 459

Tree=0
num_leaves=5
num_cat=0
split_feature=26 16 30 2
split_gain=89.7549 11.8826 25.6713 7.10543e-15
threshold=20.526500000000002 22.751210000000004 0.96792275483951651 42.723442645925331
decision_type=8 10 10 2
left_child=-1 3 -3 -2
right_child=1 2 -4 -5
leaf_value=-3.6933565267744211 -4.0113111151921981 -4.0113111151921981 -3.8226271149121596 -4.0113111151921981
leaf_weight=5.0423919763416043 6.1960019487887648 7.0891193468123657 5.0982118137180805 15.815620590001343
leaf_count=271 333 381 274 850
internal_value=-3.94594 -3.98318 -3.93238 -4.01131
internal_weight=0 34.199 12.1873 22.0116
internal_count=2109 1838 655 1183
is_linear=0
shrinkage=1


Tree=1
num_leaves=7
num_cat=0
split_feature=28 16 30 49 22 0
split_gain=81.0422 12.7655 24.7237 0.155804 5.04042e-05 1.77636e-15
threshold=1.0199138702333503 22.751210000000004 0.96902218220412017 0.10871563147572695 20.903000000000002 0.12764285714285722
decision_type=10 10 10 2 10 2
left_child=1 3 -3 4 -1 -6
right_child=-2 2 -4 -5 5 -7
leaf_value=-0.065530296174203986 0.23965536907837889 -0.065320190079879784 0.12664042091272751 -0.052587440435081664 -0.065291440761653358 -0.06529144076165333
leaf_weight=5.0023040045052829 5.0437013432383528 6.1490904539823514 5.0056505538523197 5.0058604404330245 7.477636866271494 5.8004099056124687
leaf_count=245 252 345 239 268 428 332
internal_value=0 -0.0355894 0.0208215 -0.0626118 -0.0653568 -0.0652914
internal_weight=0 34.441 11.1547 23.2862 18.2804 13.278
internal_count=2109 1857 584 1273 1005 760
is_linear=0
shrinkage=0.0641301


Tree=2
num_leaves=6
num_cat=0
split_feature=26 16 30 26 49
split_gain=89.6926 10.7734 26.8429 4.20027e-05 3.52482e-08
threshold=20.421000000000003 22.751210000000004 0.969403642336926 21.202500000000004 0.074677928348821268
decision_type=8 10 10 8 2
left_child=-1 3 -3 -2 -5
right_child=1 2 -4 4 -6
leaf_value=0.2518095815339727 -0.065405083002317177 -0.065350514412109206 0.12358160447606892 -0.065218024628058882 -0.065224799013259768
leaf_weight=5.0458020959049454 8.1074839048087615 7.9021015595644695 5.0815257988870144 8.5298820659518224 5.0165031533688298
leaf_count=194 436 440 215 520 304
internal_value=0 -0.037595 0.00859365 -0.0652896 -0.0652205
internal_weight=0 34.6375 12.9836 21.6539 13.5464
internal_count=2109 1915 655 1260 824
is_linear=0
shrinkage=0.0641301


Tree=3
num_leaves=7
num_cat=0
split_feature=28 16 30 6 16 11
split_gain=76.0087 10.5599 23.9703 0.15148 0.000249575 3.16462e-08
threshold=1.0224870081114299 22.751210000000004 0.96984276984572881 84.182721348601348 21.230905000000003 -3.4544963799936705
decision_type=10 10 10 8 8 2
left_child=1 3 -3 4 -1 -6
right_child=-2 2 -4 -5 5 -7
leaf_value=-0.065688255691862776 0.22561254571110262 -0.065286829806840391 0.11416024120497423 -0.052619561686482463 -0.065149355137718482 -0.065156039012334965
leaf_weight=5.0881667733192506 5.274110944941639 7.1720303837209922 5.3414538893848658 5.0000893967226139 6.9764699265360841 5.0022029997780892
leaf_count=239 189 424 201 280 453 323
internal_value=0 -0.0357494 0.0113112 -0.062436 -0.065312 -0.0651521
internal_weight=0 34.5804 12.5135 22.0669 17.0668 11.9787
internal_count=2109 1920 625 1295 1015 776
is_linear=0
shrinkage=0.0641301


Tree=4
num_leaves=6
num_cat=0
split_feature=26 16 30 26 9
split_gain=60.0367 9.85369 21.0386 0.000130765 6.04028e-08
threshold=20.309500000000003 22.751210000000004 0.96997662392554174 21.202500000000004 0.00252200319633604
decision_type=8 10 10 8 2
left_child=-1 3 -3 -2 -5
right_child=1 2 -4 4 -6
leaf_value=0.17461973170737388 -0.065425752353295327 -0.057607996234727822 0.10722086826858654 -0.06508571677722505 -0.065094927354613155
leaf_weight=6.6415666081011286 7.9053560746833709 8.2715624235570413 5.1786384545266619 6.8574739620089513 5.1104988902807236
leaf_count=187 443 480 175 474 350
internal_value=0 -0.0365344 0.00585493 -0.0652233 -0.0650896
internal_weight=0 33.3235 13.4502 19.8733 11.968
internal_count=2109 1922 655 1267 824
is_linear=0
shrinkage=0.0641301


Tree=5
num_leaves=7
num_cat=0
split_feature=12 16 30 12 16 28
split_gain=56.975 9.90835 17.6281 0.592799 0.00134113 5.69438e-05
threshold=40.141790866734361 22.751210000000004 0.96984276984572881 46.944747089902854 21.230905000000003 1.0042261164943265
decision_type=8 10 10 10 8 10
left_child=-1 3 -3 -2 -5 -6
right_child=1 2 -4 4 5 -7
leaf_value=0.18133377119927541 -0.040417587870834513 -0.065202060747389462 0.088193994825053926 -0.066402902365444452 -0.065030503309217877 -0.065317361632135473
leaf_weight=5.9567120876163235 5.0283082788810161 6.1005782485008222 6.2249416150152683 5.0984215056523707 6.5673811435699445 5.0225404063239694
leaf_count=270 266 395 194 193 481 310
internal_value=0 -0.033655 0.0122698 -0.0597201 -0.0655361 -0.0651548
internal_weight=0 34.0422 12.3255 21.7167 16.6883 11.5899
internal_count=2109 1839 589 1250 984 791
is_linear=0
shrinkage=0.0641301


Tree=6
num_leaves=6
num_cat=0
split_feature=28 16 30 6 25
split_gain=48.4118 9.14982 16.1256 0.144451 0.00045433
threshold=1.0224870081114299 22.751210000000004 0.97279524042012877 81.002539381664789 22.259000000000004
decision_type=10 10 10 10 8
left_child=1 3 -3 4 -1
right_child=-2 2 -4 -5 -6
leaf_value=-0.065760261673513634 0.15058882870473653 -0.049576598783844766 0.095736484177532472 -0.052700641804525106 -0.06500895704230171
leaf_weight=5.0312905805185446 7.0616017878055564 8.0853496398776752 5.1356490552425376 5.0561237232759586 9.6772974720224738
leaf_count=243 189 481 144 321 731
internal_value=0 -0.0344272 0.00686974 -0.0620515 -0.065266
internal_weight=0 32.9857 13.221 19.7647 14.7086
internal_count=2109 1920 625 1295 974
is_linear=0
shrinkage=0.0641301


Tree=7
num_leaves=6
num_cat=0
split_feature=12 12 35 26 23
split_gain=41.6893 9.43622 2.42644 0.00134916 0.000115822
threshold=40.141790866734361 46.789875162084954 22.959000000000007 20.729000000000003 22.764500000000002
decision_type=8 8 2 10 10
left_child=-1 -2 3 -3 -5
right_child=1 2 -4 4 -6
leaf_value=0.13786872753278531 0.032567257730143649 -0.066348274534317159 -0.024454366939024971 -0.064922504227007669 -0.065340724730120925
leaf_weight=7.1964265489950767 7.1535496227443209 5.4366280334070387 9.2510444205254299 5.9791416907682997 5.0013647386804223
leaf_count=270 378 218 421 496 326
internal_value=0 -0.0325681 -0.0507209 -0.0655221 -0.065113
internal_weight=0 32.8217 25.6682 16.4171 10.9805
internal_count=2109 1839 1461 1040 822
is_linear=0
shrinkage=0.0641301


Tree=8
num_leaves=5
num_cat=0
split_feature=26 16 30 26
split_gain=38.9035 8.54394 15.3415 0.000235541
threshold=20.309500000000003 22.751210000000004 0.97295649458287869 21.202500000000004
decision_type=8 10 10 8
left_child=-1 3 -3 -2
right_child=1 2 -4 -5
leaf_value=0.11937599394084547 -0.065420303463687435 -0.050733271643506876 0.086613910253682619 -0.064941672147316609
leaf_weight=8.5448705404996854 7.3461735872551861 8.702221720479427 5.4327070489525786 9.9636425198987109
leaf_count=187 443 515 140 824
internal_value=0 -0.0349371 0.0020556 -0.0651448
internal_weight=0 31.4447 14.1349 17.3098
internal_count=2109 1922 655 1267
is_linear=0
shrinkage=0.0641301


Tree=9
num_leaves=6
num_cat=0
split_feature=9 12 13 24 26
split_gain=36.5439 8.62333 15.8549 0.000606695 0.000695314
threshold=-0.012562601152588967 49.678779063859317 0.33097629206613194 22.855000000000004 21.179500000000004
decision_type=2 8 2 10 8
left_child=-1 2 -2 4 -3
right_child=1 3 -4 -5 -6
leaf_value=0.10726520893944508 -0.057571068591417057 -0.066002511072272702 0.086986507160969076 -0.066260856964606499 -0.065028838517786083
leaf_weight=9.564987847581504 7.3777935942634958 5.1390571324154743 5.4073413079604506 5.1121758213266721 7.3024292578920731
leaf_count=424 402 261 193 211 618
internal_value=0 -0.0364938 0.00356807 -0.0656727 -0.065431
internal_weight=0 30.3388 12.7851 17.5537 12.4415
internal_count=2109 1685 595 1090 879
is_linear=0
shrinkage=0.0641301


Tree=10
num_leaves=6
num_cat=0
split_feature=12 26 27 30 16
split_gain=31.2874 38.5083 8.21731 2.56079 0.0012957
threshold=46.789875162084954 20.309500000000003 1.0001761036292562 0.97295649458287869 21.691467500000005
decision_type=8 8 10 10 8
left_child=1 -1 -3 4 -2
right_child=3 2 -4 -5 -6
leaf_value=0.19440392560501263 -0.066482346402573209 -0.065439873741699447 0.049333554783138639 -0.021883402620865775 -0.065216180603535179
leaf_weight=6.0553154200315502 5.0401452276855716 5.2637853464111668 5.0047080721706152 8.7490179920569044 9.7613740051165223
leaf_count=83 205 321 244 540 716
internal_value=0 0.0661375 -0.00950104 -0.049389 -0.0656473
internal_weight=0 16.3238 10.2685 23.5505 14.8015
internal_count=2109 648 565 1461 921
is_linear=0
shrinkage=0.0641301


Tree=11
num_leaves=7
num_cat=0
split_feature=9 49 12 2 24 16
split_gain=28.1506 29.2791 7.69209 12.568 0.000480306 0.00036925
threshold=-0.012562601152588967 0.0093696640000171545 49.678779063859317 58.045769223514178 22.710000000000004 22.095960000000002
decision_type=2 2 8 2 10 8
left_child=1 -1 3 -2 5 -4
right_child=2 -3 4 -5 -6 -7
leaf_value=-0.019348625213649315 -0.050466230856955278 0.19160913774751862 -0.065643804741397194 0.077191546410387835 -0.065996620719888877 -0.064874500043890976
leaf_weight=5.4170607868581993 7.883315948769452 5.4060216555371881 5.0414722869172666 5.3068413017317653 5.4614499965682617 5.2256175838410863
leaf_count=258 434 166 324 161 259 507
internal_value=0 0.0860227 -0.0352224 0.000894761 -0.0655107 -0.0652523
internal_weight=0 10.8231 28.9187 13.1902 15.7285 10.2671
internal_count=2109 424 1685 595 1090 831
is_linear=0
shrinkage=0.0641301


Tree=12
num_leaves=6
num_cat=0
split_feature=12 28 30 30 16
split_gain=24.6643 27.1786 13.7554 2.67643 0.00110001
threshold=46.789875162084954 1.0069389498837618 0.9585154953104903 0.97295649458287869 21.811912500000002
decision_type=8 10 10 10 8
left_child=1 -1 -3 4 -2
right_child=3 2 -4 -5 -6
leaf_value=-0.046816450585196949 -0.066314284192817263 0.049010340944163296 0.19276964938244334 -0.01926040280655197 -0.065117504294265688
leaf_weight=6.8310829615220454 5.0112026305869231 5.8699579900130612 5.1292126178741455 8.266194178722797 8.5437381388619542
leaf_count=416 224 96 136 540 697
internal_value=0 0.0536525 0.116049 -0.0480209 -0.0655599
internal_weight=0 17.8303 10.9992 21.8211 13.5549
internal_count=2109 648 232 1461 921
is_linear=0
shrinkage=0.0641301


Tree=13
num_leaves=6
num_cat=0
split_feature=12 28 30 35 16
split_gain=21.5075 21.3835 8.71943 2.73257 0.00102973
threshold=46.789875162084954 1.0069389498837618 0.9585154953104903 22.959000000000007 21.722735
decision_type=8 10 10 2 8
left_child=1 -1 -3 4 -2
right_child=3 2 -4 -5 -6
leaf_value=-0.045890676262859732 -0.066075315618162545 0.044038663193157114 0.15280395233204 -0.01755467922342753 -0.064900559294059995
leaf_weight=6.5318331094458726 5.031458799727262 6.1053405497223121 6.0205027284100652 7.9482457283884278 7.8663729047402748
leaf_count=416 265 96 136 421 775
internal_value=0 0.0476521 0.0980408 -0.0471319 -0.0653588
internal_weight=0 18.6577 12.1258 20.8461 12.8978
internal_count=2109 648 232 1461 1040
is_linear=0
shrinkage=0.0641301


Tree=14
num_leaves=6
num_cat=0
split_feature=9 26 12 9 26
split_gain=19.6624 33.5099 6.78507 10.5692 0.000362986
threshold=-0.012562601152588967 20.460500000000003 49.678779063859317 0.0047250151389578018 22.496000000000002
decision_type=2 8 8 2 10
left_child=1 -1 3 -2 -4
right_child=2 -3 4 -5 -6
leaf_value=0.19202483927334335 -0.044849174394392274 -0.022639292161552724 -0.065069744476816654 0.072769695373737106 -0.065758598339542229
leaf_weight=5.0307066179811928 8.4119172506034392 7.3753362782299527 8.4748236099258047 5.0153813641518346 5.0033232327550641
leaf_count=54 404 370 810 191 280
internal_value=0 0.064408 -0.0331816 -0.000916027 -0.0653255
internal_weight=0 12.406 26.9054 13.4273 13.4781
internal_count=2109 424 1685 595 1090
is_linear=0
shrinkage=0.0641301


Tree=15
num_leaves=6
num_cat=0
split_feature=28 12 28 27 30
split_gain=18.0027 16.002 15.2093 0.507519 0.000133685
threshold=1.0061318641973018 43.277335476681451 1.0126772318592894 1.0019537252899684 0.97136887119388182
decision_type=10 10 10 10 10
left_child=3 -2 -3 4 -1
right_child=1 2 -4 -5 -6
leaf_value=-0.064849941359492874 0.091972620822854151 0.074063312313537022 -0.067132503923144057 -0.040192883614170498 -0.065314211939851152
leaf_weight=5.1895638601854426 10.425276499241592 5.0293351588770738 8.3411660464480502 5.0324355671182266 5.0163064999505877
leaf_count=530 156 303 397 329 394
internal_value=0 0.0324161 -0.0140215 -0.0568598 -0.0650781
internal_weight=0 23.7958 13.3705 15.2383 10.2059
internal_count=2109 856 700 1253 924
is_linear=0
shrinkage=0.0641301


Tree=16
num_leaves=6
num_cat=0
split_feature=28 17 11 52 29
split_gain=16.2091 15.0273 25.293 8.68162 0.519996
threshold=1.0061318641973018 23.352000000000004 40.734451012628348 21.611000000000004 0.97629737457082644
decision_type=10 2 2 2 8
left_child=4 2 3 -2 -1
right_child=1 -3 -4 -5 -6
leaf_value=-0.039803905134521679 0.061490095022389668 -0.04240640699118111 -0.045649640302570724 0.17694789943301098 -0.065301097748275569
leaf_weight=5.0758392824791345 5.0821572020649963 8.0309649626724404 5.6108927745372048 5.6628774115815759 9.347588025033474
leaf_count=464 43 377 217 219 789
internal_value=0 0.0294354 0.0647106 0.122339 -0.0563282
internal_weight=0 24.3869 16.3559 10.745 14.4234
internal_count=2109 856 479 262 1253
is_linear=0
shrinkage=0.0641301


Tree=17
num_leaves=6
num_cat=0
split_feature=28 17 4 51 30
split_gain=14.6018 12.6067 20.8668 4.5081 0.516816
threshold=1.0061318641973018 23.352000000000004 54.709066691485937 22.329500000000003 0.96997662392554174
decision_type=10 2 2 2 8
left_child=4 2 3 -2 -1
right_child=1 -3 -4 -5 -6
leaf_value=-0.039512655524491798 0.073688397823480481 -0.041347185170529481 -0.030518825940286154 0.15806163146258573 -0.06534129798197294
leaf_weight=5.0618298505432877 5.4300515204668098 7.7188090402632943 6.7537923664785913 5.004863912705332 8.5978228030726314
leaf_count=553 41 377 268 170 700
internal_value=0 0.0267365 0.0573104 0.114156 -0.05577
internal_weight=0 24.9075 17.1887 10.4349 13.6597
internal_count=2109 856 479 211 1253
is_linear=0
shrinkage=0.0641301


Tree=18
num_leaves=6
num_cat=0
split_feature=12 22 26 35 26
split_gain=13.6304 15.205 21.1105 3.11169 0.000615371
threshold=46.789875162084954 21.138000000000002 22.020500000000002 22.959000000000007 21.179500000000004
decision_type=8 10 8 2 8
left_child=1 -1 -3 4 -2
right_child=3 2 -4 -5 -6
leaf_value=-0.058333529050405342 -0.065721251067496739 0.12951142624459985 -0.02477233153796116 -0.010089237236943726 -0.064752571384701238
leaf_weight=5.4937354242429164 5.1634748578071603 8.9000351377762819 6.1801089672371754 6.8986827027983955 5.646598012652249
leaf_count=196 357 133 319 421 683
internal_value=0 0.0330075 0.0662832 -0.0437402 -0.0652153
internal_weight=0 20.5739 15.0801 17.7088 10.8101
internal_count=2109 648 452 1461 1040
is_linear=0
shrinkage=0.0641301


Tree=19
num_leaves=6
num_cat=0
split_feature=28 17 11 27 30
split_gain=12.3289 9.89997 15.5451 4.31841 0.488267
threshold=1.0061318641973018 23.352000000000004 40.734451012628348 1.0025054476044433 0.9706489233887664
decision_type=10 2 2 8 8
left_child=4 2 3 -2 -1
right_child=1 -3 -4 -5 -6
leaf_value=-0.039384066697688527 0.12604761785351376 -0.039856062146208113 -0.044343700884055294 0.051583048884747296 -0.065250112416333356
leaf_weight=5.0449482155963752 6.0325967893004462 7.317458262667059 5.2609755946323267 6.828387637156994 7.4094752338714907
leaf_count=589 159 377 217 103 664
internal_value=0 0.0231014 0.048523 0.0865115 -0.0547725
internal_weight=0 25.4394 18.122 12.861 12.4544
internal_count=2109 856 479 262 1253
is_linear=0
shrinkage=0.0641301


Tree=20
num_leaves=5
num_cat=0
split_feature=12 16 26 35
split_gain=11.3762 12.7245 23.5218 3.197
threshold=46.789875162084954 20.850249999999999 20.309500000000003 22.959000000000007
decision_type=8 10 8 2
left_child=1 -1 -3 -2
right_child=3 2 -4 -5
leaf_value=-0.060142615151806349 -0.065147107024188605 0.15240186757020566 -0.0065112523959231401 -0.0076130477312981492
leaf_weight=5.0244881175458458 9.9608898870646971 6.3718005120754215 9.6052907803095877 6.6065092338249078
leaf_count=94 1040 35 519 421
internal_value=0 0.0288714 0.0568647 -0.0422045
internal_weight=0 21.0016 15.9771 16.5674
internal_count=2109 648 554 1461
is_linear=0
shrinkage=0.0641301


Tree=21
num_leaves=6
num_cat=0
split_feature=28 19 10 1 0
split_gain=10.7185 8.47024 9.97194 5.43956 0.108282
threshold=1.0036336838085773 23.402500000000003 -43.353664600390836 22.491536719147405 0.13017857142857145
decision_type=10 2 2 2 2
left_child=4 2 3 -2 -1
right_child=1 -3 -4 -5 -6
leaf_value=-0.065243110051905431 0.10968271798691032 -0.039899547205534035 -0.022465137128913747 0.025138778292878597 -0.051984600455091734
leaf_weight=5.1057290360331518 7.4064953639172053 7.36470405710861 6.7234159177169213 5.4203900224529207 5.0281792711466551
leaf_count=471 205 403 290 86 654
internal_value=0 0.0187158 0.0407965 0.0739561 -0.0586646
internal_weight=0 26.915 19.5503 12.8269 10.1339
internal_count=2109 984 581 291 1125
is_linear=0
shrinkage=0.0641301


Tree=22
num_leaves=4
num_cat=0
split_feature=28 12 7
split_gain=9.81495 7.44174 8.05878
threshold=1.0036336838085773 46.789875162084954 0.029183251210197273
decision_type=10 10 2
left_child=-1 2 -2
right_child=1 -3 -4
leaf_value=-0.058241222418235983 -0.0023149425195639014 -0.026947334161189801 0.085492683617448828
leaf_weight=9.5715096676722151 8.3673726501874679 9.9195544468238932 8.840050474740563
leaf_count=1125 172 691 121
internal_value=0 0.0172922 0.0427949
internal_weight=0 27.127 17.2074
internal_count=2109 984 293
is_linear=0
shrinkage=0.0641301


Tree=23
num_leaves=5
num_cat=0
split_feature=28 28 12 50
split_gain=9.00054 6.94498 15.3029 0.940072
threshold=1.0036336838085773 1.008392135890517 41.347728699596942 -0.029106231029080828
decision_type=10 10 10 2
left_child=-1 -2 -3 -4
right_child=1 2 3 -5
leaf_value=-0.057804060266269094 0.083450851179267357 0.05511270084848105 -0.067616228843799378 -0.030508718877242401
leaf_weight=9.0426767370663566 5.1059354166500297 10.828182477504017 6.4003501478582647 5.0021583246998444
leaf_count=1125 288 109 342 245
internal_value=0 0.0160037 0.000512508 -0.0513376
internal_weight=0 27.3366 22.2307 11.4025
internal_count=2109 984 696 587
is_linear=0
shrinkage=0.0641301


Tree=24
num_leaves=5
num_cat=0
split_feature=28 0 0 13
split_gain=8.25653 6.3246 7.76739 7.64207
threshold=1.0061318641973018 0.14985714285714283 0.14035714285714326 0.32007537707368089
decision_type=10 2 2 2
left_child=-1 2 3 -2
right_child=1 -3 -4 -5
leaf_value=-0.052007146654881514 -0.029805812721733087 -0.043434773615210268 0.094079210145437006 0.065912863781324507
leaf_weight=9.9546320848166925 8.7833888372406417 5.6509817247278979 6.066150050610303 5.6286454577930263
leaf_count=1253 382 137 87 250
internal_value=0 0.0166272 0.0332013 0.00757729
internal_weight=0 26.1292 20.4782 14.412
internal_count=2109 856 719 632
is_linear=0
shrinkage=0.0641301


Tree=25
num_leaves=5
num_cat=0
split_feature=12 16 26 35
split_gain=7.76728 11.2563 13.951 3.34543
threshold=46.789875162084954 20.850249999999999 20.342000000000002 22.959000000000007
decision_type=8 10 10 2
left_child=1 -1 -3 -2
right_child=3 2 -4 -5
leaf_value=-0.06113840770003675 -0.06503413103619872 0.11506043773251953 -0.0042552421099502332 -0.0024104707229966622
leaf_weight=5.0853459937498 8.3409269871190173 7.1808532625436809 9.1858311519026739 6.055237910244613
leaf_count=94 1040 35 519 421
internal_value=0 0.0222 0.0480943 -0.0386937
internal_weight=0 21.452 16.3667 14.3962
internal_count=2109 648 554 1461
is_linear=0
shrinkage=0.0641301


Tree=26
num_leaves=5
num_cat=0
split_feature=30 30 12 12
split_gain=7.55918 10.8858 12.6233 1.35947
threshold=0.97685032603268196 0.97246810131613215 40.141790866734361 46.398701212411375
decision_type=8 8 10 10
left_child=1 2 -1 -4
right_child=-2 -3 3 -5
leaf_value=0.045110816167964481 -0.065666517762597354 0.097280994063305745 -0.02317127534672267 -0.065287260008585285
leaf_weight=10.766238023992633 6.3353388500399879 5.0442560450173906 5.2356186374090594 7.9208209356293082
leaf_count=169 592 278 192 878
internal_value=0 0.0116664 -0.00638603 -0.0485272
internal_weight=0 28.9669 23.9227 13.1564
internal_count=2109 1517 1239 1070
is_linear=0
shrinkage=0.0641301


Tree=27
num_leaves=5
num_cat=0
split_feature=28 28 12 2
split_gain=7.13408 7.25832 11.2897 0.863455
threshold=1.0036336838085773 1.0082529628044588 41.347728699596942 56.244001919385845
decision_type=10 10 10 2
left_child=-1 -2 -3 -4
right_child=1 2 3 -5
leaf_value=-0.056547219431612152 0.082041447106129636 0.041260894433599059 -0.067603195206303132 -0.030983848605559375
leaf_weight=7.73645209474489 5.1201220108196166 11.534342661499979 5.6230826964601857 5.0053965938277543
leaf_count=1125 272 113 336 263
internal_value=0 0.0132227 -0.00267599 -0.0503576
internal_weight=0 27.2829 22.1628 10.6285
internal_count=2109 984 712 599
is_linear=0
shrinkage=0.0641301


Tree=28
num_leaves=5
num_cat=0
split_feature=30 30 9 12
split_gain=7.06721 9.6521 9.0421 7.83775
threshold=0.95095006456474962 0.97685032603268196 -0.012562601152588967 49.678779063859317
decision_type=10 8 2 10
left_child=-1 2 -2 -4
right_child=1 -3 3 -5
leaf_value=-0.07031758785890295 0.07487174973110565 -0.065674083775397615 0.033330297907825338 -0.06504303899671629
leaf_weight=5.300638038897886 9.8774131233803963 5.5961514683440319 8.4824126143939775 5.4845865962561229
leaf_count=337 258 527 341 646
internal_value=0 0.0101222 0.0279112 -0.00529912
internal_weight=0 29.4406 23.8444 13.967
internal_count=2109 1772 1245 987
is_linear=0
shrinkage=0.0641301


Tree=29
num_leaves=5
num_cat=0
split_feature=16 26 17 1
split_gain=6.52796 13.718 9.3246 14.2446
threshold=20.850249999999999 20.342000000000002 23.075000000000006 20.98108395377746
decision_type=10 10 2 2
left_child=-1 -2 -3 -4
right_child=1 2 3 -5
leaf_value=-0.061489163667263931 0.080351046186570171 -0.065266959867135599 0.09490806273639496 -0.053623674939563666
leaf_weight=6.2355931093916288 8.2827337533235568 9.1823078307788837 5.4816451421938819 5.150366046698764
leaf_count=293 63 1182 266 305
internal_value=0 0.0110437 -0.017928 0.0229562
internal_weight=0 28.0971 19.8143 10.632
internal_count=2109 1816 1753 571
is_linear=0
shrinkage=0.0641301


Tree=30
num_leaves=5
num_cat=0
split_feature=10 2 0 9
split_gain=6.30677 8.79136 9.88819 8.14149
threshold=-23.354446072354204 58.045769223514178 0.13385714285714342 -0.0129094888033856
decision_type=2 2 2 2
left_child=1 2 -1 -4
right_child=-2 -3 3 -5
leaf_value=-0.061068643401271931 -0.066829101334480015 0.080996307555614946 0.06314131274994754 -0.037698360875550174
leaf_weight=8.8633562009781652 5.2395195283461353 5.6970144931692621 8.802128083072601 5.2608119628857812
leaf_count=740 465 241 224 439
internal_value=0 0.00969902 -0.00801783 0.0254182
internal_weight=0 28.6233 22.9263 14.0629
internal_count=2109 1644 1403 663
is_linear=0
shrinkage=0.0641301


Tree=31
num_leaves=5
num_cat=0
split_feature=16 26 17 30
split_gain=5.98292 11.1652 8.56631 9.93349
threshold=20.850249999999999 20.342000000000002 23.075000000000006 0.97295649458287869
decision_type=10 10 2 10
left_child=-1 -2 -3 -4
right_child=1 2 3 -5
leaf_value=-0.060690540025567917 0.071931744327032532 -0.065190721972966326 -0.041408490095968156 0.081752617122384616
leaf_weight=5.9082218934781841 8.4288202878087777 8.3964648698456603 5.2971939072012884 5.4789052279666066
leaf_count=293 63 1182 419 152
internal_value=0 0.0104159 -0.0166282 0.0212105
internal_weight=0 27.6014 19.1726 10.7761
internal_count=2109 1816 1753 571
is_linear=0
shrinkage=0.0641301


Tree=32
num_leaves=5
num_cat=0
split_feature=30 30 12 12
split_gain=5.92271 8.6174 8.61901 1.20426
threshold=0.97685032603268196 0.97295649458287869 40.141790866734361 46.617384995182221
decision_type=8 8 10 10
left_child=1 2 -1 -4
right_child=-2 -3 3 -5
leaf_value=0.032978864797327506 -0.065567954031206452 0.081709497556112634 -0.023441004365007252 -0.065043946726584118
leaf_weight=10.857825607992714 5.1127159539610139 5.4672814686782649 5.153182778041808 6.4345534020103514
leaf_count=169 592 266 202 880
internal_value=0 0.00951114 -0.0080749 -0.0465427
internal_weight=0 27.9128 22.4456 11.5877
internal_count=2109 1517 1251 1082
is_linear=0
shrinkage=0.0641301


Tree=33
num_leaves=5
num_cat=0
split_feature=16 26 17 48
split_gain=5.48222 9.49326 7.80533 8.90967
threshold=20.850249999999999 20.342000000000002 23.075000000000006 23.477937500000007
decision_type=10 10 2 2
left_child=-1 -2 -3 -4
right_child=1 2 3 -5
leaf_value=-0.059958110537426633 0.066052482187305223 -0.065129391520144658 0.082134458672528832 -0.03399423787654015
leaf_weight=5.5822175685316315 8.4883658699691313 7.7197403516620424 5.0035527548752707 5.9459733560215682
leaf_count=293 63 1182 201 370
internal_value=0 0.00982158 -0.015745 0.0190725
internal_weight=0 27.1576 18.6693 10.9495
internal_count=2109 1816 1753 571
is_linear=0
shrinkage=0.0641301


Tree=34
num_leaves=4
num_cat=0
split_feature=28 28 12
split_gain=5.11612 7.09052 7.85979
threshold=1.0036336838085773 1.0081069324172114 41.347728699596942
decision_type=10 10 10
left_child=-1 -2 -3
right_child=1 2 -4
leaf_value=-0.054507494708639859 0.078021106396590073 0.029578168448142376 -0.049318092451632524
leaf_weight=6.1830777863506219 5.1212479658424881 11.466065257787706 9.4920164030045253
leaf_count=1125 256 116 612
internal_value=0 0.0103754 -0.00615433
internal_weight=0 26.0793 20.9581
internal_count=2109 984 728
is_linear=0
shrinkage=0.0641301


Tree=35
num_leaves=5
num_cat=0
split_feature=16 26 1 29
split_gain=5.04841 8.21218 7.31421 8.5934
threshold=20.850249999999999 20.342000000000002 22.044718568560793 0.97895413678469867
decision_type=10 10 2 10
left_child=-1 -2 3 -3
right_child=1 2 -4 -5
leaf_value=-0.059233831961891956 0.061389104973559282 0.079294013103749159 -0.065826502490420033 -0.033967166395319152
leaf_weight=5.2918676482513574 8.4967797026038188 5.0510411872528511 7.0961259226314715 6.0608432607259601
leaf_count=293 63 342 691 720
internal_value=0 0.00932957 -0.014964 0.0175171
internal_weight=0 26.7048 18.208 11.1119
internal_count=2109 1816 1753 1062
is_linear=0
shrinkage=0.0641301


Tree=36
num_leaves=5
num_cat=0
split_feature=16 19 4 0
split_gain=4.6223 7.32713 5.984 5.85487
threshold=20.850249999999999 23.402500000000003 54.709066691485937 0.13657142857142865
decision_type=10 2 2 2
left_child=-1 2 3 -2
right_child=1 -3 -4 -5
leaf_value=-0.058262003311861189 0.0027481292731728157 -0.042299431249813661 -0.025302649413174932 0.090441714620789829
leaf_weight=5.0432644709944752 5.2822923883795792 8.054698196006937 5.4593663702253243 7.6888087275438011
leaf_count=293 418 507 596 295
internal_value=0 0.00872412 0.031023 0.0547298
internal_weight=0 26.4852 18.4305 12.9711
internal_count=2109 1816 1309 713
is_linear=0
shrinkage=0.0641301


Tree=37
num_leaves=4
num_cat=0
split_feature=28 28 12
split_gain=4.47147 7.01726 6.67049
threshold=1.0036336838085773 1.0079349344799893 41.347728699596942
decision_type=10 10 10
left_child=-1 -2 -3
right_child=1 2 -4
leaf_value=-0.053468729726103913 0.076912125169506171 0.025568394697852666 -0.048437158381123217
leaf_weight=5.6620104350149658 5.0865882395301041 11.268727555871012 9.0172207953874004
leaf_count=1125 240 120 624
internal_value=0 0.00956054 -0.0073275
internal_weight=0 25.3725 20.2859
internal_count=2109 984 744
is_linear=0
shrinkage=0.0641301


Tree=38
num_leaves=5
num_cat=0
split_feature=10 13 0 1
split_gain=4.20787 8.00494 7.73241 4.23926
threshold=-24.648347371639954 0.45735094744681076 0.12892857142857181 18.667438733057903
decision_type=2 2 2 2
left_child=1 2 -1 -4
right_child=-2 -3 3 -5
leaf_value=-0.067194931008036904 -0.055079352900053939 0.077057534609892536 0.057619075710163621 -0.014493412158735746
leaf_weight=6.5686493514804267 5.1029831893974906 5.525856837630271 6.0353202234255132 7.5427632001228631
leaf_count=637 513 228 275 456
internal_value=0 0.00868078 -0.0100736 0.0175599
internal_weight=0 25.6726 20.1467 13.5781
internal_count=2109 1596 1368 731
is_linear=0
shrinkage=0.0641301


Tree=39
num_leaves=4
num_cat=0
split_feature=28 28 12
split_gain=4.04445 6.16303 5.88388
threshold=1.0036336838085773 1.0077868724013397 41.347728699596942
decision_type=10 10 10
left_child=-1 -2 -3
right_child=1 2 -4
leaf_value=-0.052694291744456806 0.07082704155898796 0.02302168639669543 -0.04728313178115922
leaf_weight=5.314998549642044 5.2310920567251769 11.322311958298089 8.6252455448266101
leaf_count=1125 224 121 639
internal_value=0 0.00886993 -0.00737784
internal_weight=0 25.1786 19.9476
internal_count=2109 984 760
is_linear=0
shrinkage=0.0641301


Tree=40
num_leaves=5
num_cat=0
split_feature=1 28 17 17
split_gain=3.79687 6.08104 5.15677 4.45142
threshold=22.044718568560793 1.0229235741427989 23.075000000000006 21.497500000000006
decision_type=2 10 2 2
left_child=2 -2 3 -1
right_child=1 -3 -4 -5
leaf_value=0.031703601504404294 -0.066879636752379526 0.022544851312004666 0.059275299753193567 -0.05268427233276881
leaf_weight=5.0197847122326547 7.2698595271212962 5.4885687255300581 7.1895458403741932 5.2693094637943432
leaf_count=311 759 89 355 595
internal_value=0 -0.02841 0.0176042 -0.0115136
internal_weight=0 12.7584 17.4786 10.2891
internal_count=2109 848 1261 906
is_linear=0
shrinkage=0.0641301


Tree=41
num_leaves=4
num_cat=0
split_feature=19 21 12
split_gain=3.8871 6.2779 7.78321
threshold=23.402500000000003 23.046000000000003 40.141790866734361
decision_type=2 8 8
left_child=1 2 -1
right_child=-2 -3 -4
leaf_value=0.03280826423522553 -0.041150829201524255 0.075033707531669241 -0.053474057720492331
leaf_weight=9.4349037839565515 7.6743544730124986 5.0033085140166795 7.8998409119667476
leaf_count=183 562 299 1065
internal_value=0 0.0117523 -0.00651257
internal_weight=0 22.3381 17.3347
internal_count=2109 1547 1248
is_linear=0
shrinkage=0.0641301


Tree=42
num_leaves=4
num_cat=0
split_feature=19 35 12
split_gain=3.51343 6.16492 6.62554
threshold=23.402500000000003 22.6585 40.141790866734361
decision_type=2 2 8
left_child=1 2 -1
right_child=-2 -3 -4
leaf_value=0.027580319268240804 -0.040082504902668674 0.073648436122994404 -0.052486041474245605
leaf_weight=9.7921049764845609 7.3832660982152438 5.0037255295319474 7.510834560962393
leaf_count=193 562 302 1052
internal_value=0 0.0109551 -0.00717477
internal_weight=0 22.3067 17.3029
internal_count=2109 1547 1245
is_linear=0
shrinkage=0.0641301


Tree=43
num_leaves=5
num_cat=0
split_feature=0 7 0 1
split_gain=3.49987 3.86391 6.64813 4.5922
threshold=0.14985714285714283 0.029183251210197273 0.13385714285714342 22.491536719147405
decision_type=2 2 2 2
left_child=1 2 -1 -3
right_child=-2 3 -4 -5
leaf_value=-0.065468231687910564 -0.043157201929808237 0.080165212946353065 0.035283116513299781 0.00037157396790847271
leaf_weight=5.6863049397943595 6.5165167218074194 5.2463811733759922 5.1177235980285332 6.8250887818867341
leaf_count=783 509 266 292 259
internal_value=0 0.0101161 -0.0177437 0.0350507
internal_weight=0 22.8755 10.804 12.0715
internal_count=2109 1600 1075 525
is_linear=0
shrinkage=0.0641301


Tree=44
num_leaves=5
num_cat=0
split_feature=28 27 31 28
split_gain=3.21895 4.93637 6.0536 5.64206
threshold=1.0061318641973018 1.0031257314588189 0.92181613937820261 1.0120956392532074
decision_type=10 10 10 10
left_child=-1 3 -3 -2
right_child=1 2 -4 -5
leaf_value=-0.043499529428300106 0.08790619406144054 0.024415112539451809 -0.068087067253368841 -0.0021753262290404004
leaf_weight=6.0054866864811656 5.2607688999269175 6.0257645389065129 5.6263278553960845 6.264654426719062
leaf_count=1253 213 95 330 218
internal_value=0 0.00918416 -0.0202505 0.0389423
internal_weight=0 23.1775 11.6521 11.5254
internal_count=2109 856 425 431
is_linear=0
shrinkage=0.0641301


Tree=45
num_leaves=5
num_cat=0
split_feature=12 7 22 12
split_gain=3.20206 4.62801 8.07071 2.78366
threshold=49.678779063859317 0.029183251210197273 21.492000000000004 37.669346675736769
decision_type=8 2 10 10
left_child=1 3 -3 -1
right_child=-2 2 -4 -5
leaf_value=0.013606788044001198 -0.036467156499931638 -0.019694155977934082 0.090648271373590023 -0.053911563453888957
leaf_weight=5.0421902649104648 7.8912413966609156 5.0217989787925017 5.9635425468441099 5.0031028343364596
leaf_count=137 1230 93 128 521
internal_value=0 0.0114389 0.0402067 -0.020021
internal_weight=0 21.0306 10.9853 10.0453
internal_count=2109 879 221 658
is_linear=0
shrinkage=0.0641301


Tree=46
num_leaves=4
num_cat=0
split_feature=1 28 17
split_gain=3.13541 5.25932 3.79662
threshold=22.044718568560793 1.0229235741427989 23.075000000000006
decision_type=2 10 2
left_child=2 -2 -1
right_child=1 -3 -4
leaf_value=-0.010534024152730635 -0.066691226725984071 0.019903319984946603 0.050714734720680957
leaf_weight=9.6065900303656289 6.3306187576381472 5.2989320862106979 7.3442503380356348
leaf_count=906 759 89 355
internal_value=0 -0.027235 0.0160031
internal_weight=0 11.6296 16.9508
internal_count=2109 848 1261
is_linear=0
shrinkage=0.0641301


Tree=47
num_leaves=4
num_cat=0
split_feature=19 42 12
split_gain=3.0675 4.94224 5.90746
threshold=23.402500000000003 22.723453000000003 40.141790866734361
decision_type=2 2 10
left_child=1 2 -1
right_child=-2 -3 -4
leaf_value=0.02638670264125129 -0.038610040205135067 0.066247079029183045 -0.051313151538510314
leaf_weight=9.5030393502675086 6.9398749460233367 5.0045714508742085 6.9800797995412713
leaf_count=194 562 270 1083
internal_value=0 0.0104303 -0.00651673
internal_weight=0 21.4877 16.4831
internal_count=2109 1547 1277
is_linear=0
shrinkage=0.0641301


Tree=48
num_leaves=4
num_cat=0
split_feature=0 17 0
split_gain=2.92445 3.04183 3.80651
threshold=0.14985714285714283 23.352000000000004 0.12892857142857181
decision_type=2 2 2
left_child=1 2 -1
right_child=-2 -3 -4
leaf_value=-0.013733004756120338 -0.040994729625273382 -0.031831841888782346 0.048806548323838454
leaf_weight=6.7958572544157603 6.0521258957451201 5.5329488792922339 9.7380279457429406
leaf_count=747 509 399 454
internal_value=0 0.00932748 0.0231012
internal_weight=0 22.0668 16.5339
internal_count=2109 1600 1201
is_linear=0
shrinkage=0.0641301


Tree=49
num_leaves=4
num_cat=0
split_feature=1 28 17
split_gain=2.83599 4.78167 3.42968
threshold=22.044718568560793 1.0229235741427989 23.075000000000006
decision_type=2 10 2
left_child=2 -2 -1
right_child=1 -3 -4
leaf_value=-0.010507536157783376 -0.066639729563496328 0.017986693605444588 0.047822204430778781
leaf_weight=9.4374808225547948 5.8232725850539264 5.1961712306365371 7.3934905147179952
leaf_count=906 759 89 355
internal_value=0 -0.0267345 0.0151155
internal_weight=0 11.0194 16.831
internal_count=2109 848 1261
is_linear=0
shrinkage=0.0641301


Tree=50
num_leaves=4
num_cat=0
split_feature=12 13 26
split_gain=2.92063 3.79668 4.85265
threshold=49.678779063859317 0.32007537707368089 20.309500000000003
decision_type=8 2 8
left_child=1 2 -1
right_child=-2 -3 -4
leaf_value=0.025455376178719114 -0.035754793517510743 0.04692898512290021 -0.054485516224902032
leaf_weight=6.9701811489649161 7.4426697365706778 7.6327214624034232 5.6579514737240979
leaf_count=54 1230 208 617
internal_value=0 0.011221 -0.0103616
internal_weight=0 20.2609 12.6281
internal_count=2109 879 671
is_linear=0
shrinkage=0.0641301


Tree=51
num_leaves=5
num_cat=0
split_feature=10 13 0 7
split_gain=2.78898 5.12567 4.90533 4.35399
threshold=-31.904120597032787 0.32007537707368089 0.13385714285714342 -0.008612968886248849
decision_type=2 2 2 2
left_child=1 2 -1 -4
right_child=-2 -3 3 -5
leaf_value=-0.058947673591422813 -0.040513055539427925 0.063029131959481913 0.059048770369803015 -0.022888467132625628
leaf_weight=5.3658962095505656 5.8776842547813422 5.456768997362814 5.0998214489081874 5.5913936281576735
leaf_count=646 690 211 393 169
internal_value=0 0.00933295 -0.00891489 0.0161965
internal_weight=0 21.5139 16.0571 10.6912
internal_count=2109 1419 1208 562
is_linear=0
shrinkage=0.0641301


Tree=52
num_leaves=4
num_cat=0
split_feature=0 7 29
split_gain=2.72837 2.52637 3.1483
threshold=0.14985714285714283 0.029183251210197273 0.97015754676311217
decision_type=2 2 10
left_child=1 -1 -3
right_child=-2 2 -4
leaf_value=-0.015203569636720229 -0.040190741167678339 -0.006617092222523201 0.059974328975234109
leaf_weight=9.5406199223944039 5.8339705740800119 5.4256023642374185 6.3223186091054231
leaf_count=1075 509 155 370
internal_value=0 0.00931128 0.0292201
internal_weight=0 21.2885 11.7479
internal_count=2109 1600 525
is_linear=0
shrinkage=0.0641301


Tree=53
num_leaves=4
num_cat=0
split_feature=27 27 31
split_gain=2.69301 5.87133 4.36834
threshold=1.0031257314588189 1.0001761036292562 0.92181613937820261
decision_type=8 10 8
left_child=1 -1 -2
right_child=2 -3 -4
leaf_value=-0.019871555761412193 0.017809017530723593 0.062335557505717822 -0.057797782888547401
leaf_weight=7.8207630548276956 5.8408321081660661 6.5786381188081577 6.8037248052423829
leaf_count=1017 119 376 597
internal_value=0 0.0176863 -0.0228731
internal_weight=0 14.3994 12.6446
internal_count=2109 1393 716
is_linear=0
shrinkage=0.0641301


Tree=54
num_leaves=5
num_cat=0
split_feature=10 13 9 1
split_gain=2.56125 4.03503 4.68366 3.60196
threshold=-31.904120597032787 0.32007537707368089 -0.012562601152588967 20.541832047662197
decision_type=2 2 2 2
left_child=1 2 3 -1
right_child=-2 -3 -4 -5
leaf_value=0.056159592259242802 -0.039504857780552897 0.055901239707914469 -0.057786419663951309 -0.019225938862807102
leaf_weight=5.0128734578611347 5.6748184027383095 5.5634129301179192 5.1469178622937788 5.4305166165577248
leaf_count=178 690 211 802 228
internal_value=0 0.00901467 -0.00771683 0.0169594
internal_weight=0 21.1537 15.5903 10.4434
internal_count=2109 1419 1208 406
is_linear=0
shrinkage=0.0641301


Tree=55
num_leaves=4
num_cat=0
split_feature=0 17 0
split_gain=2.47789 2.38287 3.16482
threshold=0.14985714285714283 23.352000000000004 0.12892857142857181
decision_type=2 2 2
left_child=1 2 -1
right_child=-2 -3 -4
leaf_value=-0.014220118666984785 -0.039184781784682897 -0.029205811059029151 0.044351433917440362
leaf_weight=6.2818483129376608 5.5841850225115186 5.1084459085250264 9.5799604234052804
leaf_count=747 509 399 454
internal_value=0 0.00888688 0.021155
internal_weight=0 20.9703 15.8618
internal_count=2109 1600 1201
is_linear=0
shrinkage=0.0641301


Tree=56
num_leaves=4
num_cat=0
split_feature=27 40 31
split_gain=2.49429 5.0021 3.94233
threshold=1.0031257314588189 22.894166000000002 0.92181613937820261
decision_type=8 2 8
left_child=1 -1 -2
right_child=2 -3 -4
leaf_value=-0.017544648018263605 0.015953448692992055 0.05904763185110392 -0.057174437799918328
leaf_weight=7.7465045291464794 5.7694523283280406 6.4072582984226756 6.3896665069041783
leaf_count=1056 119 337 597
internal_value=0 0.0171279 -0.0224756
internal_weight=0 14.1538 12.1591
internal_count=2109 1393 716
is_linear=0
shrinkage=0.0641301


Tree=57
num_leaves=4
num_cat=0
split_feature=1 12 40
split_gain=2.47236 2.67051 2.60576
threshold=22.044718568560793 41.347728699596942 22.894166000000002
decision_type=2 8 2
left_child=2 -2 -1
right_child=1 -3 -4
leaf_value=-0.0089779670677010166 0.0071504533254498018 -0.058869349251101502 0.042918904265581287
leaf_weight=8.804418716230435 5.0118837773334208 5.067679960746319 7.2601029342040411
leaf_count=897 134 714 364
internal_value=0 -0.0260422 0.014476
internal_weight=0 10.0796 16.0645
internal_count=2109 848 1261
is_linear=0
shrinkage=0.0641301


Tree=58
num_leaves=4
num_cat=0
split_feature=12 7 29
split_gain=2.51882 2.80082 5.7888
threshold=49.678779063859317 0.029183251210197273 0.96924976839489674
decision_type=8 2 10
left_child=1 -1 -3
right_child=-2 2 -4
leaf_value=-0.015971927715559744 -0.034735000595505661 -0.013104150561921506 0.082245678947479015
leaf_weight=8.7940147879417108 6.7766791129251933 5.4033992770127934 5.0809891467215493
leaf_count=658 1230 87 134
internal_value=0 0.010718 0.0331047
internal_weight=0 19.2784 10.4844
internal_count=2109 879 221
is_linear=0
shrinkage=0.0641301


Tree=59
num_leaves=4
num_cat=0
split_feature=12 1 7
split_gain=2.25789 2.6182 2.64515
threshold=49.678779063859317 22.491536719147405 0.013495660066098482
decision_type=8 2 2
left_child=1 2 -1
right_child=-2 -3 -4
leaf_value=0.0024489995768844862 -0.033502482153498769 -0.018601918290085052 0.064525826806676179
leaf_weight=6.4807970611145773 6.581914701673667 7.8308447239687657 5.0018157234881073
leaf_count=366 1230 370 143
internal_value=0 0.00999039 0.0294896
internal_weight=0 19.3135 11.4826
internal_count=2109 879 509
is_linear=0
shrinkage=0.0641301


Tree=60
num_leaves=4
num_cat=0
split_feature=9 9 28
split_gain=2.28307 4.3517 2.32745
threshold=-0.012562601152588967 0.0085887678754332231 1.0229235741427989
decision_type=2 2 10
left_child=2 -2 -1
right_child=1 -3 -4
leaf_value=-0.012146378740064506 -0.046702499850401848 0.025533281469463067 0.046075773101257871
leaf_weight=5.0616646361304465 8.6540958170662616 5.6816884126747018 6.3867299556732178
leaf_count=362 1085 600 62
internal_value=0 -0.0180734 0.0203341
internal_weight=0 14.3358 11.4484
internal_count=2109 1685 424
is_linear=0
shrinkage=0.0641301


Tree=61
num_leaves=4
num_cat=0
split_feature=27 27 31
split_gain=2.27958 4.12032 3.62537
threshold=1.0031257314588189 1.0001761036292562 0.92181613937820261
decision_type=8 10 8
left_child=1 -1 -2
right_child=2 -3 -4
leaf_value=-0.017096294315967243 0.01523473183127848 0.052801441550465525 -0.056498095921087836
leaf_weight=7.2077571646659653 5.5874768828507486 6.6854546699905768 6.0190133075811909
leaf_count=1017 119 376 597
internal_value=0 0.0165387 -0.0219652
internal_weight=0 13.8932 11.6065
internal_count=2109 1393 716
is_linear=0
shrinkage=0.0641301


Tree=62
num_leaves=4
num_cat=0
split_feature=10 13 0
split_gain=2.20875 3.06095 4.12731
threshold=-31.904120597032787 0.32007537707368089 0.13657142857142865
decision_type=2 2 2
left_child=1 2 -1
right_child=-2 -3 -4
leaf_value=-0.052001689420316542 -0.038004292938453643 0.049747843602863197 0.019009733439352378
leaf_weight=5.2621394515736091 5.248106454848311 5.4486258251126847 9.3424738223548029
leaf_count=709 690 211 499
internal_value=0 0.00872753 -0.00657616
internal_weight=0 20.0532 14.6046
internal_count=2109 1419 1208
is_linear=0
shrinkage=0.0641301


Tree=63
num_leaves=4
num_cat=0
split_feature=0 0 13
split_gain=2.11709 1.99878 2.63545
threshold=0.14985714285714283 0.12892857142857181 -0.35067945097446701
decision_type=2 2 2
left_child=1 -1 -3
right_child=-2 2 -4
leaf_value=-0.013579491961369265 -0.037209826046921593 0.060330327362102795 -0.0031344668806153578
leaf_weight=9.0563185599166953 5.2370626097545019 5.1684706397354603 5.6139192457194422
leaf_count=1020 509 199 381
internal_value=0 0.00863154 0.027287
internal_weight=0 19.8387 10.7824
internal_count=2109 1600 580
is_linear=0
shrinkage=0.0641301


Tree=64
num_leaves=3
num_cat=0
split_feature=1 40
split_gain=2.08752 2.18033
threshold=22.044718568560793 22.894166000000002
decision_type=2 2
left_child=1 -1
right_child=-2 -3
leaf_value=-0.0085918559105930114 -0.024829304328291311 0.039645084247470062
leaf_weight=8.4060082227806578 9.3544805198907834 7.1162243755534282
leaf_count=897 848 364
internal_value=0 0.0135225
internal_weight=0 15.5222
internal_count=2109 1261
is_linear=0
shrinkage=0.0641301


Tree=65
num_leaves=4
num_cat=0
split_feature=19 4 1
split_gain=2.00584 3.51785 1.9738
threshold=23.402500000000003 47.703394628366404 18.667438733057903
decision_type=2 2 2
left_child=1 2 -1
right_child=-2 -3 -4
leaf_value=0.062988159262678797 -0.033916560254544696 -0.021739399685134053 0.0076626687911027849
leaf_weight=5.0085542721208238 5.7900514503126024 8.4423599775182065 5.6365687727811746
leaf_count=311 562 909 327
internal_value=0 0.00917559 0.0336934
internal_weight=0 19.0875 10.6451
internal_count=2109 1547 638
is_linear=0
shrinkage=0.0641301


Tree=66
num_leaves=4
num_cat=0
split_feature=12 7 29
split_gain=1.9817 2.47925 4.42949
threshold=49.678779063859317 0.029183251210197273 0.9689743073835968
decision_type=8 2 10
left_child=1 -1 -3
right_child=-2 2 -4
leaf_value=-0.016169939301391642 -0.03255641844695728 -0.010805098504055286 0.07386132410317095
leaf_weight=8.411210332240449 6.0940807819133616 5.1597974909236637 5.0076407778542489
leaf_count=658 1230 84 137
internal_value=0 0.00958682 0.0308946
internal_weight=0 18.5786 10.1674
internal_count=2109 879 221
is_linear=0
shrinkage=0.0641301


Tree=67
num_leaves=4
num_cat=0
split_feature=27 31 40
split_gain=1.88975 3.43861 3.43316
threshold=1.0031257314588189 0.92181613937820261 22.894166000000002
decision_type=8 8 2
left_child=2 -2 -1
right_child=1 -3 -4
leaf_value=-0.015216363971107106 0.015977366677433057 -0.0557008464797418 0.049537103504173036
leaf_weight=7.1512163529987465 5.4069575254688944 5.6067775384872229 6.3641338404268026
leaf_count=1056 119 597 337
internal_value=0 -0.020512 0.0152749
internal_weight=0 11.0137 13.5154
internal_count=2109 716 1393
is_linear=0
shrinkage=0.0641301


Tree=68
num_leaves=3
num_cat=0
split_feature=12 1
split_gain=1.87469 2.07723
threshold=46.789875162084954 21.361946501000514
decision_type=8 2
left_child=1 -1
right_child=-2 -3
leaf_value=0.031941519709617436 -0.026549719882724847 -0.013828198149051544
leaf_weight=9.1310048421146401 7.8631243976997203 7.3692539800540535
leaf_count=341 1461 307
internal_value=0 0.0115001
internal_weight=0 16.5003
internal_count=2109 648
is_linear=0
shrinkage=0.0641301


Tree=69
num_leaves=4
num_cat=0
split_feature=9 9 1
split_gain=1.86625 3.8643 1.4855
threshold=-0.012562601152588967 0.0085887678754332231 20.629927983522752
decision_type=2 2 2
left_child=2 -2 -1
right_child=1 -3 -4
leaf_value=0.044411816393201471 -0.045494045295018472 0.024890397043136711 -0.0029451824978553053
leaf_weight=5.0450249578570965 7.8951266886433569 5.4037832473404706 5.9215500330901705
leaf_count=183 1085 600 241
internal_value=0 -0.0168945 0.0188408
internal_weight=0 13.2989 10.9666
internal_count=2109 1685 424
is_linear=0
shrinkage=0.0641301


Tree=70
num_leaves=4
num_cat=0
split_feature=19 4 1
split_gain=1.82036 3.11988 1.64348
threshold=23.402500000000003 47.703394628366404 18.667438733057903
decision_type=2 2 2
left_child=1 2 -1
right_child=-2 -3 -4
leaf_value=0.058516016782538476 -0.032920741411935711 -0.021166679820379997 0.007773024804972579
leaf_weight=5.00283429032425 5.5579002632293841 8.0390679692500253 5.5230163063388318
leaf_count=311 562 909 327
internal_value=0 0.00891553 0.0318907
internal_weight=0 18.5649 10.5259
internal_count=2109 1547 638
is_linear=0
shrinkage=0.0641301


Tree=71
num_leaves=3
num_cat=0
split_feature=0 0
split_gain=1.75852 2.10998
threshold=0.14771428571428599 0.12892857142857181
decision_type=2 2
left_child=1 -1
right_child=-2 -3
leaf_value=-0.013091126335425852 -0.029855693266372701 0.031261978291641415
leaf_weight=8.5971563018974901 6.2758552728337227 9.059638678270856
leaf_count=1020 551 538
internal_value=0 0.00966629
internal_weight=0 17.6568
internal_count=2109 1558
is_linear=0
shrinkage=0.0641301


Tree=72
num_leaves=3
num_cat=0
split_feature=12 7
split_gain=1.73982 2.49209
threshold=49.678779063859317 0.029183251210197273
decision_type=8 2
left_child=1 -1
right_child=-2 -3
leaf_value=-0.017105448354215423 -0.031605634468851264 0.030650970080824493
leaf_weight=8.2083403284195864 5.6895677758147931 9.9307927478803304
leaf_count=658 1230 221
internal_value=0 0.00904018
internal_weight=0 18.1391
internal_count=2109 879
is_linear=0
shrinkage=0.0641301


Tree=73
num_leaves=3
num_cat=0
split_feature=1 40
split_gain=1.67035 1.99863
threshold=22.044718568560793 22.894166000000002
decision_type=2 2
left_child=1 -1
right_child=-2 -3
leaf_value=-0.009331721316294431 -0.02284563069645618 0.037738102046538033
leaf_weight=8.0299449848243984 8.7724517305614409 6.8960470386082298
leaf_count=897 848 364
internal_value=0 0.0124153
internal_weight=0 14.926
internal_count=2109 1261
is_linear=0
shrinkage=0.0641301


Tree=74
num_leaves=3
num_cat=0
split_feature=17 9
split_gain=1.68781 2.66621
threshold=23.352000000000004 -0.012562601152588967
decision_type=2 2
left_child=1 -1
right_child=-2 -3
leaf_value=0.033316184418486709 -0.032119138645798226 -0.015642890739736744
leaf_weight=9.0941885956563091 5.3979151053936212 9.204814948287094
leaf_count=288 545 1276
internal_value=0 0.00868866
internal_weight=0 18.299
internal_count=2109 1564
is_linear=0
shrinkage=0.0641301


Tree=75
num_leaves=3
num_cat=0
split_feature=12 7
split_gain=1.61288 2.19981
threshold=49.678779063859317 0.029183251210197273
decision_type=8 2
left_child=1 -1
right_child=-2 -3
leaf_value=-0.016146565576950392 -0.030948151973668944 0.028947180607930875
leaf_weight=8.0699224096606539 5.5077500938787116 9.9161498846951854
leaf_count=658 1230 221
internal_value=0 0.00871469
internal_weight=0 17.9861
internal_count=2109 879
is_linear=0
shrinkage=0.0641301


Tree=76
num_leaves=4
num_cat=0
split_feature=27 27 31
split_gain=1.75122 3.10684 2.95849
threshold=1.0031257314588189 1.0001761036292562 0.92181613937820261
decision_type=8 10 8
left_child=1 -1 -2
right_child=2 -3 -4
leaf_value=-0.01640918623509242 0.013665085386451351 0.046373229514129109 -0.054729968688767248
leaf_weight=6.4456702083407453 5.2599691654322642 6.521369461377617 5.1453956305340407
leaf_count=1017 119 376 597
internal_value=0 0.0151653 -0.0201559
internal_weight=0 12.967 10.4054
internal_count=2109 1393 716
is_linear=0
shrinkage=0.0641301


Tree=77
num_leaves=3
num_cat=0
split_feature=1 7
split_gain=1.63211 1.89178
threshold=22.044718568560793 0.029183251210197273
decision_type=2 2
left_child=1 -1
right_child=-2 -3
leaf_value=-0.004267557315414474 -0.022920882736405954 0.044183059706673751
leaf_weight=9.6443517694715428 8.5015288984868658 5.0496887189219697
leaf_count=920 848 341
internal_value=0 0.0123828
internal_weight=0 14.694
internal_count=2109 1261
is_linear=0
shrinkage=0.0641301


Tree=78
num_leaves=3
num_cat=0
split_feature=0 0
split_gain=1.52408 2.02189
threshold=0.14771428571428599 0.12892857142857181
decision_type=2 2
left_child=1 -1
right_child=-2 -3
leaf_value=-0.01366515975516297 -0.028401228878555698 0.030349376113717071
leaf_weight=8.2725860402861198 5.9855369912111192 8.9210081157507357
leaf_count=1020 551 538
internal_value=0 0.00917207
internal_weight=0 17.1936
internal_count=2109 1558
is_linear=0
shrinkage=0.0641301


Tree=79
num_leaves=4
num_cat=0
split_feature=27 40 12
split_gain=1.5435 2.85932 1.86596
threshold=1.0031257314588189 22.894166000000002 40.141790866734361
decision_type=8 2 8
left_child=1 -1 -2
right_child=2 -3 -4
leaf_value=-0.014762533042677656 0.0082794774500332818 0.045593364211438489 -0.046721694101734872
leaf_weight=6.7312980647839158 5.0718733114190373 6.2026866360101849 5.0752393078582836
leaf_count=1056 81 337 635
internal_value=0 0.014182 -0.0192302
internal_weight=0 12.934 10.1471
internal_count=2109 1393 716
is_linear=0
shrinkage=0.0641301


Tree=80
num_leaves=3
num_cat=0
split_feature=12 1
split_gain=1.55129 1.72743
threshold=46.789875162084954 21.361946501000514
decision_type=8 2
left_child=1 -1
right_child=-2 -3
leaf_value=0.029420142638164767 -0.025299932294269949 -0.013280920651430073
leaf_weight=8.8873200704692881 7.1458089399675364 6.9378553113201624
leaf_count=341 1461 307
internal_value=0 0.0106997
internal_weight=0 15.8252
internal_count=2109 648
is_linear=0
shrinkage=0.0641301


Tree=81
num_leaves=4
num_cat=0
split_feature=17 4 1
split_gain=1.523 2.48199 1.44976
threshold=23.352000000000004 47.703394628366404 18.811649525781608
decision_type=2 2 2
left_child=1 2 -1
right_child=-2 -3 -4
leaf_value=0.05357138007162366 -0.031112068852434706 -0.019851584380083331 0.0054620082026058054
leaf_weight=5.0025090903509462 5.1678414329653597 7.4130703067930872 5.3110291707562283
leaf_count=319 545 912 333
internal_value=0 0.00845277 0.0287971
internal_weight=0 17.7266 10.3135
internal_count=2109 1564 652
is_linear=0
shrinkage=0.0641301


Tree=82
num_leaves=3
num_cat=0
split_feature=12 7
split_gain=1.3869 2.16229
threshold=49.678779063859317 0.029183251210197273
decision_type=8 2
left_child=1 -1
right_child=-2 -3
leaf_value=-0.016680647766177871 -0.029781481559843219 0.028495935697003712
leaf_weight=7.9447992314817446 5.136292514653177 9.6491994957323168
leaf_count=658 1230 221
internal_value=0 0.00809586
internal_weight=0 17.594
internal_count=2109 879
is_linear=0
shrinkage=0.0641301


Tree=83
num_leaves=3
num_cat=0
split_feature=27 40
split_gain=1.3696 2.76478
threshold=1.0031257314588189 22.894166000000002
decision_type=8 2
left_child=1 -1
right_child=-2 -3
leaf_value=-0.015350512341729865 -0.01840986314953387 0.044379402056602887
leaf_weight=6.6172381992219034 9.8513507971074414 6.1485044138971716
leaf_count=1056 716 337
internal_value=0 0.0134179
internal_weight=0 12.7657
internal_count=2109 1393
is_linear=0
shrinkage=0.0641301


Tree=84
num_leaves=3
num_cat=0
split_feature=19 9
split_gain=1.44952 2.43629
threshold=23.402500000000003 -0.012562601152588967
decision_type=2 2
left_child=1 -1
right_child=-2 -3
leaf_value=0.032101239080724202 -0.03056932717504527 -0.015734595034629949
leaf_weight=8.8087761367205566 5.0854335478798012 8.706602206279058
leaf_count=283 562 1264
internal_value=0 0.00832284
internal_weight=0 17.5154
internal_count=2109 1547
is_linear=0
shrinkage=0.0641301


Tree=85
num_leaves=3
num_cat=0
split_feature=1 40
split_gain=1.32985 1.61331
threshold=22.044718568560793 22.894166000000002
decision_type=2 2
left_child=1 -1
right_child=-2 -3
leaf_value=-0.0087476595952857197 -0.021229355164732434 0.034382823059017367
leaf_weight=7.669708131579684 8.074738539347889 6.667366371373646
leaf_count=897 848 364
internal_value=0 0.0113099
internal_weight=0 14.3371
internal_count=2109 1261
is_linear=0
shrinkage=0.0641301


Tree=86
num_leaves=4
num_cat=0
split_feature=19 4 1
split_gain=1.39705 2.26207 1.21969
threshold=23.402500000000003 47.703394628366404 18.855448602736292
decision_type=2 2 2
left_child=1 2 -1
right_child=-2 -3 -4
leaf_value=0.050243708283345567 -0.030171707613706054 -0.019255353271112285 0.0058211211463947135
leaf_weight=5.0083761435234972 5.0267158929782445 7.2127579193620468 5.1617052844085265
leaf_count=320 562 909 318
internal_value=0 0.00821512 0.0276975
internal_weight=0 17.3828 10.1701
internal_count=2109 1547 638
is_linear=0
shrinkage=0.0641301


Tree=87
num_leaves=4
num_cat=0
split_feature=7 29 9
split_gain=1.37777 2.48473 2.27749
threshold=0.029183251210197273 0.97015754676311217 -0.012562601152588967
decision_type=2 10 2
left_child=2 -2 -1
right_child=1 -3 -4
leaf_value=0.0099052543157117697 -0.015603870818140856 0.045381858526503518 -0.048088447971039748
leaf_weight=6.1966860286192968 5.3429904879012593 5.6561346121015958 5.0582621602225135
leaf_count=339 209 471 1090
internal_value=0 0.0157571 -0.0161586
internal_weight=0 10.9991 11.2549
internal_count=2109 680 1429
is_linear=0
shrinkage=0.0641301


Tree=88
num_leaves=3
num_cat=0
split_feature=12 49
split_gain=1.36031 1.79071
threshold=46.789875162084954 0.086672364315431252
decision_type=8 2
left_child=1 -1
right_child=-2 -3
leaf_value=-0.007525751707311827 -0.024564601253419128 0.037133735696530827
leaf_weight=9.375621704442894 6.6810461625573216 6.0916196212056084
leaf_count=472 1461 176
internal_value=0 0.0100629
internal_weight=0 15.4672
internal_count=2109 648
is_linear=0
shrinkage=0.0641301


Tree=89
num_leaves=3
num_cat=0
split_feature=0 0
split_gain=1.25721 1.72136
threshold=0.14771428571428599 0.12892857142857181
decision_type=2 2
left_child=1 -1
right_child=-2 -3
leaf_value=-0.013269707369997386 -0.02644746501893825 0.028298060396125806
leaf_weight=7.7849035322724438 5.655727446981472 8.6490980123053287
leaf_count=1020 551 538
internal_value=0 0.00860711
internal_weight=0 16.434
internal_count=2109 1558
is_linear=0
shrinkage=0.0641301


Tree=90
num_leaves=3
num_cat=0
split_feature=27 40
split_gain=1.22077 2.43335
threshold=1.0031257314588189 22.894166000000002
decision_type=8 2
left_child=1 -1
right_child=-2 -3
leaf_value=-0.014797538616328125 -0.017517055988558256 0.042043169907834251
leaf_weight=6.3468383660947456 9.6029918133572192 6.0502086625201628
leaf_count=1056 716 337
internal_value=0 0.0129428
internal_weight=0 12.397
internal_count=2109 1393
is_linear=0
shrinkage=0.0641301


Tree=91
num_leaves=3
num_cat=0
split_feature=12 13
split_gain=1.30776 1.58119
threshold=46.789875162084954 0.17893728318522098
decision_type=8 2
left_child=1 -1
right_child=-2 -3
leaf_value=-0.0078259018018914418 -0.024337059035681043 0.033695100435163459
leaf_weight=8.8577114143990929 6.5549005119246422 6.5696505454834542
leaf_count=479 1461 169
internal_value=0 0.00985557
internal_weight=0 15.4274
internal_count=2109 648
is_linear=0
shrinkage=0.0641301


Tree=92
num_leaves=3
num_cat=0
split_feature=1 7
split_gain=1.16522 1.37189
threshold=22.044718568560793 0.025344287934544244
decision_type=2 2
left_child=1 -1
right_child=-2 -3
leaf_value=-0.0041637221058242043 -0.020075346261923907 0.037696610432460233
leaf_weight=9.0401740806992184 7.8734581279568365 5.0011137464316553
leaf_count=880 848 381
internal_value=0 0.0107458
internal_weight=0 14.0413
internal_count=2109 1261
is_linear=0
shrinkage=0.0641301


end of trees

feature_importances:
Ultimate_Osc=43
MA_50_200_ratio=30
ATR=24
ADX=23
Min_100_Max_100_ratio=22
MA_200=21
Min_200=21
MACD_Hist=15
MA_10_50_ratio=15
MACD=14
Max_10=14
ROC=9
Max_21=9
Fib_S1=9
STOCH_%D=6
Williams_%R=6
Min_50_Max_50_ratio=6
Min_200_Max_200_ratio=6
S2=6
RSI=4
Bull_Power=4
CCI=3
Min_50=3
STOCHRSI_%D=2
Min_100=2
Max_50=1
Max_100=1
Max_200=1
Fib_S2=1
Camarilla_S3=1
Bear_Power=1
High_14=1
Low_14=1

parameters:
[boosting: gbdt]
[objective: binary]
[metric: binary_logloss]
[tree_learner: serial]
[device_type: cpu]
[data_sample_strategy: bagging]
[data: ]
[valid: ]
[num_iterations: 100]
[learning_rate: 0.0641301]
[num_leaves: 252]
[num_threads: 8]
[seed: 0]
[deterministic: 0]
[force_col_wise: 0]
[force_row_wise: 0]
[histogram_pool_size: -1]
[max_depth: 7]
[min_data_in_leaf: 91]
[min_sum_hessian_in_leaf: 5]
[bagging_fraction: 1]
[pos_bagging_fraction: 1]
[neg_bagging_fraction: 1]
[bagging_freq: 0]
[bagging_seed: 3]
[feature_fraction: 1]
[feature_fraction_bynode: 1]
[feature_fraction_seed: 2]
[extra_trees: 0]
[extra_seed: 6]
[early_stopping_round: 0]
[early_stopping_min_delta: 0]
[first_metric_only: 0]
[max_delta_step: 0]
[lambda_l1: 0]
[lambda_l2: 0]
[linear_lambda: 0]
[min_gain_to_split: 0]
[drop_rate: 0.1]
[max_drop: 50]
[skip_drop: 0.5]
[xgboost_dart_mode: 0]
[uniform_drop: 0]
[drop_seed: 4]
[top_rate: 0.2]
[other_rate: 0.1]
[min_data_per_group: 100]
[max_cat_threshold: 32]
[cat_l2: 10]
[cat_smooth: 10]
[max_cat_to_onehot: 4]
[top_k: 20]
[monotone_constraints: ]
[monotone_constraints_method: basic]
[monotone_penalty: 0]
[feature_contri: ]
[forcedsplits_filename: ]
[refit_decay_rate: 0.9]
[cegb_tradeoff: 1]
[cegb_penalty_split: 0]
[cegb_penalty_feature_lazy: ]
[cegb_penalty_feature_coupled: ]
[path_smooth: 0]
[interaction_constraints: ]
[verbosity: 1]
[saved_feature_importance_type: 0]
[use_quantized_grad: 0]
[num_grad_quant_bins: 4]
[quant_train_renew_leaf: 0]
[stochastic_rounding: 1]
[linear_tree: 0]
[max_bin: 255]
[max_bin_by_feature: ]
[min_data_in_bin: 3]
[bin_construct_sample_cnt: 200000]
[data_random_seed: 1]
[is_enable_sparse: 1]
[enable_bundle: 1]
[use_missing: 1]
[zero_as_missing: 0]
[feature_pre_filter: 1]
[pre_partition: 0]
[two_round: 0]
[header: 0]
[label_column: ]
[weight_column: ]
[group_column: ]
[ignore_column: ]
[categorical_feature: ]
[forcedbins_filename: ]
[precise_float_parser: 0]
[parser_config_file: ]
[objective_seed: 5]
[num_class: 1]
[is_unbalance: 0]
[scale_pos_weight: 1]
[sigmoid: 1]
[boost_from_average: 1]
[reg_sqrt: 0]
[alpha: 0.9]
[fair_c: 1]
[poisson_max_delta_step: 0.7]
[tweedie_variance_power: 1.5]
[lambdarank_truncation_level: 30]
[lambdarank_norm: 1]
[label_gain: ]
[lambdarank_position_bias_regularization: 0]
[eval_at: ]
[multi_error_top_k: 1]
[auc_mu_weights: ]
[num_machines: 1]
[local_listen_port: 12400]
[time_out: 120]
[machine_list_filename: ]
[machines: ]
[gpu_platform_id: -1]
[gpu_device_id: -1]
[gpu_use_dp: 0]
[num_gpu: 1]

end of parameters

pandas_categorical:[]
