tree
version=v4
num_class=1
num_tree_per_iteration=1
label_index=0
max_feature_idx=52
objective=binary sigmoid:1
feature_names=ATR ADX RSI STOCH_%K STOCH_%D STOCHRSI_%K STOCHRSI_%D MACD MACD_Signal MACD_Hist Williams_%R CCI Ultimate_Osc ROC MA_10 MA_50 MA_200 Max_10 Min_10 Max_21 Min_21 Max_50 Min_50 Max_100 Min_100 Max_200 Min_200 MA_10_50_ratio MA_50_200_ratio Min_50_Max_50_ratio Min_100_Max_100_ratio Min_200_Max_200_ratio Pivot S1 R1 S2 R2 S3 R3 Fib_R1 Fib_S1 Fib_R2 Fib_S2 Camarilla_R1 Camarilla_S1 Camarilla_R2 Camarilla_S2 Camarilla_R3 Camarilla_S3 Bull_Power Bear_Power High_14 Low_14
feature_infos=[0.01127142857142863:0.042842857142857023] [8.5323397723209347:65.240314873377812] [10.769230769230631:97.179314976494297] [0:100] [6.9085374327383091:96.516186110586446] [0:100] [0:100] [-0.031307173960421153:0.050126044768859401] [-0.029642413144565383:0.044066884599404374] [-0.019887276998471141:0.011534027648526513] [-100:0] [-209.53693032420162:217.69159055335683] [17.735538796157414:89.090611874288371] [-3.8266919671094191:4.5437826438782691] [3.5461300000000002:4.3079599999999996] [3.5577120000000004:4.2800259999999994] [3.5751100000000005:4.2234810000000005] [3.5558999999999998:4.3201999999999998] [3.5324:4.2998000000000003] [3.5569000000000002:4.3201999999999998] [3.5324:4.2891000000000004] [3.5771999999999999:4.3201999999999998] [3.5324:4.2336] [3.5989:4.3201999999999998] [3.5324:4.1835000000000004] [3.6204999999999998:4.3201999999999998] [3.5324:4.1342999999999996] [0.97640695007086575:1.0340490404570961] [0.96845424533032198:1.0592584087275057] [0.9263168110245773:0.99416939184221864] [0.90512195121951222:0.98849875867659731] [0.86000921949680964:0.98069031494675352] [3.5372666666666661:4.3132999999999999] [3.5244333333333322:4.3004999999999995] [3.5452333333333321:4.3322666666666656] [3.5072333333333332:4.2913999999999994] [3.5562666666666662:4.3530999999999995] [3.4941999999999993:4.2813666666666679] [3.5643333333333325:4.3923999999999994] [3.5452122666666659:4.3229505333333327] [3.5262677333333334:4.3049341999999999] [3.5497726666666662:4.3311161333333326] [3.5189989333333331:4.2997657999999994] [3.5343066666666667:4.3233716666666666] [3.5304933333333333:4.317028333333333] [3.5362133333333334:4.3265433333333334] [3.5285866666666665:4.3138566666666662] [3.5381200000000002:4.3297149999999993] [3.5266799999999998:4.3106850000000003] [-0.050494717754217877:0.10391583561597439] [-0.097043837379921172:0.053547920640037994] [3.5604:4.3261000000000003] [3.5192999999999999:4.2854999999999999]
tree_sizes=758 1195 1300 1192 1404 1196 1300 1195 1189 1086 1085 1084 1085 1078 1079 978 983 876 869 870 871 977 871 879 874 767 881 664 772 770 769 771 665 773 673 770 770 766 770 666 665 773 666 666 665 661 771 664 674 664 766 667 668 663 668 669 671 561 562 666 675 664 561 566 670 562 562 566 562 563 666 562 567 562 667 563 564 671 564 563 567 557 562 564 565 561 568 563 557 564 566 564 672 560 562 565 563

Tree=0
num_leaves=6
num_cat=0
split_feature=26 9 1 1 10
split_gain=215.681 11.7969 13.2959 1.15723 0.141099
threshold=3.5354000000000005 -0.0015627298936420539 24.615614463988116 40.702778929783697 -13.264410696016963
decision_type=10 2 2 2 2
left_child=-1 2 -2 4 -3
right_child=1 3 -4 -5 -6
leaf_value=-2.8268667393512885 -3.3114203353653235 -3.3228215964480068 -3.1443007351830938 -3.2746066248814789 -3.3065539434397877
leaf_weight=11.522703498601912 8.6420276239514369 35.602199271321297 9.9346385933458787 6.1306691691279402 6.0568056851625434
leaf_count=312 234 964 269 166 164
internal_value=-3.22036 -3.28867 -3.22205 -3.31457 -3.32046
internal_weight=0 66.3663 18.5767 47.7897 41.659
internal_count=2109 1797 503 1294 1128
is_linear=0
shrinkage=1


Tree=1
num_leaves=10
num_cat=0
split_feature=26 27 5 1 16 30 9 1 10
split_gain=127.843 165.954 11.8775 18.3304 0.928393 0.342661 4.00395e-05 2.46586e-06 3.5316e-07
threshold=3.5354000000000005 1.0046418524622014 16.967996897616654 30.343503752708312 3.8030877500000004 0.94753014108769107 -0.0010486462458354818 32.141451334627831 -22.79612652540899
decision_type=10 10 10 2 10 10 2 2 2
left_child=1 -1 3 -2 -4 -6 -7 8 -8
right_child=2 -3 4 -5 5 6 7 -9 -10
leaf_value=-0.058256478000166687 -0.073501246079183027 0.56786740804052227 -0.057186999438117059 0.14291063831889422 -0.080254071548969436 -0.10239143300610089 -0.10208211747744013 -0.10216420190604193 -0.10211114446137373
leaf_weight=8.548069506883623 10.302069842815401 7.9148791730403891 6.566192213445901 6.0200395993888369 8.9606421664357168 6.1289964839816085 12.258787713944916 6.0692511424422255 6.090988621115689
leaf_count=162 299 150 190 159 257 170 365 177 180
internal_value=0 0.242765 -0.0659086 0.00631737 -0.0914947 -0.0971965 -0.102166 -0.10211 -0.102092
internal_weight=0 16.4629 62.397 16.3221 46.0749 39.5087 30.548 24.419 18.3498
internal_count=2109 312 1797 458 1339 1149 892 722 545
is_linear=0
shrinkage=0.09853


Tree=2
num_leaves=11
num_cat=0
split_feature=26 27 30 9 30 1 50 5 26 30
split_gain=83.5936 74 136.775 11.1678 10.3242 1.08914 0.135177 1.19259e-05 2.13739e-06 5.92276e-07
threshold=3.5354000000000005 1.0046418524622014 0.94561156761398868 -0.0015627298936420539 0.96562566032766195 39.645189693207946 0.0047461469571870038 25.301657628267559 3.7040000000000006 0.95735611827647926
decision_type=10 8 10 2 8 2 2 10 10 10
left_child=1 -1 -3 4 -2 6 7 -5 -9 -10
right_child=3 2 -4 5 -6 -7 -8 8 9 -11
leaf_value=-0.1040327099384124 0.054474691920098198 0.026114440359070141 0.6422834225910069 -0.10193170984388941 -0.10225920269721055 -0.053905895736931823 -0.085640959668865979 -0.10182470680242107 -0.10178105033799759 -0.10174210385024604
leaf_weight=6.7128816694021252 11.921284202486278 8.0819409191608411 6.1654608249664298 6.0917369388043907 6.203066147863864 6.1355011221021405 6.0958590637892476 6.3218902498483684 6.1524515599012402 9.8752451632171852
leaf_count=134 323 106 72 190 180 184 196 202 199 323
internal_value=0 0.165679 0.292757 -0.0634948 0.000832454 -0.0921599 -0.0989557 -0.10181 -0.101776 -0.101757
internal_weight=0 20.9603 14.2474 58.797 18.1244 40.6727 34.5372 28.4413 22.3496 16.0277
internal_count=2109 312 178 1797 503 1294 1110 914 724 522
is_linear=0
shrinkage=0.09853


Tree=3
num_leaves=10
num_cat=0
split_feature=26 24 12 5 1 18 1 9 1
split_gain=59.5537 47.155 18.8598 11.1262 13.9691 1.05612 0.135113 0.000201292 6.46771e-06
threshold=3.5354000000000005 3.6407500000000002 45.975669904411326 16.967996897616654 30.901392344340767 3.7936500000000009 15.294277560808363 -0.0012601913847769494 29.704423713443386
decision_type=10 10 10 10 2 2 2 2 2
left_child=1 2 -1 4 -2 -5 -7 -8 -9
right_child=3 -3 -4 5 -6 6 7 8 -10
leaf_value=0.13547385988802035 -0.070054549066698363 0.28117876010579929 -0.096759660789724422 -0.060801367165262313 0.11627263435959198 -0.085174963010808055 -0.10216208475528815 -0.10146137266350616 -0.10158689381623896
leaf_weight=6.0069375969469565 9.3042228054255265 10.508308622986076 7.8072014898061752 9.6343005914241058 6.7328662872314444 6.0456442553550032 6.0646033193916109 11.641440955922009 6.0596374366432419
leaf_count=71 301 124 117 321 157 215 180 415 208
internal_value=0 0.12388 0.00422472 -0.0610277 0.00817137 -0.0891613 -0.0983266 -0.101672 -0.101504
internal_weight=0 24.3224 13.8141 55.4827 16.0371 39.4456 29.8113 23.7657 17.7011
internal_count=2109 312 188 1797 458 1339 1018 803 623
is_linear=0
shrinkage=0.09853


Tree=4
num_leaves=12
num_cat=0
split_feature=8 31 51 31 1 11 8 28 9 18 6
split_gain=53.37 46.8823 52.0057 10.8129 8.02109 1.39722 1.08576 0.00232709 0.0004146 5.65028e-05 3.82291e-06
threshold=0.0052497358966706719 0.9202363200795024 4.0393000000000008 0.9473020253213934 41.034546221028229 45.674867424480411 0.0026899353435687902 1.0269672684092757 -0.0017658021809819873 3.8264500000000008 62.065917991083275
decision_type=2 10 2 8 2 2 2 8 2 2 10
left_child=4 2 -2 5 6 -3 7 8 -1 -10 -11
right_child=1 3 -4 -5 -6 -7 -8 -9 9 10 -12
leaf_value=-0.10225713270605614 0.39580261773068065 -0.038787167829334904 0.032803788155551884 0.075106905453715331 0.027358502466030794 -0.10564809704686438 -0.056631715343619611 -0.10374119730734306 -0.10160442178507523 -0.10129534959896518 -0.10118760984673432
leaf_weight=6.7163109183311489 7.6805419493466598 6.0018356852233428 7.6458420604467392 7.9728080034255973 6.0724279042333356 6.1368218064308167 6.1097262650728217 6.0507969148457041 6.0263981837779346 6.0745627991855127 6.7500910256057978
leaf_count=203 93 152 151 160 177 148 181 138 211 231 264
internal_value=0 0.0848942 0.214714 -0.014038 -0.07774 -0.0725894 -0.094656 -0.102004 -0.101592 -0.101356 -0.101239
internal_weight=0 35.4378 15.3264 20.1115 43.8003 12.1387 37.7279 31.6182 25.5674 18.8511 12.8247
internal_count=2109 704 244 460 1405 300 1228 1047 909 706 495
is_linear=0
shrinkage=0.09853


Tree=5
num_leaves=10
num_cat=0
split_feature=8 31 16 31 1 8 26 9 6
split_gain=43.2483 30.7795 34.8674 10.6697 7.52164 1.08981 0.00149307 0.000415613 7.53654e-06
threshold=0.0052497358966706719 0.92149653308634183 3.7019640000000003 0.9473846037144279 41.034546221028229 0.0025406849870731616 3.5484500000000003 -0.0017658021809819873 55.576241881990875
decision_type=2 10 10 10 2 2 10 2 10
left_child=4 2 -2 -3 5 6 -1 -8 -9
right_child=1 3 -4 -5 -6 -7 7 8 -10
leaf_value=-0.10301964611220625 0.28549462341107645 -0.085682647508293353 0.016789811575320234 0.063586842714329961 0.024014572724235288 -0.05557820552637454 -0.10194243530151664 -0.10110147904722659 -0.10096072437972615
leaf_weight=6.2366409711539772 10.025521323084833 10.31782951205969 8.8061953783035261 8.4611586108803731 6.2276788335293523 6.0331745501607648 6.7206331212073591 6.0287597011774769 9.5321364440023881
leaf_count=165 78 270 196 160 177 190 220 247 406
internal_value=0 0.0708321 0.159841 -0.018427 -0.075658 -0.0936234 -0.101672 -0.101295 -0.101015
internal_weight=0 37.6107 18.8317 18.779 40.779 34.5513 28.5182 22.2815 15.5609
internal_count=2109 704 274 430 1405 1228 1038 873 653
is_linear=0
shrinkage=0.09853


Tree=6
num_leaves=11
num_cat=0
split_feature=8 51 31 0 31 1 8 16 9 38
split_gain=35.812 23.8992 31.9339 13.8189 10.1979 7.47486 1.05868 0.00101064 0.000344184 4.32032e-06
threshold=0.0052497358966706719 4.0993500000000012 0.92071595322533828 0.022700000000000008 0.9473846037144279 41.308760315048353 0.0023549328320202263 3.6313002500000002 -0.0015227401778136565 3.9339333333333344
decision_type=2 2 10 2 10 2 2 10 2 2
left_child=5 2 3 -2 -4 6 7 -1 -9 -10
right_child=1 -3 4 -5 -6 -7 -8 8 9 -11
leaf_value=-0.10250054734723141 0.29197522388149583 -0.073164771547920393 -0.078562765978815605 0.097422908532713792 0.084919152170731801 0.026262010851570726 -0.055841657229875739 -0.1016515964560889 -0.10083036591119657 -0.10071754729935033
leaf_weight=6.1561585962772432 8.327729884535076 9.7064623087644559 7.3806228488683683 6.1706337351351968 7.4369347617030144 6.1160433255136004 6.1295766476541749 6.3288773689419093 6.0381505880504793 7.2542038597166538
leaf_count=184 75 291 176 51 111 171 208 226 274 342
internal_value=0 0.0608414 0.105211 0.209172 0.00348884 -0.0735205 -0.0926472 -0.101399 -0.101054 -0.100769
internal_weight=0 39.0224 29.3159 14.4984 14.8176 38.023 31.907 25.7774 19.6212 13.2924
internal_count=2109 704 413 126 287 1405 1234 1026 842 616
is_linear=0
shrinkage=0.09853


Tree=7
num_leaves=10
num_cat=0
split_feature=8 12 16 30 1 8 16 26 13
split_gain=29.8992 20.9897 21.0688 26.8879 7.33132 1.06748 0.822521 0.000660099 0.000229213
threshold=0.0052497358966706719 41.889434006548996 3.8030877500000004 0.94561156761398868 41.678730428463219 0.002280823238182439 3.9729502500000007 3.5744000000000002 -0.68404563340239688
decision_type=2 10 10 10 2 2 8 10 2
left_child=4 -2 3 -3 5 7 -4 -1 -9
right_child=1 2 6 -5 -6 -7 -8 8 -10
leaf_value=-0.1020033651997439 0.20405611868371937 -0.061692677466758432 -0.10256381390529938 0.17398420665919045 0.027396918961691611 -0.054626864143743466 -0.052610043737819266 -0.10131202646419894 -0.10055718392719366
leaf_weight=6.2472528349608245 7.2928885202854863 7.6606260575354126 6.8133344128727886 12.158551663160322 6.0570719856768838 6.0221049692481747 6.0338883511722097 6.0001967865973773 11.186290249228472
leaf_count=212 98 91 206 85 165 217 224 241 570
internal_value=0 0.0529215 0.0191802 0.082889 -0.0713267 -0.0916274 -0.0791023 -0.101136 -0.100821
internal_weight=0 39.9593 32.6664 19.8192 35.5129 29.4558 12.8472 23.4337 17.1865
internal_count=2109 704 606 176 1405 1240 430 1023 811
is_linear=0
shrinkage=0.09853


Tree=8
num_leaves=10
num_cat=0
split_feature=8 31 23 43 1 20 8 26 2
split_gain=25.0889 16.4033 17.5862 7.72538 6.82508 6.49573 1.03759 0.000431492 0.000140702
threshold=0.0052497358966706719 0.92149653308634183 4.0970000000000004 3.8081037500000003 41.678730428463219 3.9067000000000003 0.0020653134238003482 3.5888500000000003 40.522118157150821
decision_type=2 10 8 2 2 2 2 10 2
left_child=4 2 5 -3 6 -2 7 -1 -9
right_child=1 3 -4 -5 -6 -7 -8 8 -10
leaf_value=-0.10158386911658465 0.11147951620485336 0.036378040412194439 -0.018236282349393639 -0.090625572922272843 0.024051209065006331 0.24552169898931586 -0.054635283650681557 -0.10096969882718518 -0.10035079523940726
leaf_weight=6.1610838640481296 8.3175906352698821 10.24975546076894 7.4767851755022994 8.5103206895291788 6.2112178336828938 6.0720311608165494 6.0732341576367608 6.0086121745407572 8.7724930942058545
leaf_count=236 65 120 162 310 165 47 235 274 495
internal_value=0 0.046357 0.104348 -0.0212359 -0.0690803 0.168042 -0.0904925 -0.100891 -0.100602
internal_weight=0 40.6265 21.8664 18.7601 33.2266 14.3896 27.0154 20.9422 14.7811
internal_count=2109 704 274 430 1405 112 1240 1005 769
is_linear=0
shrinkage=0.09853


Tree=9
num_leaves=9
num_cat=0
split_feature=8 12 25 15 1 50 8 26
split_gain=21.2023 14.153 12.4735 25.3372 6.73241 1.79973 1.01358 0.000266935
threshold=0.0052497358966706719 40.700443960969132 3.9653500000000004 3.7843310000000003 42.050768007100636 -0.00075043853808764982 0.0018212910009746523 3.6951500000000004
decision_type=2 10 10 10 2 2 2 10
left_child=4 -2 3 -3 6 -4 7 -1
right_child=1 2 5 -5 -6 -7 -8 -9
leaf_value=-0.10117816351649314 0.16855494880524663 -0.048782638037375425 -0.020682717033408654 0.16825544595626529 0.02587156594324851 -0.093829062821734463 -0.05451713841774565 -0.10041061857710179
leaf_weight=6.9554885718971589 7.0065577924251548 10.220824848860504 6.0194160770624849 10.67649503238499 6.1180391032248727 7.1379185654222974 6.1035506334155789 11.967064735479651
leaf_count=308 79 127 206 92 159 200 253 685
internal_value=0 0.0410248 0.0147862 0.0621027 -0.0667807 -0.060365 -0.0894311 -0.100693
internal_weight=0 41.0612 34.0547 20.8973 31.1441 13.1573 25.0261 18.9226
internal_count=2109 704 625 219 1405 406 1246 993
is_linear=0
shrinkage=0.09853


Tree=10
num_leaves=9
num_cat=0
split_feature=8 51 30 12 31 1 8 26
split_gain=17.9547 11.7882 15.0087 24.6687 18.3318 6.24117 0.993563 0.000195932
threshold=0.0052497358966706719 4.0993500000000012 0.94561156761398868 45.766322336588921 0.91915015026712055 42.050768007100636 0.0015760987452176393 3.6951500000000004
decision_type=2 2 8 10 10 2 2 10
left_child=5 2 -2 -4 -5 6 7 -1
right_child=1 -3 3 4 -6 -7 -8 -9
leaf_value=-0.10092889311850076 -0.041978580318999328 -0.068274528972001883 0.24820219831193965 0.14897873516803123 -0.064743325112697259 0.022748319117460284 -0.05406843410328839 -0.10023423026848567
leaf_weight=6.2640267871320345 9.4372890852391702 8.3234837753698212 7.8101158905774382 7.234016239643096 8.4443082148209196 6.2642819359898558 6.0884177517145863 10.632715261541305
leaf_count=305 113 291 81 34 185 159 271 670
internal_value=0 0.0364866 0.0629698 0.105136 0.0338685 -0.0644345 -0.0881949 -0.100492
internal_weight=0 41.2492 32.9257 23.4884 15.6783 29.2494 22.9852 16.8967
internal_count=2109 704 413 300 219 1405 1246 975
is_linear=0
shrinkage=0.09853


Tree=11
num_leaves=9
num_cat=0
split_feature=31 12 25 23 16 9 3 25
split_gain=16.2327 13.7417 14.4227 21.1548 7.08302 5.03206 0.644581 0.00219951
threshold=0.92656805516226071 42.044217726678262 4.0101000000000004 4.0941500000000008 3.5881587500000003 -0.0027240511206609616 67.000300270242846 3.9192500000000003
decision_type=10 10 10 8 10 2 2 10
left_child=1 -1 3 -3 -2 -6 7 -7
right_child=4 2 -4 -5 5 6 -8 -9
leaf_value=0.1791977066565307 0.045467646236836329 0.16791115210221991 -0.074658179535318864 -0.068997820099464369 0.010719332887083738 -0.10343143432087953 -0.068857919847811949 -0.10104462707382277
leaf_weight=6.0870141889899996 6.2424951773136845 9.3658928535878658 10.4535886188969 6.0054455045610675 6.0405254401266602 6.5544780008494881 9.0161180514842254 8.7547238953411561
leaf_count=73 64 55 442 122 214 236 443 460
internal_value=0 0.0460207 0.0146304 0.0753529 -0.0501199 -0.0697704 -0.0897578 -0.102067
internal_weight=0 31.9119 25.8249 15.3713 36.6083 30.3658 24.3253 15.3092
internal_count=2109 692 619 177 1417 1353 1139 696
is_linear=0
shrinkage=0.09853


Tree=12
num_leaves=9
num_cat=0
split_feature=30 30 26 30 30 27 12 1
split_gain=13.8521 16.1943 16.4257 12.5336 6.2608 5.48112 0.774913 0.000970061
threshold=0.96578544280641199 0.96431894718916633 3.5354000000000005 0.94561156761398868 0.94816362052797942 1.0074064412878581 49.885520899512166 30.343503752708312
decision_type=10 8 10 10 10 10 10 2
left_child=1 2 3 -1 -4 -5 -2 -6
right_child=6 -3 4 5 7 -7 -8 -9
leaf_value=-0.03653001444711116 -0.060402393278519935 0.16714456814858597 0.0072629266311527389 0.045924106794777673 -0.10064465237998821 0.17004576000097085 -0.10516371230509151 -0.10229051909163026
leaf_weight=8.4831530451774615 6.3720960896462193 6.322297482751309 8.1316112363711017 6.1857788711786252 7.6913265874609333 7.8207130879163742 9.1413448825478536 6.3441365920007229
leaf_count=87 273 145 372 73 438 35 462 224
internal_value=0 0.0195537 -0.00134159 0.0579852 -0.0615316 0.115229 -0.0867781 -0.101389
internal_weight=0 50.979 44.6567 22.4896 22.1671 14.0065 15.5134 14.0355
internal_count=2109 1374 1229 195 1034 108 735 662
is_linear=0
shrinkage=0.09853


Tree=13
num_leaves=9
num_cat=0
split_feature=30 30 16 31 18 6 4 12
split_gain=12.0652 14.37 11.9754 8.37253 11.9906 4.11761 1.77551 0.799595
threshold=0.96578544280641199 0.95919985550988629 3.8030877500000004 0.92149653308634183 3.8678000000000003 14.465405701345665 70.668245582004658 49.885520899512166
decision_type=10 10 10 8 2 10 2 10
left_child=1 3 -3 4 -1 -5 -7 -2
right_child=7 2 -4 5 -6 6 -8 -9
leaf_value=0.14981689966693801 -0.05755090457772457 0.18993856791136121 0.0036470912975306857 0.01900051010351738 -0.034114843288299321 -0.099348443490820421 -0.032753881230224116 -0.10463112479163789
leaf_weight=6.087230781093238 6.0458666570484629 7.308388523757456 6.1850068625062704 6.0510273957625058 7.9146591825410724 10.931922918185593 6.0309424344450226 8.3236576458439213
leaf_count=59 273 91 255 149 242 397 181 462
internal_value=0 0.0175024 0.104548 -0.0142283 0.0458483 -0.0507795 -0.0756715 -0.0848225
internal_weight=0 50.5092 13.4934 37.0158 14.0019 23.0139 16.9629 14.3695
internal_count=2109 1374 346 1028 301 727 578 735
is_linear=0
shrinkage=0.09853


Tree=14
num_leaves=9
num_cat=0
split_feature=8 12 1 30 0 16 30 26
split_gain=10.5766 7.27741 7.1733 6.99543 6.71479 10.0189 3.56913 0.000184764
threshold=0.0030513577977612357 40.155563532963697 41.034546221028229 0.96522020908247408 0.025232142857142852 3.8030877500000004 0.9536192060642702 3.7040000000000006
decision_type=2 10 2 8 2 10 10 10
left_child=2 -2 7 4 5 6 -3 -1
right_child=1 3 -4 -5 -6 -7 -8 -9
leaf_value=-0.10055328295531582 0.10692016435306893 0.054277691370277152 0.027491053774657687 -0.082091656386968748 -0.052630900728833432 -0.04216692980367711 0.15827637792821486 -0.099842731362172796
leaf_weight=6.0975160254165557 8.143633075989781 6.2258549816906505 6.0435196850448838 7.3226824812591067 7.4940805817022911 6.5261254329234353 6.5996128786355257 8.5127129890024644
leaf_count=370 96 46 177 201 158 307 50 704
internal_value=0 0.0232196 -0.0627932 0.00327057 0.0265548 0.0572202 0.107792 -0.100139
internal_weight=0 42.312 20.6537 34.1684 26.8457 19.3516 12.8255 14.6102
internal_count=2109 858 1251 762 561 403 96 1074
is_linear=0
shrinkage=0.09853


Tree=15
num_leaves=8
num_cat=0
split_feature=30 30 28 16 4 11 5
split_gain=9.53424 11.6248 10.5399 3.90786 7.67184 6.40097 0.753599
threshold=0.96578544280641199 0.96431894718916633 0.99353316010433312 3.7019640000000003 74.076926489599131 4.3631192974714219 43.520837369748868
decision_type=10 8 8 10 2 2 10
left_child=1 2 -1 4 -4 -5 -2
right_child=6 -3 3 5 -6 -7 -8
leaf_value=-0.10111330791160654 -0.056504181255800243 0.13114694389517628 -0.0026729354629205109 0.055399035505445199 0.12421372440231036 -0.079940225742884397 -0.10479010521955973
leaf_weight=8.7510814135894162 6.0935237575322372 7.1292828908190122 11.279115080833437 6.1275435332208854 7.8424865510314694 7.6010998338460922 6.469224825501442
leaf_count=484 349 145 120 239 56 330 386
internal_value=0 0.0148973 -0.00502456 0.0205728 0.049368 -0.0195339 -0.0813692
internal_weight=0 48.7306 41.6013 32.8502 19.1216 13.7286 12.5627
internal_count=2109 1374 1229 745 176 569 735
is_linear=0
shrinkage=0.09853


Tree=16
num_leaves=8
num_cat=0
split_feature=30 30 28 6 30 23 21
split_gain=8.37775 10.6882 8.89594 5.95088 7.02437 8.53944 2.77135
threshold=0.96795685456542613 0.96431894718916633 0.99353316010433312 5.6559989658722225 0.94561156761398868 4.0970000000000004 3.9207500000000004
decision_type=10 10 8 10 10 10 10
left_child=1 2 -1 -4 6 -6 -5
right_child=-2 -3 3 4 5 -7 -8
leaf_value=-0.1008688870026108 -0.092094209521187936 0.12923304514255726 0.098753434484027111 -0.10957946315225124 0.082678798721691912 -0.061326493384904271 -0.015192373067473905
leaf_weight=7.9482062193565062 9.0461870334111136 6.459881206508725 6.6105630006641141 6.0679278140887636 11.963581319898369 6.0039427541196337 6.0122141763567924
leaf_count=484 618 197 107 96 140 269 198
internal_value=0 0.0107819 -0.00637211 0.0141166 -0.00450372 0.0345587 -0.0626036
internal_weight=0 51.0663 44.6064 36.6582 30.0477 17.9675 12.0801
internal_count=2109 1491 1294 810 703 409 294
is_linear=0
shrinkage=0.09853


Tree=17
num_leaves=7
num_cat=0
split_feature=30 30 6 6 31 10
split_gain=7.80661 8.92887 8.64063 8.25013 6.83713 1.70064
threshold=0.96578544280641199 0.95919985550988629 38.676391598711838 5.4784629381695016 0.92149653308634183 -34.50262574396077
decision_type=10 10 8 10 8 2
left_child=1 3 -3 -1 -5 -6
right_child=-2 2 -4 4 5 -7
leaf_value=0.089356767833378911 -0.078466057901966604 0.16468589998440872 0.0069801190010367366 0.023778602756460921 -0.10668787368069346 -0.044241995150896038
leaf_weight=6.1340459026396266 11.241813995409755 6.3149422956630561 7.2391813751310119 10.964044373482468 8.6379955504089576 8.3042186205275375
leaf_count=116 735 133 213 263 372 277
internal_value=0 0.0128245 0.0804561 -0.0141049 -0.0368467 -0.0760801
internal_weight=0 47.5944 13.5541 34.0403 27.9063 16.9422
internal_count=2109 1374 346 1028 912 649
is_linear=0
shrinkage=0.09853


Tree=18
num_leaves=7
num_cat=0
split_feature=8 1 20 30 12 28
split_gain=6.99145 6.61489 4.74283 7.23134 8.58932 5.77544
threshold=0.0030513577977612357 40.146537138812285 4.013300000000001 0.94561156761398868 45.766322336588921 1.026143483820005
decision_type=2 2 2 8 10 8
left_child=1 -1 3 -2 -5 -6
right_child=2 -3 -4 4 5 -7
leaf_value=-0.099972842205757168 -0.042289994155209745 0.027471277154631973 -0.058224589369979908 0.13323869829479904 -0.046322114386853561 0.075036211422851273
leaf_weight=11.560525835026057 9.0916298730298859 6.0090036257170132 6.6271854136139146 9.6294159246608633 7.6153659923002097 7.6126281041651973
leaf_count=1056 131 195 302 119 252 54
internal_value=0 -0.0563853 0.0180185 0.0329019 0.0604035 0.0143461
internal_weight=0 17.5695 40.5762 33.949 24.8574 15.228
internal_count=2109 1251 858 556 425 306
is_linear=0
shrinkage=0.09853


Tree=19
num_leaves=7
num_cat=0
split_feature=30 3 16 16 0 22
split_gain=6.6321 6.84695 9.46671 6.72164 3.6915 2.90303
threshold=0.96578544280641199 22.75590687264631 3.7254730000000005 3.6648027500000002 0.023046428571428568 3.5527500000000005
decision_type=8 2 10 8 2 10
left_child=1 -1 3 -3 -4 -2
right_child=5 2 4 -5 -6 -7
leaf_value=0.10408955706304604 -0.010919939592180773 -0.028202565576735783 -0.012379566513327313 0.094258029035816093 -0.10395751043379271 -0.10133897660546211
leaf_weight=7.0119565948843947 6.001057276967912 7.1055763429030803 9.1780087812803703 11.225667422637342 7.9963107472285619 8.1003613830544037
leaf_count=197 143 102 492 98 420 657
internal_value=0 0.0151159 -0.00245546 0.0467897 -0.055018 -0.0628599
internal_weight=0 42.5175 35.5056 18.3312 17.1743 14.1014
internal_count=2109 1309 1112 200 912 800
is_linear=0
shrinkage=0.09853


Tree=20
num_leaves=7
num_cat=0
split_feature=1 27 10 16 30 50
split_gain=5.8597 6.26088 8.63029 8.11796 4.68405 3.16753
threshold=26.652076439175378 0.99532682564806541 -49.69585970814348 3.7019640000000003 0.95606637624635626 0.0087947714103255876
decision_type=2 8 2 10 8 2
left_child=4 -2 -3 5 -1 -4
right_child=1 2 3 -5 -6 -7
leaf_value=0.0092615039500270908 -0.054335721385065698 0.13225694597600215 0.10478847147057754 -0.079503613193682446 -0.085745484685515572 0.0045780777635340457
leaf_weight=8.7059923573397118 8.2700682650320214 7.6352949365973464 6.2519682217389398 6.6506157577969125 11.957013704814015 6.0018981145694852
leaf_count=319 437 142 50 247 862 52
internal_value=0 0.0205207 0.0438468 0.00813899 -0.045716 0.0557058
internal_weight=0 34.8098 26.5398 18.9045 20.663 12.2539
internal_count=2109 928 491 349 1181 102
is_linear=0
shrinkage=0.09853


Tree=21
num_leaves=8
num_cat=0
split_feature=30 30 16 31 20 12 19
split_gain=5.74993 5.72481 6.27028 5.48819 5.88864 2.76262 2.21584
threshold=0.96578544280641199 0.95919985550988629 3.8030877500000004 0.92149653308634183 3.8548000000000004 49.885520899512166 4.0174500000000011
decision_type=8 10 10 8 2 10 2
left_child=1 3 -3 4 -1 -2 -5
right_child=5 2 -4 6 -6 -7 -8
leaf_value=0.106884594298312 -0.012980445571468694 0.12830441388321631 -0.0071110163571665129 -0.079181285591583772 -0.029548758661015705 -0.10367547181038989 -0.0032659050379463318
leaf_weight=6.0837334915995616 6.1652161655947548 7.3275999538600427 6.0690936604514718 9.6632112627848965 6.2022952735424042 6.920600519515574 6.0819356003776184
leaf_count=51 284 91 255 336 250 516 326
internal_value=0 0.0139757 0.0669573 -0.0113453 0.0380096 -0.0609457 -0.0498572
internal_weight=0 41.4279 13.3967 28.0312 12.286 13.0858 15.7451
internal_count=2109 1309 346 963 301 800 662
is_linear=0
shrinkage=0.09853


Tree=22
num_leaves=7
num_cat=0
split_feature=24 30 30 17 31 16
split_gain=5.12213 6.64905 8.14036 6.26088 9.15919 3.84619
threshold=3.9622500000000005 0.96795685456542613 0.96395050066036403 4.0270000000000001 0.91915015026712055 3.6131044999999999
decision_type=8 8 10 2 8 10
left_child=1 2 3 4 -1 -6
right_child=-2 -3 -4 -5 5 -7
leaf_value=0.074602326630403087 -0.070813773419682216 -0.085950188971789368 0.13062283508490066 0.076588659800164785 -0.0051512776337783615 -0.1020828846780127
leaf_weight=6.8246210264042082 9.1692349622026068 6.0301024545915416 6.0103862565010777 8.754183295182882 6.8555403146892813 9.455102202948181
leaf_count=100 503 576 104 235 83 508
internal_value=0 0.01015 0.0254402 0.0056158 -0.0212397 -0.0613415
internal_weight=0 43.9299 37.8998 31.8894 23.1353 16.3106
internal_count=2109 1606 1030 926 691 591
is_linear=0
shrinkage=0.09853


Tree=23
num_leaves=7
num_cat=0
split_feature=30 30 6 16 24 6
split_gain=4.54024 5.65838 5.83561 6.58286 7.42507 1.13771
threshold=0.96578544280641199 0.96328237104810854 5.4784629381695016 3.7019640000000003 3.6407500000000002 54.130642819320663
decision_type=10 10 10 10 10 8
left_child=1 2 -1 4 -4 -5
right_child=-2 -3 3 5 -6 -7
leaf_value=0.075303023329405444 -0.070575796266899332 0.097385823384561518 -0.053970667256833298 -0.10384245823288611 0.076827813743991349 -0.046856089640977094
leaf_weight=7.0832736887969068 8.2981985155493003 6.0482452590949825 7.7675907267257633 6.7216319651342902 9.2082441374659521 6.8849106044508526
leaf_count=126 735 138 153 367 90 500
internal_value=0 0.0089226 -0.00528258 -0.0239472 0.0169787 -0.0750074
internal_weight=0 43.7139 37.6657 30.5824 16.9758 13.6065
internal_count=2109 1374 1236 1110 243 867
is_linear=0
shrinkage=0.09853


Tree=24
num_leaves=7
num_cat=0
split_feature=24 3 16 30 9 43
split_gain=4.4954 5.58164 5.10989 6.25198 5.36984 0.776718
threshold=3.9622500000000005 22.75590687264631 3.8030877500000004 0.94561156761398868 0.00080795683213895602 3.9244629166666671
decision_type=8 2 10 10 2 2
left_child=1 -1 3 -3 -5 -4
right_child=-2 2 5 4 -6 -7
leaf_value=0.084597912896500357 -0.06867641992765651 -0.061615262610289594 -0.084491741095673603 0.12319293887659666 0.0067787635762805928 -0.034366246907729353
leaf_weight=7.8381695852149269 8.5789322655182314 6.4680991210043457 6.0008611145894957 6.3907498666085329 9.6629574978724104 6.0036079932469875
leaf_count=222 503 93 530 148 182 431
internal_value=0 0.0095366 -0.00750385 0.02017 0.0531216 -0.0594233
internal_weight=0 42.3644 34.5263 22.5218 16.0537 12.0045
internal_count=2109 1606 1384 423 330 961
is_linear=0
shrinkage=0.09853


Tree=25
num_leaves=6
num_cat=0
split_feature=1 27 30 30 6
split_gain=4.28846 4.2839 5.20436 3.65797 3.2953
threshold=26.652076439175378 0.99532682564806541 0.95891848544352454 0.95606637624635626 54.130642819320663
decision_type=2 8 10 8 8
left_child=3 -2 4 -1 -3
right_child=1 2 -4 -5 -6
leaf_value=0.0086248417654005601 -0.048843237136176124 -0.054256018647950884 0.083911393579791452 -0.082857644486840631 0.042436080925416113
leaf_weight=7.4847333282232311 7.3730260082520536 6.7288277011830369 11.943947666091843 9.7980191360693407 6.9622046016156682
leaf_count=319 437 152 208 862 131
internal_value=0 0.0173437 0.0363801 -0.0432388 -0.00508586
internal_weight=0 33.008 25.635 17.2828 13.691
internal_count=2109 928 491 1181 283
is_linear=0
shrinkage=0.09853


Tree=26
num_leaves=7
num_cat=0
split_feature=30 30 6 16 24 30
split_gain=3.93596 4.65838 4.82041 5.14666 5.77384 1.0893
threshold=0.96578544280641199 0.96376819151997972 5.4784629381695016 3.7019640000000003 3.6407500000000002 0.94753014108769107
decision_type=10 10 10 10 10 10
left_child=1 2 -1 4 -4 -5
right_child=-2 -3 3 5 -6 -7
leaf_value=0.066639751589637461 -0.068437584654646277 0.088520852112404402 -0.052134682952015364 -0.041800476700274869 0.066142980556812225 -0.1005067215937155
leaf_weight=7.2711843578144899 7.6181811839342108 6.0506105753593138 7.2526906202547314 6.0915731778368336 8.9528082590550166 6.1828410951420665
leaf_count=129 735 117 153 337 93 545
internal_value=0 0.00856798 -0.00496346 -0.0232444 0.0132084 -0.0713719
internal_weight=0 41.8017 35.7511 28.4799 16.2055 12.2744
internal_count=2109 1374 1257 1128 246 882
is_linear=0
shrinkage=0.09853


Tree=27
num_leaves=5
num_cat=0
split_feature=24 28 49 28
split_gain=3.71192 4.44729 4.14 7.96826
threshold=3.9622500000000005 0.99353316010433312 0.028664234998439845 1.0195966659877731
decision_type=8 8 2 8
left_child=1 -1 3 -3
right_child=-2 2 -4 -5
leaf_value=-0.052100872101044478 -0.065670048576052881 0.12113242553440927 -0.022352036152670354 -0.0023984490049206121
leaf_weight=9.0724223270080966 7.7536352474708101 9.1037195499520802 11.092856375500558 11.439037828007711
leaf_count=685 503 440 191 290
internal_value=0 0.00871304 0.0261532 0.0523454
internal_weight=0 40.708 31.6356 20.5428
internal_count=2109 1606 921 730
is_linear=0
shrinkage=0.09853


Tree=28
num_leaves=6
num_cat=0
split_feature=30 30 6 16 4
split_gain=3.57079 3.89324 3.81111 4.62404 5.6038
threshold=0.96578544280641199 0.96391043774573359 5.4784629381695016 3.7019640000000003 71.150596911284907
decision_type=10 10 10 10 2
left_child=1 2 -1 4 -4
right_child=-2 -3 3 -5 -6
leaf_value=0.057470533041445532 -0.066547110087017525 0.081312416574505456 -0.04694108357683837 -0.069048454815699836 0.070632373995099987
leaf_weight=7.5739180645905426 7.2889284582342944 6.0439069690182796 7.7016292749904123 11.497424396453424 8.0480277305468899
leaf_count=134 735 101 151 893 95
internal_value=0 0.00831449 -0.00435581 -0.0215418 0.0131386
internal_weight=0 40.8649 34.821 27.2471 15.7497
internal_count=2109 1374 1273 1139 246
is_linear=0
shrinkage=0.09853


Tree=29
num_leaves=6
num_cat=0
split_feature=24 3 16 0 22
split_gain=3.33955 4.22837 3.97837 4.64864 4.84525
threshold=3.9622500000000005 22.75590687264631 3.8030877500000004 0.025232142857142852 3.7216000000000005
decision_type=8 2 10 2 10
left_child=1 -1 3 4 -3
right_child=-2 2 -4 -5 -6
leaf_value=0.071904773839005245 -0.063761817757444675 -0.014866422109431669 -0.057249248674368765 -0.054077194347657453 0.097524930891803988
leaf_weight=8.1043733730912191 7.3857351914048186 6.8170216898433926 10.56372499023564 6.3407232402823857 8.2067858893424255
leaf_count=222 503 213 961 130 80
internal_value=0 0.00834596 -0.00778722 0.0166694 0.0465276
internal_weight=0 40.0326 31.9283 21.3645 15.0238
internal_count=2109 1606 1384 423 293
is_linear=0
shrinkage=0.09853


Tree=30
num_leaves=6
num_cat=0
split_feature=12 30 8 0 16
split_gain=3.17325 4.21259 6.09979 3.29822 6.87057
threshold=45.766322336588921 0.94699174122624996 0.012117016835550906 0.023128571428571488 3.8030877500000004
decision_type=10 8 2 2 8
left_child=1 -1 -3 4 -2
right_child=3 2 -4 -5 -6
leaf_value=-0.03679689994274267 0.085634187869036371 -0.0075926381533251569 0.13129897480111208 -0.064100458884587208 -0.045169431624226826
leaf_weight=6.2742263947147903 6.2894588643685045 6.0877458646427822 6.1920465831644833 11.524136904394252 10.254618257749824
leaf_count=141 153 367 47 641 760
internal_value=0 0.0288841 0.062443 -0.0236319 0.00455737
internal_weight=0 18.554 12.2798 28.0682 16.5441
internal_count=2109 555 414 1554 913
is_linear=0
shrinkage=0.09853


Tree=31
num_leaves=6
num_cat=0
split_feature=30 24 3 0 16
split_gain=3.08219 3.48647 3.50154 4.95451 2.39585
threshold=0.96578544280641199 3.9622500000000005 22.75590687264631 0.025232142857142852 3.7254730000000005
decision_type=10 8 2 2 10
left_child=1 2 -1 4 -4
right_child=-2 -3 3 -5 -6
leaf_value=0.082458175288092031 -0.064058593487926724 -0.058826438405214829 0.059699435258575337 -0.068096913981612661 -0.011453522057464719
leaf_weight=7.0565690640360108 6.7522329511120907 6.3432509377598754 11.018819479271775 6.7895830364432177 7.8795325404498717
leaf_count=145 735 398 114 220 497
internal_value=0 0.00803168 0.0209834 0.00409606 0.0300327
internal_weight=0 39.0878 32.7445 25.6879 18.8984
internal_count=2109 1374 976 831 611
is_linear=0
shrinkage=0.09853


Tree=32
num_leaves=5
num_cat=0
split_feature=28 12 28 0
split_gain=2.95095 3.0603 6.60088 2.74854
threshold=0.99353316010433312 45.766322336588921 1.0133942022796059 0.023128571428571488
decision_type=8 10 8 2
left_child=-1 2 -2 -3
right_child=1 3 -4 -5
leaf_value=-0.053261522016349885 0.12100112882723554 0.017920715727582852 -0.0095307897118370333 -0.054242376207971225
leaf_weight=8.913561638677491 6.2835415981244269 11.271458805305885 9.3686006038915366 9.3949353245552611
leaf_count=808 125 525 224 427
internal_value=0 0.0100063 0.0428712 -0.0148846
internal_weight=0 36.3185 15.6521 20.6664
internal_count=2109 1301 349 952
is_linear=0
shrinkage=0.09853


Tree=33
num_leaves=6
num_cat=0
split_feature=1 8 30 12 28
split_gain=3.02182 7.83227 2.12616 4.12529 1.30508
threshold=44.325921941660283 0.0030513577977612357 0.94561156761398868 45.766322336588921 0.99575087075057933
decision_type=2 2 10 10 10
left_child=1 -1 -3 -4 -5
right_child=-2 2 3 4 -6
leaf_value=-0.10037652076207318 0.046436516252376839 -0.037258928821309399 0.083075825349956514 0.022577158001694127 -0.041432111132971378
leaf_weight=8.1518468339927477 9.6746722278185171 6.910202807281169 7.637168183457109 6.2649573287926597 6.1064666314050555
leaf_count=1123 216 170 138 204 258
internal_value=0 -0.0157629 0.00986071 0.026134 -0.00901746
internal_weight=0 35.0706 26.9188 20.0086 12.3714
internal_count=2109 1893 770 600 462
is_linear=0
shrinkage=0.09853


Tree=34
num_leaves=5
num_cat=0
split_feature=31 50 8 28
split_gain=2.71167 4.0287 3.34589 3.30469
threshold=0.92656805516226071 -0.011144980902917155 0.0039697599614458585 0.99655981984211617
decision_type=8 2 2 10
left_child=1 -1 -2 -4
right_child=2 -3 3 -5
leaf_value=0.089878080379395264 -0.069323286090489142 -0.013727811972857414 0.041739138063967812 -0.037926082411717223
leaf_weight=6.5440330943092695 9.0683399299159664 8.2209115396253747 10.316426252713429 9.9121101051568967
leaf_count=241 1027 302 219 320
internal_value=0 0.0321918 -0.0195917 0.00270268
internal_weight=0 14.7649 29.2969 20.2285
internal_count=2109 543 1566 539
is_linear=0
shrinkage=0.09853


Tree=35
num_leaves=6
num_cat=0
split_feature=1 5 27 1 50
split_gain=2.52693 3.12829 5.10886 2.6862 1.78783
threshold=24.615614463988116 5.4419893399074004 1.003623287056197 18.962906196406056 0.0034849896706332655
decision_type=2 10 10 2 2
left_child=3 -2 -3 -1 -4
right_child=1 2 4 -5 -6
leaf_value=0.0067137246161925197 0.058302583266134272 -0.077104512637421047 0.066304948773107081 -0.085269973060968535 -0.0043155394152693122
leaf_weight=6.0808426840230805 9.973938333103435 7.0603222330100861 6.0008020673412821 6.2500596513273194 8.2851721849292499
leaf_count=621 177 584 106 440 181
internal_value=0 0.0127474 -0.00853801 -0.0399093 0.0253485
internal_weight=0 31.3202 21.3463 12.3309 14.286
internal_count=2109 1048 871 1061 287
is_linear=0
shrinkage=0.09853


Tree=36
num_leaves=6
num_cat=0
split_feature=30 1 30 12 12
split_gain=2.43243 2.44169 2.56028 2.78634 4.10061
threshold=0.96795685456542613 24.615614463988116 0.96431894718916633 56.331145968613981 44.481257434876362
decision_type=8 2 8 8 10
left_child=1 -1 3 4 -3
right_child=-2 2 -4 -5 -6
leaf_value=-0.033319337591500943 -0.053501335458178007 0.031272600853093871 0.079765079823997664 0.060294306068080589 -0.078454440425863484
leaf_weight=9.7986319102346879 7.3913535930914795 7.2748974785208755 6.1798475997056803 6.4471985833952195 6.0612242254428566
leaf_count=647 683 148 105 216 310
internal_value=0 0.00858895 0.0244054 0.00711227 -0.018598
internal_weight=0 35.7618 25.9632 19.7833 13.3361
internal_count=2109 1426 779 674 458
is_linear=0
shrinkage=0.09853


Tree=37
num_leaves=6
num_cat=0
split_feature=28 19 49 28 12
split_gain=2.41984 2.47951 2.71152 3.76493 1.98257
threshold=0.99353316010433312 4.0828000000000007 0.030042890200117082 1.0070975811339471 42.646360950874801
decision_type=8 2 2 8 10
left_child=-1 2 3 -2 -5
right_child=1 -3 -4 4 -6
leaf_value=-0.0505298946082995 0.10773922542611584 -0.039402750417478608 -0.022459555432944575 0.053428273775793594 -0.02601708137001655
leaf_weight=8.0720038940198702 6.1528468065662372 7.8331121550872913 8.4837416477967036 6.0233266807626915 6.176572444383055
leaf_count=808 297 523 137 99 245
internal_value=0 0.00936946 0.0236052 0.0448991 0.0132066
internal_weight=0 34.6696 26.8365 18.3527 12.1999
internal_count=2109 1301 778 641 344
is_linear=0
shrinkage=0.09853


Tree=38
num_leaves=6
num_cat=0
split_feature=1 8 0 16 25
split_gain=2.34646 6.3842 1.71528 1.81226 1.66835
threshold=44.325921941660283 0.0030513577977612357 0.022778571428571381 3.8068392500000003 3.8056000000000005
decision_type=2 2 2 8 10
left_child=1 -1 3 -3 -4
right_child=-2 2 4 -5 -6
leaf_value=-0.10024756136331384 0.040705185478950856 0.072068242351072967 0.018542443246239031 -0.00044109884945074727 -0.053700276113806136
leaf_weight=6.6971094842301673 9.7047488628886622 6.0410679541528234 6.0058221556246263 7.501811182592065 6.4216546285897493
leaf_count=1123 216 86 61 337 286
internal_value=0 -0.0144728 0.00764634 0.0319031 -0.0187876
internal_weight=0 32.6675 25.9704 13.5429 12.4275
internal_count=2109 1893 770 423 347
is_linear=0
shrinkage=0.09853


Tree=39
num_leaves=5
num_cat=0
split_feature=30 2 23 31
split_gain=2.24279 2.30922 2.5986 3.3396
threshold=0.96795685456542613 37.891986824143622 4.0970000000000004 0.92071595322533828
decision_type=8 2 8 10
left_child=1 -1 3 -3
right_child=-2 2 -4 -5
leaf_value=0.063841404535224369 -0.05227561918404109 0.055354857057533478 -0.054884759649850491 -0.022388014506447316
leaf_weight=6.0511884965235359 7.0910136301536104 10.053993353620177 7.0913263434777027 11.500127117033115
leaf_count=274 683 131 583 438
internal_value=0 0.00853636 -0.00314652 0.0138754
internal_weight=0 34.6966 28.6454 21.5541
internal_count=2109 1426 1152 569
is_linear=0
shrinkage=0.09853


Tree=40
num_leaves=5
num_cat=0
split_feature=28 28 4 12
split_gain=2.0338 1.96626 2.81356 2.58087
threshold=0.99353316010433312 1.002882598290298 82.662090739963659 44.360361235756322
decision_type=8 8 2 10
left_child=-1 -2 3 -3
right_child=1 2 -4 -5
leaf_value=-0.047755939504556158 0.057233045170960693 0.015270735326192745 0.051764478783260778 -0.054955646644435467
leaf_weight=7.5929108517011619 6.5311673842370501 9.7479891378898227 6.8267946993000796 10.610321463434955
leaf_count=808 368 226 115 592
internal_value=0 0.00868856 -0.00297415 -0.0213298
internal_weight=0 33.7163 27.1851 20.3583
internal_count=2109 1301 933 818
is_linear=0
shrinkage=0.09853


Tree=41
num_leaves=6
num_cat=0
split_feature=30 2 30 12 10
split_gain=2.02826 2.27476 2.38125 3.46514 1.75384
threshold=0.96795685456542613 37.36673316601216 0.94661536352476283 45.766322336588921 -27.900311090915419
decision_type=8 2 10 10 2
left_child=1 -1 -3 -4 -5
right_child=-2 2 3 4 -6
leaf_value=0.063114919013971538 -0.05047403464010887 -0.046062813550134904 0.075052860722098616 -0.050317576995383445 0.022457733973086268
leaf_weight=6.0365475356811649 6.8596474847290656 8.7880355115048605 6.4030791668919873 6.3819708504015589 6.4781059741508189
leaf_count=254 683 328 177 382 285
internal_value=0 0.00824702 -0.00356042 0.0158296 -0.0136579
internal_weight=0 34.0877 28.0512 19.2632 12.8601
internal_count=2109 1426 1172 844 667
is_linear=0
shrinkage=0.09853


Tree=42
num_leaves=5
num_cat=0
split_feature=1 27 0 13
split_gain=1.89763 4.39803 2.04092 2.306
threshold=44.325921941660283 1.0027149830663415 0.022778571428571381 0.42073783140382798
decision_type=2 10 2 2
left_child=1 -1 3 -3
right_child=-2 2 -4 -5
leaf_value=-0.085369188264167242 0.03599485484520757 0.074593276453377599 -0.024192941082205724 -0.0097424629013531609
leaf_weight=6.5283923506503951 9.8973835245706123 6.4138578835409152 11.509658325929193 6.1806559462565929
leaf_count=1162 216 177 333 221
internal_value=0 -0.0136313 0.00579831 0.0332062
internal_weight=0 30.6326 24.1042 12.5945
internal_count=2109 1893 731 398
is_linear=0
shrinkage=0.09853


Tree=43
num_leaves=5
num_cat=0
split_feature=28 52 16 10
split_gain=1.80022 1.78306 3.36479 1.5851
threshold=0.99353316010433312 3.8347000000000002 4.0119747500000011 -31.907761072734711
decision_type=8 2 8 2
left_child=-1 3 -3 -2
right_child=1 2 -4 -5
leaf_value=-0.045957790499258362 0.073052918015315077 -0.054756514388634443 0.025585020571856094 0.0026861191726836424
leaf_weight=7.2371822900604448 6.1974191284971312 8.9836704494664463 11.58937641547527 6.2340697759063897
leaf_count=808 148 494 543 116
internal_value=0 0.00830446 -0.00949787 0.0377658
internal_weight=0 33.0045 20.573 12.4315
internal_count=2109 1301 1037 264
is_linear=0
shrinkage=0.09853


Tree=44
num_leaves=5
num_cat=0
split_feature=30 2 0 16
split_gain=1.82981 2.04585 2.17149 2.93063
threshold=0.96578544280641199 37.545648016778699 0.025232142857142852 3.8026877500000005
decision_type=8 2 2 10
left_child=1 -1 3 -3
right_child=-2 2 -4 -5
leaf_value=0.060916557891299808 -0.042697606852454238 0.047303298034520623 -0.047306335579894138 -0.033988470415572597
leaf_weight=6.0524049652740386 8.2519263647263852 11.0727866627276 7.5139180057449257 7.0442572719184673
leaf_count=234 800 162 287 626
internal_value=0 0.00939267 -0.00277399 0.0156955
internal_weight=0 31.6834 25.631 18.117
internal_count=2109 1309 1075 788
is_linear=0
shrinkage=0.09853


Tree=45
num_leaves=5
num_cat=0
split_feature=1 27 26 4
split_gain=1.71999 3.17406 1.72984 1.60832
threshold=44.325921941660283 1.0042153069483812 3.5464000000000007 70.668245582004658
decision_type=2 10 10 2
left_child=1 -1 3 -3
right_child=-2 2 -4 -5
leaf_value=-0.066557236337882367 0.034101519921501997 -0.0030168545597737636 -0.027780332168577147 0.066347871600534
leaf_weight=7.9298487429623519 9.974187003914265 7.0463757729157823 8.7005739869782683 6.0154775213450193
leaf_count=1290 216 77 468 58
internal_value=0 -0.0131899 0.00625626 0.0289282
internal_weight=0 29.6923 21.7624 13.0619
internal_count=2109 1893 603 135
is_linear=0
shrinkage=0.09853


Tree=46
num_leaves=6
num_cat=0
split_feature=5 27 1 0 6
split_gain=1.74429 4.12072 2.49938 2.00717 0.977423
threshold=5.4419893399074004 1.0027149830663415 38.930384207924256 0.024110714285714308 63.737407406759843
decision_type=10 10 2 2 10
left_child=2 -2 -1 4 -3
right_child=1 3 -4 -5 -6
leaf_value=-0.014828013223575829 -0.077912751486371154 0.056499071768933533 0.073931332115570264 -0.036000067766579345 0.0022222759948998965
leaf_weight=6.1720012485748139 7.3973770174779956 6.8493445096537489 6.1477693228516728 6.5420996865723273 6.0803971270797774
leaf_count=285 1124 198 72 231 199
internal_value=0 -0.0153102 0.0294644 0.00847264 0.0309746
internal_weight=0 26.8692 12.3198 19.4718 12.9297
internal_count=2109 1752 357 628 397
is_linear=0
shrinkage=0.09853


Tree=47
num_leaves=5
num_cat=0
split_feature=30 3 16 16
split_gain=1.56202 2.00066 3.08474 1.53372
threshold=0.96795685456542613 22.75590687264631 3.7254730000000005 3.6749835000000006
decision_type=8 2 10 8
left_child=1 -1 3 -3
right_child=-2 2 -4 -5
leaf_value=0.049938859738292381 -0.046479735933884513 -0.012074295738745782 -0.046553251826823031 0.053799561396504429
leaf_weight=8.0820704333018494 6.212381431949324 6.2610321138054141 10.620299565372987 7.5919732693582782
leaf_count=216 683 117 997 96
internal_value=0 0.00743494 -0.00660157 0.0240271
internal_weight=0 32.5554 24.4733 13.853
internal_count=2109 1426 1210 213
is_linear=0
shrinkage=0.09853


Tree=48
num_leaves=5
num_cat=0
split_feature=15 31 31 7
split_gain=1.55927 2.55291 2.92704 2.86489
threshold=3.6263300000000003 0.92149653308634183 0.89522527112599193 0.0048499963112842446
decision_type=8 10 10 2
left_child=-1 2 -2 -3
right_child=1 3 -4 -5
leaf_value=0.043064928820377379 -0.019600901381448616 -0.00039542493195751302 0.058836514280055451 -0.093321968248494452
leaf_weight=6.4454722258960819 11.147725665010517 6.8912095655105059 7.8860175220179363 6.0471101979492232
leaf_count=217 220 910 365 397
internal_value=0 -0.0100579 0.0128971 -0.0438274
internal_weight=0 31.9721 19.0337 12.9383
internal_count=2109 1892 585 1307
is_linear=0
shrinkage=0.09853


Tree=49
num_leaves=5
num_cat=0
split_feature=1 27 16 16
split_gain=1.41121 2.53114 1.27669 1.80202
threshold=44.325921941660283 1.0042153069483812 3.8026877500000005 3.6648027500000002
decision_type=2 10 10 8
left_child=1 -1 3 -3
right_child=-2 2 -4 -5
leaf_value=-0.062857302468484713 0.030751381575366193 -0.010101647218883866 -0.027540962298285832 0.062441086911962887
leaf_weight=7.1860672332695712 9.9619675274007005 7.2466714305337527 7.5273885315982616 6.1419250168837616
leaf_count=1290 216 99 430 74
internal_value=0 -0.0124085 0.00492416 0.0231768
internal_weight=0 28.1021 20.916 13.3886
internal_count=2109 1893 603 173
is_linear=0
shrinkage=0.09853


Tree=50
num_leaves=6
num_cat=0
split_feature=5 27 1 2 31
split_gain=1.46016 3.43768 2.31855 1.66564 1.4904
threshold=5.4419893399074004 1.0027149830663415 39.844942328367829 58.616603416812943 0.91915015026712055
decision_type=10 10 2 2 10
left_child=2 -2 -1 -3 -5
right_child=1 3 -4 4 -6
leaf_value=-0.015619632406053978 -0.07518694811605732 0.048497437502001514 0.070294739014141683 0.020792133837105216 -0.047501579868394525
leaf_weight=6.153003881510811 6.6806344704818938 6.2824653245043036 6.0457618827931583 6.1306065064854902 6.2802798064658418
leaf_count=293 1124 212 64 103 313
internal_value=0 -0.0145215 0.0269599 0.00715916 -0.0137665
internal_weight=0 25.374 12.1988 18.6934 12.4109
internal_count=2109 1752 357 628 416
is_linear=0
shrinkage=0.09853


Tree=51
num_leaves=5
num_cat=0
split_feature=15 31 16 4
split_gain=1.48966 1.90528 2.88593 4.84996
threshold=3.6263300000000003 0.94120597891971458 3.8935852500000006 74.600048893181892
decision_type=8 10 10 2
left_child=-1 2 3 -2
right_child=1 -3 -4 -5
leaf_value=0.04225394475112515 -0.062287614830462752 -0.057272446923168879 0.057173394198126816 0.043223661997260923
leaf_weight=6.3889054100727654 10.199539542663851 6.5287590346415518 6.7935994791332623 7.2255726086441419
leaf_count=217 373 780 637 102
internal_value=0 -0.0100332 0.00270138 -0.0185359
internal_weight=0 30.7475 24.2187 17.4251
internal_count=2109 1892 1112 475
is_linear=0
shrinkage=0.09853


Tree=52
num_leaves=5
num_cat=0
split_feature=1 50 25 29
split_gain=1.28353 1.94875 2.10264 4.29515
threshold=24.615614463988116 0.0087947714103255876 3.9028500000000004 0.959296487858881
decision_type=2 2 8 10
left_child=-1 2 -2 -4
right_child=1 -3 3 -5
leaf_value=-0.032705099678411967 0.070242150709592652 -0.034487847382647457 0.063868604381821403 -0.047021558160335326
leaf_weight=9.2866105604916793 6.7340261797653573 7.1874237318988881 6.1775100036757049 7.5176789168617688
leaf_count=1061 128 161 172 587
internal_value=0 0.00963874 0.0251634 0.00299784
internal_weight=0 27.6166 20.4292 13.6952
internal_count=2109 1048 887 759
is_linear=0
shrinkage=0.09853


Tree=53
num_leaves=5
num_cat=0
split_feature=30 0 1 4
split_gain=1.34266 1.55575 1.61618 1.56637
threshold=0.96578544280641199 0.02584285714285714 26.652076439175378 48.150567373714978
decision_type=8 2 2 2
left_child=1 2 -1 -4
right_child=-2 -3 3 -5
leaf_value=-0.016426502829089574 -0.038783768966035449 -0.028695258128215134 0.074409146412853067 0.0094282539660891437
leaf_weight=7.0532269294490169 7.3057645139633669 7.9958936811890444 7.0325510381953773 7.3811513886903413
leaf_count=496 800 354 172 287
internal_value=0 0.00840291 0.022221 0.0411329
internal_weight=0 29.4628 21.4669 14.4137
internal_count=2109 1309 955 459
is_linear=0
shrinkage=0.09853


Tree=54
num_leaves=5
num_cat=0
split_feature=28 28 4 29
split_gain=1.40737 1.86205 1.84931 1.72066
threshold=0.99353316010433312 1.003231206154809 63.843812299038767 0.96196514222624452
decision_type=8 8 2 10
left_child=-1 -2 3 -3
right_child=1 2 -4 -5
leaf_value=-0.043393843702524013 0.056745220615515825 0.0073489477107068829 0.023738041887866403 -0.065744969366321321
leaf_weight=6.2748630526475599 6.0563560247537707 6.0117624838603678 11.760919479187576 6.5147819448029622
leaf_count=808 376 122 353 450
internal_value=0 0.00786705 -0.00432128 -0.0306656
internal_weight=0 30.3438 24.2875 12.5265
internal_count=2109 1301 925 572
is_linear=0
shrinkage=0.09853


Tree=55
num_leaves=5
num_cat=0
split_feature=30 2 30 16
split_gain=1.20649 1.46851 2.16436 1.4251
threshold=0.96578544280641199 37.545648016778699 0.94661536352476283 3.8030877500000004
decision_type=8 2 10 8
left_child=1 -1 -3 -4
right_child=-2 2 3 -5
leaf_value=0.051406926175913803 -0.037178749747859043 -0.044856643474526378 0.053932504090198181 -0.0070264560358232666
leaf_weight=6.0084874765016165 7.1448506464948869 7.9727675053291049 6.3973688235273558 8.9065504930331372
leaf_count=234 800 327 106 642
internal_value=0 0.00797984 -0.00323014 0.0184557
internal_weight=0 29.2852 23.2767 15.3039
internal_count=2109 1309 1075 748
is_linear=0
shrinkage=0.09853


Tree=56
num_leaves=5
num_cat=0
split_feature=28 49 28 29
split_gain=1.26875 1.60452 3.52966 1.57798
threshold=0.99353316010433312 0.030042890200117082 1.0082248256709598 0.95735611827647926
decision_type=8 2 8 10
left_child=-1 2 -2 -4
right_child=1 -3 3 -5
leaf_value=-0.041753368375349917 0.078769170729854635 -0.02801078171842632 0.031647774146509863 -0.034676665333821695
leaf_weight=6.1133490795618846 7.1065395089681322 8.7640628746594285 6.0919035561382762 8.1302704634726961
leaf_count=808 435 216 103 547
internal_value=0 0.00748194 0.0220661 -0.00626736
internal_weight=0 30.0928 21.3287 14.2222
internal_count=2109 1301 1085 650
is_linear=0
shrinkage=0.09853


Tree=57
num_leaves=4
num_cat=0
split_feature=30 0 3
split_gain=1.09117 1.35954 1.19809
threshold=0.96578544280641199 0.02584285714285714 60.122769530663994
decision_type=8 2 2
left_child=1 2 -1
right_child=-2 -3 -4
leaf_value=-0.00078769925795240596 -0.035660282096544794 -0.027570391578908598 0.04619561400278422
leaf_weight=11.610190527571836 7.0186998792341901 7.7948017545859321 9.647613041859584
leaf_count=498 800 354 457
internal_value=0 0.00762845 0.0205351
internal_weight=0 29.0526 21.2578
internal_count=2109 1309 955
is_linear=0
shrinkage=0.09853


Tree=58
num_leaves=4
num_cat=0
split_feature=5 27 0
split_gain=1.18344 2.95794 1.40658
threshold=5.4419893399074004 1.0027149830663415 0.022778571428571381
decision_type=10 10 2
left_child=-1 -2 -3
right_child=1 2 -4
leaf_value=0.024601468700021802 -0.072878002531884895 0.034710212990322044 -0.020554342427910061
leaf_weight=11.938970244256778 6.058245801250453 8.846921367687175 9.0393076025648025
leaf_count=357 1124 327 301
internal_value=0 -0.0133739 0.00678072
internal_weight=0 23.9445 17.8862
internal_count=2109 1752 628
is_linear=0
shrinkage=0.09853


Tree=59
num_leaves=5
num_cat=0
split_feature=15 31 23 27
split_gain=1.06963 1.95466 1.9863 1.68175
threshold=3.6263300000000003 0.94120597891971458 4.149350000000001 1.0055384700643379
decision_type=8 10 8 8
left_child=-1 2 3 -2
right_child=1 -3 -4 -5
leaf_value=0.036377679470716004 -0.054527458564829399 -0.058607174977418776 0.05099098378099344 0.010028305379682219
leaf_weight=6.2270285487757056 6.1418022114085131 6.0269761496165293 6.4220391575945532 10.818528063828124
leaf_count=217 438 780 452 222
internal_value=0 -0.00857426 0.00432209 -0.0133491
internal_weight=0 29.4093 23.3824 16.9603
internal_count=2109 1892 1112 660
is_linear=0
shrinkage=0.09853


Tree=60
num_leaves=5
num_cat=0
split_feature=49 1 49 29
split_gain=1.02036 1.98584 2.13929 1.00016
threshold=0.030042890200117082 45.305472420280971 0.016168979872667192 0.97170784504258301
decision_type=2 2 2 10
left_child=1 2 3 -1
right_child=-2 -3 -4 -5
leaf_value=-0.054242704612128941 -0.029698563865581513 0.054117279059397234 0.04152579525060595 -0.00067742059123418713
leaf_weight=7.1378618234884978 8.8457653108926007 6.9687639379408202 6.0687725958414367 6.4348400688613765
leaf_count=456 272 154 441 786
internal_value=0 0.00892909 -0.00710361 -0.0288473
internal_weight=0 26.6102 19.6415 13.5727
internal_count=2109 1837 1683 1242
is_linear=0
shrinkage=0.09853


Tree=61
num_leaves=5
num_cat=0
split_feature=30 3 0 3
split_gain=1.08513 1.26676 2.5658 1.78372
threshold=0.96578544280641199 22.75590687264631 0.025125000000000036 65.060294879645667
decision_type=8 2 2 2
left_child=1 -1 3 -3
right_child=-2 2 -4 -5
leaf_value=0.042437552627005715 -0.035862234949534715 -0.021544855836030007 -0.058807937340052192 0.047356610008420355
leaf_weight=7.5356165607227039 6.8568208477809085 6.4610888851457302 6.0433629126637234 8.3765584041830135
leaf_count=197 800 380 341 391
internal_value=0 0.00780802 -0.00468921 0.0173533
internal_weight=0 28.4166 20.881 14.8376
internal_count=2109 1309 1112 771
is_linear=0
shrinkage=0.09853


Tree=62
num_leaves=4
num_cat=0
split_feature=22 24 20
split_gain=0.919476 3.61296 1.86891
threshold=3.7969500000000003 3.9283500000000005 3.7874500000000002
decision_type=10 10 2
left_child=2 -2 -1
right_child=1 -3 -4
leaf_value=-0.013368820046982158 -0.065383578143750204 0.026835346396507347 0.049526398548588875
leaf_weight=10.402455103758259 7.9558709635748555 8.5641046233940852 8.2037032962543872
leaf_count=515 774 681 139
internal_value=0 -0.0175765 0.0143625
internal_weight=0 16.52 18.6062
internal_count=2109 1455 654
is_linear=0
shrinkage=0.09853


Tree=63
num_leaves=4
num_cat=0
split_feature=15 30 25
split_gain=0.983494 1.78029 2.41686
threshold=3.6263300000000003 0.94816362052797942 3.9028500000000004
decision_type=8 8 10
left_child=-1 -2 -3
right_child=1 2 -4
leaf_value=0.034927524813707825 0.020700661347817749 0.0031366351913212419 -0.072606329958021021
leaf_weight=6.206611643312498 11.960203563270627 9.6157390673761274 7.1167540991154956
leaf_count=217 468 247 1177
internal_value=0 -0.00832882 -0.0290788
internal_weight=0 28.6927 16.7325
internal_count=2109 1892 1424
is_linear=0
shrinkage=0.09853


Tree=64
num_leaves=5
num_cat=0
split_feature=2 30 12 1
split_gain=0.960659 1.31045 3.08754 0.901685
threshold=37.203131962569131 0.94661536352476283 45.766322336588921 27.977852189455373
decision_type=2 8 10 2
left_child=-1 -2 -3 -4
right_child=1 2 3 -5
leaf_value=0.033400683383724095 -0.043419645966823746 0.054924864741918669 0.0035729558441172002 -0.048290760590404228
leaf_weight=6.5400779019691972 7.6196185929584344 7.4783912424463805 6.0287153611716331 7.0717382745933719
leaf_count=369 330 297 759 354
internal_value=0 -0.0085129 0.00441183 -0.0244235
internal_weight=0 28.1985 20.5788 13.1005
internal_count=2109 1740 1410 1113
is_linear=0
shrinkage=0.09853


Tree=65
num_leaves=4
num_cat=0
split_feature=30 2 0
split_gain=0.978969 1.0716 1.67944
threshold=0.96578544280641199 37.36673316601216 0.022778571428571381
decision_type=8 2 2
left_child=1 -1 -3
right_child=-2 2 -4
leaf_value=0.04431860331333095 -0.034816398543818329 0.026379717707710471 -0.028265503714481038
leaf_weight=6.0083649944281232 6.5702702370763282 10.278415194537958 11.647332632797768
leaf_count=230 800 567 512
internal_value=0 0.00745348 -0.00264876
internal_weight=0 27.9341 21.9257
internal_count=2109 1309 1079
is_linear=0
shrinkage=0.09853


Tree=66
num_leaves=4
num_cat=0
split_feature=27 10 28
split_gain=0.939852 1.7386 1.71246
threshold=0.99532682564806541 -49.69585970814348 1.0341635701477199
decision_type=10 2 8
left_child=-1 -2 -3
right_child=1 2 -4
leaf_value=-0.031243907036019359 0.037378741165642174 -0.043288085718572553 0.022400158818244049
leaf_weight=7.5646784685959565 11.352003898296971 8.4538379377045185 7.0792119888355964
leaf_count=621 560 808 120
internal_value=0 0.00806949 -0.0133506
internal_weight=0 26.8851 15.533
internal_count=2109 1488 928
is_linear=0
shrinkage=0.09853


Tree=67
num_leaves=4
num_cat=0
split_feature=15 30 7
split_gain=0.921243 1.60108 2.34104
threshold=3.6263300000000003 0.94816362052797942 0.007912130535018715
decision_type=8 8 2
left_child=-1 -2 -3
right_child=1 2 -4
leaf_value=0.034159252142211716 0.019400588746863533 -0.063201182324879368 0.011720401767411072
leaf_weight=6.1045219293446271 11.900886284711307 8.6564066900755297 7.6067708275513715
leaf_count=217 468 1119 305
internal_value=0 -0.00806192 -0.0281581
internal_weight=0 28.1641 16.2632
internal_count=2109 1892 1424
is_linear=0
shrinkage=0.09853


Tree=68
num_leaves=4
num_cat=0
split_feature=24 22 20
split_gain=0.83524 2.94449 1.55461
threshold=3.9283500000000005 3.7969500000000003 3.7874500000000002
decision_type=10 10 2
left_child=1 2 -1
right_child=-2 -3 -4
leaf_value=-0.01371364818401624 0.026161490622541209 -0.061704249181511406 0.044354370846974016
leaf_weight=10.128106158139422 8.5338657224783656 7.4255158285959615 8.0204498470993695
leaf_count=515 681 774 139
internal_value=0 -0.00943679 0.0119485
internal_weight=0 25.5741 18.1486
internal_count=2109 1428 654
is_linear=0
shrinkage=0.09853


Tree=69
num_leaves=4
num_cat=0
split_feature=1 3 11
split_gain=0.869484 1.35063 2.08653
threshold=24.615614463988116 67.339021370824767 -30.060271390072142
decision_type=2 2 2
left_child=-1 2 -2
right_child=1 -3 -4
leaf_value=-0.028473243626735794 -0.0038775797524898412 -0.020390470572611303 0.068528024576091404
leaf_weight=8.1902183468337153 9.3332060238171817 9.8010107649897673 6.5933847639244076
leaf_count=1061 451 376 221
internal_value=0 0.00838765 0.0260973
internal_weight=0 25.7276 15.9266
internal_count=2109 1048 672
is_linear=0
shrinkage=0.09853


Tree=70
num_leaves=5
num_cat=0
split_feature=19 20 52 16
split_gain=0.788998 1.80955 2.37305 1.51037
threshold=4.0828000000000007 3.9358000000000004 3.8347000000000002 3.6648027500000002
decision_type=2 2 2 10
left_child=1 2 3 -1
right_child=-2 -3 -4 -5
leaf_value=-0.01785135688797955 -0.031802958039128588 0.053144581203874601 -0.058023792317077084 0.04488230939528326
leaf_weight=7.2664029518491642 6.3428479943249831 6.291982714115874 6.2466368621680877 7.6464994906273205
leaf_count=256 644 205 576 428
internal_value=0 0.00675404 -0.00704061 0.0143149
internal_weight=0 27.4515 21.1595 14.9129
internal_count=2109 1465 1260 684
is_linear=0
shrinkage=0.09853


Tree=71
num_leaves=4
num_cat=0
split_feature=27 10 28
split_gain=0.862154 1.53088 1.39869
threshold=0.99532682564806541 -49.69585970814348 1.0341635701477199
decision_type=10 2 8
left_child=-1 -2 -3
right_child=1 2 -4
leaf_value=-0.030445468294285679 0.035302999294085903 -0.040591057691296374 0.01992572854590946
leaf_weight=7.2898118979646815 11.256635138153797 8.0790431876666826 6.8526111776009211
leaf_count=621 560 808 120
internal_value=0 0.00786609 -0.012818
internal_weight=0 26.1883 14.9317
internal_count=2109 1488 928
is_linear=0
shrinkage=0.09853


Tree=72
num_leaves=4
num_cat=0
split_feature=15 15 30
split_gain=0.859866 1.56339 2.00208
threshold=3.6263300000000003 3.7843310000000003 0.94816362052797942
decision_type=8 10 8
left_child=-1 -2 -3
right_child=1 2 -4
leaf_value=0.033262527523913114 -0.049770421953824036 0.038612405760034302 -0.022828409725784454
leaf_weight=6.0159035424003369 6.5702961335773606 9.5205310330493393 11.212697923328959
leaf_count=217 271 405 1216
internal_value=0 -0.00788777 0.00538472
internal_weight=0 27.3035 20.7332
internal_count=2109 1892 1621
is_linear=0
shrinkage=0.09853


Tree=73
num_leaves=4
num_cat=0
split_feature=22 22 28
split_gain=0.803272 1.76082 1.3809
threshold=3.9358000000000004 3.7969500000000003 0.995155849310288
decision_type=10 10 10
left_child=1 2 -1
right_child=-2 -3 -4
leaf_value=-0.023932724569038614 0.031985135717453053 -0.042005977966131355 0.032475890664986913
leaf_weight=6.8772239107056583 6.0641209500608957 9.4594430953147803 10.876298479270188
leaf_count=461 706 749 193
internal_value=0 -0.00767011 0.0106248
internal_weight=0 27.213 17.7535
internal_count=2109 1403 654
is_linear=0
shrinkage=0.09853


Tree=74
num_leaves=5
num_cat=0
split_feature=19 20 28 10
split_gain=0.769772 1.73685 2.03864 2.10375
threshold=4.0828000000000007 3.9358000000000004 0.995155849310288 -30.976083666525373
decision_type=2 2 10 2
left_child=1 2 -1 -4
right_child=-2 -3 3 -5
leaf_value=-0.053716759813220771 -0.031472699854154365 0.051860235300831024 0.047760466652360202 -0.028239923355060106
leaf_weight=6.3100056622643086 6.2859558196505523 6.3519816716143387 7.8505246938148048 6.433638479706131
leaf_count=793 644 205 257 210
internal_value=0 0.0068181 -0.00707452 0.0135296
internal_weight=0 26.9462 20.5942 14.2842
internal_count=2109 1465 1260 467
is_linear=0
shrinkage=0.09853


Tree=75
num_leaves=4
num_cat=0
split_feature=1 31 31
split_gain=0.777876 1.20256 1.8485
threshold=24.615614463988116 0.93213877724016903 0.89522527112599193
decision_type=2 10 10
left_child=-1 2 -2
right_child=1 -3 -4
leaf_value=-0.027570105841598302 -0.009582283122656271 -0.02228257492490052 0.056025107828747686
leaf_weight=7.8163364336942314 8.3033353233477154 8.4404365431691968 8.3736540336394665
leaf_count=1061 191 554 303
internal_value=0 0.00802213 0.0233597
internal_weight=0 25.1174 16.677
internal_count=2109 1048 494
is_linear=0
shrinkage=0.09853


Tree=76
num_leaves=4
num_cat=0
split_feature=27 49 28
split_gain=0.717945 1.38898 2.1608
threshold=0.99532682564806541 0.028664234998439845 1.0082248256709598
decision_type=10 2 8
left_child=-1 2 -2
right_child=1 -3 -4
leaf_value=-0.028291764345279576 0.058465708172615101 -0.026502026922924613 -0.01044896570648933
leaf_weight=7.0432920172170261 8.5083098853938335 8.1345159502961888 9.1856922835286223
leaf_count=621 743 285 460
internal_value=0 0.00719678 0.0226892
internal_weight=0 25.8285 17.694
internal_count=2109 1488 1203
is_linear=0
shrinkage=0.09853


Tree=77
num_leaves=5
num_cat=0
split_feature=4 9 28 7
split_gain=0.747626 1.77721 1.89187 1.45403
threshold=81.14478935449722 0.00078127104146776514 1.0195966659877731 0.0034936638745675101
decision_type=2 2 8 2
left_child=1 2 3 -1
right_child=-2 -3 -4 -5
leaf_value=-0.0020382667671977246 0.03095110332752159 -0.049129209731011862 -0.031514035374216466 0.066073131464394655
leaf_weight=6.1173045327886992 6.0295480092754579 7.2441773771861326 7.3325169856834682 6.0541188080678694
leaf_count=680 200 672 341 216
internal_value=0 -0.00745593 0.00802241 0.0318406
internal_weight=0 26.7481 19.5039 12.1714
internal_count=2109 1909 1237 896
is_linear=0
shrinkage=0.09853


Tree=78
num_leaves=4
num_cat=0
split_feature=31 28 4
split_gain=0.767564 1.46164 2.19114
threshold=0.94120597891971458 1.0133942022796059 74.600048893181892
decision_type=10 8 2
left_child=1 -1 -3
right_child=-2 2 -4
leaf_value=0.047446298003890344 -0.023773595020933878 -0.037531217875436909 0.036238515972330985
leaf_weight=6.8690456915646818 9.6056697286549007 9.3972700854355953 6.6927800251869476
leaf_count=546 947 463 153
internal_value=0 0.00939742 -0.00684613
internal_weight=0 22.9591 16.0901
internal_count=2109 1162 616
is_linear=0
shrinkage=0.09853


Tree=79
num_leaves=4
num_cat=0
split_feature=24 22 28
split_gain=0.728533 2.32034 1.31973
threshold=3.9283500000000005 3.7969500000000003 0.995155849310288
decision_type=10 10 10
left_child=1 2 -1
right_child=-2 -3 -4
leaf_value=-0.02452156771734704 0.024547654939456594 -0.05883554694418934 0.031236333312606945
leaf_weight=6.7046984664921245 8.4264594671840296 6.6072760154202106 10.694370414130388
leaf_count=461 681 774 193
internal_value=0 -0.00912673 0.00975013
internal_weight=0 24.0063 17.3991
internal_count=2109 1428 654
is_linear=0
shrinkage=0.09853


Tree=80
num_leaves=4
num_cat=0
split_feature=9 11 49
split_gain=0.753056 3.0132 1.80074
threshold=-0.0038672819314458564 -19.665396471302234 0.026928344677848329
decision_type=2 2 2
left_child=-1 -2 -3
right_child=1 2 -4
leaf_value=0.030291197583169577 -0.064770668425535902 0.040799662467533096 -0.019370116872385788
leaf_weight=6.2666444863134521 6.6870517980423783 10.07182192518667 9.2757528457732388
leaf_count=216 681 862 350
internal_value=0 -0.00775392 0.0119526
internal_weight=0 26.0346 19.3476
internal_count=2109 1893 1212
is_linear=0
shrinkage=0.09853


Tree=81
num_leaves=4
num_cat=0
split_feature=3 16 3
split_gain=0.775957 2.00117 0.981959
threshold=22.75590687264631 3.7254730000000005 69.941938923412309
decision_type=2 10 2
left_child=-1 2 -2
right_child=1 -3 -4
leaf_value=0.025216718484376007 0.040689173202659135 -0.046449139743565591 -0.01029624156301473
leaf_weight=8.473119933070846 6.6714115005161174 8.899967139339422 8.1438740832090826
leaf_count=305 227 1390 187
internal_value=0 -0.009521 0.0126628
internal_weight=0 23.7153 14.8153
internal_count=2109 1804 414
is_linear=0
shrinkage=0.09853


Tree=82
num_leaves=4
num_cat=0
split_feature=1 31 19
split_gain=0.695786 0.98718 1.4127
threshold=24.615614463988116 0.93213877724016903 4.0392500000000009
decision_type=2 10 2
left_child=-1 2 -2
right_child=1 -3 -4
leaf_value=-0.026221326800363473 0.046215812630116301 -0.020600923137861726 -0.012452017448681491
leaf_weight=7.684063186592538 9.5131849371246116 7.9926873270160277 6.8564964524121015
leaf_count=1061 236 554 258
internal_value=0 0.00778355 0.0216426
internal_weight=0 24.3624 16.3697
internal_count=2109 1048 494
is_linear=0
shrinkage=0.09853


Tree=83
num_leaves=4
num_cat=0
split_feature=27 9 28
split_gain=0.692632 1.17158 3.3949
threshold=0.99532682564806541 0.00078127104146776514 1.0082248256709598
decision_type=10 2 8
left_child=-1 2 -2
right_child=1 -3 -4
leaf_value=-0.028308341190811711 0.071782029707210732 -0.019041048492523818 -0.021504242922934742
leaf_weight=6.7749280258285607 7.4643212938390215 9.9697732697532029 7.6881290981255015
leaf_count=621 499 598 391
internal_value=0 0.00719052 0.02445
internal_weight=0 25.1222 15.1525
internal_count=2109 1488 890
is_linear=0
shrinkage=0.09853


Tree=84
num_leaves=4
num_cat=0
split_feature=31 28 9
split_gain=0.660378 1.19136 2.1397
threshold=0.94120597891971458 1.0195966659877731 0.0015345124216899289
decision_type=10 8 2
left_child=1 -1 -3
right_child=-2 2 -4
leaf_value=0.040527046119941394 -0.022510112504659643 -0.038255618798380554 0.03776027895057988
leaf_weight=7.5963479149504627 9.2453330460120906 8.8602198792796099 6.0491813773405729
leaf_count=621 947 394 147
internal_value=0 0.00876768 -0.00741374
internal_weight=0 22.5057 14.9094
internal_count=2109 1162 541
is_linear=0
shrinkage=0.09853


Tree=85
num_leaves=4
num_cat=0
split_feature=27 4 16
split_gain=0.669907 1.07529 1.36586
threshold=0.99532682564806541 55.825279181910865 3.5947395000000006
decision_type=10 2 10
left_child=-1 -2 -3
right_child=1 2 -4
leaf_value=-0.027967598293491297 0.02904848665018922 0.022809442490292535 -0.040622509426181438
leaf_weight=6.708474318598749 11.59403633027978 6.0057987092295644 7.3027915266284253
leaf_count=621 664 117 707
internal_value=0 0.00711252 -0.0119974
internal_weight=0 24.9026 13.3086
internal_count=2109 1488 824
is_linear=0
shrinkage=0.09853


Tree=86
num_leaves=4
num_cat=0
split_feature=31 50 7
split_gain=0.645158 1.3613 1.37717
threshold=0.9252244717221042 0.0024087677529063272 0.0039876592408933939
decision_type=8 2 2
left_child=-1 2 -2
right_child=1 -3 -4
leaf_value=0.020064720352957911 0.0031324459444876645 0.027148519693556833 -0.057157297436495696
leaf_weight=10.192518723633841 7.4227311410068086 6.5875954373186678 7.2913404200371588
leaf_count=478 1025 283 323
internal_value=0 -0.0100771 -0.0267432
internal_weight=0 21.3017 14.7141
internal_count=2109 1631 1348
is_linear=0
shrinkage=0.09853


Tree=87
num_leaves=4
num_cat=0
split_feature=24 22 28
split_gain=0.619504 1.99143 1.14614
threshold=3.9283500000000005 3.7969500000000003 0.995155849310288
decision_type=10 10 10
left_child=1 2 -1
right_child=-2 -3 -4
leaf_value=-0.024008358654078858 0.022789667570777217 -0.056912515598804128 0.02869112657598593
leaf_weight=6.4534904717875277 8.2924423917138466 6.0983719188516252 10.566178472014142
leaf_count=461 681 774 193
internal_value=0 -0.00860176 0.00870862
internal_weight=0 23.118 17.0197
internal_count=2109 1428 654
is_linear=0
shrinkage=0.09853


Tree=88
num_leaves=4
num_cat=0
split_feature=3 16 3
split_gain=0.67578 1.66217 0.899766
threshold=22.75590687264631 3.7254730000000005 69.941938923412309
decision_type=2 10 2
left_child=-1 2 -2
right_child=1 -3 -4
leaf_value=0.023607181191703214 0.038063343256969681 -0.044148401915948696 -0.011161120160606129
leaf_weight=8.392203593830347 6.5598884942883187 8.3410169966227823 8.0031132580770628
leaf_count=305 227 1390 187
internal_value=0 -0.00907592 0.011012
internal_weight=0 22.904 14.563
internal_count=2109 1804 414
is_linear=0
shrinkage=0.09853


Tree=89
num_leaves=4
num_cat=0
split_feature=30 8 28
split_gain=0.685662 1.11366 1.60955
threshold=0.92424617974909162 0.0039697599614458585 0.99655981984211617
decision_type=10 2 10
left_child=-1 -2 -3
right_child=1 2 -4
leaf_value=0.0276930294164866 -0.04321714209653886 0.044947910051822228 -0.016822870602843973
leaf_weight=6.6728277218644534 6.4117386550206019 6.2654564760159728 11.822794958832672
leaf_count=197 1211 231 470
internal_value=0 -0.00793352 0.00457346
internal_weight=0 24.5 18.0883
internal_count=2109 1912 701
is_linear=0
shrinkage=0.09853


Tree=90
num_leaves=4
num_cat=0
split_feature=2 49 30
split_gain=0.663396 1.25895 1.60198
threshold=37.203131962569131 0.011297903236249464 0.94561156761398868
decision_type=2 2 10
left_child=-1 -2 -3
right_child=1 2 -4
leaf_value=0.028744887528856011 -0.042655093659575385 -0.028005459042040881 0.031673460917975106
leaf_weight=6.1287781724822734 7.0639186543558052 7.5594169507385258 10.338983118301256
leaf_count=369 777 242 721
internal_value=0 -0.00743303 0.00646798
internal_weight=0 24.9623 17.8984
internal_count=2109 1740 963
is_linear=0
shrinkage=0.09853


Tree=91
num_leaves=4
num_cat=0
split_feature=1 6 27
split_gain=0.711756 1.31072 1.37517
threshold=45.305472420280971 24.197325189186934 1.0097973142070187
decision_type=2 10 10
left_child=1 -1 -3
right_child=-2 2 -4
leaf_value=-0.040144293566420346 0.024359053952894498 -0.017301731124802759 0.044690576430621312
leaf_weight=8.425794878843595 8.3160325323697162 8.2238214733224577 6.0146185670746481
leaf_count=555 200 1209 145
internal_value=0 -0.00934235 0.00888513
internal_weight=0 22.6642 14.2384
internal_count=2109 1909 1354
is_linear=0
shrinkage=0.09853


Tree=92
num_leaves=5
num_cat=0
split_feature=9 11 9 5
split_gain=0.680361 2.50085 1.82804 0.941959
threshold=-0.0038672819314458564 -19.665396471302234 0.00078127104146776514 86.664866506563854
decision_type=2 2 2 8
left_child=-1 -2 -3 -4
right_child=1 2 3 -5
leaf_value=0.029009228498557537 -0.062221709131105071 0.052753235455889384 -0.039534210683564101 0.015460844361651094
leaf_weight=6.1581519234459874 6.119281437902834 6.4556382371665668 6.0789443710382303 6.0157104564568735
leaf_count=216 681 438 402 372
internal_value=0 -0.00760105 0.010417 -0.0121804
internal_weight=0 24.6696 18.5503 12.0947
internal_count=2109 1893 1212 774
is_linear=0
shrinkage=0.09853


Tree=93
num_leaves=4
num_cat=0
split_feature=3 51 6
split_gain=0.672718 1.44923 2.45479
threshold=22.75590687264631 4.036550000000001 38.676391598711838
decision_type=2 2 10
left_child=-1 2 -2
right_child=1 -3 -4
leaf_value=0.023752753542747307 0.046799349785193269 -0.050446462353267073 -0.029476123638339735
leaf_weight=8.2568953854788578 7.6592752116121181 6.0319786987383841 8.8052980055363133
leaf_count=305 418 647 739
internal_value=0 -0.0091298 0.00600702
internal_weight=0 22.4966 16.4646
internal_count=2109 1804 1157
is_linear=0
shrinkage=0.09853


Tree=94
num_leaves=4
num_cat=0
split_feature=31 17 45
split_gain=0.636117 1.07326 1.84442
threshold=0.9252244717221042 4.0270000000000001 3.7132091666666676
decision_type=8 2 2
left_child=-1 2 -2
right_child=1 -3 -4
leaf_value=0.020136897374691629 0.011256496815274667 0.021152128575423462 -0.061245465887671297
leaf_weight=9.9716518623899919 6.5811787518614455 7.0155652891990021 7.0614129940222483
leaf_count=478 320 550 761
internal_value=0 -0.0101657 -0.0262706
internal_weight=0 20.6582 13.6426
internal_count=2109 1631 1081
is_linear=0
shrinkage=0.09853


Tree=95
num_leaves=4
num_cat=0
split_feature=31 16 0
split_gain=0.55498 1.09063 0.953484
threshold=0.94120597891971458 3.6648027500000002 0.023371428571428571
decision_type=10 10 2
left_child=1 -1 -3
right_child=-2 2 -4
leaf_value=-0.020227190986482076 -0.021259948052338305 0.04958343135863482 -0.0028700933536087376
leaf_weight=8.1988693075836689 8.7480748937814479 7.2707036687788769 6.2618947907467373
leaf_count=229 947 501 432
internal_value=0 0.0081308 0.0253118
internal_weight=0 21.7315 13.5326
internal_count=2109 1162 933
is_linear=0
shrinkage=0.09853


Tree=96
num_leaves=4
num_cat=0
split_feature=24 22 4
split_gain=0.589251 1.41137 1.68134
threshold=3.9283500000000005 3.8089000000000004 55.825279181910865
decision_type=10 8 2
left_child=1 2 -1
right_child=-2 -3 -4
leaf_value=0.039867203779860125 0.022435053513399902 -0.047391965723838816 -0.024427604441914358
leaf_weight=7.7923700576793697 8.1193125707213749 6.4555640050675711 8.0048196162679215
leaf_count=350 681 775 303
internal_value=0 -0.00857514 0.00728746
internal_weight=0 22.2528 15.7972
internal_count=2109 1428 653
is_linear=0
shrinkage=0.09853


end of trees

feature_importances:
Min_100_Max_100_ratio=60
ADX=38
MA_200=35
MA_50_200_ratio=31
Min_200_Max_200_ratio=28
MACD_Signal=21
Ultimate_Osc=19
MA_10_50_ratio=19
ATR=17
STOCH_%K=15
MACD_Hist=15
STOCHRSI_%D=14
Min_100=13
Min_200=13
STOCH_%D=12
RSI=9
STOCHRSI_%K=9
Williams_%R=9
Min_50=9
MA_50=8
Bull_Power=8
Min_21=7
Bear_Power=7
Max_200=6
CCI=5
Max_21=5
Max_100=5
MACD=4
Min_50_Max_50_ratio=4
High_14=4
Min_10=3
ROC=2
Max_10=2
Camarilla_R1=2
Low_14=2
Max_50=1
R3=1
Camarilla_R2=1

parameters:
[boosting: gbdt]
[objective: binary]
[metric: binary_logloss]
[tree_learner: serial]
[device_type: cpu]
[data_sample_strategy: bagging]
[data: ]
[valid: ]
[num_iterations: 100]
[learning_rate: 0.09853]
[num_leaves: 65]
[num_threads: 8]
[seed: 0]
[deterministic: 0]
[force_col_wise: 0]
[force_row_wise: 0]
[histogram_pool_size: -1]
[max_depth: 9]
[min_data_in_leaf: 43]
[min_sum_hessian_in_leaf: 6]
[bagging_fraction: 1]
[pos_bagging_fraction: 1]
[neg_bagging_fraction: 1]
[bagging_freq: 0]
[bagging_seed: 3]
[feature_fraction: 1]
[feature_fraction_bynode: 1]
[feature_fraction_seed: 2]
[extra_trees: 0]
[extra_seed: 6]
[early_stopping_round: 0]
[early_stopping_min_delta: 0]
[first_metric_only: 0]
[max_delta_step: 0]
[lambda_l1: 0]
[lambda_l2: 0]
[linear_lambda: 0]
[min_gain_to_split: 0]
[drop_rate: 0.1]
[max_drop: 50]
[skip_drop: 0.5]
[xgboost_dart_mode: 0]
[uniform_drop: 0]
[drop_seed: 4]
[top_rate: 0.2]
[other_rate: 0.1]
[min_data_per_group: 100]
[max_cat_threshold: 32]
[cat_l2: 10]
[cat_smooth: 10]
[max_cat_to_onehot: 4]
[top_k: 20]
[monotone_constraints: ]
[monotone_constraints_method: basic]
[monotone_penalty: 0]
[feature_contri: ]
[forcedsplits_filename: ]
[refit_decay_rate: 0.9]
[cegb_tradeoff: 1]
[cegb_penalty_split: 0]
[cegb_penalty_feature_lazy: ]
[cegb_penalty_feature_coupled: ]
[path_smooth: 0]
[interaction_constraints: ]
[verbosity: 1]
[saved_feature_importance_type: 0]
[use_quantized_grad: 0]
[num_grad_quant_bins: 4]
[quant_train_renew_leaf: 0]
[stochastic_rounding: 1]
[linear_tree: 0]
[max_bin: 255]
[max_bin_by_feature: ]
[min_data_in_bin: 3]
[bin_construct_sample_cnt: 200000]
[data_random_seed: 1]
[is_enable_sparse: 1]
[enable_bundle: 1]
[use_missing: 1]
[zero_as_missing: 0]
[feature_pre_filter: 1]
[pre_partition: 0]
[two_round: 0]
[header: 0]
[label_column: ]
[weight_column: ]
[group_column: ]
[ignore_column: ]
[categorical_feature: ]
[forcedbins_filename: ]
[precise_float_parser: 0]
[parser_config_file: ]
[objective_seed: 5]
[num_class: 1]
[is_unbalance: 0]
[scale_pos_weight: 1]
[sigmoid: 1]
[boost_from_average: 1]
[reg_sqrt: 0]
[alpha: 0.9]
[fair_c: 1]
[poisson_max_delta_step: 0.7]
[tweedie_variance_power: 1.5]
[lambdarank_truncation_level: 30]
[lambdarank_norm: 1]
[label_gain: ]
[lambdarank_position_bias_regularization: 0]
[eval_at: ]
[multi_error_top_k: 1]
[auc_mu_weights: ]
[num_machines: 1]
[local_listen_port: 12400]
[time_out: 120]
[machine_list_filename: ]
[machines: ]
[gpu_platform_id: -1]
[gpu_device_id: -1]
[gpu_use_dp: 0]
[num_gpu: 1]

end of parameters

pandas_categorical:[]
