tree
version=v4
num_class=1
num_tree_per_iteration=1
label_index=0
max_feature_idx=52
objective=binary sigmoid:1
feature_names=ATR ADX RSI STOCH_%K STOCH_%D STOCHRSI_%K STOCHRSI_%D MACD MACD_Signal MACD_Hist Williams_%R CCI Ultimate_Osc ROC MA_10 MA_50 MA_200 Max_10 Min_10 Max_21 Min_21 Max_50 Min_50 Max_100 Min_100 Max_200 Min_200 MA_10_50_ratio MA_50_200_ratio Min_50_Max_50_ratio Min_100_Max_100_ratio Min_200_Max_200_ratio Pivot S1 R1 S2 R2 S3 R3 Fib_R1 Fib_S1 Fib_R2 Fib_S2 Camarilla_R1 Camarilla_S1 Camarilla_R2 Camarilla_S2 Camarilla_R3 Camarilla_S3 Bull_Power Bear_Power High_14 Low_14
feature_infos=[0.01127142857142863:0.042842857142857023] [8.5323397723209347:65.240314873377812] [10.769230769230631:97.179314976494297] [0:100] [6.9085374327383091:96.516186110586446] [0:100] [0:100] [-0.031307173960421153:0.050126044768859401] [-0.029642413144565383:0.044066884599404374] [-0.019887276998471141:0.011534027648526513] [-100:0] [-209.53693032420162:217.69159055335683] [17.735538796157414:89.090611874288371] [-3.8266919671094191:4.5437826438782691] [3.5461300000000002:4.3079599999999996] [3.5577120000000004:4.2800259999999994] [3.5751100000000005:4.2234810000000005] [3.5558999999999998:4.3201999999999998] [3.5324:4.2998000000000003] [3.5569000000000002:4.3201999999999998] [3.5324:4.2891000000000004] [3.5771999999999999:4.3201999999999998] [3.5324:4.2336] [3.5989:4.3201999999999998] [3.5324:4.1835000000000004] [3.6204999999999998:4.3201999999999998] [3.5324:4.1342999999999996] [0.97640695007086575:1.0340490404570961] [0.96845424533032198:1.0592584087275057] [0.9263168110245773:0.99416939184221864] [0.90512195121951222:0.98849875867659731] [0.86000921949680964:0.98069031494675352] [3.5372666666666661:4.3132999999999999] [3.5244333333333322:4.3004999999999995] [3.5452333333333321:4.3322666666666656] [3.5072333333333332:4.2913999999999994] [3.5562666666666662:4.3530999999999995] [3.4941999999999993:4.2813666666666679] [3.5643333333333325:4.3923999999999994] [3.5452122666666659:4.3229505333333327] [3.5262677333333334:4.3049341999999999] [3.5497726666666662:4.3311161333333326] [3.5189989333333331:4.2997657999999994] [3.5343066666666667:4.3233716666666666] [3.5304933333333333:4.317028333333333] [3.5362133333333334:4.3265433333333334] [3.5285866666666665:4.3138566666666662] [3.5381200000000002:4.3297149999999993] [3.5266799999999998:4.3106850000000003] [-0.050494717754217877:0.10391583561597439] [-0.097043837379921172:0.053547920640037994] [3.5604:4.3261000000000003] [3.5192999999999999:4.2854999999999999]
tree_sizes=967 1424 1413 1527 1418 1520 1523 1413 1526 1305 1414 1307 1300 1202 1198 1196 1193 1201 1081 1091 1190 1194 1091 1079 1087 985 980 988 873 970 988 875 979 977 983 881 880 767 990 768 868 875 876 879 780 774 876 775 880 780 671 880 775 773 668 768 671 776 770 771 768 668 668 775 671 672 664 670 671 669 671 669 670 671 669 673 773 675 670 667 669 668 565 672 674 566 564 671 567 671 677 668 671 566 669 671 676 566 672 675

Tree=0
num_leaves=8
num_cat=0
split_feature=26 27 9 1 1 50 0
split_gain=215.681 237.105 11.7969 13.2959 1.42933 0.174179 7.10543e-15
threshold=3.5354000000000005 1.0046418524622014 -0.0015627298936420539 24.615614463988116 42.683816040252644 0.0079574188180648892 0.026996428571428543
decision_type=10 10 2 2 2 2 2
left_child=1 -1 3 -2 5 6 -4
right_child=2 -3 4 -5 -6 -7 -8
leaf_value=-3.24776291215968 -3.2885625391952931 -2.5777381533813464 -3.2971019960167003 -3.1633912445974892 -3.2542827196693578 -3.2825163544385298 -3.2971019960167003
leaf_weight=5.9829422011971456 8.6420276239514369 5.5397612974047661 32.463001202791929 9.9346385933458787 5.1704438775777808 5.0596486516296855 5.0965803936123839
leaf_count=162 234 150 879 269 140 137 138
internal_value=-3.22036 -2.92564 -3.27153 -3.22162 -3.29093 -3.29537 -3.2971
internal_weight=0 11.5227 66.3663 18.5767 47.7897 42.6192 37.5596
internal_count=2109 312 1797 503 1294 1154 1017
is_linear=0
shrinkage=1


Tree=1
num_leaves=12
num_cat=0
split_feature=26 27 30 5 1 8 16 30 9 1 50
split_gain=137.944 89.4643 130.115 11.8364 19.9538 1.73057 0.911782 0.339358 2.81724e-05 1.92345e-06 3.58455e-07
threshold=3.5354000000000005 1.0046890102820036 0.94499608172504024 16.967996897616654 32.599468382935896 0.0030513577977612357 3.8030877500000004 0.94753014108769107 -0.0014283693283147949 36.051466683690755 0.0024087677529063272
decision_type=10 8 10 10 2 2 10 10 2 2 2
left_child=1 -1 -3 4 5 -2 -5 -8 -9 10 -10
right_child=3 2 -4 6 -6 -7 7 8 9 -11 -12
leaf_value=-0.062078037587237213 -0.076611688519887172 0.067763731788073281 0.58401505358658024 -0.043478007026675994 0.12492695801047056 -0.018657119847705225 -0.060359146050458286 -0.076733770116204997 -0.07652803709480259 -0.076583864670974305 -0.076550543483950684
leaf_weight=5.0218862444162342 6.246641971170904 5.5348139554262161 5.1170133054256439 6.6842815577983847 5.1212138049304476 5.0948124676942825 9.0794519074261171 5.0587519332766524 15.823236256837854 5.1504031345248213 5.0950010344386092
leaf_count=137 177 97 78 190 136 145 257 138 460 147 147
internal_value=0 0.194703 0.315765 -0.0498163 0.00401863 -0.0505773 -0.0687168 -0.0729127 -0.0765744 -0.0765435 -0.0765335
internal_weight=0 15.6737 10.6518 63.3538 16.4627 11.3415 46.8911 40.2068 31.1274 26.0686 20.9182
internal_count=2109 312 175 1797 458 322 1339 1149 892 754 607
is_linear=0
shrinkage=0.0737982


Tree=2
num_leaves=12
num_cat=0
split_feature=26 24 15 9 1 0 1 3 5 16 30
split_gain=100.391 64.1708 20.53 11.3584 11.0103 17.7196 1.38831 0.171144 1.55158e-05 2.11048e-06 1.03177e-06
threshold=3.5354000000000005 3.6407500000000002 3.6263300000000003 -0.0015627298936420539 24.615614463988116 0.025907142857142813 42.050768007100636 86.873379338305611 18.37232064885794 3.8161072500000004 0.94997209792380988
decision_type=10 10 10 2 2 2 2 2 10 10 10
left_child=1 2 -1 4 -2 -6 7 8 -5 -10 -11
right_child=3 -3 -4 6 5 -7 -8 -9 9 10 -12
leaf_value=0.13723065794470338 -0.066809172693101881 0.30453438164174557 -0.066595556465830708 -0.076489961098812828 0.14334547689662969 -0.048284736752917355 -0.033464188381281124 -0.061765714845485493 -0.076391409129563423 -0.076367979962817745 -0.076330114101881313
leaf_weight=5.0751687437295931 7.6941313147544887 8.0352555401623231 5.7296174317598343 5.033018145710229 5.3583698943257314 5.1572894044220448 5.138561848551034 5.0567315965890876 5.1475111134350326 5.1050598248839405 16.868557550013065
leaf_count=86 234 124 102 149 135 134 149 156 157 157 526
internal_value=0 0.146598 0.0291446 -0.0484632 0.000276839 0.0493625 -0.0694208 -0.0743862 -0.076371 -0.0763489 -0.0763389
internal_weight=0 18.84 10.8048 60.5592 18.2098 10.5157 42.3494 37.2109 32.1541 27.1211 21.9736
internal_count=2109 312 188 1797 503 269 1294 1145 989 840 683
is_linear=0
shrinkage=0.0737982


Tree=3
num_leaves=13
num_cat=0
split_feature=26 27 24 5 31 9 18 13 10 9 1 30
split_gain=78.664 48.8615 51.9153 11.2363 15.3606 2.58044 0.99266 1.62279 0.166651 0.000127007 3.77371e-06 3.1248e-07
threshold=3.5354000000000005 1.0046418524622014 3.6407500000000002 16.967996897616654 0.92706614755888761 -0.0025744964942990551 3.7936500000000009 -0.13725411963277365 -14.008846708961604 -0.0015860636250003373 29.392769276270567 0.95695337703551264
decision_type=10 8 10 10 10 2 2 2 2 2 2 10
left_child=1 -1 -3 4 -2 -6 7 -5 9 -8 11 -11
right_child=3 2 -4 6 5 -7 8 -9 -10 10 -12 -13
leaf_value=-0.077015033291244248 0.11080338536772807 0.057193645524643393 0.32281470838086967 -0.017398738674248435 -0.0053746345050673348 -0.076555416203833382 -0.076565844837054114 -0.076249745895210677 -0.061626766728160864 -0.076166827886857191 -0.076225420617369602 -0.07614472664461415
leaf_weight=5.241464231163266 5.1139311809092787 8.4988058656454104 7.5829211473464957 5.0014803130179644 5.1583237294107684 6.0000002123415443 5.5891789570450809 5.209994647651909 5.0538208279758718 5.1820967104285982 5.0181616246700278 10.632346659898756
leaf_count=134 141 113 65 153 139 178 163 168 164 172 163 356
internal_value=0 0.118664 0.18244 -0.0471175 0.0048908 -0.0436496 -0.0674186 -0.0474251 -0.073905 -0.0762535 -0.0761697 -0.076152
internal_weight=0 21.3232 16.0817 57.9593 16.2723 11.1583 41.6871 10.2115 31.4756 26.4218 20.8326 15.8144
internal_count=2109 312 178 1797 458 317 1339 321 1018 854 691 528
is_linear=0
shrinkage=0.0737982


Tree=4
num_leaves=12
num_cat=0
split_feature=26 8 30 5 1 8 25 30 2 1 3
split_gain=63.7801 36.0394 48.2733 10.6822 14.1168 1.62859 1.03156 0.376639 7.13254e-05 7.62604e-06 4.19492e-07
threshold=3.5354000000000005 0.0052497358966706719 0.94561156761398868 16.967996897616654 32.599468382935896 0.0026899353435687902 3.9028500000000004 0.94753014108769107 40.945806380508877 25.504234962829091 75.260919914594766
decision_type=10 2 10 10 2 2 10 10 2 2 2
left_child=1 -1 -3 4 5 -2 -5 -8 -9 10 -10
right_child=3 2 -4 6 -6 -7 7 8 9 -11 -12
leaf_value=-0.065652972400255721 -0.07632792396635929 0.018528239590634328 0.26282798823291886 -0.037914101387814217 0.09419437432535413 -0.017793817936485698 -0.057709141037822202 -0.076326150385789091 -0.075976376976786608 -0.076084002423372085 -0.076002927162193909
leaf_weight=5.4724039174616363 5.3323602750897425 8.1253203637897986 9.6210092939436418 5.7842386718839398 6.0179593265056601 5.031288119032979 7.9969671983271828 5.0325595587492016 9.0775131136178988 6.2073843181133261 5.0407517012208691
leaf_count=132 170 112 68 192 136 152 268 160 326 214 179
internal_value=0 0.0999167 0.150973 -0.0457424 0.00429287 -0.0479111 -0.0666844 -0.0716736 -0.0760774 -0.0760158 -0.0759859
internal_weight=0 23.2187 17.7463 55.521 16.3816 10.3636 39.1394 33.3552 25.3582 20.3256 14.1183
internal_count=2109 312 180 1797 458 322 1339 1147 879 719 505
is_linear=0
shrinkage=0.0737982


Tree=5
num_leaves=13
num_cat=0
split_feature=26 8 30 23 9 30 19 1 50 5 20 30
split_gain=52.9187 27.3238 32.1085 16.9274 10.5806 10.0246 14.8425 1.31874 0.166589 4.85042e-05 9.04136e-06 1.56616e-06
threshold=3.5354000000000005 0.0052497358966706719 0.94561156761398868 3.8429500000000005 -0.0015627298936420539 0.96562566032766195 4.0496000000000008 40.702778929783697 0.005378786771178313 22.556472954357798 3.8175000000000003 0.95571147309216886
decision_type=10 2 8 10 2 10 2 2 2 10 2 10
left_child=1 -1 -3 -4 5 6 -2 8 9 -6 -11 -12
right_child=4 2 3 -5 7 -7 -8 -9 -10 10 11 -13
leaf_value=-0.064554607694000413 0.12513299797017061 -0.0049930506446352408 0.10220857080077191 0.2722702988178175 -0.076117918431022266 -0.076560231723490677 -0.039971456411498733 -0.032956756215333387 -0.061192328304087266 -0.075947835121675536 -0.075867754728221853 -0.075817437105754351
leaf_weight=5.1663699522614506 5.8340423014014977 6.675057195127013 5.8715588673949224 6.9734882451593876 5.0644886940717759 5.8902174569666377 6.0307407043874264 5.1091166753321877 5.0147559009492388 5.080632250756028 5.039834536612033 10.161158785223959
leaf_count=132 147 79 63 38 175 180 176 166 186 185 190 392
internal_value=0 0.0863613 0.126304 0.194534 -0.0443653 0.00214122 0.0412122 -0.0676448 -0.0734821 -0.0759136 -0.0758626 -0.0758341
internal_weight=0 24.6865 19.5201 12.845 53.225 17.755 11.8648 35.47 30.3609 25.3461 20.2816 15.201
internal_count=2109 312 180 101 1797 503 323 1294 1128 942 767 582
is_linear=0
shrinkage=0.0737982


Tree=6
num_leaves=13
num_cat=0
split_feature=26 8 30 49 9 30 19 1 10 5 52 30
split_gain=44.7199 20.5013 25.6725 13.0837 10.0527 8.86625 11.3036 1.3165 0.163392 3.87766e-05 5.83047e-06 8.00117e-07
threshold=3.5354000000000005 0.0063598641677538514 0.94561156761398868 0.028987555562778992 -0.0015627298936420539 0.96562566032766195 4.0496000000000008 40.508697158052648 -15.558975598868956 23.461910635858064 3.8287500000000003 0.95774180704587875
decision_type=10 2 8 2 2 8 2 2 2 10 2 10
left_child=1 -1 -3 -4 5 6 -2 8 9 -6 -11 -12
right_child=4 2 3 -5 7 -7 -8 -9 -10 10 11 -13
leaf_value=-0.037458656486825399 0.10300051011385164 -0.0038465583675072069 0.24479549327777086 0.094390597412813693 -0.075942113352682417 -0.076357719578014349 -0.038474135636336407 -0.032162635186736815 -0.061080785997998488 -0.07577723859734499 -0.075707360082526223 -0.075669877461335439
leaf_weight=6.46085246652365 6.5337515790015477 6.5788907185196903 6.8667886406183225 5.8193777352571487 5.0266998298466232 5.4851493854075661 5.8115157540887594 5.0272106453776351 5.02218711934984 5.1294086314737823 5.0622341968119136 8.0081253089010698
leaf_count=143 147 78 50 41 187 180 176 169 198 202 206 332
internal_value=0 0.0763018 0.114453 0.175802 -0.0429996 0.00171354 0.0364015 -0.0669584 -0.0731508 -0.0757607 -0.0757106 -0.0756844
internal_weight=0 25.7259 19.2651 12.6862 51.1063 17.8304 12.3453 33.2759 28.2487 23.2265 18.1998 13.0704
internal_count=2109 312 169 91 1797 503 323 1294 1125 927 740 538
is_linear=0
shrinkage=0.0737982


Tree=7
num_leaves=12
num_cat=0
split_feature=8 31 17 0 18 1 8 2 13 25 30
split_gain=40.0479 27.5117 30.4399 17.8275 10.097 9.62886 1.34344 0.000982472 0.000113425 6.34014e-05 2.88025e-06
threshold=0.0052497358966706719 0.92149653308634183 4.0997000000000012 0.022832142857142891 3.7884500000000005 43.085343607853964 0.0028011267276425687 33.58807387597404 -0.56864897170696971 3.9192500000000003 0.96447972032465246
decision_type=2 10 2 2 2 2 2 2 2 10 10
left_child=5 2 3 -2 -3 6 7 -1 -9 -10 -11
right_child=1 4 -4 -5 -6 -7 -8 8 9 10 -12
leaf_value=-0.076829820441769531 0.24188105203687851 0.041425250681198199 -0.036490952633492835 0.068782411307140259 -0.068508622835440777 0.039424461780929572 -0.035132644408885895 -0.076070687952009247 -0.075897478324630271 -0.075623494022275375 -0.075551246905023406
leaf_weight=6.0847169943153885 8.1480991542339343 9.2277016956359166 5.2380351796746245 5.37985118292272 8.97617634013295 5.0620136745274058 5.175309555605053 5.3123679943382767 5.13655389659107 6.0707761328667385 5.9514316506683826
leaf_count=181 84 122 140 50 308 141 172 192 196 260 263
internal_value=0 0.0518553 0.114557 0.173042 -0.0127822 -0.0554851 -0.0697281 -0.075998 -0.0757727 -0.0756805 -0.0755877
internal_weight=0 36.9699 18.766 13.528 18.2039 38.7932 33.7312 28.5558 22.4711 17.1588 12.0222
internal_count=2109 704 274 134 430 1405 1264 1092 911 719 523
is_linear=0
shrinkage=0.0737982


Tree=8
num_leaves=13
num_cat=0
split_feature=8 12 28 30 10 1 12 8 2 13 16 30
split_gain=34.9666 23.5582 16.3921 25.0428 10.2869 8.99061 2.70257 1.37979 0.000785116 8.81798e-05 4.46998e-05 1.7213e-06
threshold=0.0052497358966706719 40.700443960969132 1.0334402771825133 0.94561156761398868 -47.767234122289629 43.085343607853964 50.222531886068047 0.0028011267276425687 33.58807387597404 -0.56060377735739342 3.8457120000000002 0.96447972032465246
decision_type=2 10 8 10 2 2 10 2 2 2 10 10
left_child=5 -2 4 -4 -3 7 -6 8 -1 -10 -11 -12
right_child=1 2 3 -5 6 -7 -8 -9 9 10 11 -13
leaf_value=-0.07660807396287192 0.18708567481405372 0.068561045155144246 -0.030956415309627176 0.17342444984213418 -0.012638828535126396 0.035175971482121558 -0.080107709703061872 -0.033629788560617983 -0.075898853345523598 -0.075726343034566934 -0.075491155836327511 -0.075432378713167658
leaf_weight=5.6675919443368974 5.5597177669405928 5.0283867642283431 5.7436677571386081 7.5662010237574577 5.1802567970007685 5.247095337137579 8.6036544218659383 5.0138426441699258 5.0087387990206542 5.0049620345234827 5.1062601618468744 5.790775753557682
leaf_count=181 79 140 76 33 104 141 272 172 195 207 235 274
internal_value=0 0.0468279 0.0225521 0.0852271 -0.0217911 -0.0542812 -0.0547516 -0.069139 -0.0758376 -0.0756288 -0.0755438 -0.0754599
internal_weight=0 37.6819 32.1222 13.3099 18.8123 36.8393 13.7839 31.5922 26.5783 20.9107 15.902 10.897
internal_count=2109 704 625 109 516 1405 376 1264 1092 911 716 509
is_linear=0
shrinkage=0.0737982


Tree=9
num_leaves=11
num_cat=0
split_feature=8 31 17 0 1 31 8 2 13 16
split_gain=30.6442 19.387 20.0104 11.3644 9.17342 9.15003 1.35792 0.000721358 7.28366e-05 2.88609e-05
threshold=0.0052497358966706719 0.92149653308634183 4.0997000000000012 0.022832142857142891 43.466061584590371 0.9473846037144279 0.0026899353435687902 33.58807387597404 -0.45479127230983457 3.8626385000000005
decision_type=2 10 2 2 2 10 2 2 2 10
left_child=4 2 3 -2 6 -3 7 -1 -9 -10
right_child=1 5 -4 -5 -6 -7 -8 8 9 -11
leaf_value=-0.076461596416970229 0.18508034566654452 -0.06253328796824982 -0.035018676444225953 0.053175955282540328 0.038539392553664828 0.0425682129474826 -0.033740164365476812 -0.075718754567592639 -0.075548816503989438 -0.075325119519822181
leaf_weight=5.496849535033113 9.3445346169173735 9.5544382464140671 5.0364500526338807 5.7438697889447203 5.0894439164549103 8.546649079769848 5.0493857208639374 5.9483324009925189 5.0096781104803041 8.4213269874453527
leaf_count=186 84 270 140 50 133 160 181 253 227 425
internal_value=0 0.0425078 0.0923513 0.134867 -0.0530553 -0.0129083 -0.0686329 -0.0757154 -0.0755038 -0.0754086
internal_weight=0 38.2259 20.1249 15.0884 35.015 18.1011 29.9256 24.8762 19.3793 13.431
internal_count=2109 704 274 134 1405 430 1272 1091 905 652
is_linear=0
shrinkage=0.0737982


Tree=10
num_leaves=12
num_cat=0
split_feature=8 12 16 24 0 1 50 8 2 13 26
split_gain=26.9788 16.285 13.1772 20.8668 14.9612 9.00914 2.79964 1.33269 0.000647014 5.5529e-05 2.00673e-05
threshold=0.0052497358966706719 40.700443960969132 3.8030877500000004 3.6407500000000002 0.022910714285714263 44.325921941660283 -0.0076332358648072409 0.0025406849870731616 33.58807387597404 -0.45479127230983457 3.7242500000000005
decision_type=2 10 10 10 2 2 2 2 2 2 10
left_child=5 -2 3 -3 -5 7 -4 8 -1 -10 -11
right_child=1 2 6 4 -6 -7 -8 -9 9 10 -12
leaf_value=-0.076322279826558606 0.14670716442307635 -0.029862955658323254 -0.0029910394380156134 0.20204529137217467 0.032507343852919528 0.038709841517972819 -0.075867552544233441 -0.033875656840509277 -0.075579498234136164 -0.075412155337067382 -0.075221312612095761
leaf_weight=5.1624678336083951 6.3661331590265027 9.1167801450938004 5.0044345818459961 5.862110819667576 5.4893763400614262 5.075871178880333 6.734025852754713 5.0865334868431082 5.5356109291315141 5.0422092285007185 7.4115963187068701
leaf_count=186 79 105 162 27 54 128 277 190 253 247 401
internal_value=0 0.0388537 0.0175349 0.0532826 0.12006 -0.0518086 -0.0447983 -0.0680794 -0.075594 -0.075385 -0.0752986
internal_weight=0 38.5729 32.2067 20.4683 11.3515 33.3143 11.7385 28.2384 23.1519 17.9894 12.4538
internal_count=2109 704 625 186 81 1405 439 1277 1087 901 648
is_linear=0
shrinkage=0.0737982


Tree=11
num_leaves=11
num_cat=0
split_feature=8 31 51 1 1 43 8 2 25 13
split_gain=23.8386 14.0172 13.2698 12.3315 8.96889 8.22165 1.31848 0.000526427 5.17052e-05 6.93048e-06
threshold=0.0052497358966706719 0.92149653308634183 4.0393000000000008 26.652076439175378 44.819438676141026 3.8081037500000003 0.0024088026953913047 35.520167240531315 3.9192500000000003 -0.12001597041865207
decision_type=2 10 2 2 2 2 2 2 10 2
left_child=4 2 3 -2 6 -3 7 -1 -9 -10
right_child=1 5 -4 -5 -6 -7 -8 8 9 -11
leaf_value=-0.076082403109538593 0.062173316031497443 0.033352144461777831 0.01131531035665722 0.21594363364327496 0.040065552690239307 -0.067378022081665129 -0.033746348180226669 -0.075453950327889582 -0.075232605557297397 -0.075112576489664656
leaf_weight=5.8909088447690108 6.4594024885445851 9.738727720454337 9.3044047877192479 5.069371186196804 5.010292960330843 8.0696182157844287 5.0916760042309752 5.2371257282793513 5.0279220975935512 5.4702589325606752
leaf_count=233 62 120 173 39 122 310 199 255 277 319
internal_value=0 0.0357821 0.0768766 0.129788 -0.0505415 -0.0122924 -0.0675327 -0.0754873 -0.0752645 -0.0751701
internal_weight=0 38.6415 20.8332 11.5288 31.7282 17.8083 26.7179 21.6262 15.7353 10.4982
internal_count=2109 704 274 101 1405 430 1283 1084 851 596
is_linear=0
shrinkage=0.0737982


Tree=12
num_leaves=11
num_cat=0
split_feature=8 51 31 1 31 0 8 8 2 1
split_gain=21.0293 12.3484 14.9853 8.74404 8.26444 7.80024 5.56412 1.30858 0.000489609 3.44443e-05
threshold=0.0052497358966706719 4.0993500000000012 0.92071595322533828 45.305472420280971 0.9473846037144279 0.023046428571428568 0.0095398446045031303 0.0023549328320202263 35.520167240531315 25.504234962829091
decision_type=2 2 10 2 10 2 2 2 2 2
left_child=3 2 5 7 -4 6 -2 8 -1 -10
right_child=1 -3 4 -5 -6 -7 -8 -9 9 -11
leaf_value=-0.075981581425189432 0.087655531401735917 -0.049600902524899973 -0.057728819065615923 0.039697378591583198 0.052635821989187988 0.034812246853499172 0.19589880684930897 -0.033477939640224254 -0.075073822754945355 -0.075304634329452502
leaf_weight=5.5604457287117937 5.2177950423210913 7.9008418321609488 7.0543504860252124 5.0196545533835879 7.7603533416986465 5.871176488697528 5.1283569596707821 5.0791658498346797 8.6522141396999341 5.9377384679391971
leaf_count=234 43 291 176 118 111 47 36 208 524 321
internal_value=0 0.0327677 0.053739 -0.0492561 8.32453e-05 0.102754 0.141309 -0.0669542 -0.0753923 -0.0751678
internal_weight=0 38.9329 31.032 30.2492 14.8147 16.2173 10.3462 25.2296 20.1504 14.59
internal_count=2109 704 413 1405 287 126 79 1287 1079 845
is_linear=0
shrinkage=0.0737982


Tree=13
num_leaves=10
num_cat=0
split_feature=8 12 16 24 1 8 23 2 1
split_gain=18.5984 11.5819 11.0351 15.1311 8.09959 1.29608 0.958762 0.00039171 2.72265e-05
threshold=0.0052497358966706719 42.835906125511919 3.8030877500000004 3.6493000000000007 45.305472420280971 0.002280823238182439 4.1158500000000009 35.520167240531315 25.504234962829091
decision_type=2 10 10 10 2 2 10 2 2
left_child=4 -2 3 -3 5 7 -4 -1 -9
right_child=1 2 6 -5 -6 -7 -8 8 -10
leaf_value=-0.075826345480692683 0.099468902574375725 -0.034171079456882442 -0.076478052264849064 0.099038127282311733 0.035435751731363825 -0.033154364493272588 -0.031433095025272056 -0.074982576586216904 -0.075196101718722139
leaf_weight=5.1595598561689355 9.8295407667756063 8.2951022852212244 5.2942661838605982 10.550991997122763 5.2008906453847876 5.0590841257944694 5.0073877982795238 7.9441925343126041 5.5065885707736015
leaf_count=233 115 93 188 74 118 217 234 517 320
internal_value=0 0.0301955 0.00683432 0.0404061 -0.0479528 -0.0662759 -0.0545828 -0.0752797 -0.07507
internal_weight=0 38.9773 29.1477 18.8461 28.8703 23.6694 10.3017 18.6103 13.4508
internal_count=2109 704 589 167 1405 1287 422 1070 837
is_linear=0
shrinkage=0.0737982


Tree=14
num_leaves=10
num_cat=0
split_feature=8 51 30 12 31 1 8 2 1
split_gain=16.4552 9.83922 12.0507 21.5612 13.0958 7.52013 1.28483 0.000298776 2.09292e-05
threshold=0.0052497358966706719 4.0993500000000012 0.94561156761398868 45.766322336588921 0.91915015026712055 45.305472420280971 0.0021932514517018528 35.97134062389037 25.360086912599986
decision_type=2 2 8 10 10 2 2 2 2
left_child=5 2 -2 -4 -5 6 7 -1 -9
right_child=1 -3 3 4 -6 -7 -8 8 -10
leaf_value=-0.075654710373094444 -0.027241213942951883 -0.048136602710970741 0.17256382862107661 0.093991130368642886 -0.045187225624716901 0.031761596046172562 -0.032773199844293797 -0.074896467092023855 -0.075092967610983191
leaf_weight=5.0116288075223663 8.8247032435610908 7.4975665351375929 7.9266892578452852 7.0839547514915449 7.6670076036825776 5.367482963949441 5.0314111141487947 7.1412386298179609 5.0321919154375792
leaf_count=246 113 291 81 34 185 118 226 500 315
internal_value=0 0.0278445 0.0459281 0.0744009 0.0216513 -0.0466324 -0.0655723 -0.0751751 -0.0749777
internal_weight=0 38.9999 31.5024 22.6777 14.751 27.584 22.2165 17.1851 12.1734
internal_count=2109 704 413 300 219 1405 1287 1061 815
is_linear=0
shrinkage=0.0737982


Tree=15
num_leaves=10
num_cat=0
split_feature=31 12 25 23 16 9 12 3 16
split_gain=14.6175 12.7161 14.4738 18.0967 6.85817 4.88177 1.65252 0.722337 0.00203052
threshold=0.92656805516226071 42.044217726678262 3.9653500000000004 4.0941500000000008 3.5881587500000003 -0.0028123228096502829 55.556894931894469 67.000300270242846 3.8057215000000002
decision_type=10 10 10 8 10 2 10 2 10
left_child=1 -1 3 -3 -2 -6 -4 8 -7
right_child=4 2 6 -5 5 7 -8 -9 -10
leaf_value=0.13071110777899062 0.035214447608947902 0.12993461885887189 -0.078174186797849515 -0.047842538583947311 0.0085375379045085961 -0.077422984046215115 -0.020885550791006 -0.04881915196270626 -0.075590208411446466
leaf_weight=6.0014379099011448 6.1406270861625663 8.2464394569396973 5.9343235380947572 5.0148694943636665 5.9922986589372185 5.0432425374165204 5.0979274976998568 8.1902806013822538 9.4816051181405765
leaf_count=73 64 50 226 122 206 176 221 443 528
internal_value=0 0.0345154 0.0107514 0.0627068 -0.0355722 -0.0507138 -0.0517015 -0.0663444 -0.0762266
internal_weight=0 30.295 24.2936 13.2613 34.8481 28.7074 11.0323 22.7151 14.5248
internal_count=2109 692 619 172 1417 1353 447 1147 704
is_linear=0
shrinkage=0.0737982


Tree=16
num_leaves=10
num_cat=0
split_feature=30 30 16 3 4 9 12 5 1
split_gain=13.2227 16.15 16.8263 10.2809 7.86586 3.44947 0.84272 0.621074 0.00978071
threshold=0.96578544280641199 0.96431894718916633 3.7019640000000003 23.09470190826087 74.076926489599131 -0.00018824121496902976 49.885520899512166 64.801046192870515 34.236749358353258
decision_type=10 8 10 2 2 2 10 10 2
left_child=1 2 4 -4 5 -1 -2 8 -5
right_child=6 -3 3 7 -6 -7 -8 -9 -10
leaf_value=0.050811056107889503 -0.042960113987549828 0.12623457065223237 0.052227785564438529 -0.075584478245074901 0.10866587131557445 -0.03313559096143584 -0.078848321277750558 -0.050705137825906181 -0.080018766116605369
leaf_weight=5.6473441421985635 6.0255142292007795 6.2594124693423501 5.059783615171912 5.9087684229016322 7.7917337333783498 5.0495094247162351 8.7210373999550921 8.1647188365459424 5.0026232386007905
leaf_count=73 273 145 159 305 58 81 462 414 139
internal_value=0 0.0155436 -0.000711381 -0.0412931 0.052266 0.0111836 -0.0641842 -0.0660988 -0.0776175
internal_weight=0 48.8839 42.6245 24.1359 18.4886 10.6969 14.7466 19.0761 10.9114
internal_count=2109 1374 1229 1017 212 154 735 858 444
is_linear=0
shrinkage=0.0737982


Tree=17
num_leaves=10
num_cat=0
split_feature=27 12 30 28 1 30 9 8 9
split_gain=12.1337 7.47403 18.3863 10.2644 7.18134 4.75879 3.5163 1.28293 0.000257086
threshold=1.0042153069483812 45.766322336588921 0.94638830022935438 1.0334402771825133 45.305472420280971 0.95078336715666556 0.0008389496673454948 0.0017201572154022769 -0.0015860636250003373
decision_type=8 10 8 8 2 10 2 2 2
left_child=4 2 -2 6 7 -5 -3 8 -1
right_child=1 3 -4 5 -6 -7 -8 -9 -10
leaf_value=-0.075444895672872853 -0.042085952347712868 -0.0025942739175528265 0.13028212572413597 -0.0043721282992472748 0.03322387485550362 0.090896054354586753 -0.083529262949348732 -0.031790837458708178 -0.074791976557926798
leaf_weight=5.0621173847466734 5.4087314456701252 5.0026437509804982 8.9428501287475228 5.2377442903816682 5.2811767235398284 6.2785944752395153 7.0343385050073266 5.0479512838646761 9.3521637441590446
leaf_count=280 76 213 96 59 118 31 217 274 745
internal_value=0 0.0233403 0.0653212 -0.00223968 -0.0430982 0.0475671 -0.0498922 -0.0638085 -0.0750213
internal_weight=0 37.9049 14.3516 23.5533 24.7434 11.5163 12.037 19.4622 14.4143
internal_count=2109 692 172 520 1417 90 430 1299 1025
is_linear=0
shrinkage=0.0737982


Tree=18
num_leaves=9
num_cat=0
split_feature=30 30 16 6 16 12 12 16
split_gain=11.3898 11.8554 12.9979 11.1351 8.71944 1.4834 0.801952 0.239348
threshold=0.96578544280641199 0.95919985550988629 3.80501975 5.4784629381695016 3.7019640000000003 56.331145968613981 49.885520899512166 3.9161495000000008
decision_type=10 10 10 10 8 10 10 10
left_child=1 3 -3 -1 -5 7 -2 -6
right_child=6 2 -4 4 5 -7 -8 -9
leaf_value=0.08650760764435475 -0.041905504444218707 0.13740274044925371 -0.0085889291990061088 0.031702351878218953 -0.082343445134877694 -0.031576092058426028 -0.078216116102029318 -0.060715387448971023
leaf_weight=5.574840451590716 5.800207535736261 7.5015063332393748 5.9601584617048502 9.2198650157079118 6.2809576317667979 8.2477273214608413 7.7239653207361698 5.0090598640963435
leaf_count=116 273 96 250 86 191 328 462 307
internal_value=0 0.0140674 0.0727649 -0.00894769 -0.0274523 -0.0553674 -0.0626433 -0.0727477
internal_weight=0 47.7941 13.4617 34.3325 28.7576 19.5377 13.5242 11.29
internal_count=2109 1374 346 1028 912 826 735 498
is_linear=0
shrinkage=0.0737982


Tree=19
num_leaves=9
num_cat=0
split_feature=31 12 22 24 15 9 3 16
split_gain=10.4192 10.1014 8.93034 8.74642 6.86071 5.01432 0.581609 0.0057931
threshold=0.9252244717221042 42.044217726678262 3.7969500000000003 3.9283500000000005 3.6263300000000003 -0.0028123228096502829 75.455246064075553 3.8161072500000004
decision_type=10 10 8 10 10 2 2 10
left_child=1 -1 -3 -4 -2 -6 7 -7
right_child=4 2 3 -5 5 6 -8 -9
leaf_value=0.11537179926845549 0.02655885085018838 0.092216488995306087 -0.078387307408899001 0.031371829266399857 0.0093889600214209952 -0.078431457499289869 -0.047077479659405772 -0.075292465762347743
leaf_weight=6.0396981453523066 8.5564643256366235 5.0794520517811206 7.4594413163140407 8.414130616001783 5.8829032015055445 5.0181528590619591 5.0037370892241588 8.8473962517455202
leaf_count=65 216 60 301 201 200 144 303 619
internal_value=0 0.0312848 0.00704673 -0.0202071 -0.0304066 -0.0500987 -0.0686452 -0.0764285
internal_weight=0 26.9927 20.953 15.8736 33.3087 24.7522 18.8693 13.8655
internal_count=2109 627 562 502 1482 1266 1066 763
is_linear=0
shrinkage=0.0737982


Tree=20
num_leaves=10
num_cat=0
split_feature=30 30 28 6 30 25 12 8 12
split_gain=9.96523 11.0632 10.9259 7.74332 8.02904 9.24075 3.41678 2.50688 0.828166
threshold=0.96578544280641199 0.96328237104810854 0.99353316010433312 5.4784629381695016 0.94561156761398868 3.8935500000000007 52.072100628173466 0.008971979307694616 49.885520899512166
decision_type=10 10 8 10 10 10 8 2 10
left_child=1 2 -1 -4 6 7 -5 -6 -2
right_child=8 -3 3 4 5 -7 -8 -9 -10
leaf_value=-0.076163857678471919 -0.039874735137453328 0.11594969933913306 0.096426131319424166 -0.080560249196762163 0.03518113180394232 -0.047107131029519418 0.00057615258673835725 0.10523832664669765 -0.078150102579117101
leaf_weight=8.1620767032727581 5.5031613633036596 5.060925484634935 5.8206012826412907 6.3665437037125239 5.1006143260747212 5.0158318001776925 5.083882950246335 6.118826612830162 6.9882881995290518
leaf_count=445 273 138 97 147 66 301 151 29 462
internal_value=0 0.012916 0.000401757 0.019053 0.0027862 0.0361619 -0.0445364 0.0733887 -0.0612877
internal_weight=0 46.7293 41.6684 33.5063 27.6857 16.2353 11.4504 11.2194 12.4914
internal_count=2109 1374 1236 791 694 396 298 95 735
is_linear=0
shrinkage=0.0737982


Tree=21
num_leaves=10
num_cat=0
split_feature=30 30 28 6 30 23 12 28 12
split_gain=8.97458 10.5076 10.1734 6.07504 6.97885 7.90465 3.27093 2.26079 0.842371
threshold=0.96578544280641199 0.96376819151997972 0.99353316010433312 5.4784629381695016 0.94561156761398868 4.0970000000000004 52.072100628173466 1.034671303374773 49.885520899512166
decision_type=10 10 8 10 10 10 8 8 10
left_child=1 2 -1 -4 6 7 -5 -6 -2
right_child=8 -3 3 4 5 -7 -8 -9 -10
leaf_value=-0.075976661876555898 -0.038288676945030922 0.11176107222648812 0.083194230297081312 -0.080072652581743814 0.033271374814809136 -0.041699276395961792 0.0005333937305669089 0.10058146152944815 -0.077880436180513671
leaf_weight=7.8587528215721241 5.3154280958697182 5.1092240801081052 6.2117880657315245 5.9482829589396724 5.1284392308443794 5.1898974925279608 5.0860795350745329 5.7811720818281183 6.5127730229869485
leaf_count=460 273 117 98 147 107 265 151 29 462
internal_value=0 0.0119366 -0.000441331 0.0173605 0.0022891 0.0332739 -0.0429188 0.06894 -0.0600885
internal_weight=0 46.3136 41.2044 33.3457 27.1339 16.0995 11.0344 10.9096 11.8282
internal_count=2109 1374 1257 797 699 401 298 136 735
is_linear=0
shrinkage=0.0737982


Tree=22
num_leaves=9
num_cat=0
split_feature=30 24 30 28 6 30 27 12
split_gain=8.13309 8.34392 12.2199 10.5266 6.0932 7.82697 3.69501 3.12549
threshold=0.96795685456542613 3.9622500000000005 0.96431894718916633 0.99339723862518015 5.4784629381695016 0.94561156761398868 1.0061248500261364 51.509262187240857
decision_type=10 10 10 8 10 10 10 8
left_child=1 2 3 -1 -5 7 -7 -6
right_child=-2 -3 -4 4 5 6 -8 -9
leaf_value=-0.076177656698537627 -0.068558567028660533 -0.075230553897925601 0.12412903081531122 0.092121474922223348 -0.079684598480385338 -0.006863083628239011 0.072080845155949827 0.0012705425428387136
leaf_weight=7.0179910678416482 8.6554913814179582 5.6410579485818735 5.3905407120473674 5.8032452827319529 5.3704015375114986 5.0215371344238511 9.0456885416060668 5.0299073690548548
leaf_count=382 618 396 100 76 140 150 104 143
internal_value=0 0.00912125 0.0202703 0.00525626 0.0241359 0.00801103 0.0439005 -0.0405322
internal_weight=0 48.3204 42.6793 37.2888 30.2708 24.4675 14.0672 10.4003
internal_count=2109 1491 1095 995 613 537 254 283
is_linear=0
shrinkage=0.0737982


Tree=23
num_leaves=9
num_cat=0
split_feature=30 30 28 20 30 12 20 5
split_gain=7.6401 9.0497 8.97987 4.99491 4.50463 5.81287 4.62839 0.834281
threshold=0.96578544280641199 0.96391043774573359 0.99353316010433312 4.013300000000001 0.94561156761398868 45.766322336588921 3.9602000000000008 43.520837369748868
decision_type=10 10 8 2 8 10 2 10
left_child=1 2 -1 4 -4 -6 -7 -2
right_child=7 -3 3 -5 5 6 -8 -9
leaf_value=-0.075705601737792186 -0.037532780504924895 0.10191716300070436 -0.012559504469833907 -0.04259085699370993 0.10624374842625431 -0.03195148790910958 0.066045463358788178 -0.078566541817638308
leaf_weight=7.2309242850169531 5.2991109411232156 5.2338519953191271 9.0247310991399008 6.519910037983208 6.5862676445394781 5.1695068869739753 5.3322206097654998 5.498544180765748
leaf_count=476 349 101 185 338 83 124 67 386
internal_value=0 0.0106815 -0.0012972 0.0151906 0.0296177 0.0518929 0.0178062 -0.0584286
internal_weight=0 45.0974 39.8636 32.6326 26.1127 17.088 10.5017 10.7977
internal_count=2109 1374 1273 797 459 274 191 735
is_linear=0
shrinkage=0.0737982


Tree=24
num_leaves=9
num_cat=0
split_feature=30 30 28 24 16 52 36 5
split_gain=6.88031 10.0928 8.43982 4.59536 3.85226 7.64455 5.01971 0.840891
threshold=0.96578544280641199 0.96419257802550473 0.99353316010433312 3.9622500000000005 4.0055200000000015 3.8377500000000002 3.8339000000000003 43.520837369748868
decision_type=10 10 8 8 8 2 2 10
left_child=1 2 -1 4 5 6 -4 -2
right_child=7 -3 3 -5 -6 -7 -8 -9
leaf_value=-0.075735596255515694 -0.035991655577833154 0.10869056415359266 0.0020545715203956955 -0.042899349764313283 0.070137803479893415 -0.051230563077867032 0.10138066819321813 -0.078263937309558579
leaf_weight=7.0551939271390429 5.1249405462294799 5.0022014901041976 6.2000539554283076 6.3773533357307306 7.8715202882885924 7.1447628042660645 5.0103832501918077 5.1263833125121891
leaf_count=484 349 91 74 253 176 242 54 386
internal_value=0 0.00990863 -0.00255068 0.0132858 0.0269479 0.00842618 0.0464473 -0.0571308
internal_weight=0 44.6615 39.6593 32.6041 26.2267 18.3552 11.2104 10.2513
internal_count=2109 1374 1283 799 546 370 128 735
is_linear=0
shrinkage=0.0737982


Tree=25
num_leaves=8
num_cat=0
split_feature=30 24 30 28 6 30 27
split_gain=6.34837 7.11431 7.66302 8.0221 5.05725 5.71753 3.21833
threshold=0.96795685456542613 3.9622500000000005 0.96431894718916633 0.99339723862518015 5.4784629381695016 0.94561156761398868 1.0061248500261364
decision_type=10 10 10 8 10 10 10
left_child=1 2 3 -1 -5 -6 -7
right_child=-2 -3 -4 4 5 6 -8
leaf_value=-0.075768086927645778 -0.066457992581828967 -0.075167246355541964 0.094136220242449498 0.079696961078910819 -0.038477034062384362 -0.011966146202735523 0.062228921016515878
leaf_weight=5.700227372813969 7.3164411541074506 5.0551486052572718 6.0751313786022356 6.1022449042648104 9.8815405853092688 5.0157393887639037 8.7185186846181733
leaf_count=382 618 396 100 76 283 150 104
internal_value=0 0.00749016 0.0175603 0.00442561 0.0198076 0.00433238 0.0351329
internal_weight=0 46.5486 41.4934 35.4183 29.718 23.6158 13.7343
internal_count=2109 1491 1095 995 613 537 254
is_linear=0
shrinkage=0.0737982


Tree=26
num_leaves=8
num_cat=0
split_feature=30 30 28 24 16 52 39
split_gain=5.8302 8.42764 6.99962 3.99708 3.14099 6.74858 3.88397
threshold=0.96578544280641199 0.96431894718916633 0.99353316010433312 3.9622500000000005 4.0055200000000015 3.8377500000000002 3.8199947666666669
decision_type=10 10 8 8 8 2 2
left_child=1 2 -1 4 5 6 -4
right_child=-2 -3 3 -5 -6 -7 -8
leaf_value=-0.075472505647418753 -0.055264819452032779 0.097575278747053365 0.0023582235155693789 -0.042470561712327791 0.061841956405791203 -0.050367941611124498 0.090304507202547485
leaf_weight=6.106965569779276 9.3855945500545186 5.1432031402364364 6.027224178425973 6.2183795548044136 8.0086370678618533 7.0013114735484114 5.0065666427835822
leaf_count=484 735 80 73 262 176 244 55
internal_value=0 0.00886648 -0.00302454 0.0106893 0.0233821 0.00630368 0.0422637
internal_weight=0 43.5123 38.3691 32.2621 26.0437 18.0351 11.0338
internal_count=2109 1374 1294 810 548 372 128
is_linear=0
shrinkage=0.0737982


Tree=27
num_leaves=8
num_cat=0
split_feature=8 1 12 15 25 28 8
split_gain=5.48102 7.57132 3.73781 6.17528 8.3308 4.49496 0.000199492
threshold=0.0030513577977612357 43.466061584590371 45.766322336588921 3.7843310000000003 3.9624000000000001 1.0114607977040808 -0.0071245284182290033
decision_type=2 2 10 10 10 10 2
left_child=1 6 5 -4 -5 -2 -1
right_child=2 -3 3 4 -6 -7 -8
leaf_value=-0.075183167390517003 0.078994765661928229 0.035228063548514946 -0.07278912503405352 0.067937761520053139 -0.038729191119584672 -0.0026933638075353839 -0.074539156792056763
leaf_weight=5.037912139669058 8.0554318912327272 5.0361005058512083 5.6337805949151543 8.3609894309192878 7.6236891341395667 6.7365526733919969 5.4571236041374513
leaf_count=435 106 133 104 93 433 122 683
internal_value=0 -0.0391551 0.0132073 -0.00635153 0.0170643 0.0417924 -0.0748483
internal_weight=0 15.5311 36.4104 21.6185 15.9847 14.792 10.495
internal_count=2109 1251 858 630 526 228 1118
is_linear=0
shrinkage=0.0737982


Tree=28
num_leaves=7
num_cat=0
split_feature=30 24 3 16 16 4
split_gain=5.0764 5.32707 6.20562 6.05905 4.16038 3.22262
threshold=0.96795685456542613 3.9622500000000005 22.75590687264631 3.7254730000000005 3.6648027500000002 55.825279181910865
decision_type=10 8 2 10 8 2
left_child=1 2 -1 4 -4 -5
right_child=-2 -3 3 5 -6 -7
leaf_value=0.08103750222761659 -0.064463098351984341 -0.049165687718328736 -0.010911669777101632 -0.0028188193333502161 0.063624036046262752 -0.076749686319850186
leaf_weight=6.9197127907536915 6.2901036445982745 7.7764572123996905 6.9462763979099753 7.6169368326663953 9.8786231223493797 5.551340005826205
leaf_count=155 618 461 111 329 92 343
internal_value=0 0.00634624 0.018041 0.00350707 0.0328515 -0.0339858
internal_weight=0 44.6893 36.9129 29.9932 16.8249 13.1683
internal_count=2109 1491 1030 875 203 672
is_linear=0
shrinkage=0.0737982


Tree=29
num_leaves=8
num_cat=0
split_feature=8 1 3 25 15 12 16
split_gain=4.79296 7.22798 3.40131 5.18738 5.2587 5.86814 2.46048
threshold=0.0030513577977612357 44.819438676141026 18.913697704672153 3.9993500000000006 3.7843310000000003 45.766322336588921 3.8042407500000004
decision_type=2 2 2 10 10 10 8
left_child=1 -1 -2 4 5 -4 -6
right_child=2 -3 3 -5 6 -7 -8
leaf_value=-0.074817905399958043 0.06867885475622082 0.03412971477001682 0.035665347097427219 -0.04499510930733943 0.097603542419252495 -0.07070080474767898 0.025449931560560718
leaf_weight=9.7238294570706767 5.0191093501634887 5.0330310333520165 6.2923714136704856 8.7133583221584541 5.0237676342949245 5.1259314529597759 5.2782096685841688
leaf_count=1129 88 122 76 449 50 103 92
internal_value=0 -0.0376598 0.0123919 0.0031091 0.0224067 -0.0120848 0.0606357
internal_weight=0 14.7569 35.4527 30.4336 21.7203 11.4183 10.302
internal_count=2109 1251 858 770 321 179 142
is_linear=0
shrinkage=0.0737982


Tree=30
num_leaves=8
num_cat=0
split_feature=28 12 24 30 12 28 15
split_gain=4.58067 4.48631 6.95143 4.19733 7.80437 5.61917 2.13245
threshold=0.99353316010433312 37.470780889846843 3.9390000000000005 0.94561156761398868 45.766322336588921 0.99655981984211617 3.7747120000000005
decision_type=8 10 8 10 10 10 10
left_child=6 -2 3 -3 -5 -6 -1
right_child=1 2 -4 4 5 -7 -8
leaf_value=-0.010162024541622027 0.074693133356986616 -0.027376641209280451 -0.076334896552513132 0.10358170193135254 0.047667734952171095 -0.048654212407365852 -0.075970401501063323
leaf_weight=5.0879760584793967 5.0178218847140661 8.8576396643184143 5.458161443937569 6.0311459125950959 7.0030586821958405 6.2353739547543228 5.6702828067354858
leaf_count=276 85 234 401 105 208 268 532
internal_value=0 0.00960582 -0.000118549 0.0146714 0.0339997 0.00229957 -0.0448472
internal_weight=0 38.6032 33.5854 28.1272 19.2696 13.2384 10.7583
internal_count=2109 1301 1216 815 581 476 808
is_linear=0
shrinkage=0.0737982


Tree=31
num_leaves=7
num_cat=0
split_feature=1 27 30 9 30 33
split_gain=4.42766 4.61819 5.27121 5.46032 3.61735 3.31033
threshold=26.652076439175378 0.99532682564806541 0.95891848544352454 0.00087185587149954575 0.95606637624635626 4.0234500000000013
decision_type=2 8 10 2 8 2
left_child=4 -2 5 -4 -1 -3
right_child=1 2 3 -5 -6 -7
leaf_value=0.007618319980707642 -0.037642356052374412 0.028345197899039391 0.11075173793172298 0.0081030813329861055 -0.062500086590114079 -0.04658668352841322
leaf_weight=6.869691536761823 7.3316404165234408 7.7584474664181489 6.430385844781993 5.0299536571837962 9.6156952027231437 5.4780940157361329
leaf_count=319 437 127 96 112 862 156
internal_value=0 0.0137897 0.029058 0.0656991 -0.0332808 -0.00266622
internal_weight=0 32.0285 24.6969 11.4603 16.4854 13.2365
internal_count=2109 928 491 208 1181 283
is_linear=0
shrinkage=0.0737982


Tree=32
num_leaves=8
num_cat=0
split_feature=30 23 28 0 21 29 1
split_gain=4.15086 3.97612 7.00085 4.10178 7.5756 5.51413 3.99405
threshold=0.96795685456542613 3.7208000000000006 0.99188924313193982 0.023128571428571488 4.0567000000000002 0.96398042556167962 26.652076439175378
decision_type=10 8 8 2 8 10 2
left_child=1 -1 -3 4 6 -5 -4
right_child=-2 2 3 5 -6 -7 -8
leaf_value=0.065094938616266057 -0.062534817867877568 -0.076040729075486493 0.027657181355476061 0.017916472763335051 -0.03001341614163312 -0.077370764766534525 0.11692961200184479
leaf_weight=5.3600453431718043 5.4856078196316949 5.9788167490623882 5.4509075172245556 8.6723708552308363 6.1570257782004765 5.3466003360226741 5.4667984982952476
leaf_count=72 618 477 127 209 276 273 57
internal_value=0 0.00568384 -0.00290598 0.0111567 0.0354438 -0.0184245 0.0723584
internal_weight=0 42.4326 37.0725 31.0937 17.0747 14.019 10.9177
internal_count=2109 1491 1419 942 460 482 184
is_linear=0
shrinkage=0.0737982


Tree=33
num_leaves=8
num_cat=0
split_feature=30 12 24 20 30 16 30
split_gain=3.7777 3.5995 5.96994 4.81366 5.11329 5.6357 3.04137
threshold=0.96795685456542613 37.8209481587241 3.9390000000000005 3.9358000000000004 0.96431894718916633 3.7254730000000005 0.94661536352476283
decision_type=10 10 8 2 10 8 10
left_child=1 -1 3 4 5 6 -3
right_child=-2 2 -4 -5 -6 -7 -8
leaf_value=0.062359440594705211 -0.061591452724925909 -0.029559246788001314 -0.07585328477568444 0.059990820945726359 0.055165406334975346 -0.071636271326730616 0.051714487063131927
leaf_weight=5.2593242498114696 5.1705144068691871 5.0285517186857849 5.239210638916119 7.6867190003395072 5.4945143940858534 8.1547458693385106 5.0019699726253748
leaf_count=81 618 69 485 203 93 504 56
internal_value=0 0.00527064 -0.00293159 0.00924866 -0.0072228 -0.0260728 0.0109699
internal_weight=0 41.865 36.6057 31.3665 23.6798 18.1853 10.0305
internal_count=2109 1491 1410 925 722 629 125
is_linear=0
shrinkage=0.0737982


Tree=34
num_leaves=8
num_cat=0
split_feature=31 52 27 37 16 9 3
split_gain=3.51332 4.79404 5.22842 3.46852 3.09465 2.98686 1.01823
threshold=0.92656805516226071 3.8248000000000002 1.0056888285138947 4.0118333333333336 3.5881587500000003 -0.0028123228096502829 63.840500656906727
decision_type=10 2 8 2 10 2 2
left_child=1 -1 -3 -4 -2 -6 -7
right_child=4 2 3 -5 5 6 -8
leaf_value=0.080343846057975163 0.028115923772012132 -0.058350342329460375 0.059342139085543609 -0.019737540697598976 0.0074417796430566079 -0.075859321882738071 -0.032396936510872498
leaf_weight=5.2220583949238089 5.0697152465581921 5.7126368086319443 7.3603177820332331 5.1232975875027478 5.5674474886618599 7.0936375325545633 5.008459038566798
leaf_count=59 64 412 77 144 206 651 496
internal_value=0 0.018015 0.000127575 0.0268877 -0.0227099 -0.0372927 -0.0578724
internal_weight=0 23.4183 18.1963 12.4836 22.7393 17.6695 12.1021
internal_count=2109 692 633 221 1417 1353 1147
is_linear=0
shrinkage=0.0737982


Tree=35
num_leaves=7
num_cat=0
split_feature=30 30 6 16 24 6
split_gain=3.31122 4.74683 3.71607 3.91681 5.03017 1.39295
threshold=0.96578544280641199 0.96431894718916633 5.4784629381695016 3.7019640000000003 3.6407500000000002 54.130642819320663
decision_type=10 10 10 10 10 8
left_child=1 2 -1 4 -4 -5
right_child=-2 -3 3 5 -6 -7
leaf_value=0.042049597763488024 -0.048962580706466863 0.071602065574895429 -0.038681561702558258 -0.076727601350084412 0.047846907043976893 -0.02417164677988403
leaf_weight=7.4474247747566542 6.9230789591092607 5.2615491747856131 6.8200576812960225 5.5025531165301773 7.8941589444875717 5.4835789802018562
leaf_count=138 735 80 154 394 93 515
internal_value=0 0.00648423 -0.00385193 -0.0171532 0.00774085 -0.050495
internal_weight=0 38.4093 33.1478 25.7003 14.7142 10.9861
internal_count=2109 1374 1294 1156 247 909
is_linear=0
shrinkage=0.0737982


Tree=36
num_leaves=7
num_cat=0
split_feature=28 12 22 30 12 28
split_gain=3.17084 2.97718 4.24442 3.66636 5.94927 5.00748
threshold=0.99353316010433312 37.470780889846843 3.9776000000000002 0.94561156761398868 45.766322336588921 0.99655981984211617
decision_type=8 10 8 10 10 10
left_child=-1 -2 3 -3 -5 -6
right_child=1 2 -4 4 5 -7
leaf_value=-0.041057533396367925 0.060421496158574575 -0.030943181303737723 -0.061527584096877426 0.093102947527718152 0.044675314344961616 -0.050479266860153742
leaf_weight=9.0010645529255253 5.0562778664752832 7.6606747312471333 5.1890186034142962 5.5958450390026 6.5807348834350687 5.5540353776887059
leaf_count=808 85 185 452 103 202 274
internal_value=0 0.0079642 -0.000709312 0.0117196 0.0301525 0.00112345
internal_weight=0 35.6366 30.5803 25.3913 17.7306 12.1348
internal_count=2109 1301 1216 764 579 476
is_linear=0
shrinkage=0.0737982


Tree=37
num_leaves=6
num_cat=0
split_feature=1 5 27 1 0
split_gain=3.0153 3.69359 4.88561 2.88299 2.43721
threshold=24.615614463988116 5.4419893399074004 1.003623287056197 18.677248783244 0.024110714285714308
decision_type=2 10 10 2 2
left_child=3 -2 -3 -1 -4
right_child=1 2 4 -5 -6
leaf_value=0.0066036079271063275 0.048148973159552425 -0.05733106056111878 0.043239055538572491 -0.064802965449884703 -0.017453184895159266
leaf_weight=5.6064175700303149 9.7107617533765751 7.0061578059103367 8.4999244366772455 6.8316888886038214 6.2553294706158331
leaf_count=594 177 584 171 467 116
internal_value=0 0.0103026 -0.00658584 -0.0326168 0.0175092
internal_weight=0 31.4722 21.7614 12.4381 14.7553
internal_count=2109 1048 871 1061 287
is_linear=0
shrinkage=0.0737982


Tree=38
num_leaves=8
num_cat=0
split_feature=30 30 4 9 11 30 28
split_gain=2.88367 3.84024 3.01289 3.17487 3.20622 3.14351 1.25332
threshold=0.96578544280641199 0.96431894718916633 85.544252942410026 -0.0039800076049180122 -13.266865520974482 0.94661536352476283 1.0048179867267726
decision_type=10 10 2 2 2 10 10
left_child=1 2 3 -1 -5 -6 -7
right_child=-2 -3 -4 4 5 6 -8
leaf_value=0.037890436454012064 -0.047180728535292198 0.064560261016077258 0.048090966101772589 -0.076519211419191588 -0.054806647492562498 -0.010543611056238866 0.040394127136751105
leaf_weight=5.2468443200923529 6.4838948994874945 5.2623553974553934 5.1599868964403859 5.2094297432340744 5.561857676832008 5.5132353047374618 5.0316612247843295
leaf_count=150 735 80 91 372 232 284 165
internal_value=0 0.00617447 -0.00351083 -0.0135347 -0.0261927 -0.00991551 0.0137621
internal_weight=0 36.9854 31.723 26.563 21.3162 16.1068 10.5449
internal_count=2109 1374 1294 1203 1053 681 449
is_linear=0
shrinkage=0.0737982


Tree=39
num_leaves=6
num_cat=0
split_feature=28 24 3 0 31
split_gain=2.61948 2.68158 3.2794 4.283 3.28188
threshold=0.99353316010433312 3.9622500000000005 22.75590687264631 0.025232142857142852 0.9202363200795024
decision_type=8 8 2 2 10
left_child=-1 2 -2 4 -4
right_child=1 -3 3 -5 -6
leaf_value=-0.038838387208512667 0.066388161081893882 -0.041588128728811319 0.055088710801766187 -0.04467879026341761 -0.010440041373479179
leaf_weight=8.3451243592426163 5.6544039444997933 5.2044263742864123 8.8116762917488867 6.9868968641385427 7.8891528872773042
leaf_count=808 115 380 146 196 464
internal_value=0 0.00723192 0.0158911 0.00383721 0.0241342
internal_weight=0 34.5466 29.3421 23.6877 16.7008
internal_count=2109 1301 921 806 610
is_linear=0
shrinkage=0.0737982


Tree=40
num_leaves=7
num_cat=0
split_feature=1 5 16 1 8 3
split_gain=2.53378 2.95178 3.08325 2.66929 2.14192 1.41772
threshold=24.615614463988116 25.951051319296884 3.7254730000000005 18.677248783244 0.016699460116732807 82.192922413498039
decision_type=2 10 10 2 2 2
left_child=3 4 5 -1 -2 -3
right_child=1 2 -4 -5 -6 -7
leaf_value=0.0074284199540544131 0.055506442248742724 0.040369295665114845 -0.054047282286277774 -0.063501698266509199 -0.0027932990061233548 -0.014837869867421867
leaf_weight=5.3355745740700495 9.0884103321004677 5.0337754033971596 6.0340123290661714 6.3029167801141739 5.5146427447907618 5.099981740815565
leaf_count=594 254 101 540 467 82 71
internal_value=0 0.00944 -0.0122828 -0.0309843 0.0334903 0.0125854
internal_weight=0 30.7708 16.1678 11.6385 14.6031 10.1338
internal_count=2109 1048 712 1061 336 172
is_linear=0
shrinkage=0.0737982


Tree=41
num_leaves=7
num_cat=0
split_feature=30 30 4 6 6 11
split_gain=2.50113 3.24769 2.54133 2.6764 2.24127 1.3206
threshold=0.96578544280641199 0.96431894718916633 85.544252942410026 5.4784629381695016 54.130642819320663 10.437548880889622
decision_type=10 10 2 8 10 2
left_child=1 2 3 -1 5 -5
right_child=-2 -3 -4 4 -6 -7
leaf_value=0.029570699735146689 -0.045324570283641764 0.05958340711138424 0.044326886118241857 -0.076402302923234591 0.0014656971586130825 -0.02448266481186466
leaf_weight=6.1736578920390519 6.0899890649598083 5.2289809854701153 5.0863781401421866 5.0254541696049291 8.77499285712838 5.6878151420969516
leaf_count=131 735 80 91 324 560 188
internal_value=0 0.00581577 -0.00332783 -0.0127733 -0.0261874 -0.0488375
internal_weight=0 35.9773 30.7483 25.6619 19.4883 10.7133
internal_count=2109 1374 1294 1203 1072 512
is_linear=0
shrinkage=0.0737982


Tree=42
num_leaves=7
num_cat=0
split_feature=28 24 49 28 17 31
split_gain=2.32823 2.5306 2.94284 5.38274 2.30478 2.07176
threshold=0.99353316010433312 3.9622500000000005 0.028664234998439845 1.0082248256709598 4.0207500000000005 0.91613619489116738
decision_type=8 8 2 8 2 10
left_child=-1 2 3 -2 -5 -4
right_child=1 -3 5 4 -6 -7
leaf_value=-0.037533387145312479 0.083379786136278097 -0.041269100569158411 0.016447122431341783 -0.028067451720486882 0.038053332768331186 -0.050483711335718794
leaf_weight=7.9217169261537483 7.0873200464993777 5.0494799816515288 5.0749025009572488 6.367841898929326 5.2284291898831725 5.0005229490343481
leaf_count=808 331 380 58 256 143 133
internal_value=0 0.00691555 0.0153758 0.0327116 0.00174453 -0.0167712
internal_weight=0 33.8085 28.759 18.6836 11.5963 10.0754
internal_count=2109 1301 921 730 399 191
is_linear=0
shrinkage=0.0737982


Tree=43
num_leaves=7
num_cat=0
split_feature=30 30 4 23 26 23
split_gain=2.25683 2.6733 2.20835 2.35875 2.6264 1.90491
threshold=0.96578544280641199 0.96431894718916633 85.544252942410026 4.1346500000000015 3.5354000000000005 4.0828000000000007
decision_type=10 10 2 10 8 10
left_child=1 2 3 4 -1 -6
right_child=-2 -3 -4 -5 5 -7
leaf_value=0.0073896141621228499 -0.043833992448940227 0.054179361199754944 0.041530628512641277 0.033256831543134316 -0.078155956922320163 -0.017829626781604116
leaf_weight=8.7138872444629758 5.8744459599256507 5.2463091863319269 5.0753281810320905 5.0531797285657367 5.4139492248650622 6.0211211224086583
leaf_count=104 735 80 91 469 453 177
internal_value=0 0.00554506 -0.00288202 -0.011826 -0.0231324 -0.0463912
internal_weight=0 35.5238 30.2775 25.2021 20.149 11.4351
internal_count=2109 1374 1294 1203 734 630
is_linear=0
shrinkage=0.0737982


Tree=44
num_leaves=6
num_cat=0
split_feature=15 31 9 31 12
split_gain=2.15827 4.05785 2.98443 2.87514 3.00409
threshold=3.6263300000000003 0.92149653308634183 -0.0020257228751711285 0.89522527112599193 62.292922430815736
decision_type=8 10 2 10 8
left_child=-1 3 -3 4 -2
right_child=1 2 -4 -5 -6
leaf_value=0.036919596164219276 -0.047163150013413348 -0.00079651561495794766 -0.067046147147923021 0.046813351741226451 0.029434260046272094
leaf_weight=6.6947502272669217 5.8779311676044026 6.6519478799309555 8.3542677828809246 8.147052113665266 5.3055333639495084
leaf_count=217 136 281 1026 365 84
internal_value=0 -0.00888513 -0.037679 0.0134675 -0.0108247
internal_weight=0 34.3367 15.0062 19.3305 11.1835
internal_count=2109 1892 1307 585 220
is_linear=0
shrinkage=0.0737982


Tree=45
num_leaves=6
num_cat=0
split_feature=3 16 0 15 29
split_gain=2.1836 5.14927 3.29443 3.40191 0.364513
threshold=22.75590687264631 3.8030877500000004 0.025232142857142852 3.7843310000000003 0.97405345380910668
decision_type=2 10 2 10 8
left_child=-1 2 3 -2 -3
right_child=1 4 -4 -5 -6
leaf_value=0.031006729405398198 -0.0056336651210247904 -0.064281371138509319 -0.037282225633540916 0.064162430875472076 -0.037184518734946777
leaf_weight=8.8654509666375798 7.6907569409813785 5.7863268437795314 5.6096267097163937 7.5239919719751924 5.0752533505437905
leaf_count=305 237 562 148 104 753
internal_value=0 -0.0104268 0.0110587 0.0288819 -0.0516199
internal_weight=0 31.686 20.8244 15.2147 10.8616
internal_count=2109 1804 489 341 1315
is_linear=0
shrinkage=0.0737982


Tree=46
num_leaves=7
num_cat=0
split_feature=24 22 22 20 15 27
split_gain=2.03688 2.77261 3.0429 3.40306 5.18665 2.59598
threshold=3.9622500000000005 3.9326500000000002 3.7969500000000003 3.7874500000000002 3.6263300000000003 1.0056888285138947
decision_type=8 8 10 2 10 8
left_child=1 2 3 4 -1 -4
right_child=-2 -3 5 -5 -6 -7
leaf_value=0.034482740560270453 -0.043485100896394888 0.055971074116952735 -0.069744560608202 0.059431643197655343 -0.064192243863980272 0.00042674086214625499
leaf_weight=6.7751141716726178 5.3971016117138779 5.0200887561077243 5.4850137672619868 6.2786110593006006 5.0736624542623758 6.0254452188964942
leaf_count=217 503 287 568 111 298 125
internal_value=0 0.00525375 -0.0033368 0.015506 -0.00777002 -0.0330116
internal_weight=0 34.6579 29.6378 18.1274 11.8488 11.5105
internal_count=2109 1606 1319 626 515 693
is_linear=0
shrinkage=0.0737982


Tree=47
num_leaves=6
num_cat=0
split_feature=3 16 0 22 29
split_gain=1.93757 4.49372 2.89837 2.86191 0.342459
threshold=22.75590687264631 3.8030877500000004 0.025232142857142852 3.7216000000000005 0.9733341778338388
decision_type=2 10 2 10 8
left_child=-1 2 3 -2 -3
right_child=1 4 -4 -5 -6
leaf_value=0.028988943389818899 -0.0036747110538313164 -0.063070453048235511 -0.035978368125299802 0.061034626059022136 -0.036111981149284773
leaf_weight=8.9195670674089325 7.9099564380012506 5.2543452427489656 5.4776702370727426 7.0310506925452501 5.0164324563229465
leaf_count=305 240 537 148 101 778
internal_value=0 -0.0100867 0.00994154 0.0267767 -0.0499035
internal_weight=0 30.6895 20.4187 14.941 10.2708
internal_count=2109 1804 489 341 1315
is_linear=0
shrinkage=0.0737982


Tree=48
num_leaves=7
num_cat=0
split_feature=30 2 23 31 30 4
split_gain=1.86227 2.4412 2.42211 2.37561 2.74353 0.736718
threshold=0.96578544280641199 37.203131962569131 4.0941500000000008 0.92071595322533828 0.93994106846031567 53.026545912476656
decision_type=10 2 10 10 10 2
left_child=1 -1 3 4 -3 -5
right_child=-2 2 -4 5 -6 -7
leaf_value=0.049103760849499668 -0.041380739589130217 -0.0045464886412359242 -0.040998442766332514 0.0032079149048653702 0.069733546829723159 -0.036686804327279048
leaf_weight=5.7305172863416365 5.4214957308722651 5.37486859504134 7.1016224219929418 5.0031211021123436 5.4579950077459216 5.0812423689058051
leaf_count=229 735 88 544 184 100 229
internal_value=0 0.00521604 -0.00376003 0.0088828 0.0328785 -0.016894
internal_weight=0 33.7494 28.0188 20.9172 10.8329 10.0844
internal_count=2109 1374 1145 601 188 413
is_linear=0
shrinkage=0.0737982


Tree=49
num_leaves=6
num_cat=0
split_feature=15 31 31 12 9
split_gain=1.87363 2.88281 2.47966 2.59376 2.47528
threshold=3.6263300000000003 0.92149653308634183 0.89522527112599193 62.292922430815736 -0.0020257228751711285
decision_type=8 10 10 8 2
left_child=-1 2 3 -2 -3
right_child=1 4 -4 -5 -6
leaf_value=0.034080000631262708 -0.046445754450334699 -0.0019012472348049455 0.042726895170045451 0.026105613162072248 -0.065047775845975903
leaf_weight=6.7720347824506453 5.7122857293579772 6.5495300381444403 7.5819038748741141 5.0617194874212155 6.9877645371016088
leaf_count=217 136 281 365 84 1026
internal_value=0 -0.00866052 0.0103933 -0.0123605 -0.0344966
internal_weight=0 31.8932 18.3559 10.774 13.5373
internal_count=2109 1892 585 220 1307
is_linear=0
shrinkage=0.0737982


Tree=50
num_leaves=5
num_cat=0
split_feature=1 5 27 50
split_gain=1.75934 2.24489 2.86016 2.00788
threshold=24.615614463988116 5.4419893399074004 1.003623287056197 0.0034849896706332655
decision_type=2 10 10 2
left_child=-1 -2 -3 -4
right_child=1 2 3 -5
leaf_value=-0.028054502236998118 0.036747045261145243 -0.051605704660324159 0.046120294180517919 -0.012445544251745273
leaf_weight=9.8290566998766717 9.8049012414412591 5.4913501843111616 5.4428013670258206 7.6964139109477401
leaf_count=1061 177 584 106 181
internal_value=0 0.00816423 -0.00687834 0.0118148
internal_weight=0 28.4355 18.6306 13.1392
internal_count=2109 1048 871 287
is_linear=0
shrinkage=0.0737982


Tree=51
num_leaves=7
num_cat=0
split_feature=24 22 22 31 6 7
split_gain=1.72206 2.42868 2.74471 2.8124 2.55854 2.05405
threshold=3.9622500000000005 3.9290500000000006 3.7969500000000003 0.92656805516226071 38.676391598711838 0.007912130535018715
decision_type=8 8 10 10 10 2
left_child=1 2 3 -1 -5 -4
right_child=-2 -3 5 4 -6 -7
leaf_value=0.059128436306451281 -0.041266089670422737 0.052403827865298146 -0.064300024023242322 0.025787244666208513 -0.042983949519343367 0.00046470784069312717
leaf_weight=5.3646816273685607 5.039019990945234 5.0042418109951532 5.4894711674423871 6.5318581190658715 5.3671805368503556 5.1871461241971701
leaf_count=86 503 291 555 204 336 134
internal_value=0 0.00505759 -0.00342234 0.0147675 -0.00523269 -0.0328346
internal_weight=0 32.9446 27.9403 17.2637 11.899 10.6766
internal_count=2109 1606 1315 626 540 689
is_linear=0
shrinkage=0.0737982


Tree=52
num_leaves=6
num_cat=0
split_feature=15 31 7 31 12
split_gain=1.655 2.54806 2.47881 1.92308 2.2718
threshold=3.6263300000000003 0.92149653308634183 0.0048499963112842446 0.89522527112599193 60.494473194909126
decision_type=8 10 2 10 8
left_child=-1 3 -3 4 -2
right_child=1 2 -4 -5 -6
leaf_value=0.032174244220476475 -0.043734788020318958 -0.0044796500187236831 -0.069535161551063887 0.037940882725643776 0.025088744638146844
leaf_weight=6.71017340151593 5.4664468821138188 7.2111164253437874 5.7200956713641062 7.5897751243319354 5.0024529215879747
leaf_count=217 130 910 397 365 90
internal_value=0 -0.00824969 -0.0332568 0.00965708 -0.0108482
internal_weight=0 30.9899 12.9312 18.0587 10.4689
internal_count=2109 1892 1307 585 220
is_linear=0
shrinkage=0.0737982


Tree=53
num_leaves=6
num_cat=0
split_feature=28 28 12 12 28
split_gain=1.58473 2.02889 2.16716 3.01929 1.95435
threshold=0.99353316010433312 1.0016589872567598 44.360361235756322 56.331145968613981 1.0138075119364649
decision_type=8 8 10 8 10
left_child=-1 -2 4 -4 -3
right_child=1 2 3 -5 -6
leaf_value=-0.033577235750594958 0.047537997979005521 0.053075465103922782 -0.057225182069192929 0.0097599753937661349 -0.010321564552470833
leaf_weight=6.6858518207445732 5.3138627096777808 5.549745171330871 6.7568465181393522 8.0080141260987148 5.0652959528379142
leaf_count=808 336 77 411 318 159
internal_value=0 0.00607225 -0.00260955 -0.0208945 0.0228236
internal_weight=0 30.6938 25.3799 14.7649 10.615
internal_count=2109 1301 965 729 236
is_linear=0
shrinkage=0.0737982


Tree=54
num_leaves=5
num_cat=0
split_feature=30 3 16 30
split_gain=1.68503 2.20309 3.24517 2.7748
threshold=0.96795685456542613 22.75590687264631 3.8030877500000004 0.95891848544352454
decision_type=8 2 10 10
left_child=1 -1 3 -3
right_child=-2 2 -4 -5
leaf_value=0.039843454083252364 -0.036357388026503172 -0.011823618661938425 -0.044148594741120518 0.051947641186303774
leaf_weight=7.8327693111496073 6.1231031309580422 9.0858424031175691 7.814422740135341 6.2874677346553645
leaf_count=216 683 193 922 95
internal_value=0 0.00600507 -0.00542546 0.0142579
internal_weight=0 31.0205 23.1877 15.3733
internal_count=2109 1426 1210 288
is_linear=0
shrinkage=0.0737982


Tree=55
num_leaves=6
num_cat=0
split_feature=30 2 16 0 10
split_gain=1.48002 1.87995 2.16691 2.36507 0.406237
threshold=0.96795685456542613 37.203131962569131 3.8026877500000005 0.025289285714285827 -25.198226395409389
decision_type=8 2 10 2 2
left_child=1 -1 3 4 -3
right_child=-2 2 -4 -5 -6
leaf_value=0.04347602650929714 -0.034575572551067017 0.020222722304117143 -0.031840133368606284 -0.023850284418578154 0.049907536352575811
leaf_weight=5.7883603685768348 5.9694772944785646 5.0357425373513243 9.135518324445 5.8989404099993399 5.007319439668211
leaf_count=247 683 110 894 109 66
internal_value=0 0.00556688 -0.00318325 0.0132385 0.0350231
internal_weight=0 30.8659 25.0775 15.942 10.0431
internal_count=2109 1426 1179 285 176
is_linear=0
shrinkage=0.0737982


Tree=56
num_leaves=5
num_cat=0
split_feature=1 8 6 9
split_gain=1.43145 5.63694 1.2429 3.7629
threshold=45.305472420280971 0.0030513577977612357 24.197325189186934 0.00078127104146776514
decision_type=2 2 10 2
left_child=1 -1 -3 -4
right_child=-2 2 3 -5
leaf_value=-0.075084524751369092 0.024873321476698303 -0.015914166389334395 0.071286463934362013 -0.0077992233911879953
leaf_weight=5.6290353337535661 8.8894709926098567 7.8564719222486046 5.1181722554611033 9.1061952651943994
leaf_count=1133 200 256 215 305
internal_value=0 -0.0091609 0.00764491 0.0206572
internal_weight=0 27.7099 22.0808 14.2244
internal_count=2109 1909 776 520
is_linear=0
shrinkage=0.0737982


Tree=57
num_leaves=6
num_cat=0
split_feature=12 23 22 20 24
split_gain=1.44324 1.98077 2.76568 1.74399 2.5947
threshold=37.470780889846843 3.7208000000000006 3.7216000000000005 3.8498500000000004 3.9283500000000005
decision_type=10 8 10 2 10
left_child=-1 -2 -3 -4 -5
right_child=1 2 3 4 -6
leaf_value=0.034294087290497023 0.031069046155910218 -0.064927537191075579 0.033089121445017307 -0.054256292964146441 0.0088357736851120659
leaf_weight=5.4088072610320514 5.994028652203272 5.053788288380022 5.1685815533855957 5.9694973606383419 8.7587665684986842
leaf_count=150 195 239 235 637 653
internal_value=0 -0.00702447 -0.0161759 -0.00379299 -0.016736
internal_weight=0 30.9447 24.9506 19.8968 14.7283
internal_count=2109 1959 1764 1525 1290
is_linear=0
shrinkage=0.0737982


Tree=58
num_leaves=6
num_cat=0
split_feature=51 17 22 31 6
split_gain=1.33452 2.46644 3.20247 2.23978 2.2652
threshold=4.0957000000000008 4.0270000000000001 3.7969500000000003 0.92656805516226071 38.676391598711838
decision_type=2 2 10 10 10
left_child=1 2 3 -1 -5
right_child=-2 -3 -4 4 -6
leaf_value=0.05262981991328311 -0.032041939779728169 0.046960949100634655 -0.046839570060396643 0.023556816704766576 -0.042636318116299289
leaf_weight=5.19389869319276 6.1898527367738998 6.2198515759082502 7.0738719977671272 6.3411120242672023 5.0642805767711252
leaf_count=86 594 162 727 204 336
internal_value=0 0.00560536 -0.00526035 0.0124589 -0.0058346
internal_weight=0 29.893 23.6732 16.5993 11.4054
internal_count=2109 1515 1353 626 540
is_linear=0
shrinkage=0.0737982


Tree=59
num_leaves=6
num_cat=0
split_feature=28 28 4 9 50
split_gain=1.33263 1.9752 1.6281 2.78651 1.65295
threshold=0.99353316010433312 1.002882598290298 63.843812299038767 -0.0044021482001998053 0.0087947714103255876
decision_type=8 8 2 2 2
left_child=-1 -2 3 -3 -4
right_child=1 2 4 -5 -6
leaf_value=-0.03191778961582354 0.043081600608605969 0.018793394983660516 0.045386115014456115 -0.053161407768124648 -0.01096873910079151
leaf_weight=6.2029162039980283 6.1084198758471784 5.0513611007481831 5.434876383864319 6.9832038693130016 5.9245288736419752
leaf_count=808 368 128 237 445 123
internal_value=0 0.00571273 -0.00404469 -0.0229593 0.0159941
internal_weight=0 29.5024 23.394 12.0346 11.3594
internal_count=2109 1301 933 573 360
is_linear=0
shrinkage=0.0737982


Tree=60
num_leaves=6
num_cat=0
split_feature=30 3 0 16 25
split_gain=1.37908 1.87338 2.85343 2.08844 0.878829
threshold=0.96795685456542613 22.75590687264631 0.025232142857142852 3.8030877500000004 3.8216500000000004
decision_type=8 2 2 10 10
left_child=1 -1 3 4 -3
right_child=-2 2 -4 -5 -6
leaf_value=0.036602282298961133 -0.034289327665419471 0.010065414768142556 -0.045498429721322967 -0.026003786655822415 0.053442835269502831
leaf_weight=7.8034624564461437 5.632791554904542 5.1406530144158769 6.738096577115356 5.1880531134083858 5.0353055223822594
leaf_count=216 683 98 359 669 84
internal_value=0 0.00551692 -0.00545821 0.012102 0.0315296
internal_weight=0 29.9056 22.1021 15.364 10.176
internal_count=2109 1426 1210 851 182
is_linear=0
shrinkage=0.0737982


Tree=61
num_leaves=5
num_cat=0
split_feature=5 15 24 12
split_gain=1.309 2.22917 2.30173 1.6462
threshold=65.91089199218942 3.6263300000000003 3.9283500000000005 41.889434006548996
decision_type=10 10 10 10
left_child=1 -1 3 -3
right_child=-2 2 -4 -5
leaf_value=0.044930240516673339 -0.023695864370516337 0.0055502560241426323 0.03223271956024186 -0.047619651271136945
leaf_weight=6.6105659196618971 9.7923321400885452 5.9565156286698784 6.1450491916621095 6.7823783903149888
leaf_count=143 818 152 404 592
internal_value=0 0.00804768 -0.00486353 -0.0227582
internal_weight=0 25.4945 18.8839 12.7389
internal_count=2109 1291 1148 744
is_linear=0
shrinkage=0.0737982


Tree=62
num_leaves=5
num_cat=0
split_feature=30 3 0 3
split_gain=1.24794 1.47664 2.66484 1.91447
threshold=0.96795685456542613 22.75590687264631 0.025232142857142852 60.122769530663994
decision_type=8 2 2 2
left_child=1 -1 3 -3
right_child=-2 2 -4 -5
leaf_value=0.032448300839329328 -0.033101030439181355 -0.019919495161783544 -0.044095076531964601 0.033605447789161323
leaf_weight=7.9537828628672314 5.4753230168134897 6.0550075946957831 6.5411792186205266 9.1224655276746471
leaf_count=216 683 376 359 475
internal_value=0 0.00524409 -0.00471861 0.0122518
internal_weight=0 29.6724 21.7187 15.1775
internal_count=2109 1426 1210 851
is_linear=0
shrinkage=0.0737982


Tree=63
num_leaves=6
num_cat=0
split_feature=28 28 4 9 50
split_gain=1.22523 1.80903 1.54506 2.46865 1.39955
threshold=0.99353316010433312 1.002882598290298 63.843812299038767 -0.004575271027945112 0.0087947714103255876
decision_type=8 8 2 2 2
left_child=-1 -2 3 -3 -4
right_child=1 2 4 -5 -6
leaf_value=-0.031156903556065072 0.041258954896228342 0.016663261049451174 0.042825937054418214 -0.051540463771991112 -0.0095889105185479884
leaf_weight=5.9666970909456714 6.1054070488316965 5.031788002932446 5.3844121213769522 6.7909337430028245 5.7235910241724923
leaf_count=808 368 124 237 449 123
internal_value=0 0.00556032 -0.00394459 -0.0225127 0.0158183
internal_weight=0 29.0361 22.9307 11.8227 11.108
internal_count=2109 1301 933 573 360
is_linear=0
shrinkage=0.0737982


Tree=64
num_leaves=5
num_cat=0
split_feature=51 6 0 31
split_gain=1.19143 1.93875 1.97886 1.79939
threshold=4.0957000000000008 38.676391598711838 0.022224999999999929 0.91815887585134581
decision_type=2 10 2 10
left_child=1 2 -1 -3
right_child=-2 3 -4 -5
leaf_value=0.048798433437807723 -0.030586663942743418 0.015364243964328273 -0.0032535052928764274 -0.040077794904688262
leaf_weight=7.9646723509067687 6.0023612019140264 5.6963767322013137 7.9462056563934311 7.2404925281298347
leaf_count=317 594 146 288 764
internal_value=0 0.00555149 0.0228027 -0.0156655
internal_weight=0 28.8477 15.9109 12.9369
internal_count=2109 1515 605 910
is_linear=0
shrinkage=0.0737982


Tree=65
num_leaves=5
num_cat=0
split_feature=30 23 8 0
split_gain=1.22369 1.5496 1.57297 1.97903
threshold=0.96795685456542613 3.7208000000000006 0.0030513577977612357 0.022778571428571381
decision_type=8 10 2 2
left_child=1 -1 -3 -4
right_child=-2 2 3 -5
leaf_value=0.042314131716737667 -0.03312590966879226 -0.035647767818068068 0.034215065749087746 -0.014473962291646263
leaf_weight=5.0849475169088718 5.3420473561272948 5.8966519435052787 8.5054126362083498 9.7680498969275487
leaf_count=72 683 706 344 304
internal_value=0 0.00528433 -0.00250605 0.00818842
internal_weight=0 29.2551 24.1701 18.2735
internal_count=2109 1426 1354 648
is_linear=0
shrinkage=0.0737982


Tree=66
num_leaves=5
num_cat=0
split_feature=1 3 11 29
split_gain=1.18801 2.59079 2.65463 2.03054
threshold=29.901179136138776 67.339021370824767 -31.210610365080331 0.97170784504258301
decision_type=2 2 2 8
left_child=3 2 -2 -1
right_child=1 -3 -4 -5
leaf_value=-0.055040031698870298 0.0040906000174610315 -0.02096485191637246 0.072764607775089224 0.0054271062100761328
leaf_weight=5.0205829869955751 7.831618239346426 8.8131241731462051 5.0373787155840564 7.6077373338048355
leaf_count=408 324 276 152 949
internal_value=0 0.00986126 0.030972 -0.0186125
internal_weight=0 21.6821 12.869 12.6283
internal_count=2109 752 476 1357
is_linear=0
shrinkage=0.0737982


Tree=67
num_leaves=5
num_cat=0
split_feature=28 49 28 20
split_gain=1.14634 1.55287 3.81243 1.76803
threshold=0.99353316010433312 0.030042890200117082 1.0082248256709598 3.9622500000000005
decision_type=8 2 8 2
left_child=-1 2 -2 -4
right_child=1 -3 3 -5
leaf_value=-0.030604984611756484 0.060578111015172284 -0.021518376766882348 0.015813685650540362 -0.039075286721272938
leaf_weight=5.7630175140220663 6.9892919691046762 8.2320914364536275 7.7433903340715897 5.4423017539083958
leaf_count=808 435 216 295 355
internal_value=0 0.00549331 0.016515 -0.00684135
internal_weight=0 28.4071 20.175 13.1857
internal_count=2109 1301 1085 650
is_linear=0
shrinkage=0.0737982


Tree=68
num_leaves=5
num_cat=0
split_feature=1 8 6 9
split_gain=1.19238 3.20071 1.48626 2.7438
threshold=44.325921941660283 0.0039697599614458585 24.197325189186934 0.00093026980237440992
decision_type=2 2 10 2
left_child=1 -1 -3 -4
right_child=-2 2 3 -5
leaf_value=-0.060893023391086598 0.02230448138007687 -0.022795163106519658 0.061502212047453597 -0.0083228932142418947
leaf_weight=5.1258857471984838 9.0895930802216736 6.9995168414898243 5.0960964530240727 7.6898055128986016
leaf_count=1177 216 234 213 269
internal_value=0 -0.0089223 0.00454196 0.0195074
internal_weight=0 24.9113 19.7854 12.7859
internal_count=2109 1893 716 482
is_linear=0
shrinkage=0.0737982


Tree=69
num_leaves=5
num_cat=0
split_feature=2 11 9 4
split_gain=1.07062 2.05351 2.63117 2.96688
threshold=37.203131962569131 -30.060271390072142 0.00078127104146776514 82.662090739963659
decision_type=2 2 2 2
left_child=-1 -2 -3 -4
right_child=1 2 3 -5
leaf_value=0.02671735104041224 -0.046393434511237779 0.035845309157478682 -0.048043034655662883 0.021883854234721511
leaf_weight=6.3597215829649931 5.682131840207151 8.3828699963632989 7.4165872122393903 5.9599593839375302
leaf_count=369 471 486 614 169
internal_value=0 -0.00688793 0.00342831 -0.0168869
internal_weight=0 27.4415 21.7594 13.3765
internal_count=2109 1740 1269 783
is_linear=0
shrinkage=0.0737982


Tree=70
num_leaves=5
num_cat=0
split_feature=30 2 23 31
split_gain=1.04619 1.39976 1.50509 1.80818
threshold=0.96795685456542613 37.203131962569131 4.0941500000000008 0.92071595322533828
decision_type=8 2 8 10
left_child=1 -1 3 -3
right_child=-2 2 -4 -5
leaf_value=0.037652295185194945 -0.031202878215207695 0.036434713861161698 -0.034428856425353489 -0.01269072999299036
leaf_weight=5.7087194388732341 5.1390240569016887 7.1245192050701069 6.1445247718365854 9.5507648897473683
leaf_count=247 683 131 597 451
internal_value=0 0.00496945 -0.00320666 0.00829813
internal_weight=0 28.5285 22.8198 16.6753
internal_count=2109 1426 1179 582
is_linear=0
shrinkage=0.0737982


Tree=71
num_leaves=5
num_cat=0
split_feature=15 31 16 9
split_gain=1.04941 1.86871 1.59034 3.54646
threshold=3.6263300000000003 0.94120597891971458 3.8935852500000006 0.0021125445515714236
decision_type=8 10 10 2
left_child=-1 2 3 -2
right_child=1 -3 -4 -5
leaf_value=0.02675457789204826 -0.036834455381274361 -0.043748503147651621 0.033093515898530164 0.0394246039486962
leaf_weight=6.2440126226283601 9.5456275882897952 5.8493895304272874 6.7066781213507047 5.0934727287385604
leaf_count=217 381 780 637 94
internal_value=0 -0.00679365 0.0033331 -0.0103012
internal_weight=0 27.1952 21.3458 14.6391
internal_count=2109 1892 1112 475
is_linear=0
shrinkage=0.0737982


Tree=72
num_leaves=5
num_cat=0
split_feature=5 15 24 12
split_gain=1.06825 1.72312 2.15653 1.27708
threshold=65.91089199218942 3.6263300000000003 3.9283500000000005 41.889434006548996
decision_type=10 10 10 10
left_child=1 -1 3 -3
right_child=-2 2 -4 -5
leaf_value=0.040312728333711752 -0.022139966674371649 0.002919300211097296 0.031754816540517192 -0.04574004430434922
leaf_weight=6.4296669702744138 9.0544771031127294 5.5989552810206096 5.9972008665790772 6.1796900102053769
leaf_count=143 818 152 404 592
internal_value=0 0.00757361 -0.00426839 -0.0226099
internal_weight=0 24.2055 17.7758 11.7786
internal_count=2109 1291 1148 744
is_linear=0
shrinkage=0.0737982


Tree=73
num_leaves=5
num_cat=0
split_feature=28 28 12 12
split_gain=0.955931 1.41323 1.34226 2.55072
threshold=0.99353316010433312 1.0016589872567598 44.360361235756322 56.331145968613981
decision_type=8 8 10 10
left_child=-1 -2 -3 -4
right_child=1 2 3 -5
leaf_value=-0.028858129573226057 0.040178142063822829 0.017536871575926215 -0.055664618750905198 0.010787332454216744
leaf_weight=5.4151545232743947 5.0898118251934674 9.8938317741267401 5.6538823411101458 7.0917623560526408
leaf_count=808 336 236 411 318
internal_value=0 0.0050411 -0.00285842 -0.0186903
internal_weight=0 27.7293 22.6395 12.7456
internal_count=2109 1301 965 729
is_linear=0
shrinkage=0.0737982


Tree=74
num_leaves=5
num_cat=0
split_feature=30 2 0 4
split_gain=0.994631 1.26637 1.41526 1.0565
threshold=0.96578544280641199 37.203131962569131 0.022778571428571381 65.030729530756034
decision_type=8 2 2 2
left_child=1 -1 -3 -4
right_child=-2 2 3 -5
leaf_value=0.036940735801808296 -0.026495660387287946 0.018671066320437003 -0.042588262008107551 0.0021064448377779771
leaf_weight=5.6172071222681579 6.4435719358152701 9.4396396583761106 5.6664173951721732 5.8582280080881901
leaf_count=224 800 569 306 210
internal_value=0 0.00582244 -0.00251545 -0.019869
internal_weight=0 26.5815 20.9643 11.5246
internal_count=2109 1309 1085 516
is_linear=0
shrinkage=0.0737982


Tree=75
num_leaves=5
num_cat=0
split_feature=52 29 13 28
split_gain=0.987054 1.90416 1.9548 1.3982
threshold=3.8226000000000004 0.95208582060657643 -0.050019021141767255 0.99562021449665361
decision_type=2 10 2 10
left_child=3 -2 -3 -1
right_child=1 2 -4 -5
leaf_value=-0.01655922069319973 0.020864017550144703 -0.062845227877622395 -0.0037177975349223678 0.032257155846973674
leaf_weight=5.0128785384586072 6.5713182050385539 5.1921199780772431 7.3645301758660926 8.8137097571743634
leaf_count=449 148 632 734 146
internal_value=0 -0.0113225 -0.0281667 0.0145586
internal_weight=0 19.128 12.5567 13.8266
internal_count=2109 1514 1366 595
is_linear=0
shrinkage=0.0737982


Tree=76
num_leaves=6
num_cat=0
split_feature=11 23 30 27 16
split_gain=1.02693 2.22337 1.78101 2.7002 2.63211
threshold=106.89192459978263 3.7208000000000006 0.94816362052797942 1.0044798140688052 3.8935852500000006
decision_type=2 8 10 8 8
left_child=1 -1 4 -4 -3
right_child=-2 2 3 -5 -6
leaf_value=0.049585466016992569 -0.030152641972978685 -0.020235425741634255 -0.0655287460293872 0.0079173057741136615 0.050654991863683115
leaf_weight=5.0390661050914813 5.3126483789528711 5.6210097677540043 5.0526167865609724 5.9206598351011062 5.7913927893387163
leaf_count=204 248 160 906 282 309
internal_value=0 0.00529696 -0.00467248 -0.0259007 0.015739
internal_weight=0 27.4247 22.3857 10.9733 11.4124
internal_count=2109 1861 1657 1188 469
is_linear=0
shrinkage=0.0737982


Tree=77
num_leaves=5
num_cat=0
split_feature=30 49 28 8
split_gain=0.972455 1.22393 1.41728 1.53899
threshold=0.96578544280641199 0.028322535990554346 1.0195966659877731 0.0039697599614458585
decision_type=8 2 8 2
left_child=1 2 3 -1
right_child=-2 -3 -4 -5
leaf_value=0.0039922854591496054 -0.026533008937471868 -0.019873769208431584 -0.0080970066761320032 0.059226613482356277
leaf_weight=5.2650498607545213 6.2863289157976388 7.3083439704496405 7.9359233520226544 5.7451577712781727
leaf_count=532 800 239 335 203
internal_value=0 0.00578127 0.0156775 0.0328137
internal_weight=0 26.2545 18.9461 11.0102
internal_count=2109 1309 1070 735
is_linear=0
shrinkage=0.0737982


Tree=78
num_leaves=5
num_cat=0
split_feature=51 17 22 20
split_gain=0.928907 1.76093 2.60832 1.72039
threshold=4.0957000000000008 4.0270000000000001 3.7969500000000003 3.7874500000000002
decision_type=2 2 8 2
left_child=1 2 3 -1
right_child=-2 -3 -4 -5
leaf_value=-0.007228446738643618 -0.027695300968866601 0.041005391897636065 -0.046456597799594469 0.044670969175304227
leaf_weight=9.6267425855621749 5.6279986636945969 5.8701556024607262 5.8713979735039166 5.4465679295826694
leaf_count=515 594 162 727 111
internal_value=0 0.00528289 -0.00472903 0.0115248
internal_weight=0 26.8149 20.9447 15.0733
internal_count=2109 1515 1353 626
is_linear=0
shrinkage=0.0737982


Tree=79
num_leaves=5
num_cat=0
split_feature=3 18 49 3
split_gain=0.968467 2.63158 2.0632 2.93716
threshold=17.738742321799737 4.0074000000000014 0.030042890200117082 62.144739527413691
decision_type=2 2 2 2
left_child=-1 2 3 -2
right_child=1 -3 -4 -5
leaf_value=0.02399674584571258 -0.0051063557893213625 -0.052572341796761062 -0.029674253084612426 0.065922763430799489
leaf_weight=6.9359485760796806 8.4371318659395964 5.4447205839678636 6.2553623285493805 5.0794720071717157
leaf_count=224 718 571 176 420
internal_value=0 -0.0071419 0.00536854 0.021586
internal_weight=0 25.2167 19.772 13.5166
internal_count=2109 1885 1314 1138
is_linear=0
shrinkage=0.0737982


Tree=80
num_leaves=5
num_cat=0
split_feature=30 2 30 16
split_gain=0.896833 1.14997 1.3105 1.20263
threshold=0.96578544280641199 37.203131962569131 0.94661536352476283 3.8026877500000005
decision_type=8 2 10 10
left_child=1 -1 -3 -4
right_child=-2 2 3 -5
leaf_value=0.035425174744242074 -0.025896958934723855 -0.028379692592602722 0.028111200300931168 -0.017541272612452519
leaf_weight=5.5281387451686923 6.0924057797528794 7.0082633530255434 8.3835301920771581 5.0270706074661566
leaf_count=224 800 330 168 587
internal_value=0 0.00556645 -0.0025174 0.010998
internal_weight=0 25.947 20.4189 13.4106
internal_count=2109 1309 1085 755
is_linear=0
shrinkage=0.0737982


Tree=81
num_leaves=5
num_cat=0
split_feature=8 10 16 4
split_gain=0.903286 1.3945 1.37338 1.73249
threshold=0.0030513577977612357 -60.588455612587573 3.7019640000000003 74.076926489599131
decision_type=2 2 10 2
left_child=-1 -2 3 -3
right_child=1 2 -4 -5
leaf_value=-0.022376770192624122 0.03545289067503668 -0.020670216363512323 -0.032416973059226764 0.037135142262451168
leaf_weight=7.7192664221511249 6.6295539262937409 5.1730437674559671 6.1395437828614368 6.2177904965355992
leaf_count=1251 173 97 501 87
internal_value=0 0.00662179 -0.00428142 0.0108834
internal_weight=0 24.1599 17.5304 11.3908
internal_count=2109 858 685 184
is_linear=0
shrinkage=0.0737982


Tree=82
num_leaves=4
num_cat=0
split_feature=31 5 11
split_gain=0.846769 1.42534 2.5959
threshold=0.9252244717221042 65.91089199218942 -19.665396471302234
decision_type=8 10 2
left_child=-1 2 -2
right_child=1 -3 -4
leaf_value=0.017501656271993994 -0.028011781259594314 -0.042551270326304222 0.030329304045285641
leaf_weight=9.9039938910864311 8.0854491953214218 5.1261823777167583 8.5416800626553577
leaf_count=478 592 626 413
internal_value=0 -0.00852974 0.00195917
internal_weight=0 21.7533 16.6271
internal_count=2109 1631 1005
is_linear=0
shrinkage=0.0737982


Tree=83
num_leaves=5
num_cat=0
split_feature=30 2 0 16
split_gain=0.835138 1.05305 1.28763 1.53109
threshold=0.96578544280641199 37.203131962569131 0.025232142857142852 3.8026877500000005
decision_type=8 2 2 10
left_child=1 -1 3 -3
right_child=-2 2 -4 -5
leaf_value=0.033748211078564391 -0.025318572855358157 0.029899267248833516 -0.029975609674293004 -0.020808525772218492
leaf_weight=5.5836217345204266 5.9335231065924736 8.3720589880831557 6.3432987600681363 5.2934033684432498
leaf_count=224 800 164 293 628
internal_value=0 0.00541034 -0.00249759 0.0102573
internal_weight=0 25.5924 20.0088 13.6655
internal_count=2109 1309 1085 792
is_linear=0
shrinkage=0.0737982


Tree=84
num_leaves=5
num_cat=0
split_feature=27 3 30 9
split_gain=0.830157 1.78885 2.46757 2.44193
threshold=0.99532682564806541 17.738742321799737 0.94561156761398868 0.00078127104146776514
decision_type=10 2 10 2
left_child=-1 -2 -3 -4
right_child=1 2 3 -5
leaf_value=-0.023431028682142811 0.04344055496575519 -0.047341976042044695 0.041736302146104555 -0.019974895037349189
leaf_weight=6.6849464327970081 5.3977744741714586 5.3296994802658473 7.1687697706802265 6.8092199165839702
leaf_count=621 136 240 611 501
internal_value=0 0.00588325 -0.0046165 0.0116744
internal_weight=0 24.7055 19.3077 13.978
internal_count=2109 1488 1352 1112
is_linear=0
shrinkage=0.0737982


Tree=85
num_leaves=4
num_cat=0
split_feature=1 27 26
split_gain=0.922581 1.79009 1.39653
threshold=44.325921941660283 1.0042153069483812 3.5464000000000007
decision_type=2 10 10
left_child=1 -1 -3
right_child=-2 2 -4
leaf_value=-0.043210380246127292 0.020091035047986368 0.022186995235418134 -0.021107112195413849
leaf_weight=5.886076916853205 8.6802641088142973 9.7255043862387556 6.9628272239933713
leaf_count=1290 216 135 468
internal_value=0 -0.00821838 0.00412351
internal_weight=0 22.5744 16.6883
internal_count=2109 1893 603
is_linear=0
shrinkage=0.0737982


Tree=86
num_leaves=4
num_cat=0
split_feature=1 3 11
split_gain=0.806418 1.39122 1.95239
threshold=24.615614463988116 67.339021370824767 -19.665396471302234
decision_type=2 2 2
left_child=-1 2 -2
right_child=1 -3 -4
leaf_value=-0.02157909824110367 0.00043885430954157507 -0.016444028514727461 0.056905361829814441
leaf_weight=7.4153182505979229 9.4291868629516085 9.0325824882602301 5.1597064923844327
leaf_count=1061 477 376 195
internal_value=0 0.00631717 0.0204096
internal_weight=0 23.6215 14.5889
internal_count=2109 1048 672
is_linear=0
shrinkage=0.0737982


Tree=87
num_leaves=5
num_cat=0
split_feature=30 25 15 6
split_gain=0.803149 3.22096 2.10227 1.65043
threshold=0.94816362052797942 3.9028500000000004 3.9019630000000007 38.676391598711838
decision_type=8 10 10 10
left_child=2 3 -1 -2
right_child=1 -3 -4 -5
leaf_value=-0.018568243690275838 0.033491781084604925 -0.05434052079922036 0.046377084880496362 -0.017283121882898579
leaf_weight=5.1298199860029872 7.6145023003336991 6.0031482694321303 5.7650999601464719 6.4312340983306058
leaf_count=161 172 1177 307 292
internal_value=0 -0.00909491 0.0157979 0.0102431
internal_weight=0 20.0489 10.8949 14.0457
internal_count=2109 1641 468 464
is_linear=0
shrinkage=0.0737982


Tree=88
num_leaves=4
num_cat=0
split_feature=31 11 28
split_gain=0.758924 1.13087 1.60844
threshold=0.9252244717221042 -19.665396471302234 0.99655981984211617
decision_type=8 2 10
left_child=-1 -2 -3
right_child=1 2 -4
leaf_value=0.016620370479700577 -0.029659545369734155 0.028966914624338598 -0.023590107747482294
leaf_weight=9.8047643129830266 8.1935815102770029 7.083952841610877 5.7416852248716168
leaf_count=478 713 483 435
internal_value=0 -0.00824315 0.00543858
internal_weight=0 21.0192 12.8256
internal_count=2109 1631 918
is_linear=0
shrinkage=0.0737982


Tree=89
num_leaves=5
num_cat=0
split_feature=51 17 28 10
split_gain=0.744372 1.42362 2.28866 1.86922
threshold=4.0957000000000008 4.0270000000000001 0.995155849310288 -30.976083666525373
decision_type=2 2 10 2
left_child=1 2 -1 -4
right_child=-2 -3 3 -5
leaf_value=-0.037454730168485488 -0.025630060871003113 0.037598042848401569 0.040584946610923205 -0.016540224801770687
leaf_weight=7.2453903969435585 5.2476694829238104 5.6429267784114918 6.8614181648299564 5.7204349804087524
leaf_count=828 594 162 309 216
internal_value=0 0.00489364 -0.00441419 0.0146126
internal_weight=0 25.4702 19.8272 12.5819
internal_count=2109 1515 1353 525
is_linear=0
shrinkage=0.0737982


Tree=90
num_leaves=5
num_cat=0
split_feature=27 3 30 9
split_gain=0.786749 1.52083 2.30585 2.16824
threshold=0.99532682564806541 17.738742321799737 0.94561156761398868 0.00078127104146776514
decision_type=10 2 10 2
left_child=-1 -2 -3 -4
right_child=1 2 3 -5
leaf_value=-0.023303907019490335 0.040351462612859781 -0.045780709234342472 0.040717197823550003 -0.018562594266254836
leaf_weight=6.4035665600677047 5.3859526950982426 5.2224472960224402 6.9354379926517122 6.5189233963319566
leaf_count=621 136 240 611 501
internal_value=0 0.00580263 -0.00416045 0.0119949
internal_weight=0 24.0628 18.6768 13.4544
internal_count=2109 1488 1352 1112
is_linear=0
shrinkage=0.0737982


Tree=91
num_leaves=5
num_cat=0
split_feature=30 0 1 16
split_gain=0.759277 1.07555 1.12611 0.623067
threshold=0.96578544280641199 0.02584285714285714 30.901392344340767 3.7254730000000005
decision_type=8 2 2 10
left_child=1 2 -1 -4
right_child=-2 -3 3 -5
leaf_value=-0.0068040790305321187 -0.024655158617790839 -0.019059259167822099 0.049192903959145093 0.012676894631284456
leaf_weight=7.4290492564323456 5.6735035864985539 7.0554927349730852 5.1037199050188047 5.0756991933158133
leaf_count=585 800 354 65 305
internal_value=0 0.00528669 0.0150418 0.0309852
internal_weight=0 24.664 17.6085 10.1794
internal_count=2109 1309 955 370
is_linear=0
shrinkage=0.0737982


Tree=92
num_leaves=5
num_cat=0
split_feature=30 25 49 28
split_gain=0.714355 2.90605 1.71036 1.50636
threshold=0.94816362052797942 3.9028500000000004 0.014930137173229331 0.995155849310288
decision_type=8 10 2 10
left_child=2 3 -1 -2
right_child=1 -3 -4 -5
leaf_value=0.045453218937048082 -0.0090867865472145839 -0.053657353645025739 -0.01321241127612313 0.041637872226111539
leaf_weight=5.190800340787975 8.7285929013160075 5.5910987116803872 5.6551893838332035 5.0235189041122785
leaf_count=227 396 1177 241 68
internal_value=0 -0.00879636 0.0148645 0.00944246
internal_weight=0 19.3432 10.846 13.7521
internal_count=2109 1641 468 464
is_linear=0
shrinkage=0.0737982


Tree=93
num_leaves=4
num_cat=0
split_feature=1 27 26
split_gain=0.738922 1.45202 1.17685
threshold=44.325921941660283 1.0042153069483812 3.5464000000000007
decision_type=2 10 10
left_child=1 -1 -3
right_child=-2 2 -4
leaf_value=-0.040783003018790807 0.018046214338979853 0.020328249293367961 -0.020182580173005893
leaf_weight=5.3826771652966334 8.5525283634779026 9.4009520569816249 6.6808959482004857
leaf_count=1290 216 135 468
internal_value=0 -0.00760578 0.0034988
internal_weight=0 21.4645 16.0818
internal_count=2109 1893 603
is_linear=0
shrinkage=0.0737982


Tree=94
num_leaves=5
num_cat=0
split_feature=22 0 31 30
split_gain=0.753323 1.55483 1.5991 1.05943
threshold=3.9358000000000004 0.025232142857142852 0.9252244717221042 0.95919985550988629
decision_type=10 2 8 10
left_child=1 2 -1 -4
right_child=-2 -3 3 -5
leaf_value=0.039953103245234427 0.024303407025356109 -0.037639969738529816 -0.031202355114211253 0.011123918093616507
leaf_weight=5.1300102570676342 5.5264658515516194 6.2402923705813 6.069082710251676 6.8621475616528187
leaf_count=241 706 295 314 553
internal_value=0 -0.00588277 0.00508958 -0.0087413
internal_weight=0 24.3015 18.0612 12.9312
internal_count=2109 1403 1108 867
is_linear=0
shrinkage=0.0737982


Tree=95
num_leaves=5
num_cat=0
split_feature=1 27 34 0
split_gain=0.656818 1.30505 1.09695 0.914267
threshold=44.325921941660283 1.0042153069483812 3.9962666666666671 0.023128571428571488
decision_type=2 10 2 2
left_child=1 -1 3 -3
right_child=-2 2 -4 -5
leaf_value=-0.039348125810159527 0.016925224274920554 0.039084754935993206 -0.023020341584643816 -0.0048771928874182108
leaf_weight=5.2072194293432466 8.590216617099939 5.2493642636691202 5.6198067323421119 5.0596668660873547
leaf_count=1290 216 158 314 131
internal_value=0 -0.00727529 0.00320948 0.0175083
internal_weight=0 21.1361 15.9288 10.309
internal_count=2109 1893 603 289
is_linear=0
shrinkage=0.0737982


Tree=96
num_leaves=5
num_cat=0
split_feature=22 50 2 9
split_gain=0.720609 1.52597 2.15387 0.786625
threshold=3.9358000000000004 -0.013156136761574897 58.616603416812943 0.0023170312656636189
decision_type=10 2 2 2
left_child=1 -1 -3 -4
right_child=-2 2 3 -5
leaf_value=-0.034516654696695417 0.023750705293554889 0.040705097197893787 -0.034409417814787686 0.0056447959758981064
leaf_weight=7.1005847109190716 5.5273891514807465 6.2375321743893464 5.2066201759153028 5.4817411414987873
leaf_count=513 706 477 190 223
internal_value=0 -0.00580204 0.00624404 -0.0138668
internal_weight=0 24.0265 16.9259 10.6884
internal_count=2109 1403 890 413
is_linear=0
shrinkage=0.0737982


Tree=97
num_leaves=4
num_cat=0
split_feature=3 0 50
split_gain=0.677511 1.9299 1.23715
threshold=22.75590687264631 0.025232142857142852 0.0024087677529063272
decision_type=2 2 2
left_child=-1 2 -2
right_child=1 -3 -4
leaf_value=0.018234281091548392 -0.012692269578934162 -0.04553729981289624 0.028224024840495479
leaf_weight=7.8942950681084794 9.0029444229439886 5.3372072236088561 7.2780895042524199
leaf_count=305 1023 482 299
internal_value=0 -0.00702614 0.00559849
internal_weight=0 21.6182 16.281
internal_count=2109 1804 1322
is_linear=0
shrinkage=0.0737982


Tree=98
num_leaves=5
num_cat=0
split_feature=50 15 28 28
split_gain=0.682726 1.80345 2.08779 1.6383
threshold=0.0087947714103255876 3.6188010000000004 0.99188924313193982 1.0195966659877731
decision_type=2 10 10 8
left_child=1 -1 -3 -4
right_child=-2 2 3 -5
leaf_value=0.043333702499474616 -0.022021549103024014 -0.045548235257201621 0.032877388423903878 -0.0205686911524499
leaf_weight=5.3066008074674818 6.1979537389706811 5.1059655344288357 7.3836206503037802 5.413908126647585
leaf_count=194 224 732 625 334
internal_value=0 0.00554862 -0.00565088 0.0102674
internal_weight=0 23.2101 17.9035 12.7975
internal_count=2109 1885 1691 959
is_linear=0
shrinkage=0.0737982


Tree=99
num_leaves=5
num_cat=0
split_feature=30 12 9 3
split_gain=0.712502 0.920362 1.16406 0.879008
threshold=0.96578544280641199 51.282084376090275 -0.0038672819314458564 69.941938923412309
decision_type=8 10 2 2
left_child=1 2 -1 -3
right_child=-2 3 -4 -5
leaf_value=0.020640991299165145 -0.024090850541805164 0.043793457011116393 -0.024147434327119691 0.00057955319579881446
leaf_weight=5.0535667601507148 5.5404074077669057 5.0746279648155888 8.4360134581511428 5.180563594942214
leaf_count=120 800 348 498 343
internal_value=0 0.00529971 -0.00736846 0.0219633
internal_weight=0 23.7448 13.4896 10.2552
internal_count=2109 1309 618 691
is_linear=0
shrinkage=0.0737982


end of trees

feature_importances:
Min_100_Max_100_ratio=81
ADX=42
MA_50_200_ratio=38
Ultimate_Osc=36
MACD_Signal=33
MA_200=33
Min_200_Max_200_ratio=28
MACD_Hist=27
STOCH_%K=24
ATR=22
Min_100=20
RSI=17
MA_10_50_ratio=17
STOCHRSI_%K=15
STOCHRSI_%D=15
MA_50=15
Min_50=12
Max_100=12
STOCH_%D=11
Min_200=11
Max_200=10
Bear_Power=10
CCI=8
Min_21=8
ROC=7
High_14=7
Williams_%R=6
Max_10=6
Bull_Power=6
Min_50_Max_50_ratio=5
Low_14=5
Min_10=3
MACD=2
Max_21=2
Max_50=1
S1=1
R1=1
R2=1
S3=1
Fib_R1=1
Camarilla_R1=1

parameters:
[boosting: gbdt]
[objective: binary]
[metric: binary_logloss]
[tree_learner: serial]
[device_type: cpu]
[data_sample_strategy: bagging]
[data: ]
[valid: ]
[num_iterations: 100]
[learning_rate: 0.0737982]
[num_leaves: 35]
[num_threads: 8]
[seed: 0]
[deterministic: 0]
[force_col_wise: 0]
[force_row_wise: 0]
[histogram_pool_size: -1]
[max_depth: 7]
[min_data_in_leaf: 38]
[min_sum_hessian_in_leaf: 5]
[bagging_fraction: 1]
[pos_bagging_fraction: 1]
[neg_bagging_fraction: 1]
[bagging_freq: 0]
[bagging_seed: 3]
[feature_fraction: 1]
[feature_fraction_bynode: 1]
[feature_fraction_seed: 2]
[extra_trees: 0]
[extra_seed: 6]
[early_stopping_round: 0]
[early_stopping_min_delta: 0]
[first_metric_only: 0]
[max_delta_step: 0]
[lambda_l1: 0]
[lambda_l2: 0]
[linear_lambda: 0]
[min_gain_to_split: 0]
[drop_rate: 0.1]
[max_drop: 50]
[skip_drop: 0.5]
[xgboost_dart_mode: 0]
[uniform_drop: 0]
[drop_seed: 4]
[top_rate: 0.2]
[other_rate: 0.1]
[min_data_per_group: 100]
[max_cat_threshold: 32]
[cat_l2: 10]
[cat_smooth: 10]
[max_cat_to_onehot: 4]
[top_k: 20]
[monotone_constraints: ]
[monotone_constraints_method: basic]
[monotone_penalty: 0]
[feature_contri: ]
[forcedsplits_filename: ]
[refit_decay_rate: 0.9]
[cegb_tradeoff: 1]
[cegb_penalty_split: 0]
[cegb_penalty_feature_lazy: ]
[cegb_penalty_feature_coupled: ]
[path_smooth: 0]
[interaction_constraints: ]
[verbosity: 1]
[saved_feature_importance_type: 0]
[use_quantized_grad: 0]
[num_grad_quant_bins: 4]
[quant_train_renew_leaf: 0]
[stochastic_rounding: 1]
[linear_tree: 0]
[max_bin: 255]
[max_bin_by_feature: ]
[min_data_in_bin: 3]
[bin_construct_sample_cnt: 200000]
[data_random_seed: 1]
[is_enable_sparse: 1]
[enable_bundle: 1]
[use_missing: 1]
[zero_as_missing: 0]
[feature_pre_filter: 1]
[pre_partition: 0]
[two_round: 0]
[header: 0]
[label_column: ]
[weight_column: ]
[group_column: ]
[ignore_column: ]
[categorical_feature: ]
[forcedbins_filename: ]
[precise_float_parser: 0]
[parser_config_file: ]
[objective_seed: 5]
[num_class: 1]
[is_unbalance: 0]
[scale_pos_weight: 1]
[sigmoid: 1]
[boost_from_average: 1]
[reg_sqrt: 0]
[alpha: 0.9]
[fair_c: 1]
[poisson_max_delta_step: 0.7]
[tweedie_variance_power: 1.5]
[lambdarank_truncation_level: 30]
[lambdarank_norm: 1]
[label_gain: ]
[lambdarank_position_bias_regularization: 0]
[eval_at: ]
[multi_error_top_k: 1]
[auc_mu_weights: ]
[num_machines: 1]
[local_listen_port: 12400]
[time_out: 120]
[machine_list_filename: ]
[machines: ]
[gpu_platform_id: -1]
[gpu_device_id: -1]
[gpu_use_dp: 0]
[num_gpu: 1]

end of parameters

pandas_categorical:[]
